3
128
-0.004607228719656643 0.0074481932554020455 0.005525296090736815 -0.0019768237295346223 -0.003279881652337278 0.02001052242160428 -0.0019608037473813856 -0.0038149268115105217 0.007739167415529089 -0.025683362514671553 0.0236730903224621 2.3074477605585558E-4 0.0032555616656092007 0.025909521765429048 0.008077779378366396 0.011758864192072171 0.0016029659788953754 -0.0024652056222258783 0.005043624491995892 0.013823315220974325 -0.010305153862818462 -0.028660586933876516 -0.003005746862209925 -0.0055159854976075335 0.003720131685839958 4.297170462524822E-4 0.028699339876644546 0.006604024763628388 -0.0017964877429790728 0.0013894558318190977 -0.006056947879732984 5.529516713889515E-4 -0.0030519871412561534 -0.03265184847048159 -0.02490475926547693 -6.332434251062721E-4 -0.010088630818522317 -0.0017071267149901417 0.004385821855215266 0.007276635378572698 -0.017827829113868942 0.0070517822943977175 -0.002368550627647284 0.013050114998783748 -0.021660171881120686 -0.008247763241686109 0.012944221120845579 -0.003449764738683481 -0.0035165483362106604 -0.010545378087374041 -0.011017229017570683 -0.0021492572695063963 0.013719404171277207 -0.005999295241402379 -0.014389406770801664 -0.018496819791405713 -0.013692766420387272 4.479841790248193E-4 -0.015612921377136393 0.012696332511944387 -0.012856910884519774 0.016490066185439568 -0.00429430515704046 -0.0011351197513864517 -0.0022548276140195176 -0.008125001140581387 -0.01747142946785693 -0.012853618027984058 -0.010313494934309319 0.007520863400012003 -0.004091291966237921 -0.002432924764289703 -0.0010665641627808484 0.0015218040657562193 0.012145020449939039 -0.007333510294036343 -0.008966856500086452 -0.0015396243043857847 0.0024518309762784005 -0.007346518238931265 7.332174035767416E-4 -0.008661486546002668 -0.01828914047809565 0.003781968861957221 -0.012500279466447044 -0.11918305325282554
0.12227934812093773
-0.02752992489816745 0.0231119932344564 -0.0054031873261796495 -0.029750526227931156 0.010365011874370281 0.014683893118121084 0.008230960085888105 -0.012219819246444863 0.023601383976546243 -0.02857890688274647 0.016168607750208067 -0.00450555099760942 0.0025507639877238495 -0.0014736334154971927 0.007302898977170397 0.009191021973448793 0.008927425597054154 0.024689295423534884 -0.0012941805268536987 0.0018986921258319959 -0.01342096749524529 -0.02180707114629742 -0.030862546723395813 -0.006554212184162548 0.006515408657373243 -0.004975182004771105 0.00790771889739914 -0.010967991897178474 0.009415836592545948 0.0026087324359345657 -0.006641617849327167 0.0059938134932658585 0.001904163146534595 -0.02078379722355876 0.014856850944077446 0.01633335217135487 0.008089035079368572 -0.019743490304320765 -0.0022458213879375005 0.019750916738303616 -0.01067250410470906 0.02444301932102416 -0.009033123053913706 -0.02259985847987331 -0.013727599032450114 -0.008675171353251326 0.02519302351570192 0.0032091570560297063 -0.0015170640361303147 0.005032580144245793 -0.012609377721181212 -0.018086491661951757 -0.002323768785365037 0.0025852997261588567 -0.016124160320582198 -0.0068582298252531605 -0.02345215918321409 -0.010931138323218601 -0.01757712964038006 0.002920135716932167 -0.007693140092621839 0.005146882575408999 0.006041973867757534 0.005869032063748836 0.004416139423524992 -0.011747331061880107 -0.022140809897751457 -0.023953843142306856 0.010832129665708734 -0.00955051711935204 -0.005745367046719196 0.009291443758070936 0.027492115134583335 -0.023062823659663032 0.004781728597189223 -0.022952005904663415 -0.0047278328482115925 -0.02433235358815912 0.016496966333708937 -0.015654220947273 0.0094470811020979 0.010807707317374416 -0.014431742243108617 0.008342661382578056 -0.029108513455015795 -0.0833252609433962
0.110757668707523
-0.007580165139565864 -0.009786537468945089 0.004896457165965314 0.007850960151990627 -0.016550973216511757 -0.007052235331824285 -0.017039712672459073 0.005322749422560538 9.416797209044162E-4 -0.009307944646091701 0.010622384363633686 6.550911944526198E-4 0.0047267129871285795 0.015717248799312876 0.0074551722325504515 0.025454085347504176 -6.118973512458319E-4 -0.006595216258345868 4.482265169487013E-4 6.980434593914871E-4 0.012216597793025452 0.010923951262277631 0.005143983763140023 -0.0017194156309819502 -0.002092080010001438 0.011451098330773408 -0.0020593438026385467 -0.001879970538200358 0.02393116407832168 -0.00720526481294348 -0.0018930921321819786 -0.01263250165197301 -0.011438406977685233 -0.002978376569578352 0.003386758331563323 -0.0027015037008449013 0.014140131682122054 -0.011670833258356009 0.014003018471461903 0.009409952561449305 -0.013545918264442857 -0.001931946780874322 -1.6283939146369153E-4 -0.014960689200246362 0.0042071686487720646 -0.009963421622143257 0.006576181919538622 -0.006326025896424656 0.009423991683653328 3.421730989787837E-4 0.0018319540641802937 -8.83934338974159E-4 0.009503598524336703 -0.01851695671209968 -0.02102955195874851 -0.006870307398429855 0.008457530726893423 -4.569191483965448E-4 -0.005126052460062446 -0.010696886661708817 -0.0018804746161761223 0.005540092469117992 0.005855590229316083 0.006511395821038129 0.001694575551109141 -0.0209114293408362 -0.005824086765522683 3.9277021406634947E-4 9.332293968657473E-4 -0.006587563308195722 0.011868860172084111 0.015349375204004423 0.020240829411282708 -0.0017807618410716158 -0.004603316262561531 0.00445880194758186 -0.002781374609149611 0.0076797973257205655 0.004620893508008028 -0.006115784153111437 -0.027365707188857634 0.010696441724243048 -0.01654898850939313 0.005205558552935639 0.0018032612345856782 -0.13323637204611388
0.14417702531030463
-0.02563553501938882 -0.02266757173115787 -0.005659639058357906 -0.0363980608493854 -0.006237855822629366 0.009028979330756415 -0.01610806109727246 -0.011654607640666824 -0.016119638085215427 -0.01752372876823906 9.80054518064999E-4 -0.026976746713389288 -0.013052070278202028 -0.023978694605001256 0.0022404366692607685 -0.0025849020789434716 -0.03252974342904684 -0.018914169489472728 -0.018244068567532704 0.005979204445146541 -0.02392462185317138 -0.03717886436938484 -0.04803228425107686 -0.01792537019258754 -0.025366235136920243 -0.016255293603624144 -0.02502041236415372 -0.026099185748919822 -0.018772144610489407 -0.012132237849727862 -0.016130385629260308 -0.023335733815385774 -0.01773251559141112 -0.03924830181991828 -0.006841042851046816 -0.013662748679882422 -0.007112103940676068 -0.01320042420377245 -0.03762482611092672 -0.02026740468049728 -0.006231657835078707 -0.025062975692553575 -0.012335688280289404 0.002732830245690016 -0.018827979430569568 -0.003720338517567398 -0.0031587813823601113 -0.03438563178492528 -0.007102273615426834 -0.020546572346126044 -0.007777480550386829 -0.008271004990175856 -3.612138767357729E-4 0.005193105567627059 -0.03765178260648145 -0.020293654451227078 0.0031198083287386417 -0.015354648073411295 -0.024857065967519337 -0.02558690989039512 4.92794056891356E-4 -0.013464732658424012 -0.012161541067316673 -0.008717377074043247 -0.0137373143060972 -0.015719527106973046 -0.0029127238457425375 -0.02368740180953877 0.005585383590173195 -0.005401655542849517 -0.03183527171237339 -0.02176677970542087 -0.011264692191469815 -0.012881771361935614 -0.02894004974189837 -0.0034059304334673655 -0.010357366792086705 -0.007909548851875343 -0.028482754297470676 -0.017755951657580257 0.0018811053014320038 -0.034040825881389805 -0.01127043654167962 -0.007580691982187845 -0.018816124681279838 -0.011912027489040713
0.1951074161316953
-0.012268316344534931 -0.010407596732773566 -0.0013002746917995366 -0.01668240719301343 2.4359335308782727E-4 -8.902983340429006E-4 -0.007984260652822511 0.0058015175652028385 -0.0013898869008202328 -0.00996140335960031 -0.00758313097049061 -0.0010733137904031134 0.005789358128618595 0.005629268545706133 0.001969613654633618 0.003568199443966401 -0.003275708344498677 -0.01687334494241198 0.004214359067218376 0.0027647885424492416 0.007864822268490362 0.0020985717418339363 -0.0076131776593475475 -0.0051275994524793925 -0.006646262809813539 0.0028398223793435176 2.2617003483480728E-4 -0.015344354946251628 -0.00549614143982728 -0.005375981622563735 -0.0036827021110245684 0.009150851285675714 2.3016539840001697E-4 0.004905203850296049 -0.007152147324510812 0.011488076930183609 -0.008670130342056761 0.003124140917895323 0.005713373601044892 0.003929988562048456 -0.005170386603758508 0.0022422253085956196 0.005806799354075379 -0.0036502232463121367 -0.001246188227007612 -0.003141811213818739 -0.0026192045702035623 -0.00800045292954346 8.335567433163465E-4 6.58191470145186E-4 -1.287422168388385E-4 -0.0021504690308362185 0.0165552278438496 -6.711500915147501E-4 -0.018178406529347015 -0.0029878053264018674 -0.005548224837077411 -0.0029765021307385678 -0.006222380068268025 -0.0011056500740972718 -0.007430397393118189 -0.008574409078090688 -0.0011592680914802858 -8.757161150356706E-4 0.006115023082970775 0.003093807170174867 -0.005324739571525787 -0.008166174470524309 0.009588359488779473 -0.007436394373212042 0.021182733298163323 0.00871980207525796 0.00560380879087407 0.006000379230296131 -0.01163440575503244 0.006897742751728485 0.0038392168922275977 0.006453082360643069 0.008673796675464415 -0.011160455284342294 -0.010803965637112105 -0.00464269500515789 -0.009943148538025796 0.007921827432740784 0.004164784937762912 -0.07805396239430842
0.084715047088239
0.007567196348789573 -0.0011426209876846864 0.00317367280623966 -0.005369210191038727 0.007010550573702054 -0.010913991324787441 -0.0012839793494485298 -0.0075813793902521015 0.005001939589371167 -0.009864546087682727 -0.010928080905214238 0.0019091277663745659 0.010680998389702274 0.007638490758519766 -0.005699900380227432 0.006510480068193567 -0.00748945748788715 0.001474511535598558 0.006067218097697727 -0.007719574245625518 0.00576775545630589 -0.01277682794333881 -0.011487959621324251 -0.006678284387048751 0.002802859220641121 -7.340296034562444E-4 -0.0026533286852045137 -0.0017208793016790962 -0.01253171726786355 -0.00569826598837484 0.0019947696371427483 0.003422497262433867 -0.006616522655257238 -8.328170095138385E-4 0.005373713741429301 0.007299163969185834 -0.001037625628296372 -0.009687929596076367 -0.004078847792770032 -0.0053843205461244015 0.012048808248498752 -0.008603572583872728 0.002331282753840775 -0.005487766145451503 -0.007902895571237302 0.008105382688021063 -0.003635418519067484 2.011284630542982E-4 -0.002365784545826719 0.002393129524989058 -0.0028933957131469868 -0.00881205490368972 4.2630312459973873E-4 0.004971238355121756 -0.013969583351798457 0.0013688556764355573 -0.005592635689087794 -0.0035595333922656004 -0.0033867239826960846 2.589501663360239E-4 -4.979039428861084E-4 -0.008455420239885492 0.013153574950429327 -0.009725295685959699 -0.004756556690123891 -0.009251956591529428 0.0011558091740601036 -0.00988401002105611 9.77303765343235E-4 0.0032882353827464283 0.013683490416648672 0.014833787499342374 0.005568000872261775 8.893916479049733E-4 -0.01061377999836618 0.0020899627281014133 0.002733052640369412 0.002591370973677255 0.0065720951994490745 0.002271290943000043 -0.0028785134904865347 -3.760338904780205E-4 -0.01138788738650343 -0.003933081991949564 0.0037259854551960187 -0.044683633561965926
0.052587604715759406
-0.012976883047009884 0.008000138341617745 0.00831387073222476 -0.0025471986074659413 0.0038291264578231322 0.0039114679944129704 0.0047357058390207875 -0.0030655932307504796 0.012654320910972844 -0.006275150205156648 0.0023147972526093366 0.010961770550163551 -0.010760053374388179 -3.271234935744223E-4 0.005256934220481145 -0.0037258580804460594 0.0023895987632199683 -0.01499847525221814 0.004626744097687754 0.0027818403399690605 -0.0013149135825785948 -0.01728865503768027 -0.013612764232642129 -0.011325448091636112 0.011887365281684326 -3.1143782636632066E-4 0.0027960721924510028 -0.007388135178267868 0.0016226833574166355 0.0036155870872695973 0.002317209247570589 -0.004627855453691293 3.7402423628370054E-4 -0.011022611674154878 -0.0015457568815910102 0.009935208678561961 0.002659038562939188 -0.004396441601958873 0.010258173251551426 0.007537043610787943 -0.007788672519934067 -0.005900981128449488 -0.007211319882903685 0.003943182082457699 -0.005500012883457416 -5.338628719682269E-4 -0.010239300574511794 -0.00899543457010865 -0.005469288692123995 -0.0021316203843855723 0.0037015389827114546 -0.0010579817656549923 -0.00429122873813435 0.0047900558106348315 -0.012514631021636705 0.004854399772617954 -0.004294150095881861 -0.001459086414517624 -0.008628484879865976 0.0014549704387671915 0.002789665508639989 -0.001029489623415464 5.449794956668607E-4 -0.013275187504890266 -0.0035002508893078694 0.00456430833322768 0.003260365192859268 -0.013672613415347855 0.00975039859927104 0.009091372167999457 0.003245892431891294 -0.0037538563186829185 0.0032454129935615608 -0.005580976704433749 0.0075494759743149065 0.005652034266683459 -0.01391896780887837 8.843861232470373E-4 0.005662715338064648 -0.011560327792092024 0.004681317534160836 -0.008721760627591266 -0.014848316912819858 -0.003359652207243411 0.0014770481467774744 -0.06642062885582306
0.09021080190599289
0.0015751104098217514 -6.398232828397803E-4 0.012578593810366577 -0.0031027396094984497 0.02046716828915436 -0.002501182589082442 -0.00860364386944048 -0.0036062747664405317 0.0050793482791267105 -0.009081008321270293 -0.008719872750606433 -0.008198530018299236 1.1938476978625334E-4 0.0027243417508132747 -0.010675040517225811 4.954040969173739E-4 0.004632101293132409 0.006798207650400533 0.0037698793757357228 0.009981453243744085 -0.0051382850694250744 -0.005300935123096949 0.0046218262207158405 -0.006712129995811098 -0.01809422860626264 -0.011006665210821876 0.02004071650224666 0.006390187007640433 -0.008028842900847223 0.0011863380074696465 0.003173266342697585 0.007101067280951505 0.005099708366326785 0.007410099482319598 -0.011151815950287264 -0.004305179530500343 -0.008661664723509216 0.011558807764860672 0.02121519499062473 -0.008181117429092362 0.0018122837062143715 0.007652509563201889 0.010949244081163701 0.006653589053762553 5.038306544040301E-4 -0.0023451048560049845 0.003242732604477155 -0.004970117428324152 -0.008469175114251555 0.021893665646252836 -0.002586106507980241 0.009315558701986703 -0.004892374476169481 0.012228084453344678 -0.011360838483244914 0.020900037821145304 5.768419077817182E-4 0.0019492506390380204 0.006624327058603508 0.02055465572662172 8.034367978294653E-4 0.00210712725849775 0.018969285960524607 -0.003024937253276337 -0.0029474244183088903 -0.01717472905913039 0.0015921665100706054 -0.005677331102423834 8.315618268931971E-4 -2.91462741473326E-4 0.015039424132860111 -0.0061992843247257005 -0.01185289554962418 -0.008468085381532216 9.12318197473955E-4 0.003997635673184794 -0.007717344185168497 0.008441457162093803 -0.001492419960105964 0.005604574646148141 -0.009376690106080296 0.003549557134131803 -2.2329669650746872E-4 0.002345207523861875 -0.01034936065751485 -0.1709356857878118
0.2321371988553289
-0.05597168112930325 -0.04374584250728302 -0.04368024789138606 -0.03476484711011807 -0.04198082555289712 -0.027272327171276124 -0.036043564864065826 -0.022435402714983305 -0.036496734548556245 -0.04277887820400314 -0.012957645222793248 -0.03706848743115172 -0.050038749107989666 -0.03682277755291843 -0.0251989350394967 -0.04231425050802512 -0.058478039223285594 -0.048717140048345785 -0.04913799903539342 -0.03480734290173583 -0.03804310790715261 -0.07220407407683 -0.024625109175753238 -0.03242940953706112 -0.05449415569363076 -0.05493827737456968 -0.029559013733179765 -0.054812873606177634 -0.01871385350412117 -0.03656556224839144 -0.07040813750409025 -0.05580907152895857 -0.06465921946209498 -0.03144307281280488 -0.03630125398809055 -0.05818519246200652 -0.05678601872492203 -0.03460206480798914 -0.033763733465762724 -0.02308541185510621 -0.04142404920973704 -0.055205236181066535 -0.05763745398806514 -0.04502235985176574 -0.023316277331583656 -0.0526945150340526 -0.017667862901716617 -0.052347292529657544 -0.05206156494674413 -0.038891746238137334 -0.035566180496092704 -0.027129267743328807 -0.05141782955038948 -0.06324486408106711 -0.058249645940949335 -0.03970151785766864 -0.039920283513379895 -0.05361249046951826 -0.06083016070460743 -0.05106940570071566 -0.012338211240483942 -0.030087468090834898 -0.035882913938370016 -0.059365986976158525 -0.04819451798846665 -0.0559125761527611 -0.020445400221132712 -0.037817470107590456 -0.04671244466355623 -0.020039364123643218 -0.04554853316104581 -0.022828299691887093 -0.047876844304390216 -0.05324495864401851 -0.033146926560169 -0.049732932310920304 -0.029702817213613043 -0.07670855055938262 -0.048919973111292904 -0.025566421852764153 -0.04661607284272719 -0.04672315260351506 -0.039312597583860805 -0.03544575402832023 -0.04633965616292437 0.04721398593850311
0.24753532532548117
-0.003949977436338791 -0.00551668323149523 0.008188949906704239 0.0027129903397900383 0.0065601048794928654 0.009295111761683685 7.834291543477067E-4 0.003964478808619536 0.0030995800683979624 3.916538264716089E-4 0.008432432540721603 -0.004499160511306354 -0.003084897356974068 0.0017462522333675612 0.007976727203519758 0.010740005496530609 5.998726875263873E-4 -0.010189704954218505 0.009859783392882866 0.0041693582184032865 -6.436200314792508E-4 -0.006401692142219142 -0.0040022186048432684 0.007120813398290301 0.005394936531633578 0.001481747032794806 -0.0036916994409761793 0.004303894389741208 0.0035062159833793897 0.00774099436959912 -0.02027500601850715 -0.0044482410321128995 -0.00834542188003032 -0.011513050065266843 -0.015482976820362489 0.008762306763130622 -0.0032555966920196507 -0.013132667411621116 0.0035185767334803353 0.010882398076294056 0.004181674397460058 7.965378128563034E-4 4.3415186478438524E-4 -0.00537261907941197 -0.0025488214924713065 -0.012093129822747508 7.700312931414075E-4 0.0022601067005994574 0.006813327466958806 1.9106673473569515E-4 0.004089667585524197 -0.0045084568728627 0.00275396122793447 0.003610499954399294 -0.021074412576155437 0.0048838448757128105 -0.0018921463275053242 -0.0026142033049214642 -0.007266963025995393 -0.0023062372483681533 -0.010001290162363598 0.006731097666962176 6.828189778326549E-4 -0.017000611570316054 0.002718918873807094 -0.0031570449781337167 -0.005770786965409747 -0.002104233661183776 -0.00412492957068286 -0.008510731914539252 0.005775234192434859 0.0070629679784740785 0.007862729383661315 -0.0010468188877219011 -0.006736006660786078 0.0026345834463708446 0.0064125414048287884 -0.008134114355103604 0.005130567524850115 -0.003689704883644601 0.0054951249773375205 -0.008796379568882557 -0.012364129337407338 0.0024612035479449723 0.004478656444491697 -0.07624638460697317
0.09581792465242218
-0.004452809023986858 -4.16966011211083E-4 0.01166035428822419 -0.013614891035902757 0.0059873854760875474 0.008263450494010777 -0.017464405819767135 0.019870342432461222 0.0030589225160135994 -0.008374876689997856 -0.02641764793790689 3.724453301909761E-4 0.028429820079685614 0.008977892546649505 -0.009238750310744314 0.019275715355105395 0.016251819146671367 -0.01681544392396905 -0.015318278456199744 -0.006074254644490762 -0.0012129225563148743 -0.001737283993813915 -0.01800774699768086 -0.007747974921962693 -0.00365079278313002 6.29767895279167E-4 0.009377515042610697 7.142466410307965E-4 -0.0025931110957295002 0.001571315375002128 -0.0034629911919527396 -0.003530203521536877 0.013138404476420402 0.017504115083904075 -0.010961910897891754 -0.008775924741089602 0.007157036942611945 0.018532821385910572 0.02321265667547245 -0.0052185497593221965 -0.01401741192547683 0.010311785831195594 0.00952590452085465 0.008776091079748874 0.0021024324100901576 -0.025700558882499613 -0.007642646078610052 0.01662247279073302 0.02410427899724378 0.01569330702279559 -0.01165105539163479 0.015770863751306062 -0.003408629687247701 0.0024248131752771292 0.004725290360471779 0.011147025194940678 0.018647743615965523 0.004314558090335895 0.004340495231923735 -0.004644866994594859 -0.007924419195045143 -3.4764868555310267E-4 0.008436075021876344 -0.005223017134694233 -0.005768992664036493 0.005180251759433116 0.016575023093832852 -0.0059814223394691075 -0.011813452191245957 0.0030870515981069524 0.0020330648876885076 0.014769426286145223 -0.0020216019008515006 0.009373243413767362 0.015797670646415914 0.02121049985977455 -0.010090702407661602 0.013590109061394958 0.0011172459236320708 0.004988855780121468 -0.0018635565010974575 0.014311002574404104 0.015898395150796083 -0.008833345237440905 -0.025754808575684043 -0.2395068384195052
0.3130435696334362
0.010008976440852838 0.001822370644845684 0.0058858958511847255 -0.009232653934183552 -0.001125353892233797 -8.419360436457998E-4 0.001775016779031851 -0.01651181371490853 0.02173807569848242 -0.01635324809381492 0.010390216262733693 -0.007084702165967129 0.004330176103537019 -0.0028150539544973927 0.00814437623432474 0.0010081930396438677 -4.989957608055826E-4 0.012793952120823989 0.009448630164781726 -8.674311211650019E-4 0.008748348511599715 -0.011521849906067746 0.0049952151539012675 6.378890795788111E-4 0.010775036814209339 -0.0045623734118242455 -0.0010196522393290399 -0.005327260283876291 -0.009745473388246847 0.005531744361575337 0.005671516050342703 0.0027537313533780717 0.005679169565351933 -0.011732416499521522 -5.617134968141824E-4 0.017572539873337782 -0.007790120813217481 -0.01449109462130741 0.0028795043780964406 -0.004472388946769387 -0.0184740926956494 -7.166606903732098E-4 8.778287062766651E-5 -0.012410483844481278 -0.018647756169326905 0.0058986494100970455 0.0044212385683330534 -0.006174602235619087 -0.007433899751985132 -0.010195745773827732 0.0011779487751475666 -0.010457347483454888 0.013133115236034486 -0.00781305997494468 -0.004977649022548167 -0.01016023704711227 -0.005862765718826909 -0.0034149787512317187 -0.0019262987878116969 0.007556236682285313 0.0068994106232473824 -0.006731188061106543 0.018724137392187073 -0.004384995108432217 0.005958893041198627 0.006970176468337794 -0.01108533832240715 -0.013368900389484628 0.0016821588512646185 0.004682982949772426 0.008900549423950629 -0.0166655391768346 0.006625843407105022 0.01574541436028638 -0.003628405441095609 -0.016083567203975704 -0.01067890325784414 0.006519575611377229 0.0017999213840167074 -0.005813570743623908 0.008373355434095618 -0.01336646880089383 -0.0055301325360780015 0.0039004207902096854 -5.364393171041972E-4 -0.11755394331754727
0.1329446372728743
-0.02428412402360512 -0.0067606515059359905 -0.008789770232204822 -0.004168783851952687 -0.01159172655730768 0.00629893461240476 8.290190081844101E-4 -0.023463218154963286 -0.017793299255396973 -0.012006447141144279 0.010042403902272574 -0.02545466414682879 -0.0337412402728648 -0.004987324383807646 0.009119483012844412 -0.009544358013560619 -0.01247178690497129 -0.0030770651007034724 -0.003664340005284942 -0.007956591807975793 -0.02971249868495997 -0.033869039841716304 0.006648226811810562 -0.00983069432733187 0.005083625905244783 -0.021001875512445055 -0.016630915742906264 -0.03079224301465055 8.229334480737564E-4 -0.006998531314885633 0.005303454554596865 -0.01806800865650954 -0.030702193912219483 -0.01585705737796621 -0.01355570548344336 -0.00904617085950526 -0.0038392666198720795 -0.0275755385598049 -0.030237292544297894 0.00931856547551478 0.008608405211254246 -0.020595541106869494 -0.011656564771829296 -0.013752001674966654 -0.004927620415902913 -0.02523119304286084 0.001289801643348086 -0.0060709031805796536 -0.027215817896758015 -0.013014746420947755 -0.009916798833695666 -0.002668322890266957 -0.0020784080395690905 -0.009390357790824236 -0.02301941038489922 -0.015979208747194405 0.0048340316233278285 -0.012198585419647329 -0.015997116749133258 -0.022138554001101655 0.010304339954834686 -0.012090419330709057 -0.015108888256506517 0.00714838082747071 -0.014599706408253019 -0.04300014803516176 -0.012717447084732342 0.0035034039356740647 -0.008702151399980483 -0.015113046469033753 -0.035544563607503014 -6.795186567639871E-4 -0.011726952852138331 -0.016927613503050117 -0.008048633281189474 -0.0016247913253870055 0.009111094917737548 -0.03217662661532518 -0.005314786987090589 0.010282326811523404 -0.02862632124441932 -0.03824626024034494 6.218451773648556E-5 -0.010750704662987644 -0.008491553673288016 -0.027163162320644876
0.19124134105230647
-1.6951394347772204E-4 -0.02417328525612731 -0.04222925345740942 0.004159603914326662 -0.03177807277305119 -0.03189871507475941 0.0013532881107964833 -0.050221115253261644 -0.02057652147243982 -0.06391468930725153 -0.024979693613669654 -0.034963833194858705 -0.04724451424309971 -0.021346423648252823 -0.03535679668321968 -0.0021268341045138574 -0.05490972454386479 0.004976927135237241 0.06972326756478886 -0.014565483158127474 -0.026448036405705665 0.006119331079134807 -0.04672245541727758 -0.03384095415555109 -0.049835075882289026 -0.019264888799961077 0.05232470684207938 -0.006339759650004705 0.00607635876808029 -0.004347258515583155 0.00481019358074298 0.05527154664812424 0.008922610212330023 -0.0238403698262731 -0.025910091831364186 0.010128855789904963 0.03426510646206434 -0.05761051249843251 0.009714862336246266 -0.04878404419547223 -0.022277111232812393 0.028854321624222735 0.03451918322793065 -0.005594608006555309 -0.05370353049685872 -0.03670974404469364 -0.03383976373599098 0.008604508444477356 0.020682748757956355 -0.006163063540221175 -0.06423683612496667 0.007937155363787758 -0.03361159901729844 0.039896361562049495 -0.01385751060604123 -0.03527735172599116 -0.05967047198714718 -0.055640501329180025 5.262954310173039E-4 -0.015352024150520038 -0.010536911062122048 -0.02294267604888954 -5.013514137365133E-4 0.028756668065279416 0.0063791775384194225 0.010386236289717275 -0.012346601751510726 -0.027864250229948696 -0.0038355869768604165 0.004830817096670983 -0.014574874047614114 -0.04859369366289934 -0.014830128890227544 -0.08029762306962467 0.04049941561222891 -0.038457441051300244 -0.08038051917219538 0.023932986798174738 -1.9206015327878937E-4 -0.019277631439987498 -0.001870008066920934 -0.0026323341915755302 -0.036546352235448804 0.02600970775038426 -0.028984699192743036 -0.12571232625917966
0.10133137735943198
-0.013425832793572998 0.00347418955527066 -0.014532204083185387 -0.005046162665429395 -0.014303129064563793 -0.0012147100462561887 0.007843043579571564 -0.01075226349642311 0.01303772739302055 -0.035988689408289726 0.0171248975085472 -0.016264730112466628 -0.017888693663228414 0.02059121718775327 0.019114869204785948 0.011058670679663806 -0.027893797582227122 -0.03894754770295823 0.01867025354883073 0.0031420723203276937 -0.02511765099714419 -0.011331281243250104 -0.025582091641968244 -0.004453437710034319 0.009724104112417021 0.001706059979781372 0.006626201798843859 -0.012684446093028625 -0.0057902606610166964 0.025266910773693606 0.01300552708726373 -4.5936377840029524E-4 0.0014278377047111236 -0.03074424024645598 0.00505988301793165 5.243586515917653E-4 -2.8050177522967516E-4 0.010486017595312001 0.005127967722991303 0.0031859735549881335 0.005783320054585136 0.019539803164590024 0.015802526742138168 0.013048455665428553 -0.012993186977264998 0.010272110514845405 0.015160926529947893 0.004864893953061149 -0.007219320440178818 0.0017194963124660646 -0.020838925241487796 0.023675805231846078 -2.844674648584292E-4 0.001308442519056337 -0.02476373685267664 0.0028939056672012057 0.015439419130991623 -0.011118709972360752 -0.005100793367765568 -0.015706414065385955 -0.01233775898008784 -0.0011319903121334682 -0.001655506942671631 -0.02597235837877701 -0.0011981771711571066 -0.008364754507155077 -0.01988511366095439 0.023549455246640778 3.1440556085309397E-4 0.007591596836295421 0.0030600556289235074 0.040812199332627634 0.005294905095883957 -0.02312561409456853 -0.0028424619452275895 0.001286980085325397 -0.007964786260421646 0.02757636024849591 -0.03654177681504898 0.013202203453653265 0.0015978899177506174 -0.008888144719595821 -0.01693517609348484 0.022116788795419447 0.002913168703712712 -0.1719631053668731
0.19533138168706432
-0.0119917377474009 -0.00850468749930764 -0.02171282683399075 -0.014713976987412941 -0.0072963986813043705 -0.012440231184085224 -0.024934546095695034 -0.009144517184057701 -0.018777949799617596 -0.01013376342088272 0.0017196505494915708 -0.0031960592757581366 -0.02643686038093724 -0.031412055780346775 0.007783292195563058 -0.01815613210411289 0.021563641201821845 -0.004558647490487823 -0.0316767810035607 -0.028000951279900415 0.009640815926413653 -3.118154726588124E-4 -0.022531730043029576 -0.022709663368372743 -0.014347954658263547 -0.024882368069509924 -0.019574566732910935 -0.03411826263984347 -0.024243004102894698 -0.040750898307823046 -0.009233218472195291 0.015619174545990318 -0.02211471867891646 -0.025628563381130082 -0.015054079222276293 -0.0015664171184550943 -0.02092741825239449 0.0037647840104172415 -0.014064628007303044 -0.024199952663337194 -0.03266258977016473 -0.01528946140980285 -0.006622208716792635 -0.02817626804815335 -0.005823016892021894 -0.022438439398069485 -0.030367148617642212 -0.020199077115837544 -0.008712141530668172 0.003043645757624957 -0.0324619692746204 -0.04786640172159783 0.0013571499379836916 -0.0280350489606295 -0.016539367383765623 -0.023437737630028082 5.735190017965435E-4 -0.03571624135470964 -0.022276607201632555 -0.011103704409924932 -0.0025089006462090855 -0.02121435116865138 -0.02618505598837095 -0.02740485238487528 -0.020424029331214608 -0.03256144655104795 0.007210563502581556 -0.03231984592080855 0.004012859250656423 -0.04787963721776988 -0.017115374769315447 -0.03601889848568197 -0.021070511478513635 -0.016611771945143596 -0.04342806542518899 0.0034742523800471337 -0.020456194246930116 -0.0031205866334851813 -0.04513392022741953 0.014953631596443077 -0.02675122533190561 -0.03390063885140277 -0.010165472172096818 -0.009275382238766295 -0.013897802426676554 -0.009663217407319761
0.1650450188442404
-0.0032622500819397236 3.6065526879677654E-4 0.001726992941713289 0.005249320787017792 -0.007049614680926844 0.005786238579033671 -0.0012187836840155232 7.479266538977387E-4 -0.004554661569867074 0.00286934341466674 0.008015804579349115 -0.005537606875873361 9.217689322372613E-4 0.008759061241295774 0.0032422760033547944 0.007192541284588043 -0.0119574442996726 -0.009919050241600917 -2.793054750664421E-4 0.0050481637960729684 -4.0831436764724176E-4 -0.006246586096728881 5.536830832364913E-4 0.005354645635858717 0.004617852671410083 0.002016860222936233 0.0013806130192407264 0.001102497645962718 0.008229774791085031 2.878492069921052E-4 -0.012030503864133608 -0.011395149771477158 0.001394132979019331 -0.013206604354416954 -0.00922806276017166 0.0031531599482911817 0.0021452600375227024 -0.013822480220478548 4.125782222797356E-4 0.01192800183555401 0.0037088277932337908 0.003936289928198997 -0.0028799816287233887 -0.0029997130387338974 0.003197960942011853 -0.00617752031204745 -0.0014557680245926156 -0.0014411255486961724 -0.007447477794611793 0.0015330140989537997 -0.005024587014558853 0.009041434366135059 0.00668493672716202 0.003951342114657895 -0.01676757902109289 0.0017314235472610004 -8.008553924248632E-4 -0.004751968427470048 -0.010818341351806027 0.0025207579388405966 -0.0023881514082541035 0.012462623052415524 -1.8015306299902856E-4 -0.0116800581584566 -0.005327757915314226 -0.0017470618443410266 -0.003061363576860953 7.079194963914075E-4 0.002348159622139041 0.0020120717317290223 0.0012308191282434777 9.442264857821832E-4 0.012667506840036489 0.007623668509646321 -0.010778532574667637 -0.001326026505785388 -0.0017820577555901311 -0.002972067436055501 0.0018953632547728091 -0.008617936740458427 9.104896764056125E-4 -0.004601298868135018 -0.011740636976020015 -9.647508524456468E-4 0.003936077657915547 -0.07497263095415702
0.09460342360334745
-0.0059859107096708886 -0.010752941807064573 -0.012428719405728683 -0.01196398155344563 -0.005646807069808026 -0.005567711625862392 0.006399922649023807 -0.016490260537859867 2.3996527832273568E-5 -0.027315496757096644 0.015020910201901433 -0.0021990876008941345 -0.0036769370909251245 -0.0010348013742609754 -0.0024050469078242464 -0.0012265689902981852 0.0029918044159179683 -0.015868626028178352 0.0026365590379395848 0.013545206908814974 -0.0019274164000014356 -0.021638374134624116 -0.004510087342593209 -8.9227970407976E-4 0.007981720005956799 0.007013697382720545 0.014816730441877007 -0.01574199469172759 0.011226942480806534 0.008567001940195284 -0.01646464895971749 0.007725167783571564 1.0461334940531155E-4 -0.015021043984759681 -0.00434203250105861 -5.3413741097887334E-5 0.007735706825671775 3.73600789055144E-4 -0.004676076697937277 -0.010003500160755588 0.007522894814121912 0.007632522489660462 -0.009710310257653872 -0.01596664180506401 -0.012951128142484005 7.711067049729838E-4 0.023944398756769528 0.006006856352441792 0.013572095604535846 -0.009930408024774497 0.008318979616413659 0.008944858892733354 0.0010196452199776069 0.01368626317050243 -0.012906952669028358 -0.002380095959604404 0.001826206854060119 -0.013937850320177018 0.0011864582970911764 -0.007601585418190527 -0.0181579025483982 -0.0012148523187874623 0.012307097773849413 0.006122309313241637 -0.007879292141048967 -0.017863708790716713 -4.8181182968612087E-4 -0.014630544610736242 -0.0034945661683126726 -7.265431607236008E-4 0.012022371817796002 -0.003211343602560983 0.009627391755259024 -0.015847371034591592 0.005752148796800824 -0.008564830805171468 -0.00362756009051042 0.0011623043516761123 0.011478193259276343 -0.0067561906494597885 0.011669746877721467 -0.012457532362381545 -0.021933733278330432 0.02344704965994993 -0.016991308275196182 -0.10368087447753836
0.13021661229712883
-0.015758063950589023 0.00192334725375744 0.010066298896367235 0.020781182489252693 0.01622386528821687 -0.007292177819410307 0.0037726906493172467 -0.006444570925857316 -0.0021170650544910397 0.01176928232149765 -0.010164181689582845 0.009731466863635964 0.011761306336064436 0.011964934073790795 6.92051440575615E-4 0.01753745507593241 -0.023100791972225847 -0.024574178785533817 0.01576100078468751 -0.0037282998119040336 0.008798087746590744 -0.001555523675221083 0.004573261683103445 0.006118049331885843 -0.012840499293894945 -7.599401758950322E-5 0.01498576527058339 -0.010808739010047069 -0.012970379069372812 0.011065439974030913 -6.926341641348928E-4 0.0186033331508138 0.010887762936070371 0.030479305877934203 -0.010827535831870995 0.0022393736190015425 -0.0021862531915263234 -0.008982540113676324 0.012389477698317466 -0.012053590437299862 -9.296997387909113E-4 0.008196373846697911 0.02332674098619473 0.007891170293002804 0.009416180136641262 -0.007474855168136687 -0.004910884147577749 0.019551208864815078 -4.7844618699542424E-4 0.006010536236420871 -0.001315058482405435 0.020624908430541402 -0.004592027976492721 0.01868919429150347 0.014146672971473786 0.015371848858648928 0.006204621122670123 9.959055433731777E-4 0.006028164747417863 0.0022902721195253353 0.0018136692389014077 0.012135528287512963 0.0024428610520021788 -0.0024360763058300853 0.009753323258159296 0.007160541866931269 0.01660682849471616 0.0033390852134435314 -0.02015094443260169 -0.004237055736792812 0.0075466042478866315 0.023331071547486145 0.010063196876805174 -6.065963437703653E-5 0.009965040288584743 0.023907518051243193 -0.014761922333636485 0.0041704135188954244 0.0036908979982052505 -0.012952693176763525 0.01910912036632119 0.019027247472178266 -0.0024825108653732868 0.006378208622634491 -0.022626522828007454 -0.1730457313100706
0.2397467552643376
-0.012408766243763747 0.004885859128784595 0.012245380294587192 -1.869380702055928E-4 -2.135080310832668E-5 -0.008674101856557054 0.011028699241058149 -0.003418640026787515 0.012542286203216955 -0.009973270305712975 0.009538443252456586 0.01531874990959621 0.011184517562029261 0.003268565575624801 0.012367716643113515 0.005781330896273524 -0.009901861969373137 0.0031833636253637307 0.02217152682873029 0.009589800709846077 0.006469724274611084 -0.014255150738204927 0.006427595778915842 9.007741712159684E-4 -0.0032365864469161318 -0.0011165492780021765 0.012573683797608001 -0.003057702625925114 -0.007942756011699846 0.0017788889578285946 -0.01299984754945055 0.003770035069037738 -0.020880628926356264 -0.012296435733485904 -0.0048435876582081545 -1.5263452713426873E-4 -0.0031403403648285586 -0.013718440106451919 0.005753620926600948 0.004801673484574237 -0.002188731665251767 -0.0017910976921441644 -0.0045143269077206226 0.002556021839058526 -0.013216741101162041 -0.0026466067363761113 0.011487720791743886 -0.012848949678112788 -0.0031737253737151193 0.004075772261283457 -0.009323790429559407 0.007506463155807551 0.005821948093786236 -0.0053083972614708045 -0.007056523939171127 -0.010220012424671375 -0.012692091193813279 -0.003486287882221757 -0.01519655634107477 0.006822901197238376 0.004053777643185645 0.0025592435486660728 0.004383275529312295 0.012268497525176612 -0.010080228968996458 4.824060918496922E-4 -0.007548266726922577 -0.013507741385354884 -8.040200295697654E-4 -0.007649747053007891 0.00671647714461648 3.797666715629135E-4 0.0033564888091628846 -0.002559966897232246 0.00494557107824991 -0.01498404509318707 0.007333907879110423 -0.009978212227051185 0.01385241002897126 -0.01426111455578875 -0.003131506467396911 0.007859271318226573 -0.01476223383148743 -0.0026507791674490635 -0.004509674423811663 -0.11278008307529816
0.13417633701603177
-0.009034008264128058 -0.007279006770924594 0.005278333271009553 -0.03064439709852278 0.003153200275389746 0.02146924355349138 0.016554434245879556 -0.03593458661635243 0.016756660260605894 -0.043987340966037604 -0.003259921539648695 -0.01354143786157796 -0.012381955950084213 -0.0045683569782838 0.008455491570865144 0.03521011206730561 -0.007265470108149143 0.00784434244027874 0.019084206106986308 0.014793980817402253 -0.023768513234613212 -0.028662716957228482 -0.03804444454076214 -0.01154539094047003 -0.031940519223889165 0.008683901584152972 -6.762363896406868E-4 -0.041052860577230704 -0.014266533698818954 0.010552537731642232 -0.01301257826884266 0.017476692448399674 -0.00980870422980831 -0.036259283055442286 -0.004591361430906048 0.03008023906662291 0.0029423139333811616 0.0021030586110413825 -0.039193517033772364 -0.018918353950022393 -0.020028089053605442 0.028239647596940066 -0.01839644526766091 -0.013709692125900218 -0.019785312034295423 -0.0053893209349687955 0.02369397662842363 -0.009847286425647606 0.011687921053949231 0.013560357221456848 -0.0012724875005548485 0.00847927032867935 -0.0020642342000578083 0.03553426673016409 -9.129445153251847E-4 0.019281984796796568 -0.022634416925392288 -0.025457771620206845 -0.002920047859671717 0.024413601811364045 0.0064922593027203195 -0.014211955589393406 -0.008416058618123457 0.007458032039204385 0.02716559407278511 0.02457620711781874 0.002351738450208277 -0.032546372236752004 -0.0033050392972147633 0.006380612115459852 -0.012314333077649828 -0.05536573449789617 -0.001475120691453164 -0.00854458627077922 -0.014618376043823962 -0.032385393352031604 -0.012603436469530254 0.024894092999161687 0.0020668510659809305 -0.012112828366481506 0.005531214351329339 -0.023490950892597957 -0.044009331065391996 0.009241029045853734 -0.029714462271201763 -0.11854661096545131
0.13314768736642418
0.0020251408738164315 -0.006270261752642536 0.0028794340396658753 0.0012465366682689815 0.005749758951745739 -0.0034464642236969613 -0.003226667213630886 -0.0010275435828442192 0.004216610446658377 -0.02277914023945222 0.0016124414144693844 0.006290358956275064 -8.445918073573194E-4 0.006917405572884285 0.0198398465616191 0.00838064172913224 -0.004289354441616964 0.0033282908854075266 -0.008545359652969554 0.004865268394196132 9.94791800928159E-4 -0.0012437892080231138 -0.008500360608429498 -0.01560293717839675 8.925996877023529E-4 0.01760632994630735 0.0012026870952113182 -0.01581746093906506 -0.004133631008373171 0.006235791912239475 0.008281601643772025 -0.008783227007978551 -0.005822443320043694 9.496251615043749E-4 0.006564514797247883 0.00994254119246309 -0.010928652823596738 0.0034653909041778785 -0.011682814034345696 -0.0077977099845373665 -0.01920762150128327 0.010908636716736034 0.009191184977166615 0.013530120083630089 0.0047116767022010115 0.008064015850630666 0.003912121675574722 0.0015104253125343202 -0.004100319099379199 -0.006185305264434209 -0.009445814537140268 0.012919501060184429 -0.012419217594489718 0.015914388418895562 0.008269476915653011 0.014583946467752145 0.010150175872075656 0.017508721984455515 0.011314226425958886 0.004302235684463034 -0.004145009267631743 -0.0096960990955728 0.02261820297965954 0.002396698030609486 0.006537526486155668 -0.0020462404240366226 -0.008575278574981847 0.013975375047244047 0.016006636098807373 0.017431921686387797 -0.012055999019547617 0.02509134267175596 -0.006224373597628404 -0.007899926709633716 -0.006117330950557806 -5.256024054473428E-4 0.002568265614205009 0.009290931788565476 0.0055310017998504435 -0.010877745893067732 0.011237440787904479 -0.0015678214492598924 -0.006851619074992721 0.01154247035437209 0.012474554493981705 -0.2082228204988827
0.25561171800957583
-0.03739716830337085 -0.038297983562903835 -0.03294741041436034 -0.030517183499075312 -0.02544922222823432 0.008097844188738273 -0.023049768944288025 -0.00584856137020093 -0.017046575954130894 -0.022430645157359427 0.020152002774484014 -0.008339436752647082 -0.06580124669896058 0.012299271815126368 0.0012705531325162209 0.014681120403883453 -0.009364844524780421 -0.006677239663624974 -0.020181020811763546 9.483423646790872E-4 -0.032706893647434745 -0.024081610038430984 -0.04247040899899573 -0.033621706814274954 -0.03147342696641612 -0.015370646809463283 -0.030780110228019623 -0.05511096042248746 -0.02612629295444702 -0.04695287097188166 -0.015419301810219787 -0.04762965324609382 0.002894447265258987 -0.015556886153830156 -0.0338147459484222 -0.021470340353700535 -0.004935596683088212 -0.02580316831001606 -0.013042939786360808 -0.0034474530808591935 -0.016198228388314664 -0.021112318628733136 -0.023643970822904873 -0.011670845309178012 -0.010468286483227982 0.010530250166423194 -0.02400909059349921 -0.0412121793095709 -0.023663376399945993 -0.030795173348218467 0.022627661827846708 -0.01584097953886619 -0.028888680616727468 0.0012037267435326571 -0.018055813260537037 -2.614610304406377E-4 0.01481889016856659 -0.04161861446830213 -0.031767176847620315 -0.03437035749487871 0.019800391692635876 -0.023721719243342047 0.012113646726518127 -0.050042909589871974 -0.005007054878951768 -0.02488095705682186 -0.02663762961226101 -0.010035680133956493 -0.005617939362454259 -0.014271346392793613 -0.029006123102371367 -0.017725087857606122 -0.05729812257428588 -0.03573400256018219 -0.02903345044414823 -0.040526327343234025 -0.024710822849236137 -0.028063346857370282 -0.019154594484454848 -0.011269624546865614 -0.02020430749680442 -0.07083342575483903 0.005311079757023011 0.0011256857582918345 -0.028520936785909456 -0.027686964742190037
0.239396061939761
-0.057716452721449193 -0.04600737099597077 -0.04222000149232656 -0.05212175877007084 -0.03162292415828296 -0.03870844961811285 -0.03862572050732584 -0.03130056054353148 -0.03049559824641191 -0.06116495575297312 -0.04539192355526898 -0.0468079775000257 -0.04484916050553027 -0.03441626772892646 -0.03580218281262826 -0.03140101938656022 -0.06435549356918324 -0.029354727606972032 -0.03352995488772709 -0.0408310348674046 -0.04950610980474524 -0.05884435647897618 -0.02969541305188704 -0.03764625553310855 -0.03494274864585314 -0.029728244217444025 -0.027976559814437574 -0.04343178321060625 -0.05285778381263553 -0.058029135370856105 -0.06021950619399435 -0.03200353691988459 -0.0447028627074799 -0.02727526427788 -0.025519720558640022 -0.044980682679444155 -0.037759161989429316 -0.051064056806896255 -0.032348940739361176 -0.05718134094921334 -0.06296426769921093 -0.05179834569700517 -0.02970588380563953 -0.054639860541931005 -0.043000295251824645 -0.04088068258245187 -0.026739228247978527 -0.037455131364350455 -0.053000091417397054 -0.05034686014387979 -0.05295376672836831 -0.04648718811391143 -0.06458385422587179 -0.0559369294553233 -0.053296800836859136 -0.06867274021204103 -0.045416906030944997 -0.04825816138957383 -0.046619421171275696 -0.025064353470822153 -0.040269576500917025 -0.04451643559890672 -0.05298652647719429 -0.0356402688974018 -0.033605079448689595 -0.03644688195999881 -0.016166119622185338 -0.04494723825929949 -0.04818928279232605 -0.01634560969146031 -0.02671880827894597 -0.013174384280880275 -0.054135060770064636 -0.08276091210634774 -0.042750411732631215 -0.05433801692845225 -0.05688832254906815 -0.07155568579906384 -0.04686132280659711 -0.010970733422674121 -0.03454443403488375 -0.07250530755647952 -0.05289073129124963 -0.039652344430585684 -0.03330264965184105 0.04966524778244418
0.27913953602662034
0.010814978168373594 -0.02193657177390556 -0.00396214566130662 -0.01662308544970569 0.02808609454748847 0.022066123566777396 7.957613559162436E-4 0.011232240933055677 -0.0014156791804828673 -6.908079591980848E-4 -0.005711562865318345 0.02034463397747952 0.012485405893580204 -0.00852158229982346 -0.00866882909932772 0.010316044168769982 0.03547535983381546 0.017209550126747686 -0.021535510120061392 -0.012857847397709305 -0.01501250901495128 0.03980562746152914 -0.008016876251739968 -0.021938900464304543 0.0040939150311758805 0.010100885970930324 -0.013871589128153266 -0.019669695809814237 0.0036235910929058343 -0.024869755458832396 -0.027963712056308595 0.03965732474381767 0.022058130512037432 0.002535486402842931 -0.012062765124178722 0.0024761355281198456 0.01891345901795285 -0.028653528650929776 0.01642856413068419 0.01756382585705642 -0.026012741988267085 0.010437593778636822 9.682024408305041E-4 0.006272792513003245 -0.007935445284349215 -0.007885122907887739 0.007958734180044554 0.011675288980977758 -0.014075220222128386 0.0314541560349267 0.005732100812290794 -0.009542641069522784 -0.01616043977096544 5.21834378956791E-4 -0.001372098727907511 -7.028094659471972E-5 0.011044151074971836 0.025535885879606167 -0.01792011570037761 -0.0213629972065477 0.011350380277117813 0.0032083454980463178 -0.01149567456184453 0.0042408242693619145 -0.011447246222536098 0.0050297490298344795 0.004340360040474817 -0.02608964422522189 -0.011379411771842656 0.00898289448642181 0.02068075299670693 0.022010933847353975 0.014413192340076018 -0.011457296042241376 -0.007295923520797877 0.025607029752121015 0.010585022248866795 -0.016512000134144 0.012830284263149484 -0.003125907472509606 -0.02359837902333901 0.005350582434506331 0.0047081249707350325 -2.545121075261508E-4 0.008472114554665379 -0.21021335444774836
0.25048547150594835
-0.0016071077344710762 -0.0025257406124520876 -0.009306406608378576 2.026494611439438E-4 -0.003871802449117036 -0.0051019833697341565 0.00702782048944312 0.006909712712976051 0.0018176788849987658 -0.0074120540032095944 0.016462721012939014 0.010976388330789417 0.013467260943120379 -0.0066608837098517835 1.691681576856601E-4 0.001962290041602991 -0.010911730576446186 0.003147190966545812 -4.668198068177526E-4 -0.0013558473865379233 0.00663771491636077 -0.004217394371244448 -0.009291037617320749 -0.0012414111250453625 -0.0012777636859842246 0.0024537512975862604 -6.22819712076191E-4 0.0034580431040566665 0.008387674657463774 0.011263839550349472 -0.005008888138660676 -0.010444574717006114 -0.015206731027928426 0.0028068479768982744 -0.018487247057268 0.005039265219064829 -0.0032071301777648457 0.0035663626704442934 0.004874155812470774 0.005580366519322761 0.009379342574165355 0.012554239401680127 0.00446406041592193 -0.0015641392566255567 0.0012344561336440152 0.00673770596076375 0.0041537877306483464 0.002422840121330198 -0.010262402625199217 0.003385790337144405 -0.008486226508195398 0.002929515078689188 -0.01113482927572998 0.005170431583099531 0.00987080820602413 -0.006998316272982861 -0.006707210066873307 -0.005076758395686158 0.0015228309735855587 0.006654246066294289 -0.004111091041072969 0.003530820440783009 -0.0028136870976547238 -0.008203111981572152 0.004932511109192472 -0.006239136343181947 -0.004135195553794647 -0.006436463083525528 -0.01436549715089414 -0.006775082886510204 -0.002282087215517146 -0.0012642348288817965 2.666284847188206E-4 0.008772312437854585 -0.010648971864069837 4.8684035694379954E-4 -0.002614112465464391 0.010289479842797815 0.01772742144984544 -0.006550204649481889 -0.0027733732560258225 0.007669149394054364 -0.011146944791996441 0.006257587842022804 0.007929789308748393 -0.10961747520971628
0.11064939389198415
0.0052810427387603035 0.0056331786638884815 -0.004323241146766943 0.0028453264237542487 7.518838920365486E-4 -6.544949751141444E-4 0.011758105089279236 -0.00558645444583402 -0.007027698607253264 -0.006108655062688961 -7.836569594340093E-4 0.0061832392792671425 2.670509071135174E-4 -0.00313933615560616 3.625885245428208E-4 -0.00454737825416431 0.0015507197883154482 0.0017585205263698856 -0.011394964893397343 0.0033665753786684557 -0.0057815562932095445 0.01687514990738675 0.006161781144073158 -0.016954116264129175 -7.2116320817011E-4 0.002920687765045395 0.012434566594414227 -0.019489214087058136 -0.005635220532348443 -0.0031729244483392153 0.0014245298652784558 0.004133350919948412 0.0011809474957287878 0.006365666026510032 -0.004557823953772932 -0.0010329355760346685 0.010127743948507134 -0.005745672629383168 -0.0031729045187375506 0.006567293485698778 0.005437663810252119 0.005631895645203352 0.01629158149240713 0.010687901958144027 0.008636917561005309 -0.007481866316353019 -0.005667560476890325 5.974073853292984E-4 0.004619739268212322 -0.0074382052185109435 0.004071183237131086 0.00940960456272966 0.003175060175651136 -0.0034061971362309013 0.009305336933261212 -0.005769062058036217 0.0010650992122239772 0.007869522691880461 0.0033047758004094447 0.004401311466975214 0.006230566730611419 -0.0072657990506029045 0.0018175070280463759 0.005580018584430002 0.0017740599974378653 0.0010220246763472838 0.009390983780645503 -0.004283678475597343 -0.01912280807210754 0.00641388852907548 -0.01390366748564738 -0.0026072745515094047 0.002089749722636461 -0.0011339054593370165 0.01874835748940757 0.016369586434487035 4.7864573186006147E-4 0.015589807518731071 5.354112177180048E-4 -0.005201576457260509 -1.0804476376241826E-4 -0.008489241576640438 -2.4510384588831224E-4 0.0050870414813935705 -0.00886365867511396 -0.1576057772512372
0.35079708098693035
0.004958256658577284 0.005348210335098519 0.009415147800988505 -0.006679490656335737 0.014605460718527316 0.0062495948762394385 -0.012005317077247234 0.01852131031922298 -0.014327286563475282 0.0026011581428247665 -0.012764337011261579 0.0033254583774999552 0.0029645777273499796 -0.005868504079665092 -0.011992919610892968 0.01300365108076478 0.0038578857571973193 0.01659052247878583 0.008425028909397723 0.018274229768287586 -0.0018301455012479247 0.02560518470281956 0.01958834703027368 -0.02071319908088171 -0.004991527423369969 0.009095280361671886 0.017481606314302657 -0.0033231762260154583 0.005005546540569808 -0.002494911989346579 6.630907843824441E-4 0.007536079178295302 -0.00342403447233866 0.020223334417495645 -0.006892320425090383 0.010982008152330339 -0.001320609646654221 0.01860938544001639 0.009213762771001593 -0.0023073688932833346 -0.018451878234631517 -0.005256691884003629 0.01700408553866659 0.020421082941995485 0.007269065186998221 0.004571250242594418 0.017152668958162347 -5.305619895711615E-4 -0.013147900236816605 0.02370930153189999 -0.01239241746490779 0.005872108326057133 -0.01606332288544181 0.0045985043019715005 0.009054767360528843 0.04847682077330273 -0.017967740214147918 -0.019086708449178504 0.0018997932028217224 -0.003011832165363417 0.013297060158087492 -0.009597684668475973 0.013678391630858638 -2.042404851955539E-4 0.013566150677864973 0.0010131832280296437 0.0157855829646565 -0.002613502525704046 0.006211376060300935 -0.005290690317311909 4.8587836550025563E-4 -0.018612882976237075 -0.019579282357361685 0.014890981073452776 0.010885715591091766 0.011077716238978307 -0.023988707786219712 0.002107535637375284 -0.0049226962820802765 -0.0016033073876295482 -0.002609074811331158 0.007668846300167173 0.007176006386579773 0.004716339132227248 -0.001752822504676296 -0.2997659874398493
0.41954361625577974
3.1400846250079423E-4 0.006320052015134412 -0.01969887885328272 -0.005573370259984709 -0.012951100475767346 0.001169606526309965 -0.004670376376476482 -0.029556190863015298 -0.005446890992791014 -0.011791431851105172 -0.011975609671369798 -0.005959583380693049 -0.018098368331902818 -0.016425272250960042 -0.024598045136612956 -0.013442900893225437 -0.007580545111597116 -0.01365307521580991 -0.01747665044210096 -0.02527471453022452 0.003129896538823608 -0.006131254067921474 -0.020630900808050294 -0.026558682161443508 0.0067641425368915615 -0.01906428874326124 0.014224662222145424 -0.01708690110958201 -0.02423409673140387 -0.01435766915927249 -0.014468945462570616 -0.004129764503450009 0.00887259248670045 0.0027767256200628477 -0.006974792631895707 -0.01215095581066225 -0.011207657333415302 -0.0142374260360618 -0.00674035794286607 -0.008267157279400583 -0.008218849422230463 -0.013083456842950002 -0.00519552051440825 -0.002714572061883711 -0.0149078618456534 -0.02788191877108473 -0.001750154733139867 0.005845685230379272 -0.001493293916119374 -2.422491364940197E-4 -0.018937662300834684 0.003446258406094056 -0.02935111803790931 -0.026032654952390693 -0.027471773813865445 -0.016707045870217537 -0.0068121014686783055 -0.011332330361225327 -0.01770164605626938 0.005579824183424502 -0.003208264357992877 -0.01743940691329593 -0.006794812615190804 -0.018664434301208694 -0.0012486856649168274 -0.02271158487691975 -0.009629825923759898 4.7212675919611495E-5 -0.040514415605663795 -7.636893042363183E-4 -0.013556863160888676 -0.014910017583410533 -0.009240957565231786 -0.009110452120587755 -0.014623856301774086 -0.011486470039438259 -0.019357746954052665 -0.02133079103297474 -0.00900957831972991 -0.0030599086472441637 -0.005696715477000615 -0.009279035490939346 -0.018594420329665722 -0.012851086258007207 -0.019526658202989454 -0.021079312474241663
0.19198280869801393
0.002173109263877524 0.0032672260266770822 0.02437162697074188 -0.022173554846975564 0.04075025991999085 -0.013017494247246058 -0.007772556929664993 0.023623799583888556 0.006761494124871448 -0.010728086507892289 -0.030302150168971698 0.03165260346818218 0.017617572739949232 0.010923321411177543 -0.009666202816210607 -0.015268067114265631 0.01622257139220711 0.00651851061940412 -0.016596370927129803 -0.0020945459849646096 -0.02853188479662641 0.03391301549816887 -6.203349870452662E-4 -0.015727536420143882 0.008809022045799995 0.00886867562629496 0.00544439818290229 -0.02464904363012883 -0.0011572652049165783 -0.016048867698841084 -0.04854686247066721 0.02239513155515603 0.001310284111686744 0.0017691172009865978 -0.0040229387650827 0.023287934771382707 0.020454440268170688 -0.02676129985542043 0.028945242309551637 -0.006321511862884946 -0.006460233649339091 0.01574639079459433 0.004270839028805904 0.011416648508205736 0.00787807609248661 -0.017806922282891435 0.01320605650635126 0.022238074956246003 -0.027722371479240945 0.0387597726704778 0.012743029290919151 0.010824503737041878 -0.029045919473925284 0.02574531554277963 0.011928081944031181 0.02805713932753407 7.687204655848323E-4 0.0258829691368466 -0.0038425517244904586 -0.03893198401078247 0.00800063820625798 0.014025860349752919 -0.007318852432828131 -0.009837778312763928 -0.011769350121941876 -0.0075617675650559765 -0.007431482830725195 -0.06550874973410385 -0.005704164055018305 0.016277556979023926 -2.600564566028579E-4 -0.0029766067320257873 -0.022079136193094852 0.011863266002934643 0.0033444520566271825 0.025831002067155683 -0.03016355656315804 0.0033354683557486582 0.022865894144059293 -0.010615183728726094 -0.04013737853265773 2.584502170712178E-4 -0.028553641194391237 -0.009092177559197903 0.003532713157963817 -0.21426820849630654
0.2866764581297288
0.011776469719932053 0.010582013042173337 0.0051002025916647604 0.00588804212340113 0.023453435931524075 0.008965937410233339 -0.010104588961465318 0.014068822448903595 -0.002080189203810166 -0.013557866244539127 -0.010514152591287155 0.03467078990692971 0.012002610953990517 -0.024531305982472086 -0.016422930573777108 -0.009498331309607463 0.01378200009242499 -0.0022103546387362677 -0.029264538874635777 -0.006374592139258233 -0.0096056140424855 0.027600749074460286 -0.015446512268241314 -0.006094799313375727 -0.007593493730294054 0.008450179610023058 0.0012061927010325899 -0.013700886979319423 -0.01493923472524918 -0.0011134316455058213 -0.019248058076683918 0.030237835109033988 0.009241967084039102 0.014134901614848332 0.005452389863422365 0.02773069789000215 0.02851155122934886 -5.972028854244447E-4 0.014140415519542388 -0.008917084634744785 -0.0078088990722949905 0.00465434843238033 0.009495127086472236 0.012012294061107992 0.010325997857067238 0.005935533137583355 -0.001603661924876464 0.022298393322910563 -0.01514413138072138 0.008041519230434608 0.006524039258882783 0.02207290542762644 -0.01329748998479192 0.03204853606116736 9.45735209229816E-4 0.012311197504738618 0.021750382536813488 0.024410843189213636 0.011490368259613916 -0.0045341182205971275 -0.03107644917322695 -0.02078575789002758 0.01140539673759744 0.005759973007329683 0.004347596713278219 0.004493176552666446 -0.006365969876324789 -0.020039424886511312 -3.067225915891669E-4 -0.009420972654078211 -2.1823148376810163E-4 0.005835353781240059 -0.0015261976819697556 0.02070803159403604 0.011165647138746635 0.01688228479682262 -0.00837807062838061 -0.008342735478354811 0.0032479476546818124 -0.0030787727703387325 -0.020442797449552595 0.011174154274866885 -0.009864281454430607 -0.003938779912595713 -0.006823469502797028 -0.21497450330944654
0.303948401770553
-0.005967093509314604 0.006678366731519016 0.00965367200387264 0.004933119124198746 0.01045881089029374 0.006438934020510317 9.83870152850945E-4 0.0018430190127090543 0.003970112897755221 0.02023628666950808 -0.005713178239006766 0.01966205371441742 0.014649235986646171 0.008987132356598426 0.010631910264066926 0.0060099301232608 -0.00411145726469986 0.00526302909628283 0.018906357526750295 0.007793750072475314 0.006854200398230421 7.417241560501778E-4 -0.0018683765312725083 0.003262898027544123 -0.006303636475451339 0.012943973522635327 0.004927944380579604 0.0025822563500083537 0.0031556693320909214 0.0044933519761692926 -0.016757106498557803 0.015435645847271386 -0.001744323357875838 0.019629308183750284 -0.00899268197203509 3.425040579572396E-4 0.009157755200111476 -0.004480411248525516 0.0031851941748624797 0.01319966453191826 0.004681804505952446 0.006169180893254641 0.022099036879197367 0.005574413436513602 0.013120363988029293 -0.006422975760833956 -0.012398944586902112 -0.00895463983860181 0.017215791205426795 0.010838930695032912 -0.004695535295411293 0.009361550736655573 -0.005561683540544363 0.028861531739847002 -0.003013106301773745 0.03210634844080657 -0.00753430635110212 -0.002968405952857315 -0.004131647359683458 0.009104159520648098 0.007002552381717129 0.004679133889086368 0.009251315558666475 -0.010654537096409136 0.01205438534001944 0.013691931325527703 0.012995175085955015 -0.010447898058618985 0.007915504537026998 -0.006134562234973689 0.006443171883117888 0.011165730120868373 0.016133295970634922 0.0031562805052852746 0.004849823033950824 0.027080453543050234 -0.008591790962263757 0.008969147724087707 -0.009002174760377398 0.004944077681978697 -0.007836513171664748 0.027276964212467142 -0.002666566116539754 0.005478495826926784 0.016332894300367343 -0.16443991495321006
0.21875822701529038
-0.011022844689404145 -0.009920013371326718 0.005259752620943157 0.0019229707534290945 -0.0026130831823761333 0.0040959592830736484 -0.004530619341177989 -1.6124139625344483E-4 -0.0022018591641654577 -0.01592867108821833 0.005947721990263217 0.012450230633422082 0.0019201423357270214 -0.0037623381231842736 0.009036647192374883 0.011026765884647724 0.0010236613943956142 -0.0019121342343357257 -0.0023824931443964985 0.01850910348638853 0.014015570289477572 0.009113480098837144 0.009724694117241943 -0.0014180717232785548 0.00880036681570052 0.006044588216628331 -0.010290918109784976 -0.010538989943549732 0.010322718646346108 -0.0038437533591267024 -0.01779007837316629 -0.011262879528220901 -0.002671993812348756 -0.023177308252250933 0.01067443344540949 0.011808309014407409 0.00426874156809573 -0.011745132123044413 -0.009463883888643363 -0.01610361403980829 -0.013782281907658742 0.008371283897020698 -0.006264714962139227 7.530173128154756E-4 -0.009193146407775443 -0.0048901010196449515 -0.005074560739063307 -0.005963379527981881 -0.008568704672345488 -9.172814362918464E-4 0.001317967452906227 -0.004347931203977997 0.021856421079457986 0.0013089254437033601 -0.01632275624342178 0.01640782096135365 -0.002641493505581073 -0.008995203288856137 0.012302054747912246 -2.6142497964278968E-5 -1.4190351573788624E-4 -0.005299584636132116 0.001036512948934597 0.017805402832686886 0.008847475843674983 -0.004764261362600577 0.003916100076419847 -0.010356537697633054 8.2741416400904E-5 -0.00903536940637645 0.019236492984711896 0.01607645931725433 0.01744453421962665 1.0940689767796777E-6 -0.0060617870364203675 0.010451918393049908 0.007841167057609316 0.008835222182168931 0.012906316616273976 -0.0169398276967222 -0.021270467889909547 0.0057647954636583214 -0.011179378278820826 -0.005714322960800305 -0.010039292754845355 -0.11729471620264023
0.15109859635557518
-0.030892812858797587 -0.01086301753476659 -0.02093688020686164 -0.018012515723062193 -0.025657527608186737 -0.014393088805601107 -0.01253454852767731 -0.012507418842523252 -0.02012514812860615 -0.014513077473460857 -0.004135448802011685 -0.020507202131042932 -0.0011343973300013018 0.004828081189964798 -0.017890425231631212 -0.007464738903944255 -0.02751540432804971 -0.031563588803112705 -0.007486238663173609 -0.007390213315637982 -0.010648153066243922 -0.01712158140560316 -0.026679357595199394 -0.004727824757133544 -0.005591414320468308 -0.021466526251009966 -0.011303856580867534 -0.01343734789362521 -0.027508572516439254 -0.00472273658032794 -0.01849880779280684 -0.0034048511397130245 -0.005993163030917708 -0.022534550700306577 -0.017790091859678347 -0.003188381643115869 -0.01422348285397298 -0.02054033241625555 -0.025861468646526962 -0.00982609593888187 0.005325550907140938 0.019903236620794643 -0.003793620237015759 -0.023529334242107576 -0.0033463331480306584 -0.0018469240209698266 -0.006977235049047874 0.005849279105554447 -0.014398744962704404 0.005662142383971326 -0.01977464551716915 -0.003211298597382839 -0.005146246243682585 -0.02074539194103464 -0.010488654059567304 -0.020218970047327436 0.012515861009790503 -0.004674316620575623 -0.009924703386418729 -0.01341420765486969 -0.008966067121104919 -0.023184130435082453 -0.0037555642503375123 -0.026777548526903793 -0.008721395629873263 -0.019108512095938356 -0.0021810114223768935 -0.018327142254936004 -0.0038166937570467394 -0.005229059655005644 -0.0037192390315927393 0.0053801069426500404 -0.010296969102513822 -0.005313812072397007 -0.0023953376273768267 0.009015128713712104 5.4155767963873476E-5 -0.006089653929179939 -0.010675366806896514 0.0041802385940123326 -0.015006522189372899 -0.010001998224333713 -0.003429917716092446 -0.019447118801755817 -0.016969316149519142 -0.024577885935668547
0.20298573731560238
0.0014455522318979042 -0.0031516161788049096 0.01516282557214966 0.011669553141840212 -0.014600725300580385 -0.01791332218919771 0.008960601721698042 -0.012593328464542693 0.011490859667243034 -0.07424958809856202 0.03198815245627724 0.007218487931064545 0.017690751531154257 0.0037977858438594148 -0.03700061221465528 0.03220650431636885 -0.01002921850336653 0.00908771511918228 0.009926410775844266 0.030885476203374562 0.018115095304161232 -0.01946895186540196 0.001626259460369859 -0.004499642441593032 -0.01336347165721709 -0.01163191648761031 0.026721536140460384 -0.0016022312821161748 -0.018100284297700144 -0.031694443425564094 -0.011949922890311741 0.012999816924886045 -0.02040352289974529 -0.029766162207729048 -0.009841833550901005 -0.0027178383465028527 -0.017432747569756286 -0.007759036310205534 -4.206588990463827E-4 -0.009163084793194182 -0.011209926871969877 -0.005517212872579861 0.00536933337133161 0.03143128558868996 -0.026842495759890995 -0.008189681420314439 0.006531432521063036 -0.02640423146560644 -0.015423554931562554 0.01009589332435863 -0.021467258679976082 0.04435021356914214 0.02741428839108524 -0.010936798754806172 0.01128076140647954 0.007166878483235209 -0.003273265572561682 -0.02128065557492441 -0.02613676629762115 0.016576985740352948 -0.020331953858330715 -0.005264988190369956 -0.0018556670054716037 0.0098224729183356 0.020751271184324457 0.018476862422763068 -0.013363812232588215 -0.025233360973060313 -9.345689943448082E-4 -0.005323840918643903 0.003982455085786896 -0.04133680668196389 0.00758045405465041 -0.01656051574219289 0.03150343075407296 -0.03868590592402234 -0.013611983975720936 0.023910082009237076 -0.013984667570333724 -0.030446117570005562 0.005124025906853973 -0.011700848167204889 0.001841857059348057 -0.01216785158482809 -0.0202244043683505 -0.14608398874986356
0.144041565563409
0.0017463710916169458 0.001857853114790121 -0.006170646829557865 -0.010366157810796887 0.0032584957534619054 0.005481654646954619 0.007225100003395279 -0.00828319504318221 0.0024604253114558082 -0.010136367503513925 0.012624722842893125 0.018162680166700307 0.010946182083202693 -0.00578777162820455 -0.003689017453877075 0.004327228392048591 -9.00249719851985E-5 0.005778135460766776 -0.003599877024327013 -3.235360501273325E-4 0.004552290761469933 -0.005115780534610908 0.006677009132026055 -0.007961348128961746 0.016808084302910697 -0.01188833352671139 -0.005211368297808876 -0.0013030674981575694 -0.0029408236930888124 0.012286752936194158 -0.00718825278741278 -0.005416668535346477 -7.888981807805011E-4 0.001804021280875429 0.003972853212163327 0.0013638859114199165 -0.010436869970743562 -0.004157944506750969 0.007957706185442925 -4.363946027735012E-4 0.0014571616682538882 -3.370671217992939E-4 0.009259456610145357 -0.011834680535999436 -0.0038499527131043054 0.001839440310347913 0.00410227655682957 8.886843449952464E-4 0.004633176961225575 0.0022521729246868256 -0.004864958955128101 -0.0020505031477862194 -0.008607854472482045 0.017717823337742026 0.007770935530864894 -0.0025801227658657903 -0.0024829676016940153 -0.010154591345610578 -0.007849097812144303 0.0051478294209865065 0.0017883660942198533 -0.007135905359113922 3.2120200002027445E-4 -0.007158280871337986 0.007459084466588075 -0.004508428123187333 -0.011622837920240757 -0.008738580492376974 5.300947499024469E-4 0.007459459902494481 -0.0046729583970778026 -0.0074750365254030535 -2.2523663046297414E-4 5.096002971597239E-4 -0.003299541717544746 0.0011731561563324924 0.007022327104902965 0.0018194832763349128 0.004549272830826656 4.70684836045529E-4 -0.0011919072314661343 -0.002273307442902933 -0.013954385832827867 0.010939966905250531 -0.008530785001796954 -0.10686576601327581
0.13177763809794413
-0.03973691683140838 -0.045566469434972175 -0.03950980518620846 -0.030034717025310027 -0.038208026137185096 0.011418575239802603 -0.030981119071251104 -0.01898145088949132 -0.008226620180253004 -0.009832689732884975 -0.004039153560562385 -0.03334597212846217 -0.04726856273298848 0.018014734972886953 0.004287722247794054 -0.008935593741929149 0.004495478417410273 0.0036599420412701676 -0.02787387978293359 -0.016599510651979264 -0.03705426287902772 -0.01650347912951805 -0.028375479520119033 -0.029888762428924427 -0.0189803179527555 -0.007327251358375561 -0.02115235277546567 -0.02719575468993844 -0.02106200606271183 -0.02226640039319409 -0.036889396155983634 -0.062069092614573974 -0.02243027711951265 -0.039008701782851006 -0.031177582761958002 -0.013900238754867405 -0.029085440685527948 -0.030837850068449836 -0.02354353610832703 -0.0253393314848835 -0.027915998937365016 -0.025658090832375625 -0.03381354623674358 -0.010962345019501746 -0.02282775453974985 -9.541316249389232E-4 -0.04293213725188205 -0.07616298675250077 -0.042226812817040583 -0.01198788525698877 -0.0028900400927611334 -0.01125202555285615 -0.03008459820523641 -0.025878826323485003 -0.03457210803695718 -0.011495722633787113 0.020230141262659252 -0.06558799322170897 -0.04942610500586209 -0.04519401259811957 0.003927892883160606 -0.01876915596829459 0.01167783332946067 -0.061885512802990796 -0.040524274513315306 -0.03841800286939738 -0.008094567236237877 -0.027051922941971368 -7.000585170063543E-4 -0.03962093220717546 -0.04541400656948992 0.009229805717068364 -0.044316448019835294 -0.03387769410994839 -0.038800570452887664 -0.039714607310323155 -0.01711979755734801 -0.03581482636961633 -0.03180483875583953 -0.01600267518776369 -0.041054138440170015 -0.056775269605592024 -0.013458150093004906 -0.014911900940286374 -0.013269223515750451 -0.0071325171408956065
0.2217424877564455
-0.03570256441759563 -0.07885059987753629 -0.02295745029641928 -0.0452034941564724 -0.013391210075602938 0.014922235205598298 -0.04412870260192183 0.006547791928112643 -0.012741389672720824 0.004802569575373151 0.0035410420024540026 0.018294276164078922 -0.008275603773506727 0.01835802578207499 -0.036407115075738815 0.010824262972555633 0.03871969853653829 0.004210147556091941 -0.006790050476295797 -0.0386410970890982 -0.004138774413459696 -0.029403194667506617 -0.027824579770911753 -0.07903322466998679 -0.0201406129573445 -0.016075038473250054 -0.02774483017297385 0.010472468424045754 -0.031589212410405236 -0.022671540478352657 -0.0019414637250136087 -0.04975888073838644 -0.02209111400290712 0.027983684349920764 -0.055548771823549635 0.0086093110766201 -0.01615412381176821 -0.05257995978632185 0.0031085614220436333 -0.027773893982289587 -0.0040172957213340955 -0.03757333867722575 0.006125218878208552 -0.021773920468625616 0.0037346749663838366 -0.022607986268663886 -0.047996051076923806 -0.052690906631639355 -0.02393225971212589 0.015129084339973238 -0.042272862004892414 0.006503174097006983 -0.023268042624502064 -0.049328848356978185 -0.049533835834739186 0.01449186531237035 -0.01066730585975499 -0.04962264330736808 0.02196989876117654 0.00953796996652471 -0.015739353065012163 -0.08034663215832147 -0.010208616916359754 -0.08099022961312115 -0.028055956961578046 -0.019008709729989026 0.016136954238277955 -0.0213667245817583 -0.06650428442999082 -0.04749787386241219 -0.07037236465529846 -0.01441830508309181 0.0021244280433604314 -0.09223771517231283 -0.010407471951857422 -0.007957611659446135 -0.022330755549522442 -0.03653215034772444 -0.03960194138070858 -0.026386346647427998 -0.022247238141590284 -0.07896091505916104 -0.07247985043081355 -0.05532184555319856 -0.025049140542797093 0.005639818558599314
-0.019995308434063178
-0.005324383064260041 0.0019265211468286754 -0.012057278082256814 -0.008133543346754061 0.0050704254907367975 9.197050770336746E-4 -0.0027653128079932624 0.0032220816000931014 0.013687335925785605 -0.024472914443799697 -0.007977191950936834 0.0022368893523788506 0.0058496512537959625 -0.0018043162263066096 0.010957478135805505 0.0012904889812423593 0.011843841759840556 0.009206896000997902 -0.010806469018294157 0.00971074861110469 0.008126888713023458 -0.0028933808762534635 -0.004563901394256888 -0.005386121950895898 0.008728488282571906 0.002218731148965877 0.007202382302470704 0.004860876797875705 0.004692308506396114 7.074905499735403E-4 -0.011569961696763977 0.012452030330515392 0.006188720333305027 0.009202816122966306 -0.019503457963032125 0.007301792693588941 0.0037928947644828796 -0.008912310779083856 -0.011769364466849876 -0.014132086991332086 -0.004261307265701359 0.015046603506603994 0.018892546804186908 0.011269792814782076 0.01084533716171824 -8.392053874523518E-4 0.01166625286035419 0.01835598508567483 -0.005454222338865698 -0.002728502668754695 -0.009660896642704992 0.006374115673913105 -0.014310125555917508 0.015731368317795313 -0.012870035931714053 0.012265764775350328 0.00788920461695181 0.009255760349976402 0.014753894789098266 -0.008458836659357009 -0.015199842383999802 -0.015203148323743419 0.006646887168052885 -0.003913758494480286 0.002141174407434147 -0.006192868076371812 0.009202292245892026 0.010280289777778274 0.018748581619542563 0.009005786121838229 0.011277151772547265 -0.005958898559805547 -0.008758625720094672 -0.019449626208751705 8.028172790276924E-4 0.013861558209769007 -0.00874492298932775 0.028110398532101313 -0.0025790968228695337 -0.0203394452109014 0.0017681792086603047 -0.006895490233833682 0.01854070986250857 0.017477272091799213 -0.019566132358380724 -0.18568272529124272
0.25602836885596697
-0.016573781383530443 0.005049430990986348 0.00227642485254264 0.004479623284325905 0.0028198797089796874 0.00784134707404894 -0.0071692280738766875 -0.004230441559972674 -0.0016567872242835408 -0.001701987812686163 4.8245524909568236E-4 0.013489508267332537 -0.010956562993822454 0.013356353666385542 8.89233180532057E-4 0.008814976990306433 1.657797988611577E-4 -0.00543321101379177 -9.009748429701836E-4 0.017758879004780518 5.798097975877295E-4 0.001479922900105895 -4.1198491284186596E-4 -0.0020647523130556955 -0.00792464435303697 0.010557156029641638 0.008955330318161548 -0.011519963468963952 0.001963995530027003 0.006846228965080554 -0.002554621709925136 0.006460217900907601 0.002847332859372516 -0.016579073343348242 -0.0016393266909404403 0.012564074081931826 0.012356946821201389 -0.005401583683275741 1.0677343822969461E-4 0.006370168779839276 -0.002585686074153779 -0.005982444054187534 0.001402072861058668 -0.003858253415591795 0.004781545692782718 -0.012375428214612781 -0.014376385883267985 -0.0037737575429807333 -0.0074553428735080005 0.006963992317078721 -0.010008332294486272 0.004592204669337275 -0.0027156964381266934 0.009016392839772795 -0.017659811871439602 0.01576358126653395 -0.0014411572196866126 0.005405586310006791 -0.003695715225369069 0.009890360192779885 -0.00461028734446381 0.010598730920866701 -1.8041792375140525E-4 0.0016493486181865745 0.0023703670682031983 -0.005047073337754129 -0.0025647060529544858 -0.005791029664981042 0.0026113392187357026 0.0049923981518409715 0.00897783191335223 -0.0013516225942299068 0.0023883924412602675 -0.015081975093588856 -0.008954563814768154 -0.0017353007596107657 -0.00856063293740845 -0.0017139074903204674 0.010190340302443944 -2.0063313751086416E-4 -0.008597199837066185 -0.004215157533912694 -0.006742444122364076 0.005665209227020422 -0.005119326975802839 -0.10284290379963744
0.10989317365768635
-0.00726983924776621 -0.012456476527519406 0.0010361809890215134 0.0020185194812122357 -0.002105250115622172 0.004021417456255737 -0.013270587534901438 0.004020804428844593 0.003906744430304913 0.002464683295037947 0.0019829158918394604 -5.969297771645032E-4 0.007190466471578751 0.010218469116820833 0.008276559014052779 3.260758881987593E-4 0.004994443198397477 -0.0087367621043985 8.573582520933487E-4 0.006213502146207171 3.038915783423829E-4 -0.013604635563938745 0.007608592441657158 0.010934562673194544 0.0067927265373100496 0.0035878403903907784 0.004673538431648851 0.004427593853081604 0.005008996019767137 0.005365085743235826 -8.338760457457472E-4 -0.013180602744765338 0.0035467805806538503 -0.01083042424997862 -0.01830440751724524 -0.0031408793713912047 0.0019120129778404898 -0.007215931909846037 1.0326334011096701E-4 0.0037082251476434173 -0.01124891370300595 0.010702166232138481 0.01070983134441314 0.0031435364783808694 -0.0042407294396296985 -0.010269841428682657 0.004372610211408874 0.0027253810327015405 -0.0038978434869195713 0.003870830074759512 -0.004737758491671951 -0.003422861071091571 0.012095960941716862 -0.0031291930608663508 -0.025547553734755486 0.003849644038083983 0.008808579799930348 1.4815421870620994E-4 -0.006773954031669794 0.0021151195152015008 0.0015754488615816558 -0.0023778424948088907 5.168565155590983E-4 -0.012057070927481105 0.006941817856037804 -0.007337936073320587 -0.006158217004177508 -0.012649831642875841 -0.007716633793251316 -0.017149109349191703 0.0129040202988568 0.009984500009527362 0.0029604640905753236 0.008791028885902403 -0.0013558430971364686 -0.0028369138873781006 -0.007084176343886748 -0.006796070637743002 -0.0012064199967330878 -0.009707688896753074 -0.00995888238882105 0.003019587138154725 -0.013848249396026595 0.0038129051906152767 0.0034831372257709387 -0.08288329150298025
0.08113651898422354
-0.00968377817543387 0.012397247750628438 0.002813241015380573 -0.006228603581152945 -0.0021617897333167306 -0.001332884266003104 -0.004901202132614545 0.007838146084067191 -0.005688867237246464 -0.004774416815389859 0.007730015048760084 0.013630611329347944 -0.01704875864848032 -7.483497228819017E-5 0.00850202194966719 0.0014299929467011024 0.0052439864211650915 -0.006192031574329281 0.001116444829365366 0.00683148740418777 0.005458174457575437 0.01052306808507529 -0.004984629848101629 -0.005735778571153021 -0.008550534900197592 -0.0033369731312691523 0.007849031328097514 3.1504145340504E-5 0.007776791797165325 0.007542992168844853 -0.005786208407273217 0.010623714349917726 -0.015970313919985622 0.004157762581357399 -0.004680189248532869 -0.009757531651088029 -0.017801359893169638 0.005739018748183406 0.0024762867916005185 0.018852281920036143 -0.014759942872222627 -0.006183906534568956 -0.004518814724493707 -0.0033909416716383905 -3.872411351456717E-4 -0.008695480076517456 6.192208991894935E-4 -0.01357384131635783 -0.0038371378301511163 0.009770828177630508 -0.016853154002397886 0.007861022034798357 -0.0030202919803260647 -0.001935255266805745 0.003279850558932017 -0.008532139915520907 -0.009157747845428197 8.20611242593707E-4 -0.004861820629445839 0.0034580545473208873 0.007945962056543871 0.005518520590090013 -0.0030100847998069985 0.019302677128688994 -0.004076176934058165 -0.005585925363223988 -0.0057733270875491025 0.0028063593135806996 -0.008889467632730493 0.0017272463261188617 -0.003627465186097465 0.00742642120372294 0.006031147441667629 0.001105248265402407 -0.005399287313343992 -0.0017254720491379002 0.013405297981083445 0.0048030209691062534 0.005961881940574078 -0.008683242600065994 9.068580128349961E-4 0.010373288862153194 -0.018501466815706722 0.011424808836193392 6.426470106126603E-6 -0.10454004008888168
0.11248912395187659
-0.05690441806027505 -0.04013672034519973 -0.017389658950272183 -0.03346340620974338 -0.024866714769197617 -0.021420706342607638 -0.02649308048483553 -0.013595557678637607 -0.029905334651571656 -0.048701660638896443 -0.036508403262237636 -0.05754905422047461 -0.03142414826237974 -0.004382227133880145 -0.010771381376284615 -0.04390940137455684 -0.020829849347826154 -0.02135137425019027 -0.021536439042048945 -0.041386948198056016 -0.015147376848784424 -0.038065750536648194 -0.06787173443577971 -0.048677444853772005 -0.035052671752601176 -0.028283853114232392 -0.01857518848345737 -0.06616256148562967 -0.0052419508428845135 -0.05180951999433611 -0.017801724207297014 -0.060118992167395316 0.001487349362867059 -0.06754323456439561 -0.08765292729532988 -0.024680551592319033 -0.034917654642596115 -0.040668735389300326 -0.011552823515891982 0.021709467780781932 -0.020299016977339896 -0.038038083768738976 -0.04544071364501643 -0.04371195222490925 -0.019078851394975047 -0.03564713985317137 -0.02215545314159404 -0.08826031582346335 -0.05490179816283976 -0.06170019961980602 -0.002157737344258115 -0.05435837491273871 -0.0013803785401607445 -0.039701091327256244 -0.06771867673862833 -0.0641423269081684 0.01693922836349335 -0.06680584571608968 -0.04608694082317467 -0.0269278942781549 -0.017362673691795137 -0.05828642514744431 -0.027640343905911212 -0.06348939703143698 -0.029793845716759162 -0.0589951083880377 -0.050736198132744485 -0.028123090002727884 -0.020528636186792914 -0.04645038062291956 -0.054909568725617884 -0.02862796959262036 -0.02741634076855047 -0.07799360621203155 -0.05424690946915261 -0.04942154628462234 -0.03681173071042549 -0.05174756853518963 -0.0542802599807726 -0.016796642408475327 -0.015359386907588202 -0.04877460160113884 -0.026911101074033873 -0.057127207285946294 -0.03759191452102358 0.011958107668243857
0.2817096503215768
0.011187042402144347 -0.004363348573839264 -0.0029404457013200605 0.004134740586643936 -0.017642352131511628 -4.769001193926381E-4 -0.005940524697771162 -0.004902774029982185 -0.006445248504361734 -0.021552355411057256 4.527263295805438E-4 0.004797266965504207 7.664152577956498E-4 -0.009560650042918239 -0.007483999588442494 0.008991388565781697 -0.006570491453997666 -0.016684162364750312 -0.005163299310219304 -0.011328202302990848 5.459396648759444E-4 -0.01354300225821656 -0.006908589389499048 -0.0037485107335107014 0.009809414226526671 -0.01453328366691112 0.01090794822586445 -0.00877581662524876 0.0028413739668633705 -0.006186753154007338 -0.013814893004945516 -0.0038497597783385745 0.01751915382335962 -0.005846861021581277 -0.006283123723112823 0.014615086670521473 0.011707128566062427 -0.02382977193322937 -0.006816835139023494 -0.015030694713857021 0.006429589560845096 0.007283270486569085 -0.0015424220748217223 -0.004027283965240021 -0.003361507435489144 -0.014629669908652025 -9.923070060463023E-4 0.004872100781893538 -0.00481562657187776 -0.008529559767059216 0.002707497759434318 0.010837435825930088 0.017236088824368903 -5.642394054607973E-4 -0.004152903966308798 0.008544109959378965 -0.0010844918568015212 0.0014126964286984719 0.014882897753357107 -0.015356749754988555 -0.007909609966513397 -0.005617961432945549 0.010764106086448006 5.145396945136407E-4 0.003236335685456082 -0.018741297780902954 -0.00394617761357895 0.007101323066638918 0.014108879058608628 -0.0166181835357302 -0.007557675319804684 -0.007299742134266096 -0.007889818607178559 0.01565499396029789 -0.004617665114605225 0.003776327925670958 -0.0021668853473426194 0.0047279461987781235 -0.003773079305436623 -0.001909454807298783 -5.614530173589053E-4 0.007206268706008166 -0.007845451216392116 0.003123025326055969 -0.02148416615153953 -0.09573122788666392
0.12341763233661714
-0.012259031159441268 -0.00825882601723851 0.00524820503280928 0.0010921601371252179 -0.015610698147443338 -0.0016176276074734608 0.0024650238101259097 -0.0018730597855218692 5.771489925778662E-4 0.00795628242152171 -0.004421885326967131 -0.011538030047532118 0.011055451511043484 -0.010362206109310173 -0.0022346973595591944 -0.006279322906270959 -0.00354183580475617 -0.0032132274512616486 -4.135221797427846E-4 -0.00790650981778833 0.00846277779908927 8.213991600637186E-4 -0.015646593299599974 0.0075651189273908005 -0.008141700797753408 -0.007989240224761388 -0.009500440920513125 -5.694199653924508E-4 -0.007477201371732856 -0.0015844875696772055 2.741058648587157E-4 -0.0036207932912088727 -0.005369642616966515 0.008236128329472561 0.003780135570343629 0.00231204648305937 4.5553030522144886E-4 0.0021763391028470505 4.1380025288561656E-4 -0.005021538719340948 -0.01862601192711103 -0.010691276156099242 -0.008552788554520492 -0.0019761257686800628 0.008236278267471335 0.0032428241521356314 -0.002787749138951956 -4.7235641509108054E-4 0.007354753806955321 -0.002184341508387784 0.00527275764758337 0.0030646382202134245 0.008270214925933212 0.004915200468155723 0.0059440190938980795 -0.007406928641253808 0.002363443746697825 0.012473145982218036 0.006448705924820095 -0.00904270785484815 0.007734344011112638 0.014591330302426746 -0.015270336369346329 6.492926711161181E-4 0.0038852638011886713 -8.174962587678515E-4 0.008736009742725752 0.009172996146073897 -0.002362507650599044 -3.7021109273930653E-4 -0.00999472677457044 0.00199249940710232 -0.006779663175949957 0.013698307280728269 0.004677154566850092 -0.002676326423049874 -0.002707320312248663 -0.002943964765698951 0.004259149205466434 -0.006013101853661246 4.425711802862464E-4 0.01471565194990271 -0.0034902606279135725 -0.011546357462272684 -0.009774873636605542 -0.07446076321117022
0.06961099435029146
0.0011023503178854439 -0.006466325142771578 -0.006352455219389151 -0.004422651704095891 4.513950327295789E-4 0.03573135346803241 -0.004745854952076551 -0.008082102222622057 0.01927835509351975 -0.019619850478636198 0.0069995224900327455 0.00786094297177979 0.018487112993609 -0.003952706666426499 -0.009139460044892498 0.022134036095273722 -0.0054975252558123735 -0.005405092588273201 0.009564835517159248 0.005367345735198581 -0.006020925350268195 0.02558901192901395 -0.017609124704716667 -0.024585979765248803 -2.355807510762706E-4 0.012325958663757403 -0.007494625206435215 0.0015558015832642879 -0.018109926282426324 0.012126526406560693 0.029301911647148737 0.015393806871493497 0.016940818198041788 -0.008580497432691726 -0.0029704211470768377 -0.013516066985022982 0.010462957140720723 -0.022591624012121846 -0.00898657952863025 0.003472112506018278 0.027976243486281912 0.03136750203599545 0.022676955335235918 0.016070428569358357 -0.013575462021060579 -0.02084433208981533 -0.010470196392692158 0.01309224556610937 -0.02461380567369336 0.02200992180669362 -4.712227428418903E-4 0.011091672148387686 0.0023389790875317003 0.012674386735603263 -0.004489113510305963 -0.004264506827996001 0.029809094295541193 0.004633527425200476 0.00285303509004345 -9.139164454846267E-4 0.0018796336772371777 -0.027277533850235895 0.0330141414084872 0.029115185692891316 0.02511060294943174 -0.0029488421873411687 0.033196935233083806 0.01320748338353004 0.015485396985625026 0.003617422568710199 -0.01752938199949242 0.014905279948797747 -0.0017882361441318743 -0.013301139068644803 0.012198704093306704 0.0059017813106275714 0.03260318142924149 -0.010240577534274195 0.0046888690223810155 -0.017887848735447284 0.02142624778817053 0.008173849003857038 0.008029064247783173 2.36798809259184E-4 -3.61110960472987E-4 -0.23311194152779474
0.23458435274491696
0.004548875295106626 -0.0020059025488943978 0.00989249341624127 -8.164107597631338E-4 -0.001984001500023455 0.004025682873508042 -0.00814957865964836 -0.001503977599278782 -0.007474855732370561 -0.001165317507576099 0.0043483627928776235 -4.244795106772078E-4 0.011416214274004561 0.013884565486669366 -0.001908945928681349 0.02147643428551272 -0.0035973941009434397 -3.8373009201659203E-4 0.0018755845294681312 0.011470569057669706 0.007634791745955141 0.005220879613699984 -0.0029355980077486773 -0.008279111609841018 0.010136006497294655 -0.0019509662102174595 0.00531234142555638 0.008927883051103048 0.01561868857076112 -0.003960039766165321 -0.0015882557320763325 -0.011663968587304504 -0.004550086434832538 -0.015585315388713895 -0.006961706073513696 -0.0028339908645258296 0.01087913671422878 -0.004870637910004084 0.007902889803938686 0.017410903114553872 0.0021675107118298976 0.005970772604488428 4.78356015360184E-4 -0.007803867299010751 0.001924715973549532 -0.008439253522333929 -4.4505528003574424E-4 8.420942174312467E-4 -0.01268737503519509 -4.364190114948643E-4 -0.014280980974132747 0.005123795013168217 0.0023691532316268867 -0.01142297582673222 -0.011483278288110079 -0.008316172824948351 -0.00401627508819792 -0.003375887792740218 -0.008959374092668263 0.005709584351560708 -0.004206154481864718 0.0046508853122677095 -0.004334051253437343 -0.014681452607808747 0.0187521133947888 -0.007708226974169295 -0.0017283322886521072 -0.0041228509811007535 9.7892271638412E-4 -0.002197705008539348 -0.0013042807205222169 0.001579549204609796 0.01270115176307557 -0.0044453925660977054 -0.007669283152603829 0.0010457927704614928 0.009245513636185029 -0.0022326070180411395 0.0035897625738160873 0.003187396608053179 -0.001663556071488023 -0.012393030170751437 -0.008287651986342232 0.0028079702093898695 -0.008262687521031648 -0.11499678243628773
0.13045789090110055
-0.029612202665717298 -0.03290133478720566 -0.02495854619147216 -0.02490741497648478 -0.017693232685541713 0.0050410897851741335 -0.004573592503110715 -0.01910833057976676 -0.008480758875918601 -0.019605499861070137 0.003058604781824396 -0.0134044393958045 -0.05079786745273001 -0.01024994795937855 -0.012991240263208291 -0.004435498963230317 -0.0033687525552014838 -0.01145887490598123 -0.01651679326070822 -0.005387435372085797 -0.0529257730884 -0.02075421461607026 -0.029048747666017217 -0.016261223439409406 -0.008899170431293702 -0.015703871139628022 -0.021757959077831398 -0.030520196556373683 -0.04414964736879043 -0.023793092256007828 -0.012784511760476663 -0.030026403253315938 -0.019893546214079835 -0.027685884534554842 -0.02081303029547624 -0.02765844190211642 -0.01352229789186735 -0.04158812602937335 -0.014637052264348345 -0.006314416433813213 -0.020673991654700026 -0.023563575411920938 -0.001938712853828188 -0.03625976029338676 -0.04063917750024159 0.001940393569767655 -0.004267059208632959 -0.036417392885879564 -0.029488543308675126 -0.016867169473104182 -0.015038732710602387 -0.03350585195377097 -0.022885051985680274 -0.0030428478294721845 -0.026211653208429192 -0.021389536858990692 -0.012487015313410711 -0.058716805178527585 -0.027737069243951612 -0.024692148183464647 -0.013186305921905311 -0.025343488724917453 -0.006358802233525034 -0.0328625842144229 0.0015326704197578935 -0.02184938895766886 -0.011225055633141193 1.0280074366961861E-5 -0.018663207125991087 -0.011454036320003696 -0.016262053521781526 0.010980253658090449 -0.04784669771364904 -0.04028798633383804 -0.0247477720576608 -0.043579785196593064 -0.010783664445320596 -0.04014576052865281 -0.02657405160839428 0.0027561421336124224 -0.03462718920503188 -0.055238722122442276 -0.022506351858961837 -0.01410137501687653 -0.02103991191398702 -0.012245589777839716
0.24977220684509008
-0.03246260027788892 -0.008937793416289742 -0.035766169152414214 -0.026253598916121255 -0.04262042337737545 0.005226363280457024 -0.020656283114658103 -0.029839808313405266 -0.01961667147791254 -0.02690561556603289 -0.0012316447454109307 -0.03861164055837937 -0.06860359273855783 -0.01639946945174503 -0.002602831227648885 0.004790372070883787 -0.030030983833651586 -0.007337889811267628 -0.037481870129158615 -0.013404087435223188 -0.021840201810551168 -0.031886523352128916 -0.01918599455184421 -0.05583700917548396 -0.006263588026705813 -0.02257081105543961 0.0022125033863534312 -0.01962308071769183 -0.004316737202309839 -0.03730059246763894 -0.009837515167109082 -0.04562074857663431 -0.01325648253065429 -0.02066814425751942 -0.01605772000128917 0.007769308754266367 -0.015281426836431137 -0.04533427406894447 -0.034801561542639504 -0.005638445921262046 -0.035454799443681455 0.0073046190364976565 -0.041738845018473726 -0.05789377753099754 -0.003485127256759953 0.02680422173685101 -0.0076930093892644 -0.08353167790391527 -0.0025508766419096137 -0.013955998031803807 0.02260435312699772 -0.01314662662141907 -0.05220046480008028 -0.0790968259721223 -0.05145141041546762 -0.026899067799730347 0.025004966958530883 -0.07515515202498516 -0.06852259946281347 -0.024659568982620166 -0.024326871041968796 -0.017211655744445345 0.016704923440684062 -0.06963761033002064 -0.03635841685950296 -0.06011226449231417 -0.009304472781741546 -0.03765156404549304 -0.021173885541273797 -0.05488099084152752 -0.05636629354162965 -0.021341540658073546 -0.06668945357989982 -0.04185146663015127 -0.012613955006111253 -0.07829815519569167 -0.04714913506431998 -0.02343061291876283 -0.04343462850415103 -0.022379177633593293 -0.05248442949432127 -0.08744652519551002 -0.013360555230622018 -0.03388525173514211 -0.026472098464179507 -0.004470230134185335
0.20340362053657637
0.0014379938353847508 0.009335953343612242 0.025232383179708207 5.577954084382225E-4 0.03912882227566884 -0.0016192429331242093 -0.016474334951472647 0.015520434975670534 -0.007755098201796313 -0.015991579616266377 -0.024782614524519405 0.014650626649780589 0.018528469963388305 0.018126446649145363 -0.02044317838368694 -0.025599094286508646 0.019936582602224372 -0.013549139528655664 -0.021797843832914356 -0.007268543233557169 -0.022947537922778313 0.031876032998793304 -2.0469986829810228E-4 -0.011547333647055544 0.013843635106722669 0.0058364435031779925 0.012268760300742417 -0.022612450365216703 -0.009321256830746982 -0.007826226021336112 -0.03783675249084175 0.02245652508966852 0.0013088882262736645 0.017943622969765715 -0.014945101977973961 0.02443920233453204 0.030665298375955777 0.005452826126931051 0.014579857878262863 -0.017190668875915797 -0.01107554268121694 7.689141696714143E-4 -0.006811894809760754 0.01675845449661828 -0.0035691598706548092 -0.0018302208760218415 -0.009700539366692996 0.01648976906068981 -0.014435151897574607 0.025998638466126257 -0.005554342427255092 0.006511367515484645 -0.011095271777689247 0.0172935592432277 -0.008271483753720499 0.02317859132441679 -0.022074727166947763 -3.853020764133778E-4 0.0017559918874725613 -0.016195566265297456 0.010787759029959905 8.490051437625631E-4 -0.014184286786134447 -0.005098407150470061 0.005559692617684565 -0.012951745552397132 -0.027965781984106125 -0.0462262387290697 -0.005803928697544331 0.02115151724971861 7.55911918604614E-5 -0.010763499065492756 -0.014024847489583186 0.027936657706553104 0.006627133091019118 0.032314337884173275 -0.023504576555427738 -0.006764240335008436 0.02716420247813674 -0.013361739913979952 -0.027921936716547316 0.008305064199513462 0.001247591682343262 -0.011731247284444872 0.008490207622786678 -0.18507677989847265
0.227633679711445
-0.006309303728807936 0.011100747462982076 -4.3373872931398347E-4 -0.01669908095504219 -0.010176143739939492 -0.0022935138836721546 7.755363660156769E-4 -0.02188335417722862 0.02929933149447106 -0.040825007636688365 0.006570709881697955 8.147872785826016E-4 -0.009573950948915439 0.026148676471410337 -0.01350252072678118 0.0017125040260646358 -0.018682891559096405 0.01328418221481299 -0.002822356599096106 0.0031888300661708606 -0.0078664825923692 -0.017449504269809974 -0.01803900409440035 -0.01947759037006755 0.009433767323256013 -0.005788919386673639 0.0030450323916531054 -0.0288248641461131 -0.002128397691452014 0.02126919071185075 -8.759009299824613E-5 0.036840160806905706 -0.029950994970620953 -0.0019035952538673908 -0.0063577056033459105 -0.002198687413752111 0.004263415426271129 -0.004941405849146289 -0.005043096365568543 -0.006242278540131862 -0.03135202973408627 0.005424582624519234 0.009657855028970501 -0.017595640685995145 -0.021968295485811012 -0.006809432983110597 0.005469378120062231 0.01138153214065719 0.016109592658320706 -0.0036471054230389644 -0.003986922083073307 0.016861002149835012 -0.015080254125554861 0.03542539190465162 -0.013539733795992324 -0.009521072996755064 -0.002899535935284112 -0.02949576614632396 0.005278065431743731 0.01603655895191622 -0.0013176132489664692 -0.00505330374831623 -0.010640286084405579 7.202556290449592E-4 0.004854472854730607 -5.698298420728094E-4 -0.009439632678013158 -0.03326634342054705 0.00644169840526979 -0.006589560321695299 -0.023991674245616684 -0.010020212160002866 0.00257614100042517 -0.018124514444296625 0.014387265936204851 -0.011158519785987956 -0.020969132387768 0.007022048231895235 -0.003723122331396937 -0.01678839468571674 0.0019856315401250097 -0.010942466092097881 -0.03706629176004884 0.03060921219954448 -0.015668063607130505 -0.11658359881411094
0.14431081378578134
-0.035702905853561145 -0.02138656038412664 -0.023889112889830623 0.002562950846892207 -0.02426708158427249 -0.009921710509161068 -0.02834681196085764 -0.005638646140574156 -0.011713739489363236 0.005985746427411514 8.511721222607834E-4 -0.00784734506250506 -0.009634756085945313 0.0014369741922809194 -0.007100664886824413 -0.009559822400883364 -0.02348140038344517 -0.003260537975568867 0.018764669653019764 -0.001978775119162035 -0.014047859198840955 -0.04209648678265872 -0.025186434465998327 -0.001987260086463028 -0.005927442311097681 -0.023094166534861887 -0.02908358435422678 -0.012162070699327126 0.0012219711941384955 0.004761346385698248 -0.03190515207737667 -0.05140116233052704 -0.026925709118052414 -0.02789170627226804 -0.027839542799392877 -0.009706407631462981 -0.020902016317785297 -0.036179913080927995 -0.02910092800643011 -0.009726370838146382 0.02115180516240376 8.438081362137096E-4 4.899392064327132E-4 -0.010815449013228522 -0.02498157670239316 -0.02781748077674099 0.012114540790781008 -0.024613605992569173 -0.017533031093571218 -0.0101938823741816 -0.0030274799067310466 0.008848188115373096 -0.009028285672190849 -9.296995361816852E-4 -0.033648065360508565 -0.03280889021797265 -0.007715733476756072 -0.01497672365978172 -0.030743766428154226 -0.0195275424644936 -0.009382874988271533 -0.005854339222198056 -0.0058104853406516 -0.018589532461891035 -0.01215446771138652 -0.017819737467426173 -0.026978594931003796 -0.01978874485767762 -0.016660824924512718 -0.007524496061046584 -0.015211648443510539 0.0158882277812203 -0.006504141773648653 -0.01667796860527808 -0.03717518318814004 -0.010766454159290529 0.015119561058646301 -0.003815126400355845 -0.004578095610182112 -0.003050920536237249 -0.01729084942104201 -0.02971155576788016 -0.007242977224543132 -0.015774243636247593 -0.0030337838812448093 -0.03161607310456364
0.1974507009336903
-0.014286767352256206 0.00959710180382164 -7.289716405078125E-5 -0.0016821037121139597 -0.008516151633654847 -4.573325538399614E-5 -0.003459152994020401 0.0028180169278186665 0.012575824950656171 -0.024618826997387516 0.015314088307621921 -0.006933198033178462 -7.972779034487945E-4 -0.011615820594470859 -0.005273686157480721 0.006843664512937561 0.005190523275364066 0.005393625476404701 -0.004908806056782406 0.005601643027505058 -9.037152785747944E-4 -0.019755109101925586 -0.004259136365624058 -0.005844596970258448 -0.00614544219371032 0.006962700847173146 0.019083163390896614 0.0029516118748382516 0.0022017104270022334 0.007156550758341267 -0.01100520818897505 -0.0012698878182072302 5.950985836353754E-4 -0.019560836417291023 0.01252725764402606 0.013034363397958219 -0.005901858782158799 -4.274718566755882E-5 -0.008363007774850691 0.007734586221184228 -0.0012669723717845755 -9.195250553233242E-6 0.0020061411043031632 0.017508342758996577 -0.003827924458846553 -0.003945720210648363 0.007244559274168459 -0.014609974727191494 0.0025475798009913543 -0.007734398491777328 0.003622132915947794 -0.004201687641176618 0.002274274656370121 0.002085175692892056 -0.005743537646746527 0.0042259749561018925 0.0011764029730982294 0.0029119914644190593 -0.001957308819506015 0.0046278731417784815 0.00608910095019232 0.002909262297570426 0.0011691488732756413 0.011292050208049272 -0.011859750735626767 0.00801787040547641 0.0020638722459028515 -0.012044362092371114 0.018428690886073865 0.002383042189885311 0.00947845892338727 -0.018725304461062936 0.0016411173411548254 -0.001837343026401714 -0.003196261707261321 -9.464930379179221E-4 -0.003802007773533243 0.007168050487661922 0.01269807848573485 -0.02039238007469377 0.0021231966824345216 9.327773240425949E-4 -0.007733020376426493 -8.647273907994368E-4 -0.013546432225673252 -0.09874859396962296
0.1212419587768178
