3
128
-0.004553303701987664 0.008410959102481916 0.005645627787838076 -9.275048594626177E-4 -0.002371317939523731 0.02087495571061957 -0.002180702624086114 -0.0027688604046944465 0.00845468876849158 -0.025773890626392872 0.02427947027396592 0.0011478509134539294 0.004317848403646266 0.026984224963513787 0.009044569110074098 0.01143434762125501 0.00216064870999515 -0.0014088981229496385 0.005343394994559076 0.014774793784236106 -0.010017638513852602 -0.027785570486611136 -0.002043419471692846 -0.00554756916601199 0.004226246310628694 7.905291215483861E-4 0.029639433042207012 0.006380038703711497 -0.0018952506687329334 0.0021909609925864636 -0.004930240934871278 7.268419530209812E-4 -0.002470723839516761 -0.032665481468395804 -0.024910736083922202 6.59807273540059E-4 -0.009882769174267876 -0.0017416197952875424 0.0041884410249977385 0.007501838568974685 -0.017828206369697664 0.008152779072816953 -0.0023181813485066327 0.012951821862965082 -0.021661235351665555 -0.00824777280170401 0.013548256847538322 -0.0033056268576091303 -0.0028598775637117273 -0.010554476498635066 -0.011037409582175743 -0.0015764361875341634 0.014364978102345518 -0.006181293897159063 -0.014388200775201206 -0.01849796738413901 -0.013692795100440972 6.099817574106617E-4 -0.015613312086351094 0.013346106912624377 -0.012598253006005493 0.0164626689771932 -0.00429457385342541 -0.0010894517378679236 -0.0024653214199624515 -0.00821400613367714 -0.01752631775424004 -0.012972519543317958 -0.010363570730825862 0.007964915814084185 -0.003412673696416253 -0.0024547843970930206 -0.0011525038781955348 0.0014235135359125077 0.01198997333704961 -0.007333973162440488 -0.00897008782421713 -0.0016596708239772942 0.0031818159723427425 -0.007467913521446208 6.232317094155254E-4 -0.008661486546002668 -0.018289061229222255 0.004323976429925044 -0.012547205329963541 -0.11835140024444792
0.12256663185602681
-0.027097530906829155 0.022843574159314893 0.0010483099960296883 -0.023884691353638823 0.0043341062069362675 0.02172960703345015 -0.0061611994769783665 -0.00910162357249422 0.005291169176504666 -0.009823965289070057 0.01420854606907199 0.004671076917663445 0.0015107682235169218 0.01839057723355464 0.005425379389207515 0.003596843380710807 0.010503132322671247 0.004741130885180863 0.008291194759780466 -0.001173993853389609 0.013492134833998836 -6.974225516459025E-4 -0.00886537173416636 -0.0075908006160496 -0.014036453550680629 -7.212470299222231E-4 0.007969672844120607 -0.004987641120874728 0.008254895599834989 2.880901092544013E-4 -0.015682332317934016 0.013978247722220952 0.014549989707167544 0.0060787658955175905 0.013835937217130964 0.0034575350682353742 0.010459994882467478 -1.1952884081522883E-4 0.019298766890148002 0.03320746661395528 0.0038741493946223707 0.019263621410847653 0.0040803868338171395 -0.010534216396592572 0.0032506596832423728 -0.021513151701326463 0.019017958479348358 0.0025953167685267113 0.009481629454835569 0.01879085449207027 -0.008221051641480308 -0.005340872033350958 0.006545093953127549 0.022823898108711195 -0.017298719883004902 0.01237700211008389 -0.005375304099604553 -0.016191506937686218 -0.004831499069601868 8.318204703849049E-4 0.002303521075616104 0.018832724304325567 0.007151159015544134 0.02450393155334527 0.020532850133844815 -0.0012812027379973212 -0.014804847044019872 -0.016430856246829918 0.008191474799773592 -0.013752624409106282 0.0015406608751203446 0.017560241974006345 0.02473275483932153 -0.008224095180296369 0.003989912928373639 -0.013548566953016882 -0.0034588990417890116 -0.0035650820178818685 0.015372155244419388 -0.022422564336350564 0.005265704137010895 0.0183045497388264 -0.0066137138444795724 0.011588086316713434 -0.029358974715178267 -0.19741724100058938
0.25727495194193123
-0.007952904342568812 -0.010297514953799646 0.0047874663484075725 0.007525012053460039 -0.01654970492394673 -0.007034345384748801 -0.017110138001009065 0.004818088870626224 6.659127630927499E-4 -0.009814203450924042 0.010172545649213795 9.442326130442541E-4 0.0050832303950197584 0.01552392326553725 0.007533693926110454 0.025291534414784177 -4.339056979951072E-4 -0.0067592776818214285 4.489014627003003E-4 5.458820976331235E-4 0.011705188341865068 0.011255066794584358 0.0049504586297017495 -0.0017441901350821474 -0.002245995606527968 0.01130081318293896 -0.002064774639376761 -0.0021966296344092394 0.02365506554960386 -0.007244702117056936 -0.002056506961798695 -0.012633733544365824 -0.0114382484559048 -0.003116568385698372 0.0034105640799055783 -0.0029818993731308553 0.013994805005499447 -0.011670833258356009 0.013785481177092171 0.009216427231420502 -0.014109028054596318 -0.002410012300847974 -6.3903332666019E-4 -0.015356565676300126 0.003691645334983598 -0.009957470093155747 0.006300503984881819 -0.0068705237598099145 0.009423991683653328 -1.248969799041719E-4 0.00203890708760348 -5.054805504778385E-4 0.008939776903031327 -0.018517440906174756 -0.02102955195874851 -0.007100605584309599 0.008475385313855954 -7.456513656564625E-4 -0.00561337060970388 -0.010696886661708817 -0.0024301659172142297 0.005312192593806359 0.005661213875625172 0.005951279546078101 0.002115695413427763 -0.0209114293408362 -0.006323299538198307 1.9265569745273832E-4 4.2161040952341344E-4 -0.006587563308195722 0.011318067409672734 0.015004679814551659 0.01969870256142006 -0.0018384352968787777 -0.004603316262561531 0.003903134335038452 -0.002918673190646381 0.007656897940624221 0.004620893508008028 -0.006130766984654143 -0.027749680594149742 0.011105658528586651 -0.01654898850939313 0.005184066781760202 0.0018032612345856782 -0.13340030995062208
0.14385776751453025
-0.025641974334671684 -0.022685131888931644 -0.005756259574340498 -0.03631971719771287 -0.006318071179020545 0.008940202912156497 -0.016134583135438037 -0.011704689758206705 -0.016139549596776777 -0.01746304650289911 8.635741948069706E-4 -0.02699793382428736 -0.0130656242889038 -0.023982942836689308 0.0021039059929293994 -0.0026147617302558343 -0.03253776891148513 -0.018959255151863176 -0.01821630604634154 0.005858078264038625 -0.023933864562981223 -0.03717921506246438 -0.04803235081702632 -0.01793463981161495 -0.02532087937094998 -0.0162830729312463 -0.02503173273117523 -0.026109486768889623 -0.01878310237389896 -0.012116016408868382 -0.016155253527754737 -0.02336347704932345 -0.017746941832360974 -0.03925271623967044 -0.006757540507392849 -0.013733515648725193 -0.0071601653030878955 -0.013190097043834073 -0.037630053384438526 -0.020274267107396507 -0.00638460540399852 -0.025078688064145163 -0.012362290800619177 0.00260799910877508 -0.018778791242342958 -0.00378885432635954 -0.0030889302609181423 -0.034387849912022345 -0.007156859928499145 -0.020575057267323435 -0.007884526125706583 -0.008389785906054754 -2.3103317688111193E-4 0.0050537994030720205 -0.037654741807457925 -0.02034029965819586 0.0031290556863731193 -0.015369222449643428 -0.024863406482059584 -0.025596217855142607 3.2975303134308406E-4 -0.013497347106291142 -0.012262925813126126 -0.008768963736465058 -0.01373900941807837 -0.015745816861759254 -0.0030650592538677248 -0.02369862211183599 0.005399168105502504 -0.005376941199746026 -0.031848901434684045 -0.02177972555886329 -0.011300548123543716 -0.012924263849336728 -0.028946293616733093 -0.003522207732543326 -0.010373561934837825 -0.00795370237284324 -0.02851086250244097 -0.017764593106506958 0.0017867486214171993 -0.03404270579592896 -0.011350948217676071 -0.007624177697392028 -0.018683987615722812 -0.012738613502758624
0.19494209892895178
-0.012268316344534931 -0.010407596732773566 -0.0013002746917995366 -0.01668240719301343 2.4359335308782727E-4 -8.902983340429006E-4 -0.007984260652822511 0.0058015175652028385 -0.0013898869008202328 -0.00996140335960031 -0.00758313097049061 -0.0010733137904031134 0.005789358128618595 0.005629268545706133 0.001969613654633618 0.003568199443966401 -0.003275708344498677 -0.01687334494241198 0.004214359067218376 0.0027647885424492416 0.007864822268490362 0.0020985717418339363 -0.0076131776593475475 -0.0051275994524793925 -0.006646262809813539 0.0028398223793435176 2.2617003483480728E-4 -0.015344354946251628 -0.00549614143982728 -0.005375981622563735 -0.0036827021110245684 0.009150851285675714 2.3016539840001697E-4 0.004905203850296049 -0.007152147324510812 0.011488076930183609 -0.008670130342056761 0.003124140917895323 0.005713373601044892 0.003929988562048456 -0.005170386603758508 0.0022422253085956196 0.005806799354075379 -0.0036502232463121367 -0.001246188227007612 -0.003141811213818739 -0.0026192045702035623 -0.00800045292954346 8.335567433163465E-4 6.58191470145186E-4 -1.287422168388385E-4 -0.0021504690308362185 0.0165552278438496 -6.711500915147501E-4 -0.018178406529347015 -0.0029878053264018674 -0.005548224837077411 -0.0029765021307385678 -0.006222380068268025 -0.0011056500740972718 -0.007430397393118189 -0.008574409078090688 -0.0011592680914802858 -8.757161150356706E-4 0.006115023082970775 0.003093807170174867 -0.005324739571525787 -0.008166174470524309 0.009588359488779473 -0.007436394373212042 0.021182733298163323 0.00871980207525796 0.00560380879087407 0.006000379230296131 -0.01163440575503244 0.006897742751728485 0.0038392168922275977 0.006453082360643069 0.008673796675464415 -0.011160455284342294 -0.010803965637112105 -0.00464269500515789 -0.009943148538025796 0.007921827432740784 0.004164784937762912 -0.07805396239430842
0.084715047088239
0.006065642325985641 0.0028533633431648124 0.012403505883704187 -0.004500483842071634 0.016018147284596756 -0.003392533597309061 -0.012658240829129289 0.00367795730835596 0.008319261034071376 -0.0036595921952919286 -0.0020099703502182717 -0.0012122223658286796 7.313008882774658E-4 0.012220779397032415 -0.0046350834792456925 -0.007151858326237753 -0.010247443448906008 0.0131571692529015 0.013223960099159736 9.767758353816452E-4 0.0026768763661184003 -0.0041723517643444275 0.0032313865128524573 -0.006366429580191604 0.008637865899394722 0.0016733907199736819 0.0023519930864249975 0.005424069428253098 -0.0032733203967787836 0.004394825302325395 0.005103856932547142 0.006665489294066209 0.0023792615565781344 0.010907903499404582 0.002091315069390866 0.009568263801516992 0.015349225620111146 -0.002583634056253209 -0.0037400397958229233 -1.2517689799766216E-4 0.013238412933483061 0.016044491299221454 0.012181706377769509 0.005346262556625611 -0.0037386434674328496 0.0048787113459321 0.006940387213897715 0.002182437463638765 0.0034669732554402552 1.8603813650146643E-4 0.004754281441841961 0.0075304558345810745 0.007279118481234172 0.00473206770173603 -0.009141920624968328 0.015310544548979397 0.012153545246240356 0.006653473700870131 0.009996406404031166 0.013895956435779795 1.2034031238096977E-4 -0.006882250050679514 0.016432658393401023 0.0038102607395078037 0.003960128461384303 -0.011962483561344314 0.001851913604926846 -0.00698910360992009 0.005716260347953035 0.003917609729637435 0.0017500153705209463 0.022145455988536934 0.01507574099437936 -0.0034436830301719933 -0.013339432304731221 0.0065632726783339135 0.005971726831843635 0.007382235750810074 0.016694012054403958 -0.005497434536194058 0.012704260373159465 -0.001933246879787711 -0.009787468174331081 0.005652760938627759 0.012174007070578424 -0.12054051986756406
0.17128620636042538
-0.012978964743710379 0.007991016050602377 0.008301807143741735 -0.002558683612007123 0.0038172540756325787 0.003900288114757304 0.004715527853331255 -0.0030730443344474047 0.012650239552882352 -0.006285307128366405 0.0022930761874101003 0.010938601315487512 -0.010765823871270909 -3.2926522638437834E-4 0.005233771836770666 -0.003740711005517798 0.0023792547938749336 -0.014998637167127281 0.004611890093509929 0.002759253524344159 -0.0013218510416644954 -0.017290561784620066 -0.013612764232642129 -0.011327094601826413 0.011864585828503768 -3.2671945154804136E-4 0.002792038380015249 -0.007393957027648023 0.001608825082075321 0.0036100556355962658 0.0023070539360048933 -0.004630094002694489 3.7254239035970686E-4 -0.011022849769711402 -0.0015595611450030737 0.009923885057608653 0.002647689164136663 -0.00440123737497908 0.01024584996451064 0.007518253355220586 -0.007791786842774502 -0.005904014139011652 -0.007211830662509118 0.003942196335861188 -0.005501854995993558 -5.338628719682269E-4 -0.010239300684579665 -0.009001396365872126 -0.005470183847486003 -0.0021462228283610297 0.0036862769396190697 -0.001058613680200942 -0.0042917579926365825 0.004789285320567749 -0.012515031560338436 0.004837950559254966 -0.004294150095881861 -0.0014594451590802405 -0.008629487246583748 0.0014502062541424585 0.0027720410982007863 -0.0010410757529772348 5.426245542940699E-4 -0.013275568281996735 -0.0035004886625463814 0.004550842017113633 0.003244589993224747 -0.013672613415347855 0.009746688522487279 0.009079218869480052 0.0032286596030349545 -0.0037546157814703955 0.0032355079634749234 -0.005581946479019509 0.007534613306907811 0.005639666655227234 -0.013919099187429678 8.813541787347962E-4 0.0056498570818552625 -0.01156216470968836 0.004677271873357879 -0.008721843268465763 -0.014859672273623952 -0.003361371454973616 0.001473426938503782 -0.06645306442409614
0.09020431479233826
0.0018535067950436767 -0.0012031075787367635 0.010943559098589867 -0.002707035426739096 0.02040426870634844 -0.002501182589082442 -0.0089722050692479 -0.004128052704094449 0.005036436210319225 -0.010081008321270292 -0.009614841863549847 -0.008215483863780045 4.170657491228926E-4 0.0015465264282932864 -0.010547276244964541 6.375420174089137E-5 0.004259100714242951 0.0071983230641202295 0.0039074703135424695 0.009401446922236363 -0.005557265926214597 -0.005373488780298511 0.004563364252281937 -0.006743305873453411 -0.01809422860626264 -0.010598722525765186 0.019932069278999816 0.006284773650390726 -0.007797757276468245 0.0011640903548325984 0.0031057874237819983 0.007302197967630362 0.004604275677328123 0.0073717508917402735 -0.011073060451002259 -0.00416513834775823 -0.009621634550913898 0.011028341225499904 0.02132088719085571 -0.009707126714732985 0.0015047068598056938 0.00781906407553267 0.010352303097012702 0.006944575681137048 -3.160940017537224E-4 -0.0027670554744514755 0.002705383292921225 -0.004606253010714369 -0.008416638034028926 0.021794860155956282 -0.0031499953705787973 0.009718884538659569 -0.005262781737887964 0.011255107223276207 -0.012774606118985834 0.02131365874576644 -0.0013531610555238011 0.0018686060278428384 0.005765939327165441 0.020623787736808608 0.001180702060190978 0.001923999135380726 0.017983681212379924 -0.0029549166619052803 -0.0042341347192949045 -0.018141973406468438 6.577554793690368E-4 -0.005642320806738306 0.0017463248669259245 -0.002309841864426871 0.014983460325542817 -0.0061755955302716 -0.01185289554962418 -0.009140298645126273 9.64721961535941E-4 0.004005155930207314 -0.007836121711763611 0.007546488049150388 -0.002809438565527679 0.005891560838159455 -0.009376690106080296 0.0026650444959122306 -2.208438175192992E-4 0.0013452075238618748 -0.010233873295734422 -0.17027802035390247
0.23117909409988865
-0.05598463283401722 -0.04374679594686723 -0.04368537523057722 -0.0347788326554853 -0.04200457424363193 -0.027304450774946146 -0.036059445501656254 -0.022509461465930265 -0.03650137306406575 -0.04278878300736815 -0.013026163171236699 -0.03708882215481358 -0.05006353665661769 -0.03684095125264437 -0.02521677838805314 -0.04232799209115795 -0.05848294478087711 -0.04872211408413852 -0.049138517289163464 -0.03482774301814941 -0.03805721026948033 -0.07220407407683 -0.024714902161590564 -0.03243385326455476 -0.054498581298634 -0.054940571242047515 -0.029586742987553302 -0.05481576123892638 -0.018815915273647132 -0.03658066222121201 -0.07040813750409025 -0.0558098118576287 -0.0646604992332522 -0.03150264973951611 -0.036325738659816906 -0.05818520059025092 -0.05679124743159485 -0.034655605182036246 -0.033788148632193794 -0.02312677614290795 -0.04143438912353199 -0.05521023697057338 -0.05763858684758147 -0.04502927362923687 -0.023382114366697845 -0.05269806455436452 -0.017723798848152197 -0.05234942173849806 -0.052062874050071 -0.03889535110229671 -0.03557364445901201 -0.027194051849520624 -0.051426480131004024 -0.06324486408106711 -0.05824988340233425 -0.039707257496004414 -0.03992316140034108 -0.05361249046951826 -0.06083032685344772 -0.051087719702841615 -0.0124641834881469 -0.03013628997490128 -0.03588506978793204 -0.05936601289995486 -0.048199218273538603 -0.05591886968854552 -0.020483442469446063 -0.037827321366805174 -0.04671276297161542 -0.020062061518184824 -0.0455495678043551 -0.022945707204648804 -0.04788468876491028 -0.05324600213931326 -0.03315888091445912 -0.04973701033384524 -0.0297121945241014 -0.07670855055938262 -0.048929099760383864 -0.025627645687461974 -0.04664303873824072 -0.04674585408558398 -0.0393425311225216 -0.035457061589900356 -0.046356793456691116 0.046642303544385456
0.24742098884665759
-0.006415594847884805 -0.009014521705355561 0.010775632344410167 0.005328125519167916 0.0018440148613146187 0.008863199371686198 -0.0020149574586014467 -0.003974297847828618 0.01689799956709764 0.00927123778411992 0.009410595409003278 -0.008615068906653147 0.003006079764063728 0.004188034265102335 0.005805054599017227 0.006626540122842879 0.007368280541600201 -0.002742606860105083 0.016078382456320393 0.01106621975035308 -0.005207632556917333 0.004830965825737208 8.65700668170668E-5 0.007021946856208147 0.0024717853342967003 0.009643303718892196 -0.0011429231867624847 0.01662003559345705 0.004541222242187066 0.021941924727099868 -0.009658107423654756 -0.00716885966061577 -0.0067285357207683225 0.0022130682552389093 -0.017771110054619017 0.020138828995266686 0.009981010285656377 -0.008196126316363553 0.006948429011872429 0.004406431193554037 0.0057698181719831815 0.004353368688984258 0.0030532205203409614 -4.0138908230301026E-5 0.0034680944598630766 -0.010469899371511498 0.017757279677806454 0.013865228275150195 0.011858982202699883 0.009433215903978599 0.007801734186206755 0.001192085849291208 0.010640182408769459 0.00643987308100701 -0.023569430364801858 0.008188206083463575 0.006504332736821075 0.002089686555315461 0.0069413605980310055 0.00616992658708924 -0.008398649466440837 0.011666165182927568 -7.008444208254335E-4 -0.0113289248147832 0.011856387420146806 -0.00790410572177675 -0.014422290263426864 6.066841580837278E-4 0.01056014636303119 -0.0020621647662027406 0.006104886716839609 0.020746195405064973 0.013183542471828623 0.0028223830169230553 -0.01282850592311524 0.007506424884476857 0.014679649499091705 9.697588527373958E-4 0.007153419599103079 -0.0170192770318622 0.00421815918222074 -0.010454569311969718 -0.014095691187088557 0.011092755827091492 0.014595745518992191 -0.12775482847849395
0.17932505296197895
-0.004619248799062936 -2.9102782179088536E-4 0.011340975745085902 -0.013427536950223489 0.006061592499207636 0.008235140670905403 -0.01799296816773986 0.01994745435356826 0.00325276314862433 -0.008409291401027075 -0.02641764793790689 2.1646079813645718E-4 0.02848543212419314 0.008794033523911506 -0.009217905573172041 0.0189789760602724 0.016102669376154826 -0.017000150333339684 -0.015377330122911361 -0.006118995478482149 -7.064460044542991E-4 -0.0020739384326863616 -0.017594268006822684 -0.007747974921962693 -0.0035016250942454708 9.84577085705258E-5 0.009410219219569062 6.150226877343266E-4 -0.002162533881391908 0.001548317375714611 -0.003824808347830629 -0.0037585878946712757 0.013213144942629018 0.018120244690373363 -0.010970238941265899 -0.008637708250049107 0.0074770187445943265 0.0184839176348234 0.02330085992871607 -0.00547181664875228 -0.014237453558607921 0.010254766053090305 0.009632659742182272 0.009319332454947702 0.0026234263523826754 -0.025726870651231498 -0.007489820206221756 0.01710894230000048 0.023966135210563712 0.015722259483553085 -0.011314097716575145 0.015404582943176391 -0.0034560412236401684 0.002414746313531883 0.004748858793489082 0.011049847345156488 0.018221954795828648 0.004482441293421176 0.0046581965042363765 -0.004865614250091042 -0.007865785157503115 1.329858315954453E-4 0.008107603380824915 -0.004909861153803945 -0.006048219203589326 0.004947229449594475 0.017031309291463348 -0.00583095844909927 -0.011812710931882237 0.003051040285965864 0.001950087818406389 0.014919047953251172 -0.002538212795994492 0.008901024210576506 0.01580467572282004 0.02162808655025845 -0.010479732179061512 0.013269579134428947 0.0012258705722843378 0.004947023347185834 -0.0017124425903835665 0.01436616002434608 0.01581227225541811 -0.008832123722351138 -0.025701485984369728 -0.23928528598965842
0.3130018402816376
0.00992240345216374 0.0018222387905651254 0.005799306468572356 -0.009283144045787459 -0.0011473144205871955 -8.906247057191179E-4 0.0016758052175080934 -0.016511878597537666 0.021671588714612767 -0.016392699645244847 0.010298350310244208 -0.007122569749670057 0.004296123988325872 -0.002834553064936159 0.008045213854570785 9.411397468830562E-4 -5.241082692630455E-4 0.012729119474703789 0.009369489993278258 -9.253495143139367E-4 0.008710480927896789 -0.011521849906067746 0.004975662670126442 5.859308963958166E-4 0.010680740840608646 -0.004612863523428151 -0.0010196954944151307 -0.005354203718750518 -0.009745473388246847 0.005474344181607931 0.005582056519464981 0.0027159963170196324 0.005679169565351933 -0.011732416499521522 -6.312846109055327E-4 0.01747347134510546 -0.007827988396920409 -0.014497923049426218 0.0028601329303719744 -0.004472388946769387 -0.018524582807253304 -7.546168732706067E-4 6.245130465353186E-5 -0.012410483844481278 -0.01865262257548017 0.005865024335928655 0.004365855189413061 -0.006212469819322016 -0.007489570640366078 -0.010210344992287523 0.0011779487751475666 -0.010457347483454888 0.013095286715851391 -0.00781310323003077 -0.004977615885712044 -0.01016023704711227 -0.005873400370700629 -0.0034276012791326954 -0.001926337158267598 0.007458192927650713 0.0068703657803020485 -0.006731188061106543 0.018689204170207797 -0.004435552191687545 0.005936451190818942 0.006870948512890768 -0.01108533832240715 -0.013368900389484628 0.0016315487436628197 0.004584383958292608 0.008895723495982942 -0.0166655391768346 0.0065679368722387525 0.01566354542549991 -0.003628405441095609 -0.016083567203975704 -0.010678920000756995 0.00645437264924649 0.0017031049300355618 -0.005813570743623908 0.00830083930178755 -0.013371440236864603 -0.005540075408019548 0.003827926285444665 -5.682778347700058E-4 -0.11767789629223972
0.13291984667793583
-0.024313327650066295 -0.006854124277604891 -0.008819839603681556 -0.004310221465046146 -0.011640905116166144 0.005994985406045275 7.595855501256667E-4 -0.023466310139161832 -0.017738883140176197 -0.012045705417770074 0.009501010625346716 -0.02549452714412816 -0.03374241720927911 -0.0048911127489200444 0.008563733961580028 -0.009627452059644506 -0.0124819215258214 -0.0031101649614941346 -0.003847002667979965 -0.008044353725304045 -0.02971291633547018 -0.033873126774611344 0.006841735056530063 -0.009640224496797111 0.004675077877160897 -0.021012505894265364 -0.016649484367826647 -0.030804625017159516 7.73798343278021E-4 -0.007112124175338169 0.005176178590385363 -0.018071743376689056 -0.030706187060432363 -0.01591117284746648 -0.013505305096267307 -0.009199303299845078 -0.003964306028180972 -0.027580594382379708 -0.030245960664842808 0.009466177006381476 0.008538660899417745 -0.02061862090898737 -0.011676534696943889 -0.01376950543659031 -0.00494971159981816 -0.025246075070215326 0.0012075614305879678 -0.006157786553758644 -0.027228877804927346 -0.013085511940157724 -0.009958405486170042 -0.002749512197137895 -0.0021644914431189865 -0.00944132827230427 -0.023034416795199745 -0.015995151959213777 0.004741005337673772 -0.01223267223781537 -0.01600544816646555 -0.02214663110085213 0.010016794955964107 -0.012129832405133874 -0.015196087423247689 0.006992282345132119 -0.014613138120107881 -0.04300204081959893 -0.012753507498937174 0.003343640577131208 -0.008630687801563761 -0.015152440393624627 -0.03557369309189933 -7.656413120680419E-4 -0.011823294086626525 -0.016942584674077863 -0.008096775332678555 -0.0015381340629570044 0.008749517604568753 -0.03217709344543041 -0.005377169478176768 0.01022433822492717 -0.028641221136050294 -0.038262772655356755 -7.267597145226923E-5 -0.010794319627663213 -0.008558021950666078 -0.02842393640646314
0.19100032042332613
-5.187840011520139E-4 -0.024203130861255823 -0.04223173363996056 0.003920656797454446 -0.03177807277305119 -0.03190390645467018 9.161808330823272E-4 -0.05026666071740407 -0.02059897871669124 -0.06399743339673691 -0.02498586514736216 -0.035406236946770635 -0.047414399831144864 -0.02178158446787047 -0.03535746158770107 -0.002602882870839778 -0.0549049064995595 0.004924137579563359 0.06910561882003925 -0.014714383619010172 -0.026807986642093124 0.0059846834458894 -0.04672245541727758 -0.03384396129800887 -0.049835075882289026 -0.019789638022179687 0.051750555343071124 -0.0064506267737554565 0.00607635876808029 -0.004777577745872059 0.004537123799460019 0.054148834919625244 0.008706061618959678 -0.024056586990787804 -0.02606176463406074 0.010127796125555038 0.03336829417525362 -0.057615349078524246 0.00922769874148292 -0.04878405412623116 -0.022352869486479965 0.027832667939550373 0.03342638809523815 -0.0058093654993747945 -0.05370353049685872 -0.03671024272305468 -0.03383229913446 0.007986966160885654 0.020060514545208515 -0.00616335639371733 -0.06423683612496667 0.007635824683038529 -0.03417979689257027 0.03859019541397376 -0.014416727432218184 -0.035285454070432785 -0.05967097066550822 -0.05564050729305033 -9.912557764615702E-5 -0.015572015444964478 -0.010777651386184507 -0.02293934970132541 -9.221827623636129E-4 0.027836935190679528 0.0062874370091625656 0.010374156768555557 -0.012391893694852732 -0.027909130445470297 -0.0041068240625860486 0.004808624176423563 -0.014575756952791096 -0.04859605930234371 -0.015330166992060933 -0.08030694534694659 0.039851393779427584 -0.038590894409370365 -0.08038059675364868 0.02393373211721149 -2.3716508972515727E-4 -0.019278814259709683 -0.0018665167860334785 -0.0026323341915755302 -0.03657108679282717 0.026016056033451123 -0.02900018063651851 -0.1273952811248706
0.10099478638629383
-0.020322336410527313 0.016141089639421253 -0.008679079863993331 0.005397399909993519 -0.002615031906659484 0.007958699409998765 0.005500896645967088 -0.005861530265240194 0.01845908319669916 -0.015602070776578096 0.015669719230563976 -0.01260251294833834 -0.011360972101370645 0.027428118712021027 0.017929758853865364 0.015552633505060172 -0.026294981242069304 -0.03859476968719622 0.02926504057221861 0.005314245661150466 -0.007943071807071263 -0.006338122139952831 -0.015704361617297283 -0.002844527913806173 0.014494934210980602 0.02334737179266176 0.011650128154544888 -0.008080802972779183 -0.011904334279219966 0.02998357574188961 0.017593687990738117 0.006903116978072737 0.005156463480337022 -0.026517707202818666 0.007615055220366026 0.009745609950338447 0.004825191340238439 0.012371177790355754 -0.0017778486384909488 0.009169202314907738 0.010382766658060308 0.02384477770815071 0.02860077916943362 0.015337140180754962 -0.011218506899352722 0.014050042007729514 0.027123802457163452 0.011159251849512384 -0.014217379839624419 -0.0021857029937645523 -0.023159128504854902 0.02810117432911843 -0.005131413135431921 0.015390769933140806 -0.01528474590653779 0.006031361552931408 0.011394196971238753 0.0033352326707869187 -0.00818360613761185 -0.015214282901099664 -0.011108814331228992 -0.004125414099307195 0.0014983357495655402 -0.01841560913273273 0.007646676204764927 -0.012631268642092278 -0.022657125322106314 0.028164234775175115 0.005265461607829165 0.0037130733967208293 -0.0014841939057794054 0.041654139275219666 0.010050815133717658 -0.020304522572940725 -0.004201792885172489 0.00707630583602262 -0.003678433157253706 0.02945351216296373 -0.036986926074670454 0.011378407572810055 0.013501687881758723 -0.006233311886400579 -0.013764435740494154 0.026565533071478433 -0.0021104134271866925 -0.20438923958578362
0.23825323844748897
-0.012161520277756315 -0.008622042569704547 -0.02176973557528409 -0.014804094034539557 -0.007462424101152236 -0.012529619472192926 -0.024962140587556244 -0.00940454944700428 -0.01877243504378808 -0.010390454147702852 0.00153114343811529 -0.0033962520161841306 -0.026451282181600543 -0.031429688299231776 0.007384229631548993 -0.01817496813946547 0.02105476607263493 -0.004699682799077252 -0.031701743979457846 -0.02802048228208244 0.009116728470478994 -4.445396197562799E-4 -0.022557998687401486 -0.022716843492875595 -0.01439946056105703 -0.024948388190707063 -0.019619508198459434 -0.03413547517753387 -0.02426618426398822 -0.040752457786232696 -0.009374232681596428 0.015006028162566333 -0.022132447983993848 -0.025678021567927107 -0.015084420840850335 -0.001811616132477986 -0.020949441445394137 0.0034408288379754533 -0.014219360142713938 -0.024203245510393545 -0.032706642010638574 -0.01529926220832524 -0.006647328207332361 -0.028215137910931692 -0.00588871897960168 -0.022487249319721216 -0.03039625024622551 -0.020257209242908414 -0.00875200564970202 0.0026533021672079417 -0.03247636148217691 -0.047870801084340546 0.0011412509196784052 -0.028048097410441834 -0.016572236144930124 -0.023480589801300245 3.909950098841222E-4 -0.035716816009669354 -0.02229747691486538 -0.01111453250555488 -0.002585191204837493 -0.021271941851916814 -0.02619583355879345 -0.0274297580721297 -0.020453566364292013 -0.03263401034305594 0.007020001138139601 -0.032322294578997865 0.0038728492990277043 -0.04787963721776988 -0.017215380353189536 -0.036024834230049436 -0.0211377950102434 -0.016616401372827893 -0.043436589936166156 0.0033149783924319404 -0.020518646847824902 -0.0033032550903297738 -0.0451389901131603 0.014523482941086852 -0.02675835036626001 -0.03391368667091417 -0.010223060244829862 -0.009437526866283685 -0.01404770434697672 -0.01214050213770595
0.1645495618981632
-0.0032622500819397236 3.6065526879677654E-4 0.0017258349833455628 0.005249320787017792 -0.007049614680926844 0.005785007989913939 -0.0012189384969469841 7.479266538977387E-4 -0.004554971195729997 0.00286788219805439 0.008014343362736763 -0.005538218083981442 9.217689322372613E-4 0.008758295090970423 0.0032408147867424445 0.00719177124173962 -0.0119574442996726 -0.009919050241600917 -2.8063201501832226E-4 0.005046400997215461 -4.0831436764724176E-4 -0.006246586096728881 5.528411183499851E-4 0.005353319095906836 0.004616776895221811 0.002016860222936233 0.0013806130192407264 0.001102497645962718 0.008228771645648766 2.870040582964501E-4 -0.012031338084245499 -0.011395149771477158 0.001394132979019331 -0.013207235828081835 -0.009228618419275384 0.003152528474626302 0.0021443375275522337 -0.01382263503341001 4.1200561071417016E-4 0.011926540618941658 0.0037075972041140577 0.0039344109967535835 -0.002880735557109703 -0.0029997130387338974 0.0031971189771253473 -0.0061791129377100785 -0.0014566123352885369 -0.0014411255486961724 -0.00744869163628885 0.0015322479486284495 -0.005025741789117429 0.009038880504673637 0.0066845326971806075 0.0039505633832351466 -0.01676757902109289 0.0017304267694430331 -8.016215427502131E-4 -0.004752961892193056 -0.010818341351806027 0.0025202935000462135 -0.002388378851937572 0.012461316648734634 -1.8091921332437857E-4 -0.011680133973017755 -0.005328296621956107 -0.0017470618443410266 -0.0030625509146487225 7.065974819431673E-4 0.002347587010573476 0.002011607292934639 0.001230591684560009 9.439232275375584E-4 0.012666660144627175 0.007622920948878302 -0.010778608389228792 -0.0013266286509101939 -0.001782361013834756 -0.002972067436055501 0.0018950599965281843 -0.008617936740458427 9.097823881795766E-4 -0.0046016021263796435 -0.011740636976020015 -9.647508524456468E-4 0.003936077657915547 -0.07497445747492247
0.09460305829919435
-0.005915582748688608 -0.010750745789798646 -0.012422209193541511 -0.011964346366569322 -0.005646807069808026 -0.0054921921949634585 0.006494203206338461 -0.016488064586720315 2.3996527832273568E-5 -0.02732051829676537 0.015030815531172246 -0.002202458425620751 -0.0036771905651213303 -0.0010348145164413892 -0.002380806654930972 -0.0011663379360080574 0.0029983924677157536 -0.015868626028178352 0.0026323814196886706 0.013574493902960049 -0.0019293657265638522 -0.021639230334805304 -0.004486454310555708 -8.930871883424516E-4 0.00798588410186028 0.007080687248726966 0.014915420839289652 -0.01574199469172759 0.011322028607516535 0.008559563220148763 -0.016460394422174035 0.007808018172812086 1.0415103241273931E-4 -0.014973769159231069 -0.004344293328077189 -4.768065827562904E-5 0.007808584249073295 3.7387822377322495E-4 -0.004676076697937277 -0.00990841841477239 0.007545076067873513 0.007732048233366321 -0.009701966827829214 -0.01596664180506401 -0.012949646244912277 7.703462823843676E-4 0.024048349113305292 0.006101143029385307 0.013584406445484247 -0.009930408024774497 0.008415964409389885 0.009023935443660243 0.0011068715409685269 0.013705943273624229 -0.012906961430481968 -0.002382134689502209 0.0018746438526320503 -0.013908619885187318 0.001291326699345905 -0.007601554037302089 -0.018159463857163965 -0.001115374157545603 0.012313508551419243 0.006212303109174999 -0.007879292141048967 -0.017864917368559427 -4.814541792509353E-4 -0.014632222711331591 -0.0034147665160451594 -7.163547734080663E-4 0.012116897938016187 -0.003116711877482019 0.009734493347335817 -0.015847371034591592 0.005772532256142732 -0.008564830805171468 -0.003629121013606666 0.0012523302528188469 0.011492219564993772 -0.006758543867615156 0.011756285688579246 -0.012397534303489641 -0.021933733278330432 0.023537455967913557 -0.01699033097093058 -0.10354022538636504
0.13024474211536344
-0.017717477051523184 0.005814848249495138 0.009124755163493408 0.0016472745779411708 0.011216125725849263 -0.004354892483465489 0.004551173448830361 -0.004205007280654691 0.0014332039197045264 0.015348091836730365 -0.016096469842984098 0.0022825923212237086 0.006481029041337313 0.007247905497335006 0.0034803102506471358 0.009568629644732546 -0.018443736698502206 -0.027272687688215252 0.02209575987926574 -0.013929026229859587 0.007003568846903388 -0.003317300335302496 0.009340388916441723 0.005043438422273181 -0.014132745889237222 0.004047800663436529 0.017881997886072067 -0.007916396555331082 -0.023775622416551533 0.017867390690219913 0.002125639268345708 0.019410029768236393 0.007289763480786422 0.03206411574467741 -0.008030387476537316 0.003268393039027461 -0.0033548894270444937 -0.009713152317948366 0.010826838540301488 -0.022668156893890717 0.004125853838215065 0.018066257300602608 0.019829431365614165 0.002609589636298546 0.009246077116201727 -0.013966477609781813 -0.012902431278363635 0.007843206221103688 -0.009360135817652118 7.363881914257899E-4 -0.01982410223141644 0.028794276175920255 0.0010189270234772035 0.012862647412504752 0.01005899977512304 0.012598647421616866 0.008172106145279412 -0.0069576986154474794 -0.0022629219616764505 -0.008089540908334584 0.00313627096398759 -1.663582199046722E-4 -0.007633212251199716 -0.008332093521455084 0.014793713736800872 0.0043557875877974096 0.012942688211103915 -6.569643036537606E-5 -0.019543643747068903 -0.004120112569900263 -0.002179995708655178 0.015247979297899717 -0.004630157481028276 0.003159290298828806 0.014134199212383545 0.022072502753096482 -0.015332252313954468 -2.142624034357642E-4 -8.883982089959464E-4 -0.015570787743754979 0.0065319986445639905 0.015885925829259566 -0.00673075781609351 0.008372826990898495 -0.021695549626325115 -0.19516303690614956
0.26944706664983775
-0.012495945354821958 0.004773632767413435 0.012133687534296679 -2.6879511796006056E-4 -1.30493533447617E-4 -0.00875277112142264 0.010915445002676367 -0.0035277827571268054 0.012429031964835174 -0.009990264372634831 0.009428552525352291 0.015223400421457539 0.01107126332364748 0.0032472773224098183 0.012283270569184617 0.005667087448176867 -0.009906914431595496 0.003101506577609263 0.022064622530662877 0.009572200774386995 0.006384236915038806 -0.014343005215329234 0.006406307525700859 8.764022869691165E-4 -0.003321032520845032 -0.0011196033003914993 0.012468977381789618 -0.0030931602512901846 -0.008008646869543076 0.0017534891965711198 -0.013021133002124468 0.0036828559579795243 -0.0208823206778422 -0.01229849148750715 -0.004862637479151261 -1.9740888149838795E-4 -0.003140349423481762 -0.013755840843890182 0.005667677907456356 0.004713819007449929 -0.00221001991846675 -0.0018070666825964643 -0.0045362905270017 0.002556021839058526 -0.013216741101162041 -0.0026673613885104465 0.011438888486015751 -0.012848949678112788 -0.0032626167865032535 0.004050398036678349 -0.009323790429559407 0.007393475717966091 0.005713878166690366 -0.0053083972614708045 -0.007144378416295435 -0.010220012424671375 -0.012697146456576701 -0.0035650794822078705 -0.01520472828385502 0.006715996899170962 0.004037811453274408 0.0025153163101039188 0.004276904832325528 0.012179615171041684 -0.010080228968996458 4.824060918496922E-4 -0.007592193965484731 -0.013510531601970922 -8.561192109121675E-4 -0.007671035306222874 0.00671647714461648 3.691225449554221E-4 0.003264522823996085 -0.002559966897232246 0.004924282825034927 -0.01498404509318707 0.007282344453294946 -0.009978212227051185 0.013831121775756279 -0.01426111455578875 -0.00320327117288805 0.007837983065011591 -0.01476223383148743 -0.0026563596006811407 -0.004509674423811663 -0.1129216508732754
0.13414802345643634
-0.010036891709388962 -0.007305393015763091 0.003816443097573669 -0.030696790323795572 0.0016648592239966891 0.020667081114417077 0.01476588122940824 -0.03599984416826192 0.016415597291935754 -0.04393279128196327 -0.0039894688939961 -0.014464138948747164 -0.01259318649833661 -0.004838739425592965 0.007639802721919163 0.03348157304582944 -0.007473900353088045 0.007116431466025428 0.01906944886650339 0.013771013155395626 -0.024180930745896684 -0.028853735700124138 -0.038486316212973055 -0.011698742140424202 -0.03236890975247576 0.006760001783739979 -0.0012573813970864704 -0.041424971488335745 -0.014341182814578088 0.009860457258183606 -0.013232080861253936 0.016516047209445776 -0.009336554363588972 -0.036201096394713264 -0.004795506430876746 0.028392202986582665 0.0017998284629591357 0.0013324388405690957 -0.03952520674492343 -0.019309623926448312 -0.01981816981950766 0.026325440495409327 -0.018979473164526844 -0.013676584065667855 -0.019924680590991346 -0.00571836975155494 0.022067215348080232 -0.010551343427263165 0.01039117140315259 0.012693844365977355 -0.001804051645150412 0.007898417951202871 -0.003414544895159484 0.03326659195122663 -0.002159309860502516 0.018490888325505158 -0.023294776142879007 -0.026029858706395174 -0.004574587212974425 0.023063688616670984 0.005152975596399726 -0.014128075256376013 -0.008391358755684216 0.0076834311072671 0.02569040111226458 0.022496392493605955 0.002281036750854517 -0.032586922465814946 -0.004073093347063833 0.004838862403420666 -0.01305832262705958 -0.0553734667792303 -0.0020255773173753757 -0.008600082457381418 -0.01505309124319786 -0.0325429319387751 -0.012677472198214036 0.023640394788423655 0.0015086965333122333 -0.012215717504802166 0.004898858051403061 -0.02375255080957097 -0.04401845596052716 0.00875391818931157 -0.029749043415563947 -0.12211735446956261
0.13282340236627552
0.004443863103313004 -0.003952522307719832 0.005043995274364285 0.0060543787327553295 0.010599137621687037 -0.002992868506592461 -6.486429254656318E-4 -3.0649905814350125E-4 0.004535258797886402 -0.02810434537845233 0.0013044319064836668 0.007849856239798187 -0.0011028001830178534 0.005652822951104597 0.022651133054634245 0.006705368775989464 -0.0026316330007428662 0.0011621781609637918 -0.0011435655462581104 0.0027060938170165617 0.0029129914317558587 -0.0016788564489478644 -0.006696499174921563 -0.011822421749816939 0.004304401882632636 0.02297568068627542 -7.415764747273981E-4 -0.017678478145791394 -0.002999546215075413 0.005996368996660254 0.005698668333014076 -0.007059776154246907 -0.00573238767565536 2.4118579905583437E-4 0.008033611036293074 0.0143423793279833 -0.012256916838044939 0.0025503929658449043 -0.013741069305522213 -0.002429779687082472 -0.007134253605362087 0.012460527844418381 0.018545870580646995 0.008144183071144118 0.005003073741547841 0.005951634971556741 0.010722000721693289 0.005383098793731344 -0.006432426036789299 -0.009434249413334704 -0.007989690123946227 0.016510423652558035 -0.012863357023712434 0.022509956574331285 0.008666727779859941 0.014495082693632014 0.01576122710947863 0.01669210667168974 0.013934496711778523 0.001523536259795539 -0.006020200326929997 -0.007639518629716966 0.021814420669738 -8.439877630449931E-4 0.006054522288828416 -0.0026764454303555554 -0.010263706643894227 0.013053597092425939 0.016119904862915715 0.015804465256670192 -0.01311704135579279 0.026206043042533708 -0.010578627649024064 -0.008717990306328506 -0.0073780707602714435 -7.642823410968295E-4 6.52701719606407E-4 0.007512220315613717 4.533102488014997E-5 -0.009909972523349884 0.017079964039420126 -5.124110941477377E-4 -0.008442675820328163 0.014794069739537475 0.00938583258261232 -0.22061917933607508
0.28037570234172327
-0.03748888757930653 -0.03831327707050011 -0.033105427289007165 -0.030532518682319484 -0.025467035031908107 0.007537483321763118 -0.02315927622419121 -0.005992308701824638 -0.017063221368833235 -0.02245524763657804 0.019135757800776157 -0.008473000511551787 -0.06580211270007066 0.01185982359163423 9.155676015941459E-4 0.013848696265298409 -0.009747474043458996 -0.006960529631977055 -0.02021212483434005 8.000856282274188E-4 -0.032707581729239016 -0.024119664796092958 -0.04248645246427646 -0.03367666074186979 -0.0315015389876083 -0.015459127376659613 -0.030838496851637337 -0.05511937673473249 -0.026137621094202628 -0.0469581043587797 -0.015431932707846097 -0.04767606950831196 0.002579242857618436 -0.015640373563076647 -0.03383510613767775 -0.021620937710462265 -0.005291636167569028 -0.025959214417604046 -0.013309289050984507 -0.003698495232071705 -0.016250981450042765 -0.021209782983632526 -0.023729781371421902 -0.011773652843651151 -0.010755045421524551 0.009954174480610714 -0.02401292084795596 -0.041244527690936 -0.02369309381345113 -0.030829418346402248 0.021677183644057636 -0.01592430946771668 -0.028904834479018544 0.0010064516149568144 -0.018227109422928916 -8.706034257509379E-4 0.014286036820972663 -0.04162875505074097 -0.03182869627516395 -0.03438440125404687 0.019077097686769153 -0.023780125135489355 0.011799968933821008 -0.05013946555005646 -0.005123257426441325 -0.02492715445553797 -0.026674872382806317 -0.010084762469824973 -0.0059454747796959615 -0.014402110653383454 -0.029013900572811807 -0.017859772598042622 -0.057314234716765264 -0.03575248327048275 -0.029093009907988115 -0.04053716644633882 -0.024764116184701594 -0.028092183384257632 -0.019296435636956173 -0.011349965441904968 -0.020398693180478093 -0.07083361184141622 0.005064829357834474 0.0010432310770060699 -0.02864206119956471 -0.03129525916282545
0.23867440305563375
-0.05771900599720231 -0.04601654585151043 -0.042254733036549204 -0.05213146461193415 -0.03172769922339878 -0.03874848968442707 -0.03864602795461231 -0.031355976100498416 -0.030536804351448944 -0.061182951261247544 -0.04539691111842264 -0.046824456661646016 -0.04486143606916077 -0.03447521121993072 -0.03585316631678475 -0.031485461692984315 -0.06435890102785852 -0.029397518931443586 -0.03356115052906296 -0.040885555582225924 -0.04952445030281203 -0.058845857811983135 -0.029765885778473982 -0.03768718303535374 -0.03500733440402825 -0.029826542698579313 -0.028144541025769538 -0.043448739580676375 -0.05286610776937242 -0.05802951014701317 -0.060220870225418006 -0.032077455454452425 -0.044709090860776214 -0.027376899006592504 -0.025587798027552202 -0.044990997118987776 -0.03781094271181842 -0.05108003961199957 -0.0324028344299132 -0.057204680286637 -0.06296747811090032 -0.051825880709473325 -0.02976251386940538 -0.05464166559703181 -0.04302920726388601 -0.040914588999674324 -0.026851585431366596 -0.03749835078899492 -0.053025711148759536 -0.050373628753049404 -0.0529577722353573 -0.046512321671298464 -0.06459489202763277 -0.055942813987249304 -0.053309357744040296 -0.068678924262399 -0.04543264990169976 -0.04827603469754784 -0.04664675546037338 -0.025166430189520674 -0.040291974675477425 -0.04453442936076756 -0.05299073431825344 -0.035666335712470375 -0.033733611931116354 -0.036483526956395076 -0.016287540605380117 -0.044973454558053974 -0.04819806370017425 -0.016510045855969074 -0.026818601458210772 -0.01333812163005092 -0.054142102782622416 -0.0827609133447116 -0.04276992529230649 -0.05434210473164258 -0.056895127631876624 -0.07156442991558024 -0.04687348450759827 -0.011148181928515015 -0.03461463448503527 -0.07251006330873876 -0.05291153119871499 -0.03966533420224224 -0.033341637169615974 0.04853798466328455
0.2789140834027887
0.012908952357436011 -0.022334888915393158 0.006233872955348294 -0.013988755310411863 0.02876994731320457 0.020654655921576812 -5.937436559040635E-4 0.002423172963339488 0.006019771261602396 -0.004333531836431556 -0.0028606342014636486 0.028488996344826996 0.012017624495276134 -0.005285462952355674 -0.010308283519348638 0.008231823644607617 0.03400691171064315 0.0228818282611085 -0.021596863952423554 -0.008807148358325002 -0.005370283684942468 0.03948491411403762 -0.008998389242590709 -0.02407231171377111 5.744400156953715E-4 0.014661578193563764 -0.01978372897139874 -0.018445646002888328 8.214077036496174E-4 -0.026546661631341367 -0.022105117977978928 0.034575925076534064 0.020534364487428416 0.005793673527260684 -0.014575820514588951 0.003236553142518853 0.010986083928875042 -0.030885702418921173 0.022356127460740626 0.006220143449923888 -0.031675914633581936 0.012036642880584836 -0.0013368555963105874 0.015956777091407897 -0.011278756904055373 -0.013561572339747117 0.00860878597006743 0.0073182413236772105 -0.00673346697549373 0.031100427171899588 0.0028420830620836716 -0.015515442587313282 -0.014691925744935571 0.006893576628463751 -0.011863548196001172 -9.644879113645071E-4 0.012030754242172396 0.026818976484137776 -0.007536540679699206 -0.009201379848938132 0.006146426350329487 8.398422981778304E-4 -0.020600213498884818 0.0025223172225663265 -0.0038552596567565664 -0.0011531070889543664 0.008456573023817898 -0.030346828078040223 -0.01204294336331 0.025814387209370123 0.016587751447431555 0.013080170492132146 0.00869297206379178 -0.009331996747426803 -0.012732808303632494 0.020437488972629946 0.00412556023255203 -0.015795799329095223 0.027294899754525856 -0.0011421365784120873 -0.02522357090184685 0.006570467938815547 0.004044028964992706 0.006870580778518766 0.021213079092885632 -0.2283012740691592
0.28698406380039443
-0.0016080811840536013 -0.002526714062034613 -0.00930649691337978 2.026494611439438E-4 -0.003872775898699561 -0.0051019833697341565 0.007026522556666421 0.006908414780199351 0.0018176788849987658 -0.0074123784864037695 0.01646198174154946 0.010976388330789417 0.013466287493537853 -0.0066608837098517835 1.691681576856601E-4 0.0019610824138274947 -0.010911730576446186 0.003147190966545812 -4.677932564002778E-4 -0.0013567840993098069 0.00663771491636077 -0.004217718854438623 -0.009291362100514924 -0.001241591735047771 -0.0012787003987561082 0.002453246204389677 -6.229100170773952E-4 0.0034580431040566665 0.008386376724687073 0.011262902837577589 -0.005008888138660676 -0.010444574717006114 -0.015206731027928426 0.002805550044121574 -0.018487715413653943 0.0050379672862881295 -0.0032071301777648457 0.003566091755440681 0.004873326236080016 0.005579068586546061 0.009378044641388654 0.012554239401680127 0.00446406041592193 -0.0015641392566255567 0.001233158200867315 0.00673640802798705 0.0041537877306483464 0.002422840121330198 -0.010262998023397005 0.0033844924043677045 -0.008486226508195398 0.0029282171459124877 -0.01113482927572998 0.005169133650322831 0.00987080820602413 -0.006998316272982861 -0.006707210066873307 -0.005076758395686158 0.0015224697535807421 0.006652948133517589 -0.004111091041072969 0.003530820440783009 -0.0028136870976547238 -0.008203111981572152 0.004932511109192472 -0.006240434275958647 -0.004135195553794647 -0.006436463083525528 -0.01436549715089414 -0.006776380819286903 -0.002282087215517146 -0.0012642348288817965 2.666284847188206E-4 0.008771014505077885 -0.010648971864069837 4.8684035694379954E-4 -0.0026145808218503326 0.010288181910021114 0.01772612351706874 -0.006550204649481889 -0.0027733732560258225 0.007668500427666014 -0.011146944791996441 0.006257587842022804 0.007928671985974101 -0.10961909762568715
0.11064906940878998
0.008874502842699122 0.005806712261891799 -0.004493551670866643 0.00402795259304105 8.144362709970062E-4 -7.537368009167656E-4 0.011756713878165232 -0.003562368236647895 -0.006700600915739208 -0.0023643492800378917 -7.291441598775086E-4 0.005284591287176195 -7.742541911653134E-4 -8.69137316375863E-4 2.0490796494980167E-4 -0.004243482247895802 7.564739138753968E-4 0.0033189667951740317 -0.009683790137493906 0.0044618367477380185 -0.005433636433986985 0.01477545063968305 0.007090088415903718 -0.01700655122008702 -0.001247255989067223 0.002801261176193047 0.01200805557680595 -0.01751310529173896 -0.005054194933089304 -4.496008371494616E-4 0.001355169990692608 0.005235838218672015 -1.0946664531369914E-4 0.0067222922049914756 -0.005193788333598777 -7.346148431565672E-4 0.012345195787581848 -5.900718651312552E-4 -0.004413074851428424 0.005665519383604978 0.006052695343467672 0.003769809585947215 0.01635357612569423 0.011717434031690895 0.00974532962790956 -0.008808018200301611 -0.0035785589882380083 -0.0020254234216354064 0.006123651451620352 -0.006043587129792537 0.004725913242229802 0.01126105481702123 0.00185185692339363 -0.005569328567907565 0.012031482598328412 -0.004055595608939195 0.0011286574175505915 0.007343710795562685 0.0019725811912833765 0.007174314264002996 0.005607433622950073 -0.0058834986667729945 0.0011535113843181297 0.00498289820998575 0.0024102935344088327 0.0010261750736205977 0.009113352530134951 -0.0020782874203868103 -0.018698870395018233 0.00830410196587505 -0.013415469433288923 -0.00353905258524829 -5.6532815463763315E-5 0.002460635119995292 0.020695875163360068 0.01804954943864091 -1.789284291103838E-4 0.01738155044480867 -0.0012136914978220278 -0.00592736280688375 -0.001565679994149173 -0.00828664808180786 0.002056961771544031 0.007106504815184421 -0.010499792807562481 -0.1597438194047417
0.3549823417346042
0.0062049581101237 0.004353626413082829 0.00796629509133499 -0.006809504811968352 0.011986325588083928 0.0060134252428164035 -0.012009348412424549 0.018186333499465166 -0.015969641320871936 0.0017692521469963032 -0.015470414835139874 0.0015107046015662702 0.0027768024395666367 -0.0072305965829577 -0.012687867269657755 0.012720169894996258 0.003543185866741834 0.016088520870759074 0.009610232837170878 0.017211971348411934 -0.002995526330681674 0.02379248930946385 0.01842700168469677 -0.020743791091230063 -0.00521784046911691 0.008746082385616343 0.016870851296740902 -0.00485767249602259 0.005714658129565197 -0.001179572547400916 -2.6235358585897494E-4 0.00649803727436795 -0.0036020768920588648 0.018918136180647013 -0.006630421919008487 0.009633710452243795 -0.0015341280395931647 0.01792499516713303 0.007765390134059749 -0.0034385355594078564 -0.01677029180748955 -0.004824062993195187 0.01738999694441708 0.018824399650309253 0.00717560079254426 0.004487436084617878 0.017001704636392747 -0.0010040415424083997 -0.013668450421547764 0.022819840682854805 -0.012994784751519514 0.007134787354413417 -0.016897109891672778 0.002689899894235304 0.00707464063745831 0.04804528000704499 -0.01844196742559714 -0.018914150123949775 5.439916839448434E-4 -0.004057508732499061 0.013174727228235953 -0.009441491213388692 0.012383266513163833 -5.970568889403997E-4 0.011888375222102471 5.221684581176396E-5 0.015039643820418626 -0.0037169307735360852 0.006158169446274944 -0.007681328151102517 4.942158184718247E-4 -0.018331840478573745 -0.01957263332550707 0.014725754966171367 0.007795513308139452 0.010655555875229138 -0.023442360953804742 0.001425623719674259 -0.00793819997755916 -0.0026022667746266564 -0.0024998798411403856 0.005292405070934217 0.0061844286606041535 0.005504877439851349 -0.0029664587479819407 -0.29989982982985236
0.41737656543431567
2.8178350449892627E-4 0.006091387268336451 -0.01971166323662373 -0.005622948761987254 -0.012982958806823906 0.0010034888298793624 -0.00475072116917061 -0.029562413075756223 -0.005513923323986899 -0.011824310832894864 -0.011996357737994928 -0.005872209118157088 -0.018151279827400134 -0.016437434930972702 -0.024607729658931547 -0.013461310437891923 -0.007677290296423883 -0.013610299313292868 -0.017492360428525065 -0.02528303341878625 0.0028801622398231513 -0.006159274038160578 -0.020640555248896353 -0.026571448277967088 0.006622351618616928 -0.019093290350117236 0.013849577793657905 -0.01710560303924893 -0.02424099778103216 -0.01438285887133713 -0.014481590930041597 -0.004256309917818363 0.008877662900346407 0.002651429950967694 -0.006948722367142413 -0.012195659654966773 -0.011276304407876369 -0.014269790908327714 -0.006863251736904347 -0.00834650217814753 -0.00809653467044175 -0.01309812472068426 -0.005252793838952105 -0.00280982880345802 -0.014934293314636912 -0.027889367126120505 -0.0018070489374136165 0.005788518958329225 -0.0014927666288446948 -3.6713405577908716E-4 -0.01892987162671093 0.00329139652639079 -0.029338238266520548 -0.026046330598618373 -0.027481515863356485 -0.01672589049577574 -0.006855147725144764 -0.011370540083454703 -0.01772409600719782 0.005352763406703643 -0.0033022102105742927 -0.017466314002028405 -0.006800047965656182 -0.0186945298707058 -0.0012936292456308793 -0.022642232176047994 -0.009673274410717182 -2.579391014592114E-5 -0.04051814833591748 -8.40406088921814E-4 -0.013533135106543578 -0.014939971044464841 -0.009237994522335995 -0.009130744204536995 -0.014643312683177456 -0.011531471720154434 -0.019383566421417326 -0.021334675152366922 -0.009112684917150107 -0.003158327374257027 -0.005744832577247672 -0.0092983908632151 -0.0186120882982061 -0.012905712107646471 -0.019532006332073054 -0.02214062794792316
0.19177054560327764
0.005162925723371902 -0.012237003987885558 0.03731975265382722 -0.017236768982489735 0.03943400610189952 -0.007301495768216025 -0.004961678191679306 0.016212591717876045 -9.116454101220265E-4 -0.015073160079721643 -0.025713084540018152 0.027149399486728388 0.008729937239725115 0.002714912190013471 -0.006909168854459317 -0.01248272058988738 0.006373928239966729 0.007380341268123367 -0.01351519710326661 -0.0065826033241312715 -0.02812427321016176 0.028458425513863194 -0.0015719960520145274 -0.013586878331498907 0.010009042024857015 0.014443036409745858 0.0019691650139966677 -0.023856757248712578 6.66156260581719E-4 -0.006142008137823418 -0.0344085077793673 0.02322151338885085 0.00202487963467656 0.0030798796854374843 -8.270549428515046E-4 0.028850069183611323 0.010332949824393879 -0.038541587659336976 0.026092523961232055 -0.008052727395962515 -0.005555111970332044 0.027200892299237764 0.004038476571134045 0.013985099061895646 0.005789990120336075 -0.020468953469378496 0.010714183421816046 0.015055392844432601 -0.023914726153321433 0.02582563622292554 0.004865118239578674 0.0011742013321688067 -0.024285430994885525 0.026381318425180517 0.005264187841032649 0.026977863887891734 -0.003322360422127266 0.03135761510890061 0.0041310786582590235 -0.0391602481841971 0.003131464423061116 0.01306115437079065 -0.0087406128358984 -0.00910307288830662 -0.009418899403024653 -0.0063043934489846725 -0.013252990466029187 -0.06523788836863682 -0.0051687803462534005 0.014887581415729571 8.572461028477893E-4 -2.9701298289826146E-4 -0.031190812847515643 0.009440216752079653 -0.0025330142444999837 0.017911701946522418 -0.027165944829014115 0.0017095445540980846 0.01793824570834388 -0.01742613155070629 -0.042049409282433385 -0.003120668049550553 -0.033589771563529915 0.004247265026039211 0.004790347950453544 -0.24806152429910908
0.32525544771819975
0.012712081800110884 0.011469551298725959 0.0010278475973947063 0.0010432216702379426 0.023095202976903907 0.008644079284919556 -0.007392736053540776 0.012292416344734382 -0.00503926829857388 -0.01854682260500208 -0.015319141527023902 0.030299913740145252 0.004321016002564823 -0.0328975179114113 -0.01974357766595052 -0.008545617247826747 0.011011294781575634 -0.005770324898262572 -0.026577524220805674 -0.011919114168944213 -0.010058520345429789 0.01855555176945454 -0.010943040598008241 -0.006924407044069105 -0.006970311798469124 0.010985955403814479 6.258739056388023E-4 -0.014094026503119885 -0.018743610931167446 -0.0029722430912431457 -0.02004789759343914 0.02690743454162687 -0.004124506446135443 0.013228057768236283 0.004274438728550003 0.025886761356222622 0.02589532465372836 -0.008689373615397537 0.014532456815335914 -0.012139042637375828 -0.012700627432169985 -2.650262541095391E-4 0.0053084811469378355 0.00444285783652205 0.014276263867951144 0.0034243933134966965 -0.005888089327315844 0.020640040507539748 -0.01777873437768552 0.004432695620188937 -0.0015805226011293956 0.02324707718834011 -0.0131831524323138 0.031178032358617283 -0.004797850986144931 0.01660923467714556 0.020121620687949277 0.02201349835838124 0.011487562601678871 -0.010694746053387738 -0.031700260805527056 -0.01855428514895042 0.010339896122869492 0.006285769851214653 0.003436358019503033 0.0019026504641931298 -0.005163207254138776 -0.020239005935990227 2.4277901291432468E-4 -0.009660640534522544 -0.001191082760143707 0.004848715259187083 -0.005269223267808374 0.020025849525442122 0.00918202441886651 0.017610256906869768 -0.006127097781452245 -0.007523430886355311 0.0018707118674435818 -0.0039995396777903125 -0.020718845701775578 0.005491201831539928 -0.010978086170993134 0.003726435485997067 -0.009101317710482492 -0.21659931860069087
0.30120438639710756
-0.006944914925625703 0.005595028366371051 0.007184269709340549 -0.009208137856116221 -0.0010392232091102232 0.008793693726042488 -0.010111405732638846 0.002364798600522177 -0.007747308060349469 0.00470072991227308 -0.017831695023362685 0.01042337186895234 -2.028843197498947E-5 -0.0011288883720279655 0.006881758008426706 -0.0025443648471216787 -0.009349501987358018 -0.002099282688083727 0.018483566821039406 6.747826239776744E-4 0.0034310014229454776 -0.0017162681103282272 0.0023571459994171386 -0.005661947043410927 -0.007558502109788348 0.013785929690572215 -0.006828988524225647 -0.008985400050188289 0.0035400383163662246 0.012438059547995192 -0.017532628756196586 0.019927770613800265 0.011818038875146715 0.013709808690644726 -0.015420631165659449 0.015353402279730886 0.00807677504564156 -0.011783522030775522 0.007971968327878894 -1.7030080984153294E-4 0.008360334125539489 0.013834386436116841 0.024531764252012995 0.018959626338730218 0.006656245729287795 -0.011098705314510937 -0.012783926082259806 -0.007941464784402476 0.020652294250777505 0.007291254303732289 -0.021904281159007746 0.0039243043568707925 -0.008011070544281908 0.029964379731521044 -2.707825938818761E-4 0.02478430138426042 -0.008302261232614086 0.0016479995083090225 0.005925630006706171 -7.781979532186515E-4 -0.0010183233019490478 0.006354668043198498 0.005135655650231268 0.002922909776042393 0.011875364045316703 4.971331406445606E-4 0.003526563828906894 -0.007584176472394561 0.015176552114343708 -0.010417028840469985 -0.0032090130085428493 0.015321853367750327 0.017981985848045043 0.017487832233175266 -4.080008344761799E-4 0.01825829709552711 -0.013264023305338843 0.013933923903445538 -0.007247990576234175 -0.00742519784862971 -0.016757428219015953 0.020778528419748466 -0.010158281388816125 0.009875024370803013 0.01909643820347368 -0.19481808646833415
0.2855064058363103
7.203108539301293E-4 -0.006471297006506387 0.00831105515327744 0.009219414503663247 0.00446482262402281 0.006845252201101938 0.0037755212990778506 0.009873460802866782 -0.004303960203527012 -0.0060837519922926474 0.010322170214088322 0.02553635060269565 0.00882503088633036 -0.008825752053452205 0.004790840713376967 0.014482207208897717 0.0043223794707944185 0.007205360540111337 0.006762715915722735 0.019502613210705948 0.016312798068070438 0.010429365470207955 0.004176987415936213 0.001963652387494857 0.004943703316173947 0.012547418337703202 -0.010333500037368938 -0.006677087205238182 0.006527107770000949 0.0035721400053558305 -0.012082081116740933 -0.0050486147983637465 -6.411100949569372E-4 -0.016399352930424424 0.013278762179650922 0.0062092513712505865 0.007029131954924111 -0.016183992443448363 -0.005869623270944262 -0.019233750283734606 -0.00687875869469498 0.01225244467709805 0.0022087005792822433 0.00492193162610783 8.079421769640841E-4 0.0018589789695929294 2.734709375167778E-4 -3.468186799332638E-4 -0.01675594237331763 0.00646731118294969 3.604393136412156E-4 0.0022059638886353316 0.024004608498788816 0.004725163820542379 -0.010235818772115024 0.020561287171086164 0.0099492612511526 -0.005833648238973704 0.011714477357067763 -0.0021059544507156594 0.001625453810926969 0.0024392304022255963 -0.0014906927138140357 0.023973973801078033 0.010667153036576667 -0.0019303950743447915 0.0060568285664484986 -0.018316741158224615 -0.0013197207964273769 -0.006756162425771658 0.025398937311504263 0.019447664399787106 0.017759313002530506 0.009565452353588896 -0.006543059937495525 0.0060179660975671345 0.008987097014782758 0.0064508046593830075 0.012221311599997276 -0.019693818429810044 -0.018242004175807573 0.008647122805408282 -0.0133759260319419 -0.001142083737228034 -0.00834230259353182 -0.14205276161705804
0.19047424814144845
-0.030906789211227984 -0.010480546148810582 -0.020971823219910535 -0.018048675014869165 -0.025567419650945267 -0.014535929700030517 -0.012376768020001705 -0.012236948183883082 -0.020134520825632312 -0.014586668308099645 -0.004306279072099566 -0.020545967236006806 -7.880579540486181E-4 0.004369035026638786 -0.017968432792379238 -0.007593413019736574 -0.027524258491864077 -0.03156758240372267 -0.007209090398505108 -0.00728071897294567 -0.010654869653243386 -0.017191825369742442 -0.0267235382224755 -0.004542056646681473 -0.005684733279395694 -0.021463840803543143 -0.011215084058272692 -0.01349140796054275 -0.027542161690736387 -0.004259356711477866 -0.01865956816027716 -0.003577796594946942 -0.006110259487151711 -0.022573885606775295 -0.017852124810303727 -0.0033082999682032383 -0.01429589553400606 -0.020563922303010903 -0.025895716374260636 -0.009873892359845544 0.0049263771134716245 0.019975975547113754 -0.003966506611007911 -0.0233145463974875 -0.003509592442650777 -0.0014004459308074077 -0.007228299835765225 0.0055933233436444895 -0.014177297186278167 0.005414660156314395 -0.019838047465607862 -0.0032785056535481077 -0.005397240064198111 -0.020777783649750865 -0.010554256819889129 -0.020246835294401005 0.012504929965759162 -0.004702747150745392 -0.009843292924448827 -0.013242660567868379 -0.009077145692955884 -0.023224023283236115 -0.0036479797285601198 -0.02683170785938039 -0.008894916885414012 -0.01920319105878632 -0.002499857716721395 -0.018446272925253745 -0.0038934062624781025 -0.005358337993437858 -0.0036159707821972233 0.005633776719671438 -0.01040804229920727 -0.004985379509203464 -0.0023314101551635325 0.008856212845595013 -1.038946655917846E-4 -0.006186072311784441 -0.010858431191620912 0.0038232481265599834 -0.014818961159643254 -0.009668834122890874 -0.0037431705204150705 -0.01952445250973928 -0.016808013730233554 -0.024989905674189516
0.2029841015038068
0.0012739323948055806 -0.005534505319716801 0.013918382566640375 0.010191222372913172 -0.014922817883443781 -0.01920530962016191 0.008379123497223048 -0.014829428196602034 0.010788247753264637 -0.07424958809856202 0.03095599962902386 0.00663434319515177 0.015156227629305595 0.0036143921679672466 -0.0371957261793204 0.03029219549272331 -0.009148949064565605 0.00885444765196791 0.010858887790207132 0.030317502165222443 0.01735626699673383 -0.018802175015407173 0.0025221150470073335 -0.0054945482369269105 -0.013755230620143187 -0.012251621856135902 0.026296869787276925 -4.016686566212009E-4 -0.018103264992871505 -0.03192564259133094 -0.014217581673235027 0.0128644739669889 -0.021804995207548635 -0.029777027278689985 -0.01090701307220864 -0.003250736183699299 -0.0171838557299518 -0.007023306381778616 0.0014723198083485662 -0.009177744410940004 -0.012843637272613744 -0.006701299876101796 0.005372283483368941 0.03150339362629855 -0.027033939524420236 -0.009657220973119565 0.006075908222028945 -0.02589882627826486 -0.01599797228469728 0.010699309872108232 -0.021591661419489334 0.04351967190143365 0.027166092110116103 -0.0122945125714234 0.010656566984537 0.006710130808853467 -0.0033241518958273745 -0.0218241094941432 -0.024378487379663697 0.014927729119799166 -0.020682762843610564 -0.006472787888105577 -0.002261667610661017 0.009211673187445505 0.020011668596232515 0.017232211055538384 -0.012937450317855575 -0.02522513240292077 -0.0012396552903983817 -0.005884430136770949 0.00467192944852517 -0.041337601408413596 0.006200196002813177 -0.016885388708821242 0.030458302915722067 -0.03868590592402234 -0.01467904604887641 0.021828519615980015 -0.014176892601962207 -0.03064981337021009 0.003931051960600212 -0.011466284948277165 6.145462620669381E-4 -0.01313341127193711 -0.020153907436389635 -0.14767990923364221
0.14407579206937274
0.0017463869256553123 0.001857853114790121 -0.006170615161481132 -0.010366157810796887 0.0032585274215386384 0.005481654646954619 0.007225163339548745 -0.00828319504318221 0.0024604253114558082 -0.010136320001398826 0.01262478617904659 0.01816274350285377 0.010946182083202693 -0.00578777162820455 -0.0036890016198387085 0.004327291728202057 -9.00249719851985E-5 0.005778135460766776 -0.0035998611902886466 -3.235360501273325E-4 0.004552354097623399 -0.005115780534610908 0.006677009132026055 -0.007961348128961746 0.01680814763906416 -0.01188833352671139 -0.005211368297808876 -0.0013030674981575694 -0.0029408236930888124 0.012286816272347624 -0.00718825278741278 -0.005416652701308111 -7.888981807805011E-4 0.001804021280875429 0.003972916548316793 0.0013638859114199165 -0.010436869970743562 -0.004157944506750969 0.007957706185442925 -4.363946027735012E-4 0.0014571616682538882 -3.370671217992939E-4 0.009259519946298823 -0.011834680535999436 -0.0038499527131043054 0.001839440310347913 0.00410227655682957 8.886843449952464E-4 0.004633208629302308 0.0022521729246868256 -0.004864958955128101 -0.0020505031477862194 -0.008607854472482045 0.017717870839857125 0.007770935530864894 -0.0025801227658657903 -0.0024829676016940153 -0.010154591345610578 -0.007849097812144303 0.0051478294209865065 0.0017883660942198533 -0.007135905359113922 3.2120200002027445E-4 -0.00715826503729962 0.007459084466588075 -0.004508428123187333 -0.011622837920240757 -0.008738580492376974 5.300947499024469E-4 0.007459491570571214 -0.0046729583970778026 -0.0074750365254030535 -2.2523663046297414E-4 5.096002971597239E-4 -0.003299541717544746 0.0011731561563324924 0.007022327104902965 0.0018194832763349128 0.004549336166980122 4.70684836045529E-4 -0.0011919072314661343 -0.002273307442902933 -0.013954385832827867 0.010939998573327264 -0.008530785001796954 -0.10686568684308398
0.1317776539319825
-0.03974654550617446 -0.04559163587171194 -0.039535237057999405 -0.03005836157068684 -0.03821093206707485 0.010853633985143465 -0.03101642923335187 -0.019027877951489705 -0.00832922077974585 -0.009928711082588512 -0.004199082788961627 -0.03346669196999067 -0.04729647868906826 0.017651924087535773 0.00387773063062082 -0.009152942064568053 0.004280129969149274 0.003311888851302047 -0.02789047861270835 -0.016733008784438744 -0.037067581520429854 -0.016572041889523485 -0.028433957170029184 -0.02998153651751522 -0.01910252896155956 -0.007484714514264085 -0.021221798914073987 -0.027208578780312104 -0.021086735507759472 -0.022268804876951945 -0.036918830240472884 -0.06207170433866292 -0.022524764169975137 -0.03904610073271604 -0.031193093391439056 -0.013954723932867605 -0.029158664877297086 -0.030938434044973886 -0.02367543189780247 -0.025403244934076342 -0.027962710721536718 -0.025694514805560217 -0.03381992123686844 -0.011122565466419543 -0.022873979603499316 -0.0012962177428528273 -0.04293447515395723 -0.07616520032477767 -0.042243262451653794 -0.012052379514926407 -0.003133934961150512 -0.011356866006156048 -0.030109687982422008 -0.02591925163357459 -0.03461725851397923 -0.011668458732303141 0.01947396893270777 -0.06564790030109129 -0.0494340642762828 -0.04520044151808894 0.0038078488123026153 -0.01884884188348085 0.011331671877343099 -0.06190132392269889 -0.040569692112347254 -0.03843716777985374 -0.008238125064369316 -0.027066244424819707 -9.205644214393605E-4 -0.039677715782218265 -0.045444630576391525 0.008739274526461425 -0.044332833819354274 -0.033904881068294555 -0.038835386227253105 -0.03974582712313909 -0.01717432702997579 -0.035842596090090384 -0.03184527920850556 -0.016055822608664855 -0.04106623566990349 -0.056787717517411615 -0.01350971293944422 -0.01508693714484597 -0.013325765681548207 -0.009491329114609648
0.22127072536170278
-0.035759420738664685 -0.07885830409814482 -0.023039111382232493 -0.04533930552724611 -0.013398392627224944 0.014624660424493261 -0.04413251082564924 0.006291444111452842 -0.012883841892778245 0.0045406533973535905 0.0032758190393510768 0.01793031350573197 -0.008389796231703868 0.018203260076624067 -0.036408951038791895 0.010621940981210044 0.03772020282844106 0.003951384117480523 -0.006837333012322787 -0.03864350978756104 -0.004495421132649397 -0.029418176105626852 -0.02815432860339438 -0.07903376968886858 -0.020175838222108406 -0.01609132517453789 -0.02779157677846781 0.009769994039785316 -0.03167942008472775 -0.02290761069857656 -0.0019648553223813596 -0.04975901938091894 -0.022158401200195507 0.027282186538481915 -0.05554887845019786 0.008508397113091069 -0.01615694501741265 -0.05258250549146051 0.0029305686603405263 -0.027804946104894895 -0.004055392378078283 -0.03759450749184828 0.006033963895711644 -0.021864113749499554 0.0034915738042259345 -0.022632114311566767 -0.04799724597394565 -0.052740138518427855 -0.023942448551696766 0.015086022757786189 -0.042272862004892414 0.006396997937604323 -0.023270415099154916 -0.04933087830818498 -0.049538034472627036 0.014186018770700025 -0.010675083002507801 -0.04967754890207995 0.021529262579845568 0.009321889257266392 -0.01582524873914149 -0.08034663215832147 -0.010247889898779314 -0.08099090540648268 -0.028062914359554596 -0.019011760905490175 0.015633714072909102 -0.021565756750021297 -0.06652277356397382 -0.04750785283070919 -0.07037314558223402 -0.014432616851224107 0.0019320756532062492 -0.09223771517231283 -0.010420833597709461 -0.008078126119114 -0.022343419796253563 -0.036553153501163865 -0.03961893572775342 -0.02638831776091693 -0.022352082542758216 -0.0789667201375803 -0.07247985043081355 -0.05532184555319856 -0.025206624610425835 0.0038220958482788874
-0.02035885297612725
-0.005268980803833348 3.5181093420794547E-4 -0.013296262674692406 -0.009361194315063687 0.0025906064117341768 0.0010123412244662903 -0.0033239011118438044 0.0019341762640678437 0.013364805523596032 -0.02629234822554632 -0.00903202103000048 0.0014923258910983337 0.004169958404043155 -0.0028014040140278505 0.010922682049735661 3.517312441423064E-4 0.010415314359033171 0.007997299355229347 -0.010560616369545436 0.008642011452149474 0.008280991406211805 -0.0047937348764277255 -0.006154802344025764 -0.005227448682729962 0.008291743868018463 2.951417957154943E-4 0.006395211357588887 0.0032791568664331037 0.0016699241471801617 -9.150977343132338E-5 -0.012078966467527857 0.010316983578795114 0.005214558870614066 0.007387403673528414 -0.01961230986100275 0.006284098993457598 0.0023421066067686905 -0.009256566610572984 -0.012595207743059689 -0.014328177523090738 -0.004066337389369129 0.012543679943637927 0.01775655874415565 0.009427576412305677 0.009889916087090084 -0.0015389593686763125 0.009028544628307352 0.015716130593213935 -0.005608792594414332 -0.003386719152976403 -0.00970582372372896 0.004391035786199813 -0.016323141551085153 0.013741049984458355 -0.015036052823299874 0.010970723882702106 0.0072213415723126895 0.008524207093361946 0.011347669154515079 -0.008691591780830739 -0.015228427516993841 -0.014854909882277166 0.00657591184092486 -0.004112199193097996 0.0012483914817330148 -0.005925036212192214 0.008646037391747035 0.010313472201129232 0.01587426920917166 0.007302654215082151 0.00867318666995808 -0.007189583646173157 -0.009557829272129158 -0.019431746906054256 -6.213055292356513E-4 0.014331818306990514 -0.009652059410212337 0.02701079753331303 -0.003961920659537583 -0.022234604001812854 0.0012928203647539905 -0.007365002032276236 0.018037872391400405 0.016140661741174903 -0.020497115134817362 -0.18710076322206734
0.25408223715532596
-0.016956467607769123 0.004754034445764615 0.0022761734266519068 0.004096685634196489 0.002819614932605056 0.00754581146539794 -0.00716920137290889 -0.004230630129390724 -0.0016567872242835408 -0.001997271995446429 4.8616771514862545E-5 0.013193972658681536 -0.010956562993822454 0.013356353666385542 8.889684041574254E-4 0.008432039340177014 -2.320508619370251E-4 -0.00543321101379177 -9.009748429701836E-4 0.01730980653319972 2.84323694925515E-4 0.0014797410059297945 -4.1198491284186596E-4 -0.0020647523130556955 -0.0079249224798955 0.010261620420990637 0.00866034583261358 -0.011519963468963952 0.001963995530027003 0.006550944782320288 -0.002901084846995336 0.006164662266530754 0.0028470814334817826 -0.016579136199820925 -0.0016393266909404403 0.012268789899171559 0.012061411212550388 -0.005798730832783577 1.0670390651506206E-4 0.006370182130323174 -0.002585686074153779 -0.0062777282369478 0.0011065305771657198 -0.0038583924790210606 0.004781357123364668 -0.012375428214612781 -0.014376448739740668 -0.004120220680050933 -0.007837750198574193 0.006963992317078721 -0.010008332294486272 0.004296920486577009 -0.0032156964381266934 0.00866967160156991 -0.017659811871439602 0.015468108514355636 -0.0014412829326319794 0.005405586310006791 -0.003695715225369069 0.009544454854054665 -0.00461028734446381 0.010598730920866701 -1.8041792375140525E-4 0.0016493486181865745 0.002023645830000316 -0.005047073337754129 -0.0025648946223725353 -0.005791029664981042 0.0026113392187357026 0.0049923981518409715 0.00897783191335223 -0.0013516225942299068 0.0023883924412602675 -0.015082044625303489 -0.008954563814768154 -0.0017353007596107657 -0.00856063293740845 -0.001714033203265834 0.010190340302443944 -2.0063313751086416E-4 -0.008597199837066185 -0.004612799625292827 -0.006742444122364076 0.005665209227020422 -0.005119326975802839 -0.10308732331045117
0.10951042457697498
-0.00726983924776621 -0.012456464868547498 0.0010361868185074675 0.0020185194812122357 -0.0021052384566502638 0.00402452055754903 -0.013270587534901438 0.0040208160878165014 0.003907277992973621 0.002464692039266878 0.0019839713582049663 -5.969297771645032E-4 0.00719047813055066 0.01022260658521189 0.008280696482443835 3.2608754717066747E-4 0.004994454857369385 -0.008734675185678208 8.573699110652568E-4 0.006216620517282251 3.038915783423829E-4 -0.01360462973445279 0.007612729910048213 0.010934568502680498 0.006796861090958128 0.0035878520493626866 0.004673538431648851 0.004430699869117874 0.005008996019767137 0.005369220296883904 -8.297502363265991E-4 -0.01318059108579343 0.0035467805806538503 -0.01083042424997862 -0.01830440751724524 -0.0031367535619720565 0.001912024636812398 -0.007215931909846037 1.0636935614723625E-4 0.0037082251476434173 -0.011248910788262973 0.010706300785786561 0.010711905908094621 0.0031435364783808694 -0.0042407294396296985 -0.010267778523973084 0.004375707483216212 0.0027253926916734486 -0.0038978434869195713 0.00387495588417866 -0.004737758491671951 -0.003418735261672423 0.012100098410107918 -0.0031281528642826324 -0.025547553734755486 0.0038517069427935566 0.008808579799930348 1.5125731999950215E-4 -0.006773951116926817 0.0021151195152015008 0.0015795746710008038 -0.0023737166853897425 5.168565155590983E-4 -0.012057070927481105 0.006944920957331097 -0.007337936073320587 -0.006158217004177508 -0.012648800190521054 -0.007716633793251316 -0.017149109349191703 0.01290814610827595 0.009984500009527362 0.0029614955429301108 0.008795163439550483 -0.0013558430971364686 -0.0028369138873781006 -0.007084176343886748 -0.006792976280678641 -0.0012022941873139398 -0.009707688896753074 -0.00995888238882105 0.003022690239448017 -0.013848249396026595 0.0038129051906152767 0.0034831372257709387 -0.08287811966749144
0.08113755335132129
-0.009516030691231712 0.012589745668828731 0.002969158720266008 -0.006119748313228837 -0.0021145921848622663 -0.0012843084253805308 -0.004716384319976166 0.008042073772988389 -0.005648054154605842 -0.00474088999775179 0.007897348400620424 0.013795401391796597 -0.0170073042431256 -8.61631397592567E-5 0.008581234703855913 0.001485005057544198 0.005361029154747597 -0.006111535282538014 0.001169967857950314 0.0068351408933328296 0.005594018465979443 0.010706069397193693 -0.004976380025486306 -0.005735778571153021 -0.00854688796740857 -0.0032808811483695244 0.007983475669216925 2.0271519139302576E-4 0.007906296956660341 0.007594081916509491 -0.005762894058999063 0.010792119676228973 -0.015967930460576818 0.004231550405026515 -0.004680189248532869 -0.009756688432342887 -0.017801359893169638 0.0058971168980137215 0.0026203852348477266 0.01896110372753406 -0.01471608779450794 -0.006182971036803346 -0.004458056510766305 -0.00323325959632876 -3.528622683626506E-4 -0.008695480076517456 6.510339507687234E-4 -0.01357384131635783 -0.0036849021628682513 0.009883006080841453 -0.016671533111200655 0.007968033412422118 -0.0029700744760203846 -0.0018282416675110872 0.0033699354492714084 -0.00844589646809988 -0.009147384310911288 8.263053527733923E-4 -0.0048138482316063035 0.003588639953920945 0.007964304884615756 0.005652520027949187 -0.0029292875733948408 0.0194698425760637 -0.004019897392296731 -0.005577846342119496 -0.005632164715974549 0.0029651424418395455 -0.008792417098023394 0.0018141903980980047 -0.0035879114976529423 0.007478044193474301 0.006194782333550551 0.001151436048217211 -0.00529141152944664 -0.0015608923646489073 0.013571242944574551 0.004985644956213805 0.00604870834312078 -0.008683242600065994 9.283375035138154E-4 0.010414098816556774 -0.018501466947420588 0.011584343395672197 6.426470106126603E-6 -0.10433077300313774
0.11253097736902537
-0.056916690294959674 -0.04016739751911766 -0.017514469827934906 -0.033282651198775 -0.02487446416395805 -0.020789675242904725 -0.026523474268162723 -0.01380440285565524 -0.030002054357991397 -0.0487173345219209 -0.03654015194351013 -0.05757997863425884 -0.0313316851124171 -0.0046309735348513984 -0.010841664186948421 -0.04394141984435324 -0.020771154315001223 -0.021089766400905735 -0.02160172034253265 -0.041410686510316784 -0.015199437269902319 -0.03809635419027805 -0.06787693301994406 -0.048678629292414725 -0.035077503144692934 -0.028326445920811582 -0.018670725343148106 -0.06618529105352852 -0.005354439289302228 -0.05195565240809336 -0.017826209103212354 -0.06012058688042866 0.001338718710543591 -0.06754558108386009 -0.0876570997756635 -0.02467799679856179 -0.034945892506661115 -0.040520179270961826 -0.011337470916337543 0.021641982136154276 -0.020385831218809124 -0.03812484748231681 -0.04545066464571705 -0.04358475943027277 -0.01893604039538825 -0.035746819658704757 -0.021682032277829638 -0.08826238439844082 -0.054920515594818815 -0.0617008680194677 -0.002327768059406879 -0.05442731458139284 -8.724250309374354E-4 -0.03954618199749707 -0.06773286711408237 -0.06417049252123135 0.016918279610257568 -0.06681481700186304 -0.0460884746837154 -0.026966329190466785 -0.01749522357784504 -0.05830023878161566 -0.027687321338229345 -0.06349487884358428 -0.029830635584096415 -0.058998715172134834 -0.05076659828693613 -0.028146840736313825 -0.02036205723069603 -0.04646225410705522 -0.05483294536319124 -0.028638702543251394 -0.027565935850413375 -0.07799888709424753 -0.05426942189477306 -0.049422278146776674 -0.036480903543461715 -0.05175893086702565 -0.054280780475519465 -0.01695637100951861 -0.015390180181365783 -0.04878140355244869 -0.027020025553885284 -0.0571362623524162 -0.03730618284590285 0.011754963517786024
0.281746326842361
0.011177609561021498 -0.004362214529217142 -0.002952483790621389 0.0040376023673867395 -0.017642352131511628 -4.8277749985422067E-4 -0.005994157068231764 -0.004899796388451549 -0.006445248504361734 -0.021552355411057256 4.3950794130337076E-4 0.004673816515508714 7.645386677928058E-4 -0.009560650042918239 -0.007486780310022974 0.008894156138958153 -0.006562810380748586 -0.016684162364750312 -0.005169396519172882 -0.011333289633162604 4.642226563953561E-4 -0.013541293846954352 -0.006908589389499048 -0.003796588068008921 0.009773192302762513 -0.014584874834616094 0.010906980886522684 -0.00877581662524876 0.0028248889086661417 -0.0062146865093892 -0.013852024074596927 -0.003914487154621431 0.01741765918223418 -0.005846875708280811 -0.006288466066237393 0.01452020217663256 0.011548188747712825 -0.02382948323953317 -0.006824079537097466 -0.015034979733932873 0.006369236212069742 0.0071818757797009435 -0.0015921168605281383 -0.004017439537325636 -0.0033637874069715797 -0.014629827313457196 -0.001109825863026993 0.004763646435968635 -0.00481562657187776 -0.008529618513857353 0.0026982144723373407 0.010733132159550381 0.01710933706525749 -6.3392379083185E-4 -0.004152903966308798 0.008541184555787493 -0.0010771672826638706 0.0012829135524878364 0.014821983562165072 -0.015356749754988555 -0.007909668713311535 -0.0056310032958649175 0.010670942832544463 3.793573574859414E-4 0.00321594287959759 -0.018741297780902954 -0.003952929407829046 0.0069472524772354865 0.014014575340293725 -0.016624793845730068 -0.007578765633526323 -0.007288113642224673 -0.008004562645384915 0.01562749891576207 -0.004617665114605225 0.003770445469994385 -0.002195880533754807 0.00465199820935239 -0.0037632391135219833 -0.0019735845538210316 -5.597756079215652E-4 0.007192452134526109 -0.007845451216392116 0.003124386552182687 -0.02147678283060374 -0.09588581564715733
0.1233867147845185
-0.012259039518925579 -0.00825882601723851 0.00524820503280928 0.0010921517776409065 -0.015610698147443338 -0.0016176276074734608 0.0024650238101259097 -0.0018730597855218692 5.771364533513993E-4 0.007956269882295244 -0.004421885326967131 -0.011538030047532118 0.011055451511043484 -0.010362206109310173 -0.002234714078527817 -0.006279322906270959 -0.00354183580475617 -0.0032132399904881157 -4.1352635948494024E-4 -0.00790650981778833 0.00846277779908927 8.213991600637186E-4 -0.015646593299599974 0.007565102208422178 -0.008141700797753408 -0.007989244404503543 -0.009500440920513125 -5.694325046189178E-4 -0.007477201371732856 -0.0015844875696772055 2.740975053744044E-4 -0.0036207932912088727 -0.0053696509764508266 0.008236128329472561 0.003780135570343629 0.0023120297640907474 4.555135862528263E-4 0.0021763391028470505 4.13783533916994E-4 -0.005021538719340948 -0.01862601192711103 -0.010691276156099242 -0.008552788554520492 -0.0019761424876486855 0.00823627408772918 0.0032428074331670087 -0.002787749138951956 -4.7235641509108054E-4 0.007354753806955321 -0.0021843582273564067 0.00527275764758337 0.0030646382202134245 0.008270210746191057 0.0049151837491871 0.005944002374929457 -0.007406945360222431 0.002363443746697825 0.012473129263249413 0.006448705924820095 -0.00904270785484815 0.007734331471886171 0.014591313583458124 -0.015270336369346329 6.492759521474954E-4 0.0038852470822200486 -8.175129777364741E-4 0.00873599302375713 0.009172979427105274 -0.002362507650599044 -3.7021109273930653E-4 -0.009994730954312595 0.00199249940710232 -0.006779663175949957 0.013698290561759646 0.0046771378478814695 -0.002676338962276341 -0.002707320312248663 -0.002943964765698951 0.004259149205466434 -0.006013101853661246 4.425711802862464E-4 0.01471565194990271 -0.0034902606279135725 -0.011546357462272684 -0.009774873636605542 -0.074460784109881
0.06961099017054931
0.0021182063923578225 -0.011240508424809186 -0.010005805281963046 -0.005938285383284078 0.003840346238675012 0.025409310847983282 -0.006726385507310578 -0.015088284306377493 0.027881572884600622 -0.03164747126706988 0.004483483678282605 0.011073149625191327 0.012122139063444242 0.005219930614727779 -0.009238923287870038 0.024504968325848267 -0.015489390703375678 -0.003067673933086661 0.013400819210540272 0.005097940241956497 -8.613433410930347E-4 0.013357298349392177 -0.01378154456910097 -0.02424009496258329 -0.005916598451324333 0.012750061836273733 -0.019940506117979456 0.00415708500194414 -0.01874810557908784 0.01868878990841153 0.021130681295048203 0.011304161335683195 0.00625870212356291 -0.005310496807848629 -0.005590979477580915 -0.009546624633764888 0.012340019205698398 -0.030922994974976054 -0.011088015130485691 0.003273493868920155 0.036182171547675425 0.0343058748337854 0.01820528255963827 0.005494795062556143 -0.006720516481272238 -0.023591769552757654 0.0031009523902337573 0.01108684231365386 -0.021836960549003102 0.015612189472668138 -0.010202005379647983 0.012230434204199439 -0.0021574031376578665 0.015632318947005897 -0.00845872915330514 -7.525156595897383E-4 0.0233100117029633 -0.0018758160264342562 0.004421568149115881 -0.006324093522763727 -3.8986200093774553E-4 -0.025906475853560776 0.024832353598358545 0.03604871704039297 0.021888412705594936 -0.007614839516885579 0.03540840866806188 0.006381255385121139 0.013712643290526757 0.0013740475938832754 -0.023066504575702782 0.0183573525401482 -0.0023822589715754086 -0.024115656360708587 0.016681255219507533 0.009654300543649798 0.026220349650280517 -0.009502075764915872 0.001299242666489573 -0.01827872693465753 0.027355994168675412 0.00567326168765939 0.007735213114340468 -0.0017749072591217024 0.0013159433416813572 -0.25322629888398607
0.2663640396244293
0.0046021308245398525 -0.0019732653395557846 0.009941561260501901 -7.795378426204644E-4 -0.001947224628143711 0.004013023772727334 -0.008166353411654469 -0.0014712923673087068 -0.00742541975971011 -0.00117867897565171 0.004397526682401184 -4.206119312729688E-4 0.011461358780852514 0.013933633330929998 -0.0018902823223731428 0.021525526141089085 -0.003580939454705687 -3.303785173204389E-4 0.0018588337887777552 0.011508350204219793 0.007700706376169076 0.005237018021857872 -0.002903008821041527 -0.008279111609841018 0.01019763739707307 -0.0019166463702293304 0.005369880685425126 0.008977046940626605 0.01566775641502175 -0.003960135811428246 -0.0015412767913074957 -0.011603016043505263 -0.004513217385378359 -0.015602066129404273 -0.006961706073513696 -0.0028339908645258296 0.010928204558489411 -0.004821201937343633 0.007952053693462243 0.017459970958814502 0.0021674386778827034 0.006020208577148879 5.274238596208175E-4 -0.0077873925091457566 0.0019576732886565 -0.008439253522333929 -4.4505528003574424E-4 8.789671345739161E-4 -0.012621460404981156 -4.366910946317565E-4 -0.014281077019395672 0.005123771001852485 0.0023856318891803704 -0.0113735638653875 -0.011483278288110079 -0.008316172824948351 -0.00401627508819792 -0.0033099731625262827 -0.00890602251797211 0.005742269583530784 -0.004206154481864718 0.0046508853122677095 -0.004334051253437343 -0.014681452607808747 0.01880118123904943 -0.007708226974169295 -0.0017283322886521072 -0.0041228509811007535 9.620759304308183E-4 -0.002197705008539348 -0.0013042807205222169 0.001579549204609796 0.012686921174693704 -0.0043959643288142315 -0.007669283152603829 0.0010457927704614928 0.009245513636185029 -0.002245577530268748 0.0035897625738160873 0.003187396608053179 -0.001663556071488023 -0.012398893124165089 -0.008287651986342232 0.002805042600371531 -0.008262687521031648 -0.11493544763096193
0.13047015786216573
-0.0296258432940623 -0.0328993826849368 -0.02497290191166797 -0.024944907146974792 -0.017735496162401325 0.004981093282639412 -0.004729020105245621 -0.019128681097609547 -0.008524159886720695 -0.01963702238978379 0.0029413392867596046 -0.013417217013079354 -0.05080134889523384 -0.01007733702350718 -0.013044387374914214 -0.0044853020297259205 -0.0034465893274704335 -0.011454030851303892 -0.016548111488839796 -0.005339687373941656 -0.052928028381020814 -0.02079760777405734 -0.028985954251167883 -0.01634863066935163 -0.008852699827625902 -0.015733274108611948 -0.021728686177544764 -0.03053216391269083 -0.04415772035173022 -0.023826856413618442 -0.01281399567422164 -0.03003321577226798 -0.01992982893132412 -0.027721565780594908 -0.020846558081338725 -0.027665946770568217 -0.01358234885124647 -0.04160435265177802 -0.014654068708182874 -0.006303423380539426 -0.020698183702635854 -0.0236078668309253 -0.0020359878707699457 -0.03627216404695812 -0.040639956634204825 0.0017815298596678283 -0.004150285863988096 -0.036421092038987746 -0.029501252495296598 -0.016897053197442346 -0.01508381387022398 -0.03352388162699123 -0.022813984504220352 -0.0030886688929589114 -0.026241027501996236 -0.021418300306661957 -0.012543964578652344 -0.058719187064936014 -0.027749129416818865 -0.024724580088941978 -0.013247935815422109 -0.02535695237632361 -0.006355774565246743 -0.03286755225546348 0.0015260139240758173 -0.021857158096925993 -0.011254762274196415 -3.956394814314979E-5 -0.018662127355815235 -0.011469054082920312 -0.016243836567185702 0.01095967696197144 -0.04785583366536924 -0.04029093893673041 -0.024778550911115218 -0.04358189024920051 -0.010745580812489842 -0.04014646084550706 -0.02659369480996949 0.002619708070454429 -0.03458018226045776 -0.05524297330250448 -0.02253702705981655 -0.014194008106242233 -0.02107652658641321 -0.013004909587631711
0.24962034288313167
-0.03259381197473378 -0.009070653091034851 -0.035879734300545287 -0.026320465232139784 -0.04262693218802354 0.004645314464987871 -0.020767200129562374 -0.029858229774640067 -0.019707066737036635 -0.02699943822758833 -0.0018572176872826613 -0.03871813910826304 -0.06860359273855783 -0.016596420708390465 -0.0035271326157376177 0.0043492336114502915 -0.03012580206510266 -0.007618854534480607 -0.037518473274582395 -0.013542787954977247 -0.021867870834893024 -0.03206475189036621 -0.01926523273056574 -0.0558378649280384 -0.006411509198760974 -0.022599833216168406 0.0011582505057706196 -0.01974910708071599 -0.004619929737539516 -0.037445225839981416 -0.010831490262321325 -0.04562074857663431 -0.013385777397360623 -0.0208822915277211 -0.016455666603546498 0.007433765741550065 -0.015572652528419441 -0.045421313467171556 -0.03486231651963242 -0.006083537467324078 -0.035487713546381694 0.006382220676196974 -0.04174014692762899 -0.05787656797198521 -0.0036431096816488197 0.02533649288418439 -0.008108744281404501 -0.08353688328096844 -0.0029239468817356903 -0.014016211621757951 0.021369309179130148 -0.013524066805772067 -0.052293884125943706 -0.07914011503498337 -0.05150263971075923 -0.026939665580637644 0.02343757588600262 -0.07517197755542926 -0.06852261895216023 -0.024712173016565548 -0.024390745865252122 -0.01723145211398516 0.016299440153213638 -0.06969247420248578 -0.03641676669618063 -0.060169960661567684 -0.009498637241034379 -0.03777956853211584 -0.021205831577557392 -0.05493081667724775 -0.05632071752817787 -0.02164862363987002 -0.06670536814564533 -0.041859889923079235 -0.012942833938074046 -0.07830069284863639 -0.0471524728149836 -0.0234918256311562 -0.043481119881524165 -0.022448799262592363 -0.05249351925957703 -0.08744652519551002 -0.013653728298437503 -0.03392523321993588 -0.02659880050519256 -0.009632970237932439
0.20237107251582684
-0.0012707049364936876 0.0049944769555635244 0.024402660224340685 -0.0026800209173426194 0.03440616760557426 -0.0021045380194251056 -0.018789266879203473 0.011384226297074517 -0.009461557287753778 -0.016167878055544926 -0.024386515897009443 0.009708729335569835 0.012912938977776142 0.013891275888413882 -0.021767216094805527 -0.02772331890408657 0.015418188543823395 -0.015075985414488775 -0.02182688437337005 -0.008361650409949252 -0.024136228444979316 0.026200450078217984 -0.0034832659834058938 -0.012181572897901047 0.011056893494584313 0.003915625835574996 0.009124298473679265 -0.023817717007984306 -0.010677991197806075 -0.007982015521072723 -0.03741953333194638 0.018442334222672028 -0.001526979799699636 0.01355206523890307 -0.01553553471457013 0.022406944748016376 0.025578293339258294 4.918094726678436E-4 0.013380613415098174 -0.017607516189966737 -0.012137766356032776 -0.0014364492797675254 -0.009467177576957673 0.013656461626969964 -0.005618257941360859 -0.002748928895593679 -0.010105199515078184 0.013961926145835303 -0.01500737587542138 0.023982266004140693 -0.007296250471592493 0.007010337954584197 -0.010983655974298031 0.014900080494874889 -0.011843915652080107 0.018888257130049522 -0.021449742142038895 -4.8042028811059057E-4 9.58689421113099E-5 -0.02158457013881023 0.0068410841707331315 -2.518424271764683E-4 -0.014655746599088935 -0.006017427678236992 0.001120139406373261 -0.01729824418579128 -0.028271923947937986 -0.046986364011764176 -0.007635912916143713 0.015128549864608314 -3.222176935554092E-4 -0.010789818491929807 -0.014714934480277135 0.02490004376035462 8.887575493411799E-4 0.030505893001776734 -0.023658499129599334 -0.007532588859467467 0.021969258889064397 -0.01380314919894178 -0.02792205280333379 0.00582679731314955 -0.0029763444166284996 -0.011702488492392164 0.007070877692060837 -0.19116897442069009
0.22505378092973832
-0.006714636442221109 0.01152432834655301 -9.024572986807961E-4 -0.0168468470697532 -0.009509478507646982 -0.0023282098341122696 3.876608354378296E-4 -0.021128451795651253 0.0293749012567126 -0.040870548261916426 0.00598859060050567 0.001468259102851615 -0.009730582727940943 0.026083129118507003 -0.013508602504249529 0.0021616734038123232 -0.01876706600668825 0.013569870741585895 -0.002033907944957884 0.0036520868559741576 -0.007287497680741384 -0.017702351577043356 -0.01721879039762888 -0.019523842143189574 0.01047411857011956 -0.0064005479430971415 0.002386598659208994 -0.029023860786126315 -0.002273983564161817 0.02089739340770143 0.0012181723701688114 0.036573260425322864 -0.029951810293142624 -0.0021615152345451933 -0.006670342457873761 -0.0012240047757577871 0.004449815940947459 -0.006045544528007801 -0.005327485261528456 -0.006321480591393943 -0.0314876282821601 0.006024464578239882 0.009349119984016205 -0.0175816741054513 -0.022003816448271464 -0.007091398040137104 0.006406568078646435 0.011427228093743655 0.016205832964858117 -0.003943617360823477 -0.004046844205615644 0.01652962197559179 -0.015183922763865017 0.034957108954932675 -0.013851843972123813 -0.009519200595877119 -0.0029541783223277847 -0.029494666474870354 0.0046785950229430735 0.014931787993546112 -0.0015030404438880732 -0.005057691034655358 -0.01065233854382895 5.649372725461171E-4 0.004269686312465216 -7.072197429909983E-4 -0.009583354985319413 -0.03220386477730177 0.00585456249410033 -0.007007833432740198 -0.02304714361693052 -0.010037134482818386 0.001970587510469945 -0.017101689832550834 0.0141705970013296 -0.011292980927008794 -0.020975230722021804 0.007609675312586822 -0.003941554362433201 -0.01678896822312434 0.0015484394810797513 -0.010924569824567333 -0.03706629176004884 0.031142870718199746 -0.015684054651144724 -0.11754976864381218
0.14485767746069209
-0.035702933398175096 -0.021431033923043585 -0.023913517886945495 0.0024511524428831415 -0.024291733596929894 -0.01000550548387276 -0.02837217348560671 -0.005680847914026871 -0.011867007402825253 0.005329926517818104 8.182217464121635E-4 -0.007913932463279906 -0.009685157743285261 0.0011404650728066741 -0.0072680918520914 -0.009587959469237252 -0.023518686758628053 -0.0033266341455755943 0.01801770211574031 -0.0019970577323600073 -0.01409072067535869 -0.04209657338586488 -0.02529786989585883 -0.002130132204857088 -0.006117002080040867 -0.023130796582490915 -0.02924791338856353 -0.01221565719913391 9.99178507487389E-4 0.0038119311642611318 -0.031947785335234624 -0.05140613128819748 -0.026928031934408708 -0.02789050996610029 -0.02793246770787953 -0.009806201450336274 -0.020903251927700223 -0.0361871353423367 -0.029123792226873304 -0.009823737625933929 0.02024880257424904 7.01439943795598E-4 4.3847239577087666E-4 -0.010838152940588602 -0.025014072899359537 -0.027831325119140115 0.011713201552997652 -0.024618234472853363 -0.017570975813357724 -0.010280247563914808 -0.0032882364080177376 0.007973674835111558 -0.0091037512271836 -0.001054458141496943 -0.03365026950270696 -0.03281129174353594 -0.007821250227630415 -0.014985229395395691 -0.030757335737286194 -0.019588355954020663 -0.009444292474830009 -0.005943059679799442 -0.006173675924773627 -0.018604687644087174 -0.012180508573423267 -0.017840997821884138 -0.026979371722409162 -0.019811545625441504 -0.01670662928156885 -0.007622220496789525 -0.015229910579871464 0.015364554986163053 -0.006519204654159272 -0.01669753467692501 -0.03720945169964796 -0.010770519997959367 0.014973046653708421 -0.0038414401171148306 -0.004678604989520544 -0.0032311211274984306 -0.017302618297858965 -0.029731743852438094 -0.007351824793344991 -0.015787192609293836 -0.0031877147148858817 -0.03341928985936532
0.19709005758272977
-0.014047446549215753 0.009897612433058986 -1.9894842661612747E-4 -0.0013736425360357171 -0.00832661905533478 1.6600225696510994E-4 -0.0031664321533468203 0.0031049193712833125 0.012652768179073182 -0.0246548179938265 0.015469586539849086 -0.006809712853709252 -7.854884599004263E-4 -0.011621836971746272 -0.005192343668116999 0.007054886936066626 0.005510967660595851 0.0052813244008566435 -0.0048189723114471904 0.005693664381198191 -8.142798744893123E-4 -0.019602845199274913 -0.004287729205215031 -0.005692480676990227 -0.006042978339417257 0.007064111266789681 0.0193844060788615 0.00287930401412759 0.002143766654397936 0.00716316690434255 -0.01088573775366862 -0.0013641172734389772 6.408440402081306E-4 -0.01959403117083078 0.01288791894516026 0.013379805188969347 -0.0058816321122224366 2.595310663065468E-4 -0.008425298241070057 0.007666352620352029 -0.0013165532027227106 9.495297919315978E-5 0.0019412434207948573 0.017856753057092015 -0.0038588131754176747 -0.003781103554945496 0.007624512701142671 -0.01457037468545333 0.0028223461118743495 -0.007747830694016953 0.0035786134898297345 -0.004206864178747821 0.0024970826794397665 0.0020813389465303505 -0.005847940318194979 0.004163922998974104 0.0012668857629219708 0.0030924364032600695 -0.0019025587162393473 0.004884246357652771 0.006285751156795873 0.0028716592062632195 0.0012180194406123741 0.011648577642952644 -0.011907059702137191 0.008387524104322249 0.0020794428752890066 -0.012042820988093384 0.018735940567486682 0.002444149153631958 0.009685430847177615 -0.018725304461062936 0.001827061207155358 -0.0017893035256195619 -0.0030451560698641607 -8.723854180987853E-4 -0.003826427461466745 0.007356799196588608 0.012816009386630986 -0.020434691417081402 0.0021699607235588767 9.193955869519302E-4 -0.0076820259635030025 -9.33622011502633E-4 -0.013497697686988504 -0.09836388972094938
0.12131889962655247
