3
128
-0.004607228719656643 0.0074481932554020455 0.005525296090736815 -0.0019768237295346223 -0.003279881652337278 0.02001052242160428 -0.0019608037473813856 -0.0038149268115105217 0.007739167415529089 -0.025683362514671553 0.0236730903224621 2.3074477605585558E-4 0.0032555616656092007 0.025909521765429048 0.008077779378366396 0.011758864192072171 0.0016029659788953754 -0.0024652056222258783 0.005043624491995892 0.013823315220974325 -0.010305153862818462 -0.028660586933876516 -0.003005746862209925 -0.0055159854976075335 0.003720131685839958 4.297170462524822E-4 0.028699339876644546 0.006604024763628388 -0.0017964877429790728 0.0013894558318190977 -0.006056947879732984 5.529516713889515E-4 -0.0030519871412561534 -0.03265184847048159 -0.02490475926547693 -6.332434251062721E-4 -0.010088630818522317 -0.0017071267149901417 0.004385821855215266 0.007276635378572698 -0.017827829113868942 0.0070517822943977175 -0.002368550627647284 0.013050114998783748 -0.021660171881120686 -0.008247763241686109 0.012944221120845579 -0.003449764738683481 -0.0035165483362106604 -0.010545378087374041 -0.011017229017570683 -0.0021492572695063963 0.013719404171277207 -0.005999295241402379 -0.014389406770801664 -0.018496819791405713 -0.013692766420387272 4.479841790248193E-4 -0.015612921377136393 0.012696332511944387 -0.012856910884519774 0.016490066185439568 -0.00429430515704046 -0.0011351197513864517 -0.0022548276140195176 -0.008125001140581387 -0.01747142946785693 -0.012853618027984058 -0.010313494934309319 0.007520863400012003 -0.004091291966237921 -0.002432924764289703 -0.0010665641627808484 0.0015218040657562193 0.012145020449939039 -0.007333510294036343 -0.008966856500086452 -0.0015396243043857847 0.0024518309762784005 -0.007346518238931265 7.332174035767416E-4 -0.008661486546002668 -0.01828914047809565 0.003781968861957221 -0.012500279466447044 -0.11918305325282554
0.12227934812093773
-0.027460531399203132 0.02261812815547311 -0.005256987025582175 -0.029749054449050377 0.010259673133426258 0.01485779282526572 0.008392098783665529 -0.012254678302738535 0.02321051528935529 -0.027978042284025853 0.016788700127497433 -0.00414068641882581 0.0020909104168182657 -0.0012956321685720642 0.007501717034535314 0.009580469183171797 0.009077058860703579 0.02480868809753585 -0.0012503858427607081 0.0023210528864195438 -0.013080934833360928 -0.021121837108123796 -0.030862546723395813 -0.006388542715312019 0.006517666867839206 -0.005459317137556408 0.00787463276153554 -0.011482429146210378 0.009445716014995715 0.0033522198861952912 -0.005717048803440394 0.0059567050712021246 0.002635822676858801 -0.02060952538811146 0.015647518417232165 0.016556663658642768 0.00810960724941719 -0.01971481550509483 -0.002924304523103289 0.0194172849482637 -0.009755162758781275 0.024282968485627603 -0.009003260178557957 -0.02259987402085503 -0.013727599032450114 -0.00866807967153103 0.02546947916428111 0.0036785506508143478 -0.0015020213128798662 0.0045494488189345705 -0.012608984116587618 -0.018098590771468182 -0.002426115596753211 0.002099523436935931 -0.016013179034464274 -0.006857705019128369 -0.02345215918321409 -0.010808878164252156 -0.01757712964038006 0.002759559537969759 -0.008170043670974125 0.005153921888042816 0.006216685200452851 0.006036654695282009 0.004478192882061097 -0.011592289209751588 -0.022140901683060297 -0.02446650673700328 0.011386553555468304 -0.008710663247509371 -0.006229773990078923 0.008821857473106133 0.02755767111725787 -0.02300717805442572 0.004951358024506486 -0.02295023298423334 -0.005090878257483672 -0.024606927078292887 0.01651591942416252 -0.015844341948209318 0.008970841272754278 0.01081333310100722 -0.013728735493802335 0.008476938971059141 -0.02976271459027337 -0.0830716783226803
0.11080838523166617
-0.007580165139565864 -0.009786537468945089 0.004896457165965314 0.007850960151990627 -0.016550973216511757 -0.007052235331824285 -0.017039712672459073 0.005322749422560538 9.416797209044162E-4 -0.009307944646091701 0.010622384363633686 6.550911944526198E-4 0.0047267129871285795 0.015717248799312876 0.0074551722325504515 0.025454085347504176 -6.118973512458319E-4 -0.006595216258345868 4.482265169487013E-4 6.980434593914871E-4 0.012216597793025452 0.010923951262277631 0.005143983763140023 -0.0017194156309819502 -0.002092080010001438 0.011451098330773408 -0.0020593438026385467 -0.001879970538200358 0.02393116407832168 -0.00720526481294348 -0.0018930921321819786 -0.01263250165197301 -0.011438406977685233 -0.002978376569578352 0.003386758331563323 -0.0027015037008449013 0.014140131682122054 -0.011670833258356009 0.014003018471461903 0.009409952561449305 -0.013545918264442857 -0.001931946780874322 -1.6283939146369153E-4 -0.014960689200246362 0.0042071686487720646 -0.009963421622143257 0.006576181919538622 -0.006326025896424656 0.009423991683653328 3.421730989787837E-4 0.0018319540641802937 -8.83934338974159E-4 0.009503598524336703 -0.01851695671209968 -0.02102955195874851 -0.006870307398429855 0.008457530726893423 -4.569191483965448E-4 -0.005126052460062446 -0.010696886661708817 -0.0018804746161761223 0.005540092469117992 0.005855590229316083 0.006511395821038129 0.001694575551109141 -0.0209114293408362 -0.005824086765522683 3.9277021406634947E-4 9.332293968657473E-4 -0.006587563308195722 0.011868860172084111 0.015349375204004423 0.020240829411282708 -0.0017807618410716158 -0.004603316262561531 0.00445880194758186 -0.002781374609149611 0.0076797973257205655 0.004620893508008028 -0.006115784153111437 -0.027365707188857634 0.010696441724243048 -0.01654898850939313 0.005205558552935639 0.0018032612345856782 -0.13323637204611388
0.14417702531030463
-0.02563555390354034 -0.022707050637325282 -0.005651288903525157 -0.03631916104379473 -0.006237855822629366 0.009146089815315128 -0.01610807413899523 -0.011654607640666824 -0.016119638085215427 -0.017447975433849152 9.596077841446607E-4 -0.026983071939951635 -0.013052070278202028 -0.023978694605001256 0.002379281200058389 -0.0025849020789434716 -0.03252974342904684 -0.01891535498334767 -0.01823454596054778 0.006054957779536452 -0.02392462185317138 -0.03719860382246855 -0.04803228425107686 -0.01792537019258754 -0.025214728468140424 -0.016236274473099836 -0.025040151817237427 -0.026099185748919822 -0.01877215045291816 -0.012056484515337952 -0.016130385629260308 -0.02333632004146186 -0.017653615785820448 -0.03924830181991828 -0.006702186635391691 -0.013669085591302272 -0.007112103940676068 -0.013122110624257869 -0.03762482611092672 -0.02026740468049728 -0.0062443082882034035 -0.02506356191862966 -0.012335714363734939 0.002811730051280686 -0.018749092666701665 -0.003759817423734813 -0.003002154223330944 -0.03438563178492528 -0.007122599294586628 -0.020546578188554796 -0.007777480550386829 -0.008271031073621392 -1.2887115161973472E-4 0.005193105567627059 -0.03765178260648145 -0.020293654451227078 0.003296647311461074 -0.015354648073411295 -0.024857065967519337 -0.02558690989039512 4.92794056891356E-4 -0.013458337897578863 -0.012142495853346829 -0.008707854467058325 -0.013728377925188365 -0.01571953879183055 -0.0029127238457425375 -0.023707141262622477 0.005684760899660905 -0.0052501488740696965 -0.03183527171237339 -0.021773104931983218 -0.011188938857079906 -0.012872248754950692 -0.028940055584327124 -0.0034059304334673655 -0.010383431471732757 -0.007909548851875343 -0.028482754297470676 -0.017755951657580257 0.0018811053014320038 -0.034040825881389805 -0.01127043654167962 -0.007580691982187845 -0.018664650296660847 -0.011224497703581506
0.19524492208878713
-0.012268316344534931 -0.010407596732773566 -0.0013002746917995366 -0.01668240719301343 2.4359335308782727E-4 -8.902983340429006E-4 -0.007984260652822511 0.0058015175652028385 -0.0013898869008202328 -0.00996140335960031 -0.00758313097049061 -0.0010733137904031134 0.005789358128618595 0.005629268545706133 0.001969613654633618 0.003568199443966401 -0.003275708344498677 -0.01687334494241198 0.004214359067218376 0.0027647885424492416 0.007864822268490362 0.0020985717418339363 -0.0076131776593475475 -0.0051275994524793925 -0.006646262809813539 0.0028398223793435176 2.2617003483480728E-4 -0.015344354946251628 -0.00549614143982728 -0.005375981622563735 -0.0036827021110245684 0.009150851285675714 2.3016539840001697E-4 0.004905203850296049 -0.007152147324510812 0.011488076930183609 -0.008670130342056761 0.003124140917895323 0.005713373601044892 0.003929988562048456 -0.005170386603758508 0.0022422253085956196 0.005806799354075379 -0.0036502232463121367 -0.001246188227007612 -0.003141811213818739 -0.0026192045702035623 -0.00800045292954346 8.335567433163465E-4 6.58191470145186E-4 -1.287422168388385E-4 -0.0021504690308362185 0.0165552278438496 -6.711500915147501E-4 -0.018178406529347015 -0.0029878053264018674 -0.005548224837077411 -0.0029765021307385678 -0.006222380068268025 -0.0011056500740972718 -0.007430397393118189 -0.008574409078090688 -0.0011592680914802858 -8.757161150356706E-4 0.006115023082970775 0.003093807170174867 -0.005324739571525787 -0.008166174470524309 0.009588359488779473 -0.007436394373212042 0.021182733298163323 0.00871980207525796 0.00560380879087407 0.006000379230296131 -0.01163440575503244 0.006897742751728485 0.0038392168922275977 0.006453082360643069 0.008673796675464415 -0.011160455284342294 -0.010803965637112105 -0.00464269500515789 -0.009943148538025796 0.007921827432740784 0.004164784937762912 -0.07805396239430842
0.084715047088239
0.0075672926280759565 -0.0011426209876846864 0.0031736709437754002 -0.005369210191038727 0.0070106811189588674 -0.010913991324787441 -0.0012838460104953255 -0.0075813793902521015 0.00500203959358607 -0.009864479418206125 -0.010928080905214238 0.0019092611053277701 0.010681128934959089 0.00763862223500871 -0.0056999013114595615 0.00651058007240847 -0.00748945748788715 0.001474611539813461 0.006067218097697727 -0.007719574245625518 0.0057677545250737604 -0.012776762205094338 -0.01148785961710935 -0.006678284387048751 0.002802859220641121 -7.339314617056008E-4 -0.0026533286852045137 -0.0017207792974641932 -0.012531684864357379 -0.00569826598837484 0.0019947696371427483 0.0034224935375053484 -0.006616522655257238 -8.327170052989354E-4 0.005373847080382505 0.007299163969185834 -0.001037525624081469 -0.009687929596076367 -0.004078814458031731 -0.005384187207171198 0.012048941587451956 -0.008603572583872728 0.0023313151573469463 -0.005487766145451503 -0.007902762232284099 0.008105516026974267 -0.003635418519067484 2.0122846726920135E-4 -0.0023656512068735147 0.002393125800060539 -0.0028933957131469868 -0.00881205490368972 4.2630312459973873E-4 0.004971338359336659 -0.013969583351798457 0.0013689556806504603 -0.005592635689087794 -0.0035595333922656004 -0.0033867239826960846 2.589501663360239E-4 -4.978706081478074E-4 -0.008455420239885492 0.013153637894977411 -0.009725295685959699 -0.004756556690123891 -0.009251856587314526 0.0011559091782750066 -0.00988401002105611 9.774371042964394E-4 0.0032882353827464283 0.013683590420863574 0.014833787499342374 0.005568132348750719 8.894916521198764E-4 -0.01061377999836618 0.002090060869852057 0.0027331859793226164 0.002591437643153857 0.0065720951994490745 0.0022714242819532474 -0.0028785134904865347 -3.759338862631173E-4 -0.011387754047550226 -0.0039329486529963605 0.003726118794149223 -0.044683471544435076
0.05258763711926557
-0.012976883047009884 0.008000138341617745 0.00831387073222476 -0.0025471986074659413 0.0038291264578231322 0.0039114679944129704 0.0047357058390207875 -0.0030655932307504796 0.012654320910972844 -0.006275150205156648 0.0023147972526093366 0.010961770550163551 -0.010760053374388179 -3.271234935744223E-4 0.005256934220481145 -0.0037258580804460594 0.0023895987632199683 -0.01499847525221814 0.004626744097687754 0.0027818403399690605 -0.0013149135825785948 -0.01728865503768027 -0.013612764232642129 -0.011325448091636112 0.011887365281684326 -3.1143782636632066E-4 0.0027960721924510028 -0.007388135178267868 0.0016226833574166355 0.0036155870872695973 0.002317209247570589 -0.004627855453691293 3.7402423628370054E-4 -0.011022611674154878 -0.0015457568815910102 0.009935208678561961 0.002659038562939188 -0.004396441601958873 0.010258173251551426 0.007537043610787943 -0.007788672519934067 -0.005900981128449488 -0.007211319882903685 0.003943182082457699 -0.005500012883457416 -5.338628719682269E-4 -0.010239300574511794 -0.00899543457010865 -0.005469288692123995 -0.0021316203843855723 0.0037015389827114546 -0.0010579817656549923 -0.00429122873813435 0.0047900558106348315 -0.012514631021636705 0.004854399772617954 -0.004294150095881861 -0.001459086414517624 -0.008628484879865976 0.0014549704387671915 0.002789665508639989 -0.001029489623415464 5.449794956668607E-4 -0.013275187504890266 -0.0035002508893078694 0.00456430833322768 0.003260365192859268 -0.013672613415347855 0.00975039859927104 0.009091372167999457 0.003245892431891294 -0.0037538563186829185 0.0032454129935615608 -0.005580976704433749 0.0075494759743149065 0.005652034266683459 -0.01391896780887837 8.843861232470373E-4 0.005662715338064648 -0.011560327792092024 0.004681317534160836 -0.008721760627591266 -0.014848316912819858 -0.003359652207243411 0.0014770481467774744 -0.06642062885582306
0.09021080190599289
0.002374386088074051 -6.398232828397803E-4 0.0114521614811394 -0.0021984330441895644 0.020956666230585702 -0.002501182589082442 -0.008463602686698367 -0.0036062747664405317 0.005498825629186992 -0.010081008321270292 -0.009614841863549847 -0.007709032076867897 9.536707437240811E-4 0.0020827386368347037 -0.010534999334483697 6.375420174089137E-5 0.004772142475874523 0.007702514215709418 0.003909920558477837 0.009385654392600296 -0.005055115330577215 -0.0048114371816656105 0.005076313866461651 -0.006712129995811098 -0.01809422860626264 -0.010598722525765186 0.02046867427360101 0.006844674653386244 -0.0072295672225949235 0.0011863380074696465 0.0031057874237819983 0.007819714892811415 0.005099708366326785 0.007899597423750937 -0.01104678506323068 -0.00416513834775823 -0.009621634550913898 0.011558807764860672 0.02185534158981952 -0.009141087256497043 0.0019523248889564855 0.008327666458082202 0.010393475402615229 0.007452864732014852 2.122219419696617E-4 -0.002240073968948399 0.003182400616198623 -0.004620660669634926 -0.008399154522880498 0.02234815329199865 -0.002586106507980241 0.010254875562981118 -0.004754179355338433 0.011283109835327864 -0.012572286613231018 0.021839354682139718 -0.0013181272051616963 0.00237720841039237 0.005769388118255411 0.020659686613678306 0.0017427536588238786 0.0021771478498688068 0.018497605892752803 -0.0029549166619052803 -0.004038846451850537 -0.01764986967128647 0.0011870464892855838 -0.005642320806738306 0.0017708786878876104 -0.002291462741473326 0.015513926864903585 -0.0061992843247257005 -0.01185289554962418 -0.009115744824164588 0.001351810633831895 0.004452123318930605 -0.007817706346042346 0.007546488049150388 -0.0027761262819754667 0.006094072587579481 -0.009376690106080296 0.0026895983168739165 -2.2329669650746872E-4 0.0013452075238618748 -0.010209319474772736 -0.16973226411065098
0.23139056485429374
-0.05597168112930325 -0.04374584250728302 -0.04368024789138606 -0.03476484711011807 -0.04198082555289712 -0.027272327171276124 -0.036043564864065826 -0.022435402714983305 -0.036496734548556245 -0.04277887820400314 -0.012957645222793248 -0.03706848743115172 -0.050038749107989666 -0.03682277755291843 -0.0251989350394967 -0.04231425050802512 -0.058478039223285594 -0.048717140048345785 -0.04913799903539342 -0.03480734290173583 -0.03804310790715261 -0.07220407407683 -0.024625109175753238 -0.03242940953706112 -0.05449415569363076 -0.05493827737456968 -0.029559013733179765 -0.054812873606177634 -0.01871385350412117 -0.03656556224839144 -0.07040813750409025 -0.05580907152895857 -0.06465921946209498 -0.03144307281280488 -0.03630125398809055 -0.05818519246200652 -0.05678601872492203 -0.03460206480798914 -0.033763733465762724 -0.02308541185510621 -0.04142404920973704 -0.055205236181066535 -0.05763745398806514 -0.04502235985176574 -0.023316277331583656 -0.0526945150340526 -0.017667862901716617 -0.052347292529657544 -0.05206156494674413 -0.038891746238137334 -0.035566180496092704 -0.027129267743328807 -0.05141782955038948 -0.06324486408106711 -0.058249645940949335 -0.03970151785766864 -0.039920283513379895 -0.05361249046951826 -0.06083016070460743 -0.05106940570071566 -0.012338211240483942 -0.030087468090834898 -0.035882913938370016 -0.059365986976158525 -0.04819451798846665 -0.0559125761527611 -0.020445400221132712 -0.037817470107590456 -0.04671244466355623 -0.020039364123643218 -0.04554853316104581 -0.022828299691887093 -0.047876844304390216 -0.05324495864401851 -0.033146926560169 -0.049732932310920304 -0.029702817213613043 -0.07670855055938262 -0.048919973111292904 -0.025566421852764153 -0.04661607284272719 -0.04672315260351506 -0.039312597583860805 -0.03544575402832023 -0.04633965616292437 0.04721398593850311
0.24753532532548117
-0.003949977436338791 -0.00551668323149523 0.008188949906704239 0.0027129903397900383 0.0065601048794928654 0.009295111761683685 7.834291543477067E-4 0.003964478808619536 0.0030995800683979624 3.916538264716089E-4 0.008432432540721603 -0.004499160511306354 -0.003084897356974068 0.0017462522333675612 0.007976727203519758 0.010740005496530609 5.998726875263873E-4 -0.010189704954218505 0.009859783392882866 0.0041693582184032865 -6.436200314792508E-4 -0.006401692142219142 -0.0040022186048432684 0.007120813398290301 0.005394936531633578 0.001481747032794806 -0.0036916994409761793 0.004303894389741208 0.0035062159833793897 0.00774099436959912 -0.02027500601850715 -0.0044482410321128995 -0.00834542188003032 -0.011513050065266843 -0.015482976820362489 0.008762306763130622 -0.0032555966920196507 -0.013132667411621116 0.0035185767334803353 0.010882398076294056 0.004181674397460058 7.965378128563034E-4 4.3415186478438524E-4 -0.00537261907941197 -0.0025488214924713065 -0.012093129822747508 7.700312931414075E-4 0.0022601067005994574 0.006813327466958806 1.9106673473569515E-4 0.004089667585524197 -0.0045084568728627 0.00275396122793447 0.003610499954399294 -0.021074412576155437 0.0048838448757128105 -0.0018921463275053242 -0.0026142033049214642 -0.007266963025995393 -0.0023062372483681533 -0.010001290162363598 0.006731097666962176 6.828189778326549E-4 -0.017000611570316054 0.002718918873807094 -0.0031570449781337167 -0.005770786965409747 -0.002104233661183776 -0.00412492957068286 -0.008510731914539252 0.005775234192434859 0.0070629679784740785 0.007862729383661315 -0.0010468188877219011 -0.006736006660786078 0.0026345834463708446 0.0064125414048287884 -0.008134114355103604 0.005130567524850115 -0.003689704883644601 0.0054951249773375205 -0.008796379568882557 -0.012364129337407338 0.0024612035479449723 0.004478656444491697 -0.07624638460697317
0.09581792465242218
-0.00362856258590127 4.0728042687450454E-4 0.012180368819390913 -0.013614891035902757 0.006730570304651738 0.008763450494010777 -0.017221220991202945 0.020613527261025413 0.0030589225160135994 -0.007550630251912266 -0.02641764793790689 0.0011966917682765636 0.029173004908249804 0.009721077375213695 -0.009238750310744314 0.020018900183669586 0.016995003975235557 -0.01681544392396905 -0.015318278456199744 -0.005554240113324041 -7.129225563148744E-4 -9.130375557283272E-4 -0.01768350055959527 -0.007747974921962693 -0.00315079278313002 0.0014540143333647546 0.009701761480696286 7.113332480665646E-4 -0.0025931110957295002 0.0023955618130877157 -0.0034629911919527396 -0.003030203521536877 0.013881589304984593 0.017828361521989664 -0.01079978767884896 -0.008275924741089602 0.007900221771176136 0.018971774307555894 0.023787891499065385 -0.0052185497593221965 -0.01319316548739124 0.010946506845922051 0.00952590452085465 0.009276091079748874 0.002683494019611555 -0.025700558882499613 -0.007061584469088654 0.01736565761929721 0.02484746382580797 0.01593649185135978 -0.01165105539163479 0.01659511018939165 -0.00316544485868351 0.0029248131752771292 0.005219463574543315 0.011147025194940678 0.018647743615965523 0.0049766813093786895 0.005164741670009322 -0.00381770716354504 -0.0076812343664809535 4.3887500609164435E-5 0.008436075021876344 -0.004979832306130043 -0.005768992664036493 0.006004498197518703 0.017399269531918442 -0.005481422339469107 -0.011157155758131625 0.003830236426671143 0.002857311325774095 0.015485208910393079 -0.0020216019008515006 0.009616428242331552 0.01643239166114237 0.02203474629786014 -0.009699166221499335 0.01411012359256168 0.0014414923617176584 0.005732040608685659 -0.0018635565010974575 0.014311002574404104 0.016641579979360274 -0.008509098799355316 -0.025430562137598454 -0.2386015303718982
0.3133203993360388
0.010008976440852838 0.001822370644845684 0.0058858958511847255 -0.009232653934183552 -0.001125353892233797 -8.419360436457998E-4 0.001775016779031851 -0.01651181371490853 0.02173807569848242 -0.01635324809381492 0.010390216262733693 -0.007084702165967129 0.004330176103537019 -0.0028150539544973927 0.00814437623432474 0.0010081930396438677 -4.989957608055826E-4 0.012793952120823989 0.009448630164781726 -8.674311211650019E-4 0.008748348511599715 -0.011521849906067746 0.0049952151539012675 6.378890795788111E-4 0.010775036814209339 -0.0045623734118242455 -0.0010196522393290399 -0.005327260283876291 -0.009745473388246847 0.005531744361575337 0.005671516050342703 0.0027537313533780717 0.005679169565351933 -0.011732416499521522 -5.617134968141824E-4 0.017572539873337782 -0.007790120813217481 -0.01449109462130741 0.0028795043780964406 -0.004472388946769387 -0.0184740926956494 -7.166606903732098E-4 8.778287062766651E-5 -0.012410483844481278 -0.018647756169326905 0.0058986494100970455 0.0044212385683330534 -0.006174602235619087 -0.007433899751985132 -0.010195745773827732 0.0011779487751475666 -0.010457347483454888 0.013133115236034486 -0.00781305997494468 -0.004977649022548167 -0.01016023704711227 -0.005862765718826909 -0.0034149787512317187 -0.0019262987878116969 0.007556236682285313 0.0068994106232473824 -0.006731188061106543 0.018724137392187073 -0.004384995108432217 0.005958893041198627 0.006970176468337794 -0.01108533832240715 -0.013368900389484628 0.0016821588512646185 0.004682982949772426 0.008900549423950629 -0.0166655391768346 0.006625843407105022 0.01574541436028638 -0.003628405441095609 -0.016083567203975704 -0.01067890325784414 0.006519575611377229 0.0017999213840167074 -0.005813570743623908 0.008373355434095618 -0.01336646880089383 -0.0055301325360780015 0.0039004207902096854 -5.364393171041972E-4 -0.11755394331754727
0.1329446372728743
-0.02428412402360512 -0.0067606515059359905 -0.008789770232204822 -0.004168783851952687 -0.011591726521092579 0.00629893461240476 8.290190081844101E-4 -0.023463218082533085 -0.017793299255396973 -0.012006447141144279 0.010042403938487675 -0.02545466414682879 -0.0337412402728648 -0.004987324383807646 0.009119483012844412 -0.009544358013560619 -0.01247178690497129 -0.0030770651007034724 -0.003664340005284942 -0.007956591807975793 -0.02971249868495997 -0.033869039841716304 0.006648226884240764 -0.00983069432733187 0.005083625905244783 -0.021001875512445055 -0.016630915742906264 -0.03079224301465055 8.229334480737564E-4 -0.006998531314885633 0.005303454554596865 -0.01806800865650954 -0.030702193912219483 -0.01585705737796621 -0.01355570548344336 -0.00904617085950526 -0.0038392666198720795 -0.0275755385598049 -0.030237292544297894 0.00931856551172988 0.008608405211254246 -0.020595541106869494 -0.011656564771829296 -0.013752001674966654 -0.004927620415902913 -0.02523119304286084 0.001289801643348086 -0.006070903144364552 -0.027215817896758015 -0.013014746420947755 -0.009916798833695666 -0.002668322890266957 -0.0020784080395690905 -0.009390357790824236 -0.02301941038489922 -0.015979208747194405 0.0048340316233278285 -0.012198585419647329 -0.015997116749133258 -0.022138554001101655 0.010304339954834686 -0.012090419330709057 -0.015108888256506517 0.007148380899900913 -0.014599706408253019 -0.04300014803516176 -0.012717447048517242 0.0035034039356740647 -0.008702151399980483 -0.015113046469033753 -0.035544563607503014 -6.795185843337844E-4 -0.011726952779708128 -0.016927613503050117 -0.008048633281189474 -0.0016247913253870055 0.009111094917737548 -0.03217662661532518 -0.005314786987090589 0.010282326811523404 -0.02862632124441932 -0.03824626024034494 6.218451773648556E-5 -0.010750704662987644 -0.008491553673288016 -0.02716316213956937
0.19124134108852156
-1.6951394347772204E-4 -0.02417328525612731 -0.04222925345740942 0.004159603914326662 -0.03177807277305119 -0.03189871507475941 0.0013532881107964833 -0.050221115253261644 -0.02057652147243982 -0.06391468930725153 -0.024979693613669654 -0.034963833194858705 -0.04724451424309971 -0.021346423648252823 -0.03535679668321968 -0.0021268341045138574 -0.05490972454386479 0.004976927135237241 0.06972326756478886 -0.014565483158127474 -0.026448036405705665 0.006119331079134807 -0.04672245541727758 -0.03384095415555109 -0.049835075882289026 -0.019264888799961077 0.05232470684207938 -0.006339759650004705 0.00607635876808029 -0.004347258515583155 0.00481019358074298 0.05527154664812424 0.008922610212330023 -0.0238403698262731 -0.025910091831364186 0.010128855789904963 0.03426510646206434 -0.05761051249843251 0.009714862336246266 -0.04878404419547223 -0.022277111232812393 0.028854321624222735 0.03451918322793065 -0.005594608006555309 -0.05370353049685872 -0.03670974404469364 -0.03383976373599098 0.008604508444477356 0.020682748757956355 -0.006163063540221175 -0.06423683612496667 0.007937155363787758 -0.03361159901729844 0.039896361562049495 -0.01385751060604123 -0.03527735172599116 -0.05967047198714718 -0.055640501329180025 5.262954310173039E-4 -0.015352024150520038 -0.010536911062122048 -0.02294267604888954 -5.013514137365133E-4 0.028756668065279416 0.0063791775384194225 0.010386236289717275 -0.012346601751510726 -0.027864250229948696 -0.0038355869768604165 0.004830817096670983 -0.014574874047614114 -0.04859369366289934 -0.014830128890227544 -0.08029762306962467 0.04049941561222891 -0.038457441051300244 -0.08038051917219538 0.023932986798174738 -1.9206015327878937E-4 -0.019277631439987498 -0.001870008066920934 -0.0026323341915755302 -0.036546352235448804 0.02600970775038426 -0.028984699192743036 -0.12571232625917966
0.10133137735943198
-0.013425832793572998 0.00347418955527066 -0.014532204083185387 -0.005046162665429395 -0.014303129064563793 -0.0012147100462561887 0.007843043579571564 -0.01075226349642311 0.01303772739302055 -0.035988689408289726 0.0171248975085472 -0.016264730112466628 -0.017888693663228414 0.02059121718775327 0.019114869204785948 0.011058670679663806 -0.027893797582227122 -0.03894754770295823 0.01867025354883073 0.0031420723203276937 -0.02511765099714419 -0.011331281243250104 -0.025582091641968244 -0.004453437710034319 0.009724104112417021 0.001706059979781372 0.006626201798843859 -0.012684446093028625 -0.0057902606610166964 0.025266910773693606 0.01300552708726373 -4.5936377840029524E-4 0.0014278377047111236 -0.03074424024645598 0.00505988301793165 5.243586515917653E-4 -2.8050177522967516E-4 0.010486017595312001 0.005127967722991303 0.0031859735549881335 0.005783320054585136 0.019539803164590024 0.015802526742138168 0.013048455665428553 -0.012993186977264998 0.010272110514845405 0.015160926529947893 0.004864893953061149 -0.007219320440178818 0.0017194963124660646 -0.020838925241487796 0.023675805231846078 -2.844674648584292E-4 0.001308442519056337 -0.02476373685267664 0.0028939056672012057 0.015439419130991623 -0.011118709972360752 -0.005100793367765568 -0.015706414065385955 -0.01233775898008784 -0.0011319903121334682 -0.001655506942671631 -0.02597235837877701 -0.0011981771711571066 -0.008364754507155077 -0.01988511366095439 0.023549455246640778 3.1440556085309397E-4 0.007591596836295421 0.0030600556289235074 0.040812199332627634 0.005294905095883957 -0.02312561409456853 -0.0028424619452275895 0.001286980085325397 -0.007964786260421646 0.02757636024849591 -0.03654177681504898 0.013202203453653265 0.0015978899177506174 -0.008888144719595821 -0.01693517609348484 0.022116788795419447 0.002913168703712712 -0.1719631053668731
0.19533138168706432
-0.0119917377474009 -0.00850468749930764 -0.02171282683399075 -0.014713763351909727 -0.0072963986813043705 -0.012440231184085224 -0.024934546095695034 -0.009144517184057701 -0.018777949799617596 -0.010115519607297141 0.0017196505494915708 -0.0031956320047517067 -0.026427738474144452 -0.031412055780346775 0.007783292195563058 -0.01815613210411289 0.021563641201821845 -0.004558433854984608 -0.0316767810035607 -0.028000951279900415 0.009640815926413653 -3.118154726588124E-4 -0.022531730043029576 -0.022709663368372743 -0.014347954658263547 -0.024882368069509924 -0.01957435309740772 -0.03411826263984347 -0.024243004102894698 -0.04075068467231983 -0.009233218472195291 0.015637845630582327 -0.02211471867891646 -0.025628563381130082 -0.015035835408690714 -0.0015664171184550943 -0.02092741825239449 0.0037647840104172415 -0.014064628007303044 -0.024199952663337194 -0.03266258977016473 -0.01528946140980285 -0.00662199508128942 -0.02817626804815335 -0.005822589621015464 -0.022438439398069485 -0.030367148617642212 -0.020199077115837544 -0.008712141530668172 0.003052767664417746 -0.0324619692746204 -0.04786640172159783 0.0013571499379836916 -0.0280350489606295 -0.016539367383765623 -0.023437737630028082 5.735190017965435E-4 -0.03571624135470964 -0.022276607201632555 -0.011103704409924932 -0.0025089006462090855 -0.02121435116865138 -0.02618505598837095 -0.027395303207076064 -0.02040578551762903 -0.03256144655104795 0.007210563502581556 -0.03231984592080855 0.004012859250656423 -0.04787963721776988 -0.017115374769315447 -0.03601889848568197 -0.021070511478513635 -0.016611771945143596 -0.04342806542518899 0.0034742523800471337 -0.020456194246930116 -0.0031023428198996028 -0.04513392022741953 0.014963180774242297 -0.02675122533190561 -0.03390063885140277 -0.010165472172096818 -0.009266260331973506 -0.013897802426676554 -0.00961653969583974
0.16505435438653637
-0.0032622500819397236 3.6065526879677654E-4 0.001726992941713289 0.005249320787017792 -0.007049614680926844 0.005786238579033671 -0.0012187836840155232 7.479266538977387E-4 -0.004554661569867074 0.00286934341466674 0.008015804579349115 -0.005537606875873361 9.217689322372613E-4 0.008759061241295774 0.0032422760033547944 0.007192541284588043 -0.0119574442996726 -0.009919050241600917 -2.793054750664421E-4 0.0050481637960729684 -4.0831436764724176E-4 -0.006246586096728881 5.536830832364913E-4 0.005354645635858717 0.004617852671410083 0.002016860222936233 0.0013806130192407264 0.001102497645962718 0.008229774791085031 2.878492069921052E-4 -0.012030503864133608 -0.011395149771477158 0.001394132979019331 -0.013206604354416954 -0.00922806276017166 0.0031531599482911817 0.0021452600375227024 -0.013822480220478548 4.125782222797356E-4 0.01192800183555401 0.0037088277932337908 0.003936289928198997 -0.0028799816287233887 -0.0029997130387338974 0.003197960942011853 -0.00617752031204745 -0.0014557680245926156 -0.0014411255486961724 -0.007447477794611793 0.0015330140989537997 -0.005024587014558853 0.009041434366135059 0.00668493672716202 0.003951342114657895 -0.01676757902109289 0.0017314235472610004 -8.008553924248632E-4 -0.004751968427470048 -0.010818341351806027 0.0025207579388405966 -0.0023881514082541035 0.012462623052415524 -1.8015306299902856E-4 -0.0116800581584566 -0.005327757915314226 -0.0017470618443410266 -0.003061363576860953 7.079194963914075E-4 0.002348159622139041 0.0020120717317290223 0.0012308191282434777 9.442264857821832E-4 0.012667506840036489 0.007623668509646321 -0.010778532574667637 -0.001326026505785388 -0.0017820577555901311 -0.002972067436055501 0.0018953632547728091 -0.008617936740458427 9.104896764056125E-4 -0.004601298868135018 -0.011740636976020015 -9.647508524456468E-4 0.003936077657915547 -0.07497263095415702
0.09460342360334745
-0.0059859107096708886 -0.010752941807064573 -0.012428719405728683 -0.01196398155344563 -0.005646807069808026 -0.005567711625862392 0.006399922649023807 -0.016490260537859867 2.3996527832273568E-5 -0.027315496757096644 0.015020910201901433 -0.0021990876008941345 -0.0036769370909251245 -0.0010348013742609754 -0.0024050469078242464 -0.0012265689902981852 0.0029918044159179683 -0.015868626028178352 0.0026365590379395848 0.013545206908814974 -0.0019274164000014356 -0.021638374134624116 -0.004510087342593209 -8.9227970407976E-4 0.007981720005956799 0.007013697382720545 0.014816730441877007 -0.01574199469172759 0.011226942480806534 0.008567001940195284 -0.01646464895971749 0.007725167783571564 1.0461334940531155E-4 -0.015021043984759681 -0.00434203250105861 -5.3413741097887334E-5 0.007735706825671775 3.73600789055144E-4 -0.004676076697937277 -0.010003500160755588 0.007522894814121912 0.007632522489660462 -0.009710310257653872 -0.01596664180506401 -0.012951128142484005 7.711067049729838E-4 0.023944398756769528 0.006006856352441792 0.013572095604535846 -0.009930408024774497 0.008318979616413659 0.008944858892733354 0.0010196452199776069 0.01368626317050243 -0.012906952669028358 -0.002380095959604404 0.001826206854060119 -0.013937850320177018 0.0011864582970911764 -0.007601585418190527 -0.0181579025483982 -0.0012148523187874623 0.012307097773849413 0.006122309313241637 -0.007879292141048967 -0.017863708790716713 -4.8181182968612087E-4 -0.014630544610736242 -0.0034945661683126726 -7.265431607236008E-4 0.012022371817796002 -0.003211343602560983 0.009627391755259024 -0.015847371034591592 0.005752148796800824 -0.008564830805171468 -0.00362756009051042 0.0011623043516761123 0.011478193259276343 -0.0067561906494597885 0.011669746877721467 -0.012457532362381545 -0.021933733278330432 0.02344704965994993 -0.016991308275196182 -0.10368087447753836
0.13021661229712883
-0.013853771441725086 -0.0013008713008782488 0.009649188009095424 0.018876466668733452 0.013051929114991739 -0.010494758127570652 0.0016339409103900311 -0.004041563893195997 -0.008449487770466018 0.004267322562982071 -0.013630215037027384 0.004201166512345528 0.01030893481030925 0.007292104381080866 -0.009374157915318256 0.010842612499690747 -0.0242041335329963 -0.023712063061916585 0.009882199432184356 -0.0047873644995858255 0.0012345620083722547 -0.0038488197771046617 -0.001788872453601985 8.939084473439602E-4 -0.0164661812586265 -0.007576255733434028 0.01321672781965001 -0.014893810867942158 -0.013881339666240456 0.010446874311533344 -0.00201111915783677 0.01332398759757136 0.009483552966104616 0.02821411508202527 -0.013165879024242412 -0.002161368099558189 -0.006912390873448651 -0.003282815710051343 0.007266300633659566 -0.011338560224144948 -0.005596168701067148 0.011177925903413091 0.020313044193826072 0.0063582231255556445 0.006197088356686516 -0.011435704999517798 -0.008154127731942944 0.014306267687728517 -0.005201067200975779 0.0018252265020993524 -0.005550181829959138 0.018798876559397562 -0.008136971331452244 0.01212233978941143 0.012697840856585249 0.01089946110083446 0.004081102291213881 -0.0019834644923051818 0.005208845480219349 -3.936258673053155E-4 7.325386137103214E-4 0.01153043513839305 -0.001968981080089893 -0.009572831048141037 0.00481979615865756 0.008237139009327652 0.013982981724287009 0.002148261552447616 -0.01631606593369847 -0.008029900461705996 0.009132820395528886 0.01882170225383554 0.004581948932450731 -0.001125411440812251 0.009245126318743382 0.023017070232016563 -0.015875510202655138 -4.7660832528267954E-4 0.002217005362083215 -0.015339784215354525 0.008260681300171926 0.014983693998752707 -0.002783205683891627 0.006774957918742855 -0.024457637425654016 -0.16765649473236674
0.22565956564685766
-0.012408766243763747 0.004885859128784595 0.012245380294587192 -1.869380702055928E-4 -2.135080310832668E-5 -0.008674101856557054 0.011028699241058149 -0.003418640026787515 0.012542286203216955 -0.009973270305712975 0.009538443252456586 0.01531874990959621 0.011184517562029261 0.003268565575624801 0.012367716643113515 0.005781330896273524 -0.009901861969373137 0.0031833636253637307 0.02217152682873029 0.009589800709846077 0.006469724274611084 -0.014255150738204927 0.006427595778915842 9.007741712159684E-4 -0.0032365864469161318 -0.0011165492780021765 0.012573683797608001 -0.003057702625925114 -0.007942756011699846 0.0017788889578285946 -0.01299984754945055 0.003770035069037738 -0.020880628926356264 -0.012296435733485904 -0.0048435876582081545 -1.5263452713426873E-4 -0.0031403403648285586 -0.013718440106451919 0.005753620926600948 0.004801673484574237 -0.002188731665251767 -0.0017910976921441644 -0.0045143269077206226 0.002556021839058526 -0.013216741101162041 -0.0026466067363761113 0.011487720791743886 -0.012848949678112788 -0.0031737253737151193 0.004075772261283457 -0.009323790429559407 0.007506463155807551 0.005821948093786236 -0.0053083972614708045 -0.007056523939171127 -0.010220012424671375 -0.012692091193813279 -0.003486287882221757 -0.01519655634107477 0.006822901197238376 0.004053777643185645 0.0025592435486660728 0.004383275529312295 0.012268497525176612 -0.010080228968996458 4.824060918496922E-4 -0.007548266726922577 -0.013507741385354884 -8.040200295697654E-4 -0.007649747053007891 0.00671647714461648 3.797666715629135E-4 0.0033564888091628846 -0.002559966897232246 0.00494557107824991 -0.01498404509318707 0.007333907879110423 -0.009978212227051185 0.01385241002897126 -0.01426111455578875 -0.003131506467396911 0.007859271318226573 -0.01476223383148743 -0.0026507791674490635 -0.004509674423811663 -0.11278008307529816
0.13417633701603177
-0.009034008264128058 -0.007279006770924594 0.005278333271009553 -0.03064439709852278 0.003153200275389746 0.02146924355349138 0.016554434245879556 -0.03593458661635243 0.016756660260605894 -0.043987340966037604 -0.003259921539648695 -0.01354143786157796 -0.012381955950084213 -0.0045683569782838 0.008455491570865144 0.03521011206730561 -0.007265470108149143 0.00784434244027874 0.019084206106986308 0.014793980817402253 -0.023768513234613212 -0.028662716957228482 -0.03804444454076214 -0.01154539094047003 -0.031940519223889165 0.008683901584152972 -6.762363896406868E-4 -0.041052860577230704 -0.014266533698818954 0.010552537731642232 -0.01301257826884266 0.017476692448399674 -0.00980870422980831 -0.036259283055442286 -0.004591361430906048 0.03008023906662291 0.0029423139333811616 0.0021030586110413825 -0.039193517033772364 -0.018918353950022393 -0.020028089053605442 0.028239647596940066 -0.01839644526766091 -0.013709692125900218 -0.019785312034295423 -0.0053893209349687955 0.02369397662842363 -0.009847286425647606 0.011687921053949231 0.013560357221456848 -0.0012724875005548485 0.00847927032867935 -0.0020642342000578083 0.03553426673016409 -9.129445153251847E-4 0.019281984796796568 -0.022634416925392288 -0.025457771620206845 -0.002920047859671717 0.024413601811364045 0.0064922593027203195 -0.014211955589393406 -0.008416058618123457 0.007458032039204385 0.02716559407278511 0.02457620711781874 0.002351738450208277 -0.032546372236752004 -0.0033050392972147633 0.006380612115459852 -0.012314333077649828 -0.05536573449789617 -0.001475120691453164 -0.00854458627077922 -0.014618376043823962 -0.032385393352031604 -0.012603436469530254 0.024894092999161687 0.0020668510659809305 -0.012112828366481506 0.005531214351329339 -0.023490950892597957 -0.044009331065391996 0.009241029045853734 -0.029714462271201763 -0.11854661096545131
0.13314768736642418
0.002178190407601673 -0.006116269922135933 0.0028377717449998693 0.0012465366682689815 0.0063993778153306645 -0.0029514653884328795 -0.0024122581375626805 -9.675994361856084E-4 0.004864082557386006 -0.02280691510256289 0.0016332594056871039 0.0069128311545635585 -6.905999768507169E-4 0.006874800981496919 0.020598705911465967 0.009195364904107564 -0.004175116964365493 0.0032856862940201597 -0.008545673751876674 0.004809718667974791 0.0013253145226160806 -5.082839886190838E-4 -0.008424621088804677 -0.015488071503331037 0.0015428467491015185 0.017759065381185473 0.001979854609281354 -0.015873952962007762 -0.004189180734594512 0.0062070747524074436 0.00860801773169923 -0.008840033129828374 -0.005559525102182271 0.0013946994593508877 0.007341682311317919 0.010624718725963772 -0.010814415346345268 0.004281056375874565 -0.011725418625733064 -0.007682216111657415 -0.01920856379800463 0.011019709856948149 0.009669446142743125 0.0142504814758503 0.0048505247055237975 0.008123959997289276 0.004506819010752547 0.0021597300772121246 -0.00415586882560054 -0.00552773825700484 -0.009445814537140268 0.013017000867748327 -0.01193684979515249 0.01648447522800207 0.00849389717588778 0.014695019607964259 0.010208863623105784 0.01814136436690645 0.012034587818179098 0.004466397699132074 -0.004072434085046278 -0.0096960990955728 0.022842309140987192 0.002549433465487607 0.007314694000225704 -0.0015922756856243058 -0.008540259053301672 0.014748121828646245 0.016600391137263838 0.018192037431863144 -0.012059163356586973 0.025544679212354038 -0.006165685846598275 -0.007746248978034234 -0.006159621443038052 -7.226586484926657E-5 0.002886419459380651 0.009898574258577273 0.00582017632577948 -0.010877745893067732 0.0113131803075293 -8.08648000505908E-4 -0.006739289539152124 0.012125502298312572 0.012572996598266965 -0.20727424631157415
0.2558014328470376
-0.03739716830337085 -0.038297983562903835 -0.03294741041436034 -0.030517183499075312 -0.02544922222823432 0.008097844188738273 -0.023047528169962108 -0.00584856137020093 -0.0170467729600176 -0.022430645157359427 0.020152002774484014 -0.008339436752647082 -0.06580124669896058 0.012299271815126368 0.0012705531325162209 0.014687842726861204 -0.009364844524780421 -0.006677239663624974 -0.020181020811763546 9.528239133309215E-4 -0.032706992150378096 -0.024081610038430984 -0.04247040899899573 -0.03361946603994904 -0.03147342696641612 -0.015366165260811448 -0.03077562867936779 -0.05511096042248746 -0.02612629295444702 -0.04695287097188166 -0.015410338712916118 -0.04762965324609382 0.002894447265258987 -0.015556984656773508 -0.0338147459484222 -0.021465858805048702 -0.004935596683088212 -0.02580316831001606 -0.013042939786360808 -0.0034474530808591935 -0.016198228388314664 -0.021112318628733136 -0.023644069325848227 -0.011670845309178012 -0.010468286483227982 0.01053249094074911 -0.02400909059349921 -0.0412121793095709 -0.023661135625620076 -0.030795173348218467 0.022636526422207023 -0.01584097953886619 -0.028888680616727468 0.0012036282405893043 -0.018055813260537037 -2.614610304406377E-4 0.014825612491544342 -0.04161861446830213 -0.031767176847620315 -0.03437035749487871 0.019804676235401004 -0.023721719243342047 0.012113646726518127 -0.050042909589871974 -0.005007054878951768 -0.02488095705682186 -0.02663762961226101 -0.010035680133956493 -0.005615698588128342 -0.014271346392793613 -0.029006123102371367 -0.017725087857606122 -0.05729812257428588 -0.03573400256018219 -0.02903345044414823 -0.040526327343234025 -0.024710822849236137 -0.028063346857370282 -0.019154791490341553 -0.011269821552752319 -0.02020430749680442 -0.07083342575483903 0.005310882751136305 0.0011256857582918345 -0.028520936785909456 -0.027676253385277214
0.23939820421114358
-0.057716452721449193 -0.04600737099597077 -0.04222000149232656 -0.05212175877007084 -0.03162285020282527 -0.03870844961811285 -0.03862572050732584 -0.031300412632616105 -0.03049559824641191 -0.06116495575297312 -0.04539184959981129 -0.0468079775000257 -0.04484916050553027 -0.03441626772892646 -0.03580218281262826 -0.03140101938656022 -0.06435549356918324 -0.029354727606972032 -0.03352995488772709 -0.0408310348674046 -0.04950610980474524 -0.05884435647897618 -0.029695265140971663 -0.03764625553310855 -0.03494274864585314 -0.029728244217444025 -0.027976559814437574 -0.04343178321060625 -0.05285778381263553 -0.058029135370856105 -0.06021950619399435 -0.03200353691988459 -0.0447028627074799 -0.02727526427788 -0.025519720558640022 -0.044980682679444155 -0.037759161989429316 -0.051064056806896255 -0.032348940739361176 -0.05718126699375565 -0.06296426769921093 -0.05179834569700517 -0.02970588380563953 -0.054639860541931005 -0.043000295251824645 -0.04088068258245187 -0.026739228247978527 -0.03745505740889277 -0.053000091417397054 -0.05034686014387979 -0.05295376672836831 -0.04648718811391143 -0.06458385422587179 -0.0559369294553233 -0.053296800836859136 -0.06867274021204103 -0.045416906030944997 -0.04825816138957383 -0.046619421171275696 -0.025064353470822153 -0.040269576500917025 -0.04451643559890672 -0.05298652647719429 -0.035640120986486425 -0.033605079448689595 -0.03644688195999881 -0.01616604566672765 -0.04494723825929949 -0.04818928279232605 -0.01634560969146031 -0.02671880827894597 -0.0131742363699649 -0.05413491285914926 -0.08276091210634774 -0.042750411732631215 -0.05433801692845225 -0.05688832254906815 -0.07155568579906384 -0.04686132280659711 -0.010970733422674121 -0.03454443403488375 -0.07250530755647952 -0.05289073129124963 -0.039652344430585684 -0.03330264965184105 0.04966561755973262
0.279139609982078
0.013739567111272862 -0.0111370898498275 -0.004300283636737137 -0.016868468205551605 0.008214170155968571 0.020157120527591346 0.005181595982214985 0.0020959034143601092 -0.007240908827138497 9.514390114184818E-4 0.011695255286165622 0.0015223156638040818 -0.0012191387064677374 -0.004803267876758829 0.010636839012667623 0.029465832904973555 0.02545732623696467 0.013821961901035852 0.0035666538500965708 -0.002367366233972072 0.006224916874513826 0.015355652280527887 -0.007429010437424019 -0.017443853313826394 -0.003513056293621132 0.004751592428507299 -0.004543962166252805 -8.139083450889332E-4 0.011751888539354292 -0.012733582113990758 0.006370858728282107 0.025614435652739798 0.01874516277782625 -3.8954640361417144E-4 -0.005909001511649517 -0.010942728196022862 0.02189664602485385 -0.010211574200281936 0.013280352554221378 0.017276794357895225 -0.014874176716898717 0.011566531051411758 0.013011641711822482 0.005519449382673304 -0.01319304546602397 -0.006633496889207981 0.010974423026522226 -0.0027103762037120178 -0.001083656699143777 0.015386852240598672 -0.009690091264116263 -0.004466570655356796 0.0032237798400821904 -4.1245517846594926E-4 0.004971653802995338 -0.002554301582540437 0.011911378624905388 0.006898986124598777 -0.007415210891775302 -0.006333901664976916 0.013199839533221338 -1.5846421881368872E-4 0.001031783889536814 0.005566456885971775 0.015229245324639392 0.012608984284875566 0.016639469660284824 0.008479139861603415 -0.0058370829325950285 0.006219518258430957 0.01581339182268829 0.01982724976229257 0.023244746882190748 -0.01621417254074209 -0.005500554419477789 0.005415279621221045 0.019854586438405302 -0.004973874801316926 0.0025700660593695733 0.0035386353693832124 -3.009795806486851E-4 0.009230107132858396 0.016177058702896933 0.006128873414688828 3.110232170670841E-4 -0.20626782475062183
0.2475331972228593
-0.0016071077344710762 -0.0025257406124520876 -0.009306406608378576 2.026494611439438E-4 -0.003871802449117036 -0.0051019833697341565 0.00702782048944312 0.006909712712976051 0.0018176788849987658 -0.0074120540032095944 0.016462721012939014 0.010976388330789417 0.013467260943120379 -0.0066608837098517835 1.691681576856601E-4 0.001962290041602991 -0.010911730576446186 0.003147190966545812 -4.668198068177526E-4 -0.0013558473865379233 0.00663771491636077 -0.004217394371244448 -0.009291037617320749 -0.0012414111250453625 -0.0012777636859842246 0.0024537512975862604 -6.22819712076191E-4 0.0034580431040566665 0.008387674657463774 0.011263839550349472 -0.005008888138660676 -0.010444574717006114 -0.015206731027928426 0.0028068479768982744 -0.018487247057268 0.005039265219064829 -0.0032071301777648457 0.0035663626704442934 0.004874155812470774 0.005580366519322761 0.009379342574165355 0.012554239401680127 0.00446406041592193 -0.0015641392566255567 0.0012344561336440152 0.00673770596076375 0.0041537877306483464 0.002422840121330198 -0.010262402625199217 0.003385790337144405 -0.008486226508195398 0.002929515078689188 -0.01113482927572998 0.005170431583099531 0.00987080820602413 -0.006998316272982861 -0.006707210066873307 -0.005076758395686158 0.0015228309735855587 0.006654246066294289 -0.004111091041072969 0.003530820440783009 -0.0028136870976547238 -0.008203111981572152 0.004932511109192472 -0.006239136343181947 -0.004135195553794647 -0.006436463083525528 -0.01436549715089414 -0.006775082886510204 -0.002282087215517146 -0.0012642348288817965 2.666284847188206E-4 0.008772312437854585 -0.010648971864069837 4.8684035694379954E-4 -0.002614112465464391 0.010289479842797815 0.01772742144984544 -0.006550204649481889 -0.0027733732560258225 0.007669149394054364 -0.011146944791996441 0.006257587842022804 0.007929789308748393 -0.10961747520971628
0.11064939389198415
0.006355486823046038 0.004752901155194615 -0.0032876151981277024 0.001785699200623775 7.426276737855951E-4 -7.309509371703948E-4 0.010616058580730725 -0.004884059576534077 -0.007037944629084045 -0.006023964956572445 -9.940835210245555E-4 0.005204023556228599 1.6723787482176506E-4 -0.002139602011008798 -0.0011095997264122066 -0.004844983384864367 0.0014330201535822696 0.0025078147582263096 -0.013233261908754932 0.002334811077845485 -0.006795217655650586 0.016850655777327805 0.00505833703667367 -0.016954116264129175 -0.0019004122147248052 0.0028752621017813828 0.012505595338089703 -0.019165025769807085 -0.006790493074934426 -0.0031664168351076003 7.140562071865016E-4 0.004003235150567884 0.0012813150031968003 0.007158126106807715 -0.004712564319482051 -0.0016071122899937902 0.01067486627522109 -0.004648720462525416 -0.0047949228291963054 0.006353451583497973 0.004226550246837391 0.00462248090504119 0.015422106922013689 0.010532629415558045 0.008544572309662152 -0.008720864991759279 -0.004707796639992561 -6.733986343507264E-4 0.0037201067756803346 -0.008548094799632549 0.0029410674677505574 0.009296735283979236 0.0030147989882069845 -0.004634510300262873 0.009256818997375845 -0.005772477398646478 0.0010514378497829351 0.00662348469243731 0.0033405602709598915 0.004143992853318347 0.005157605538509013 -0.0073046171862494 6.382580214916807E-4 0.005524011731199888 0.0017858206621618885 9.834296943037927E-4 0.008299469810970968 -0.0034377707089465847 -0.019207059891566607 0.005496951731884092 -0.013756182779915653 -0.003600220716685879 0.0020514778085818763 -2.7399769818179856E-4 0.01919101180450346 0.01627124178359198 0.0013812582365987413 0.015582019681876816 -0.001472376619136253 -0.00520331454062191 -0.0013470434391686787 -0.008196612923227374 7.293040525026662E-4 0.005037390578129173 -0.009871446511968217 -0.15773724641638168
0.35030508612386
0.006654358185121598 0.006007261270913559 0.009283009889270909 -0.005807432117685833 0.01335315992147847 0.0071957106310054225 -0.011426420879124453 0.019831285868915784 -0.014860617097667084 0.0017474554439100582 -0.01449793722552106 0.002432550316410896 0.004380239082929547 -0.005857089498349282 -0.01188786860113934 0.013663395951184253 0.0039041220226695146 0.017225734504886833 0.00959095651225865 0.01790068702848429 -0.001988790153472216 0.02533196213732582 0.020248334795987692 -0.020742650194694172 -0.004284959735391532 0.009214212297993667 0.018420723842028287 -0.0032689840444652973 0.006701648067114122 -0.001174360488716168 2.06350461459655E-4 0.008024735302210975 -0.002088439961803614 0.020847310196501687 -0.006630439571449671 0.010561699633953212 -0.001123076254386106 0.01947821796510735 0.008823240687500013 -0.00252951558098198 -0.01675895174971493 -0.004343562698915064 0.018352873269967943 0.02045642979317037 0.007959016310130929 0.00472735624896065 0.01791521548408203 2.206469901594759E-4 -0.012742905781607698 0.023849939482567785 -0.012869654866272433 0.007143335096371247 -0.01639537769759011 0.004293198049947999 0.008698848275169745 0.04919732804652165 -0.01844196742559714 -0.018994014784348565 0.0021730184167135357 -0.002519665334463818 0.014100600416834924 -0.008972691843711437 0.01228430606309431 1.442679138946843E-4 0.013521325443231995 0.0013061457457755224 0.01606411845874457 -0.0031300162201319945 0.00703468498902008 -0.006611922385343995 0.0015747889870330956 -0.018331840478573745 -0.019579282357361685 0.016046810548905308 0.009316003895645483 0.011407035412849025 -0.023442360953804742 0.002938326741914544 -0.007011549198432081 -0.0015116450970568155 -0.0025068445852019796 0.0068056251627336105 0.007698768985215131 0.00597760399962113 -0.002012635780395488 -0.2982937443669836
0.41851139468904636
3.328154290034631E-4 0.006320052015134412 -0.01969887885328272 -0.005573370259984709 -0.012951100475767346 0.001169606526309965 -0.004670376376476482 -0.029556190863015298 -0.005446890992791014 -0.011791431851105172 -0.011975609671369798 -0.005797464011356186 -0.018098368331902818 -0.016425272250960042 -0.024598045136612956 -0.013442900893225437 -0.007580545111597116 -0.013571804239352715 -0.01747665044210096 -0.02527471453022452 0.003129896538823608 -0.006093640134916136 -0.020630900808050294 -0.02655847086965474 0.006764565120469092 -0.01906428874326124 0.014386781591482288 -0.01708690110958201 -0.02423409673140387 -0.01435766915927249 -0.014468945462570616 -0.004129764503450009 0.009035134439614845 0.002857785304731279 -0.0068126732625588445 -0.01215095581066225 -0.011207657333415302 -0.0142374260360618 -0.00674035794286607 -0.008266945987611818 -0.008056730052893599 -0.013083456842950002 -0.00519552051440825 -0.002714572061883711 -0.0149078618456534 -0.02788191877108473 -0.0017311364748484326 0.0058832991633846095 -0.0014554686913252708 -2.422491364940197E-4 -0.018937662300834684 0.003446258406094056 -0.02933231107140664 -0.026032654952390693 -0.027471773813865445 -0.016707045870217537 -0.0068121014686783055 -0.011313523394722658 -0.01770164605626938 0.005580246767002033 -0.003208264357992877 -0.01743940691329593 -0.006713752930522372 -0.018664434301208694 -0.0012110717319114897 -0.022630525192251318 -0.009629825923759898 1.2827236058804303E-4 -0.040514415605663795 -7.636893042363183E-4 -0.013556863160888676 -0.014910017583410533 -0.009203343632226448 -0.009110452120587755 -0.014623856301774086 -0.011486047455860727 -0.019357746954052665 -0.02133079103297474 -0.009009155736152378 -0.0030599086472441637 -0.005696715477000615 -0.009260228524436677 -0.018594420329665722 -0.012851086258007207 -0.019526658202989454 -0.020578922759442335
0.19208288664097378
0.003549217912462961 0.012417105452393813 0.015469334266723863 -0.015386619516057892 0.018783481445578176 -0.016556105659236934 -5.179774943086338E-4 0.006425594015454051 0.007028260292700569 -0.004109907263089409 -0.012610146339936802 0.006092823240113252 0.006714584115634776 0.017681062550710926 0.01069460968982745 0.00649869820990376 0.006911044163875555 0.0050807393135680525 0.017698404015049615 0.009554230140393966 0.0022962203986508843 0.006318563969432996 0.0016691712279194508 -0.006988829283509087 0.0018116805334041505 0.003038293061972475 0.015811942047537178 -3.1318035561984914E-4 0.004421491288924868 0.0016685056525834391 -0.011255427070063643 0.004582393840882346 -0.0019262880328222234 -0.002910944173912913 0.0014268120018735527 0.004445399750763034 0.01600570148611842 -0.005655153067251231 0.02383020611328093 -0.007069721741623624 0.007926772589469598 0.01148134642733109 0.015317417173639148 0.006565017184612564 0.004627650164337954 -0.018160786825447677 0.019533812626047125 0.0044949201265636635 -0.0030048397343728286 0.02017063287185079 -0.005521483760985645 0.011170692396673077 -0.006145807888372422 0.018350890146147488 0.017027758697077434 0.0317825187176628 -2.483293808447677E-4 6.630103530417101E-4 0.0063098248436775336 -0.01605867813754838 0.006955810602064769 0.014054558814644982 0.005282555714732669 -0.0096455222557683 0.016459919238064977 0.0031269679875288027 0.008869659281646429 -0.026060581964926673 -0.003734634023943405 0.006988562280107048 -0.002455213655944856 -0.007021985961716118 -0.004731520720527478 -0.0019050456210555208 0.005192760869790728 0.002298528796063282 -0.0174194379814658 0.016344230942792894 0.013329323941747627 -0.005725928174005932 -0.013069743620290519 0.002273184671921577 -0.02054994818699573 -0.0014166546807078196 -0.006677509378672182 -0.2108453717924755
0.2819736406851204
0.015481804620831279 0.013887412434131241 0.00197831316761913 0.002987834398467155 0.0020857743142609956 0.007267799738131204 0.004038845433756828 0.0020913343028192244 -0.003997551425911369 -0.01421315570564892 0.0013669693785204667 0.015624958164756552 0.0027062781607040958 -0.02075011012227012 -0.0035403573828509142 0.012351804154102553 -2.152671708245098E-4 -5.409274577112047E-4 -0.005055396880372998 0.0018571161304893544 0.009114532171781094 -4.772020252218572E-4 -0.014336922082365807 -0.005190050645017881 -0.0063186742800005365 0.0068454346280564 0.003241066868448525 0.00385416637196851 8.752620347991389E-4 0.006087849617099692 0.014440499687693627 0.017063170994222016 -0.0013201424415344063 0.0020796036309247206 0.0013582780298098645 0.011704394851973183 0.02245266699942247 0.014660901510645134 0.004922709268264967 -0.0038726550568697875 0.0045435379059008555 0.0019842630717378656 0.02048424718312548 4.2642145071141607E-4 0.012258800526977313 -0.001802220920765505 0.004693818833015626 0.003034374979004197 0.004928733405667411 -0.006081147274057494 -0.0032352909766524855 0.02165516786720738 0.010298529132713138 0.02246284595159153 -0.004440037537828955 0.009232120800280406 0.016631031739664775 0.017242975299798145 0.016282411168944994 0.012146743492743283 -0.029818166836094995 -0.015016806017251937 0.018994063551495636 0.01252031745779246 0.021515397989833263 0.007842306134379291 0.0023950612017080096 0.011053520733741218 -0.0011598286518471374 -0.013631023852988451 -0.004971910738151005 0.00456015367101986 0.009397564186838691 0.007354130822594809 0.007500647197839109 0.0040789014212765234 0.00563651214734101 0.002776157168950339 -0.0038395856006300873 -0.006667853257640146 6.66344618596726E-5 0.004359857333678237 -7.649640701017386E-4 0.005863637537050115 -0.008143728133687479 -0.21009953556251526
0.2924002537585631
-0.0021266211714827733 8.618909179636557E-4 0.0082621934916335 0.005411832134004068 0.006679891711571831 0.0028021651455834374 -0.005093442583919937 -2.3248556320972405E-4 -0.003985873630058866 0.008001212759033934 -0.006226433701095598 0.019024539703885127 0.0180381143439389 0.006285720026432693 -0.0017785929185885371 0.00382342071124515 -0.004863221544366073 0.007270890637504566 0.011404257280224959 0.01689436921625197 0.0024607923132540874 0.0011826534376500194 -0.006738186074261618 -0.007195046150624309 -0.009318235208712852 0.009680695794460781 0.0030553491662861547 -0.0023415605740105022 -0.009995909257986034 0.0029218999466828757 -0.011315157234883372 0.009997514918007948 0.006039558127928605 0.011636002873660223 -0.016647317162049462 -0.004642498873582794 0.012485117291479891 -0.009681028076131222 0.0039039187477501805 0.013111808425726994 -0.0022307558649160703 0.011229809140302832 0.013030514855547556 0.006655347037992645 0.006758910389468292 -0.009582167741327832 -0.008066463198423936 -0.011374357404091102 0.020159376713579678 0.00935466316556626 -0.011528852435582894 9.983813516833504E-4 -0.00790368101569369 0.022180162049379403 -0.001805274821576998 0.029843153100214664 -0.008675592566858967 -0.0020192495732022264 -0.009857617941380905 0.01343760442934146 0.0034796417764468963 6.752335115204718E-4 0.0019296665187656138 -0.012780856595265936 0.005455270086664395 0.009421348342716832 0.0034497496489663934 -0.00538467890187092 0.0027665307450404214 -0.0035775530217295173 0.0016138123117278036 0.008149042285443973 0.011465741636432747 0.001463866436345154 7.248380562029154E-5 0.023021735946030304 -0.009821960501826547 0.006448319333344205 -0.0025039029674983494 7.489164124175696E-4 -0.014872205899493235 0.013039590479830353 -0.011768237874553226 0.0013357652210400374 0.012201526111352803 -0.15472195211344122
0.2020579607032539
-0.011022844689404145 -0.009920013371326718 0.0052597620098380924 0.00192298014232403 -0.0026130831823761333 0.0040959592830736484 -0.004530606822651408 -1.6123826662179963E-4 -0.002201846645638877 -0.01592865856969175 0.005947734508789798 0.012450243151948663 0.0019201423357270214 -0.0037623381231842736 0.009036659710901465 0.01102677527354266 0.001023673912922195 -0.0019121342343357257 -0.0023824837555015627 0.01850911600491511 0.014015582808004154 0.009113480098837144 0.009724706635768524 -0.001418059204751974 0.00880036681570052 0.006044597605523267 -0.010290918109784976 -0.010538989943549732 0.010322718646346108 -0.0038437408406001216 -0.017790068984271355 -0.011262870139325965 -0.002671993812348756 -0.023177308252250933 0.01067443344540949 0.01180832153293399 0.0042687509569906655 -0.011745132123044413 -0.009463883888643363 -0.01610360152128171 -0.01378226938913216 0.00837129641554728 -0.006264705573244291 7.530173128154756E-4 -0.009193140148512153 -0.004890088501118371 -0.005074557609431662 -0.005963379527981881 -0.008568704672345488 -9.172720473969108E-4 0.0013179799714328078 -0.004347931203977997 0.021856430468352922 0.0013089348325982957 -0.01632275624342178 0.01640783347988023 -0.0026414872463177827 -0.008995203288856137 0.012302064136807182 -2.6142497964278968E-5 -1.4190351573788624E-4 -0.005299572117605535 0.001036512948934597 0.017805402832686886 0.008847485232569919 -0.004764261362600577 0.003916112594946427 -0.010356537697633054 8.2741416400904E-5 -0.00903536940637645 0.019236499243975188 0.01607645931725433 0.01744454673815323 1.0971986084248852E-6 -0.0060617870364203675 0.010451924652313198 0.007841179576135898 0.008835234700695513 0.012906329134800557 -0.0169398276967222 -0.021270455371382967 0.005764807982184902 -0.011179378278820826 -0.005714322960800305 -0.010039292754845355 -0.117294700554482
0.15109859948520682
-0.030892812858797587 -0.01086301753476659 -0.02093688020686164 -0.018012515723062193 -0.02555252662103039 -0.014393088805601107 -0.01253454852767731 -0.012507418842523252 -0.02012514812860615 -0.014513077473460857 -0.004136577259953857 -0.020507202131042932 -0.0011343973300013018 0.004828081189964798 -0.017890425231631212 -0.007464738903944255 -0.02751540432804971 -0.03156451387655633 -0.007486238663173609 -0.007391138389081605 -0.010596216801636834 -0.01712158140560316 -0.026679357595199394 -0.004727824757133544 -0.005591414320468308 -0.021466526251009966 -0.011303856580867534 -0.01343734789362521 -0.027508572516439254 -0.0046182998221426805 -0.01849880779280684 -0.0034048511397130245 -0.005993163030917708 -0.0225354757737502 -0.017790091859678347 -0.003188381643115869 -0.01422348285397298 -0.02054146087419772 -0.025861468646526962 -0.00982609593888187 0.0054287017474100386 0.02011138844822009 -0.003793620237015759 -0.023529334242107576 -0.0033463331480306584 -0.0016369220466571355 -0.006924734555469702 0.005952226561324998 -0.014400595109591649 0.005662142383971326 -0.01977464551716915 -0.003211298597382839 -0.005093745750104412 -0.02074539194103464 -0.010488654059567304 -0.020218970047327436 0.012515861009790503 -0.004516815139841105 -0.00976720190568421 -0.01341420765486969 -0.008966067121104919 -0.023184130435082453 -0.003650563263181167 -0.026777548526903793 -0.008722524087815434 -0.019108512095938356 -0.0021810114223768935 -0.018327142254936004 -0.0037641932634685667 -0.005229059655005644 -0.0036673027669856524 0.005379542713678955 -0.010296969102513822 -0.005313812072397007 -0.0023953376273768267 0.009015128713712104 5.30273100217023E-5 -0.006091504076067184 -0.010675366806896514 0.004179674365041247 -0.015006522189372899 -0.010002923297777334 -0.0034317678629796912 -0.019447118801755817 -0.016969316149519142 -0.02432282997985122
0.20303674850676584
0.0014451367529268256 -0.0031516161788049096 0.015161466386795257 0.011667531977200172 -0.014600725300580385 -0.01791332218919771 0.008956121596702938 -0.012593328464542693 0.011490664376827716 -0.07424958809856202 0.031986313549093225 0.007215793044877823 0.017687076298182728 0.0037977858438594148 -0.03700061221465528 0.03220467985576249 -0.010032893736338061 0.009088695465967089 0.009924056797127405 0.030882744676786353 0.01811240041797451 -0.01946895186540196 0.0016253289098659344 -0.004503215500606296 -0.01336347165721709 -0.011633312313366197 0.026721536140460384 -0.0016040191023210563 -0.018100284297700144 -0.03169395325217169 -0.011950388165563703 0.012999191586001891 -0.02040352289974529 -0.029766162207729048 -0.009841588464204803 -0.0027178383465028527 -0.017433212845008247 -0.007759036310205534 -4.196785522615747E-4 -0.009163084793194182 -0.011210147060525637 -0.005517212872579861 0.005365551866023629 0.031431335384970845 -0.026842495759890995 -0.008188946160225832 0.006531432521063036 -0.02640423146560644 -0.015426323098552241 0.010096138411054832 -0.021467258679976082 0.04434955300347486 0.02741153196635659 -0.010937604937527995 0.011281741753264348 0.007166021213534251 -0.003273265572561682 -0.02128065557492441 -0.02613676629762115 0.01657348596214265 -0.020333324785946162 -0.005264988190369956 -0.0018581417031025655 0.0098224729183356 0.020749457052360778 0.018473289363749805 -0.013365673333596064 -0.02523311588636411 -9.338337342562022E-4 -0.005325162172898573 0.003982455085786896 -0.041337920780622095 0.00758045405465041 -0.016559780482104283 0.03150343075407296 -0.03868590592402234 -0.013611003628936127 0.023911062356021882 -0.013988228887085946 -0.030446117570005562 0.005121331020667251 -0.011700848167204889 0.001841857059348057 -0.01216785158482809 -0.02022716079307915 -0.14608735735759693
0.14404089184186233
0.0017463710916169458 0.001857853114790121 -0.006170646829557865 -0.010366157810796887 0.0032584957534619054 0.005481654646954619 0.007225100003395279 -0.00828319504318221 0.0024604253114558082 -0.010136367503513925 0.012624722842893125 0.018162680166700307 0.010946182083202693 -0.00578777162820455 -0.003689017453877075 0.004327228392048591 -9.00249719851985E-5 0.005778135460766776 -0.003599877024327013 -3.235360501273325E-4 0.004552290761469933 -0.005115780534610908 0.006677009132026055 -0.007961348128961746 0.016808084302910697 -0.01188833352671139 -0.005211368297808876 -0.0013030674981575694 -0.0029408236930888124 0.012286752936194158 -0.00718825278741278 -0.005416668535346477 -7.888981807805011E-4 0.001804021280875429 0.003972853212163327 0.0013638859114199165 -0.010436869970743562 -0.004157944506750969 0.007957706185442925 -4.363946027735012E-4 0.0014571616682538882 -3.370671217992939E-4 0.009259456610145357 -0.011834680535999436 -0.0038499527131043054 0.001839440310347913 0.00410227655682957 8.886843449952464E-4 0.004633176961225575 0.0022521729246868256 -0.004864958955128101 -0.0020505031477862194 -0.008607854472482045 0.017717823337742026 0.007770935530864894 -0.0025801227658657903 -0.0024829676016940153 -0.010154591345610578 -0.007849097812144303 0.0051478294209865065 0.0017883660942198533 -0.007135905359113922 3.2120200002027445E-4 -0.007158280871337986 0.007459084466588075 -0.004508428123187333 -0.011622837920240757 -0.008738580492376974 5.300947499024469E-4 0.007459459902494481 -0.0046729583970778026 -0.0074750365254030535 -2.2523663046297414E-4 5.096002971597239E-4 -0.003299541717544746 0.0011731561563324924 0.007022327104902965 0.0018194832763349128 0.004549272830826656 4.70684836045529E-4 -0.0011919072314661343 -0.002273307442902933 -0.013954385832827867 0.010939966905250531 -0.008530785001796954 -0.10686576601327581
0.13177763809794413
-0.03973691683140838 -0.045566469434972175 -0.03950980518620846 -0.030034717025310027 -0.038208026137185096 0.011418575239802603 -0.030981119071251104 -0.01898145088949132 -0.008226620180253004 -0.009832689732884975 -0.004039153560562385 -0.03334597212846217 -0.04726856273298848 0.018014734972886953 0.004287722247794054 -0.008935593741929149 0.004495478417410273 0.0036599420412701676 -0.02787387978293359 -0.016599510651979264 -0.03705426287902772 -0.01650347912951805 -0.028375479520119033 -0.029888762428924427 -0.0189803179527555 -0.007327251358375561 -0.02115235277546567 -0.02719575468993844 -0.02106200606271183 -0.02226640039319409 -0.036889396155983634 -0.062069092614573974 -0.02243027711951265 -0.039008701782851006 -0.031177582761958002 -0.013900238754867405 -0.029085440685527948 -0.030837850068449836 -0.02354353610832703 -0.0253393314848835 -0.027915998937365016 -0.025658090832375625 -0.03381354623674358 -0.010962345019501746 -0.02282775453974985 -9.541316249389232E-4 -0.04293213725188205 -0.07616298675250077 -0.042226812817040583 -0.01198788525698877 -0.0028900400927611334 -0.01125202555285615 -0.03008459820523641 -0.025878826323485003 -0.03457210803695718 -0.011495722633787113 0.020230141262659252 -0.06558799322170897 -0.04942610500586209 -0.04519401259811957 0.003927892883160606 -0.01876915596829459 0.01167783332946067 -0.061885512802990796 -0.040524274513315306 -0.03841800286939738 -0.008094567236237877 -0.027051922941971368 -7.000585170063543E-4 -0.03962093220717546 -0.04541400656948992 0.009229805717068364 -0.044316448019835294 -0.03387769410994839 -0.038800570452887664 -0.039714607310323155 -0.01711979755734801 -0.03581482636961633 -0.03180483875583953 -0.01600267518776369 -0.041054138440170015 -0.056775269605592024 -0.013458150093004906 -0.014911900940286374 -0.013269223515750451 -0.0071325171408956065
0.2217424877564455
-0.03570256441759563 -0.07885059987753629 -0.02295745029641928 -0.0452034941564724 -0.013391210075602938 0.014922235205598298 -0.04412870260192183 0.006547791928112643 -0.012741389672720824 0.004802569575373151 0.0035410420024540026 0.018294276164078922 -0.008275603773506727 0.01835802578207499 -0.036407115075738815 0.010824262972555633 0.03871969853653829 0.004210147556091941 -0.006790050476295797 -0.0386410970890982 -0.004138774413459696 -0.029403194667506617 -0.027824579770911753 -0.07903322466998679 -0.0201406129573445 -0.016075038473250054 -0.02774483017297385 0.010472468424045754 -0.031589212410405236 -0.022671540478352657 -0.0019414637250136087 -0.04975888073838644 -0.02209111400290712 0.027983684349920764 -0.055548771823549635 0.0086093110766201 -0.01615412381176821 -0.05257995978632185 0.0031085614220436333 -0.027773893982289587 -0.0040172957213340955 -0.03757333867722575 0.006125218878208552 -0.021773920468625616 0.0037346749663838366 -0.022607986268663886 -0.047996051076923806 -0.052690906631639355 -0.02393225971212589 0.015129084339973238 -0.042272862004892414 0.006503174097006983 -0.023268042624502064 -0.049328848356978185 -0.049533835834739186 0.01449186531237035 -0.01066730585975499 -0.04962264330736808 0.02196989876117654 0.00953796996652471 -0.015739353065012163 -0.08034663215832147 -0.010208616916359754 -0.08099022961312115 -0.028055956961578046 -0.019008709729989026 0.016136954238277955 -0.0213667245817583 -0.06650428442999082 -0.04749787386241219 -0.07037236465529846 -0.01441830508309181 0.0021244280433604314 -0.09223771517231283 -0.010407471951857422 -0.007957611659446135 -0.022330755549522442 -0.03653215034772444 -0.03960194138070858 -0.026386346647427998 -0.022247238141590284 -0.07896091505916104 -0.07247985043081355 -0.05532184555319856 -0.025049140542797093 0.005639818558599314
-0.019995308434063178
-0.004233000409348643 0.0028865710520058463 -0.012801829155559406 -0.008269387709657901 0.0052939343515764235 0.002048566821863196 -7.679741116369594E-4 0.004196327172411938 0.015768761689213935 -0.025594828463387658 -0.008464859202285048 0.002584299299478168 0.006072963120331592 -6.345053991519478E-4 0.012042212979577945 0.0018801628334355277 0.012951732334765492 0.010612378613532827 -0.010558889688507702 0.009292787931558171 0.008990213909556594 -0.0027551481788749884 -0.003790396986714179 -0.004082273384342413 0.010197269307139125 0.003023941511330057 0.008342457884554056 0.005692763484623573 0.0028316807495046828 0.0011184433526915053 -0.011269304346559953 0.012811606611532392 0.006062094733765004 0.009532629409414505 -0.019112310850510506 0.0086350591447416 0.004478141454559165 -0.00812166543343976 -0.011520224079700868 -0.014323006802496013 -0.0034616783591515806 0.014291853514784689 0.01928558120812393 0.010869645381173037 0.011925967516430781 -0.0010386423703285532 0.011791799161056386 0.018464297661292966 -0.0042185746803166686 -0.0022396453503881588 -0.009660896642704992 0.006923301567845886 -0.015224302869813175 0.015763307852477006 -0.01371287310948682 0.013385491690194913 0.008227785176040963 0.011232283473671691 0.014019587233595818 -0.006403441942719328 -0.015048545189412612 -0.01435491087178492 0.007112805067184685 -0.0028490273781302962 0.003035232252498482 -0.004312665518356297 0.010001399121719243 0.01227560082747069 0.018557668827809935 0.008406098601835051 0.00935191060552185 -0.005794067229292818 -0.008019704734268248 -0.017820272792676946 5.858600388054661E-4 0.014503674253065068 -0.009098944263712914 0.029628133135705965 -0.0024103035130261575 -0.022234531001569705 0.0029881139044063997 -0.0072775989213005364 0.019916603505142676 0.017693411400932856 -0.019987480356094482 -0.18400993165882992
0.25575672871227695
-0.016573781383530443 0.005049430990986348 0.00227642485254264 0.004479623284325905 0.0028198797089796874 0.00784134707404894 -0.0071692280738766875 -0.004230441559972674 -0.0016567872242835408 -0.001701987812686163 4.8245524909568236E-4 0.013489508267332537 -0.010956562993822454 0.013356353666385542 8.89233180532057E-4 0.008814976990306433 1.657797988611577E-4 -0.00543321101379177 -9.009748429701836E-4 0.017758879004780518 5.798097975877295E-4 0.001479922900105895 -4.1198491284186596E-4 -0.0020647523130556955 -0.00792464435303697 0.010557156029641638 0.008955330318161548 -0.011519963468963952 0.001963995530027003 0.006846228965080554 -0.002554621709925136 0.006460217900907601 0.002847332859372516 -0.016579073343348242 -0.0016393266909404403 0.012564074081931826 0.012356946821201389 -0.005401583683275741 1.0677343822969461E-4 0.006370168779839276 -0.002585686074153779 -0.005982444054187534 0.001402072861058668 -0.003858253415591795 0.004781545692782718 -0.012375428214612781 -0.014376385883267985 -0.0037737575429807333 -0.0074553428735080005 0.006963992317078721 -0.010008332294486272 0.004592204669337275 -0.0027156964381266934 0.009016392839772795 -0.017659811871439602 0.01576358126653395 -0.0014411572196866126 0.005405586310006791 -0.003695715225369069 0.009890360192779885 -0.00461028734446381 0.010598730920866701 -1.8041792375140525E-4 0.0016493486181865745 0.0023703670682031983 -0.005047073337754129 -0.0025647060529544858 -0.005791029664981042 0.0026113392187357026 0.0049923981518409715 0.00897783191335223 -0.0013516225942299068 0.0023883924412602675 -0.015081975093588856 -0.008954563814768154 -0.0017353007596107657 -0.00856063293740845 -0.0017139074903204674 0.010190340302443944 -2.0063313751086416E-4 -0.008597199837066185 -0.004215157533912694 -0.006742444122364076 0.005665209227020422 -0.005119326975802839 -0.10284290379963744
0.10989317365768635
-0.00726983924776621 -0.012456476527519406 0.0010361809890215134 0.0020185194812122357 -0.002105250115622172 0.004021417456255737 -0.013270587534901438 0.004020804428844593 0.003906744430304913 0.002464683295037947 0.0019829158918394604 -5.969297771645032E-4 0.007190466471578751 0.010218469116820833 0.008276559014052779 3.260758881987593E-4 0.004994443198397477 -0.0087367621043985 8.573582520933487E-4 0.006213502146207171 3.038915783423829E-4 -0.013604635563938745 0.007608592441657158 0.010934562673194544 0.0067927265373100496 0.0035878403903907784 0.004673538431648851 0.004427593853081604 0.005008996019767137 0.005365085743235826 -8.338760457457472E-4 -0.013180602744765338 0.0035467805806538503 -0.01083042424997862 -0.01830440751724524 -0.0031408793713912047 0.0019120129778404898 -0.007215931909846037 1.0326334011096701E-4 0.0037082251476434173 -0.01124891370300595 0.010702166232138481 0.01070983134441314 0.0031435364783808694 -0.0042407294396296985 -0.010269841428682657 0.004372610211408874 0.0027253810327015405 -0.0038978434869195713 0.003870830074759512 -0.004737758491671951 -0.003422861071091571 0.012095960941716862 -0.0031291930608663508 -0.025547553734755486 0.003849644038083983 0.008808579799930348 1.4815421870620994E-4 -0.006773954031669794 0.0021151195152015008 0.0015754488615816558 -0.0023778424948088907 5.168565155590983E-4 -0.012057070927481105 0.006941817856037804 -0.007337936073320587 -0.006158217004177508 -0.012649831642875841 -0.007716633793251316 -0.017149109349191703 0.0129040202988568 0.009984500009527362 0.0029604640905753236 0.008791028885902403 -0.0013558430971364686 -0.0028369138873781006 -0.007084176343886748 -0.006796070637743002 -0.0012064199967330878 -0.009707688896753074 -0.00995888238882105 0.003019587138154725 -0.013848249396026595 0.0038129051906152767 0.0034831372257709387 -0.08288329150298025
0.08113651898422354
-0.00968377817543387 0.012397247750628438 0.002813241015380573 -0.006228603581152945 -0.0021617897333167306 -0.001332884266003104 -0.004901202132614545 0.007838146084067191 -0.005688867237246464 -0.004774416815389859 0.007730015048760084 0.013630611329347944 -0.01704875864848032 -7.483497228819017E-5 0.00850202194966719 0.0014299929467011024 0.0052439864211650915 -0.006192031574329281 0.001116444829365366 0.00683148740418777 0.005458174457575437 0.01052306808507529 -0.004984629848101629 -0.005735778571153021 -0.008550534900197592 -0.0033369731312691523 0.007849031328097514 3.1504145340504E-5 0.007776791797165325 0.007542992168844853 -0.005786208407273217 0.010623714349917726 -0.015970313919985622 0.004157762581357399 -0.004680189248532869 -0.009757531651088029 -0.017801359893169638 0.005739018748183406 0.0024762867916005185 0.018852281920036143 -0.014759942872222627 -0.006183906534568956 -0.004518814724493707 -0.0033909416716383905 -3.872411351456717E-4 -0.008695480076517456 6.192208991894935E-4 -0.01357384131635783 -0.0038371378301511163 0.009770828177630508 -0.016853154002397886 0.007861022034798357 -0.0030202919803260647 -0.001935255266805745 0.003279850558932017 -0.008532139915520907 -0.009157747845428197 8.20611242593707E-4 -0.004861820629445839 0.0034580545473208873 0.007945962056543871 0.005518520590090013 -0.0030100847998069985 0.019302677128688994 -0.004076176934058165 -0.005585925363223988 -0.0057733270875491025 0.0028063593135806996 -0.008889467632730493 0.0017272463261188617 -0.003627465186097465 0.00742642120372294 0.006031147441667629 0.001105248265402407 -0.005399287313343992 -0.0017254720491379002 0.013405297981083445 0.0048030209691062534 0.005961881940574078 -0.008683242600065994 9.068580128349961E-4 0.010373288862153194 -0.018501466815706722 0.011424808836193392 6.426470106126603E-6 -0.10454004008888168
0.11248912395187659
-0.05690441806027505 -0.04013672034519973 -0.017389658950272183 -0.03328904033708854 -0.024866714769197617 -0.021071984230190414 -0.02649308048483553 -0.013595557678637607 -0.029905334651571656 -0.04870167027178889 -0.036508422528022534 -0.05754905422047461 -0.03142414826237974 -0.004382227133880145 -0.010771381376284615 -0.04390940137455684 -0.020829849347826154 -0.02135137425019027 -0.021536458307833843 -0.041386948198056016 -0.01514739611456932 -0.038065750536648194 -0.06787173443577971 -0.048677444853772005 -0.035052691018386074 -0.028283853114232392 -0.01857518848345737 -0.06616256148562967 -0.0052419508428845135 -0.05180951999433611 -0.017801724207297014 -0.060118992167395316 0.001661715235521896 -0.06754323456439561 -0.08765292729532988 -0.024680551592319033 -0.034917654642596115 -0.040494369516645486 -0.011552823515891982 0.021709458147889483 -0.020299026610232345 -0.038038083768738976 -0.04544071364501643 -0.04353758635225441 -0.01890448552232021 -0.03564713985317137 -0.021806721396284368 -0.08826031582346335 -0.05490179816283976 -0.06170019961980602 -0.002157756610043011 -0.05435837491273871 -0.0010316467948510706 -0.039701091327256244 -0.06771867673862833 -0.0641423269081684 0.017287960108803024 -0.06680584571608968 -0.04608694082317467 -0.0269278942781549 -0.017362673691795137 -0.05828642514744431 -0.027640343905911212 -0.06348939703143698 -0.029793845716759162 -0.0589951083880377 -0.050736207765636934 -0.028123090002727884 -0.020528636186792914 -0.04645038062291956 -0.054909568725617884 -0.02862796959262036 -0.02741634076855047 -0.07799360621203155 -0.05424690946915261 -0.04942154628462234 -0.03681173071042549 -0.05174756853518963 -0.0542802599807726 -0.016796642408475327 -0.015359386907588202 -0.04877460160113884 -0.026911101074033873 -0.057127207285946294 -0.03724318277571391 0.0128298888670558
0.2818840065613392
0.011187042402144347 -0.004363348573839264 -0.0029404457013200605 0.004134740586643936 -0.017642352131511628 -4.769001193926381E-4 -0.005940524697771162 -0.004902774029982185 -0.006445248504361734 -0.021552355411057256 4.527263295805438E-4 0.004797266965504207 7.664152577956498E-4 -0.009560650042918239 -0.007483999588442494 0.008991388565781697 -0.006570491453997666 -0.016684162364750312 -0.005163299310219304 -0.011328202302990848 5.459396648759444E-4 -0.01354300225821656 -0.006908589389499048 -0.0037485107335107014 0.009809414226526671 -0.01453328366691112 0.01090794822586445 -0.00877581662524876 0.0028413739668633705 -0.006186753154007338 -0.013814893004945516 -0.0038497597783385745 0.01751915382335962 -0.005846861021581277 -0.006283123723112823 0.014615086670521473 0.011707128566062427 -0.02382977193322937 -0.006816835139023494 -0.015030694713857021 0.006429589560845096 0.007283270486569085 -0.0015424220748217223 -0.004027283965240021 -0.003361507435489144 -0.014629669908652025 -9.923070060463023E-4 0.004872100781893538 -0.00481562657187776 -0.008529559767059216 0.002707497759434318 0.010837435825930088 0.017236088824368903 -5.642394054607973E-4 -0.004152903966308798 0.008544109959378965 -0.0010844918568015212 0.0014126964286984719 0.014882897753357107 -0.015356749754988555 -0.007909609966513397 -0.005617961432945549 0.010764106086448006 5.145396945136407E-4 0.003236335685456082 -0.018741297780902954 -0.00394617761357895 0.007101323066638918 0.014108879058608628 -0.0166181835357302 -0.007557675319804684 -0.007299742134266096 -0.007889818607178559 0.01565499396029789 -0.004617665114605225 0.003776327925670958 -0.0021668853473426194 0.0047279461987781235 -0.003773079305436623 -0.001909454807298783 -5.614530173589053E-4 0.007206268706008166 -0.007845451216392116 0.003123025326055969 -0.02148416615153953 -0.09573122788666392
0.12341763233661714
-0.012259031159441268 -0.00825882601723851 0.00524820503280928 0.0010921601371252179 -0.015610698147443338 -0.0016176276074734608 0.0024650238101259097 -0.0018730597855218692 5.771489925778662E-4 0.00795628242152171 -0.004421885326967131 -0.011538030047532118 0.011055451511043484 -0.010362206109310173 -0.0022346973595591944 -0.006279322906270959 -0.00354183580475617 -0.0032132274512616486 -4.135221797427846E-4 -0.00790650981778833 0.00846277779908927 8.213991600637186E-4 -0.015646593299599974 0.0075651189273908005 -0.008141700797753408 -0.007989240224761388 -0.009500440920513125 -5.694199653924508E-4 -0.007477201371732856 -0.0015844875696772055 2.741058648587157E-4 -0.0036207932912088727 -0.005369642616966515 0.008236128329472561 0.003780135570343629 0.00231204648305937 4.5553030522144886E-4 0.0021763391028470505 4.1380025288561656E-4 -0.005021538719340948 -0.01862601192711103 -0.010691276156099242 -0.008552788554520492 -0.0019761257686800628 0.008236278267471335 0.0032428241521356314 -0.002787749138951956 -4.7235641509108054E-4 0.007354753806955321 -0.002184341508387784 0.00527275764758337 0.0030646382202134245 0.008270214925933212 0.004915200468155723 0.0059440190938980795 -0.007406928641253808 0.002363443746697825 0.012473145982218036 0.006448705924820095 -0.00904270785484815 0.007734344011112638 0.014591330302426746 -0.015270336369346329 6.492926711161181E-4 0.0038852638011886713 -8.174962587678515E-4 0.008736009742725752 0.009172996146073897 -0.002362507650599044 -3.7021109273930653E-4 -0.00999472677457044 0.00199249940710232 -0.006779663175949957 0.013698307280728269 0.004677154566850092 -0.002676326423049874 -0.002707320312248663 -0.002943964765698951 0.004259149205466434 -0.006013101853661246 4.425711802862464E-4 0.01471565194990271 -0.0034902606279135725 -0.011546357462272684 -0.009774873636605542 -0.07446076321117022
0.06961099435029146
0.001044847979505387 -0.0053577672380619645 -0.008820577004180147 -0.005388065186038617 -1.9112483325399974E-4 0.0342627701311187 -0.00196312482893034 -0.01067299394207916 0.018357958857082707 -0.01914093520122161 0.005215799469101735 0.009937252825361925 0.018160164076597884 -0.008567061823889633 -0.010486852331055828 0.024418386786981414 -0.006792584670915769 -0.0060382514409236835 0.00765457786787576 0.008678551170466859 -0.008446685229288977 0.022222486846319202 -0.021279256515834833 -0.0267728536091614 -8.205274004926542E-4 0.016085545715442816 -0.011670268122838678 0.0014417507559630312 -0.014662563563878258 0.00597145929668028 0.035626235049062926 0.012829014491649745 0.018523688668561234 -0.011243864010458921 -0.003046524096787901 -0.012476603704890545 0.010910368986703679 -0.01582261083612651 -0.007346940522628301 0.001935532887539998 0.02680877574603378 0.03129675736183148 0.024064241602152696 0.016912124665573482 -0.01652353918234853 -0.01642859097561965 -0.010199968202346804 0.010875406948970408 -0.01972819544063505 0.022342187000267393 -0.005359724297950059 0.008491043813787723 0.00233770858952517 0.011532852484432985 -0.003089835612359198 -0.00687194077552288 0.025055282457091425 0.0064655774342528985 6.391383157096235E-4 -0.004370996485725566 0.0036811768235306317 -0.026920527761004422 0.03252743378317542 0.03216911372354718 0.019543672590268214 8.949791827385484E-4 0.02459622417524134 0.01360075707857887 0.016101820402642245 0.004606143810665255 -0.020149856736129356 0.01585217072999442 -0.004865244395639513 -0.015352677087924057 0.016944804469258893 0.004577494400766999 0.027672063468447635 -0.009233901720972514 0.008749996214587906 -0.018090099084001242 0.017183482176459448 0.007415508147325674 0.013162901236712207 -4.620962954673716E-5 -0.0026793307316779766 -0.2292202133332742
0.22805988289231122
0.004548875295106626 -0.0020059025488943978 0.00989249341624127 -8.164107597631338E-4 -0.001984001500023455 0.004025682873508042 -0.00814957865964836 -0.001503977599278782 -0.007474855732370561 -0.001165317507576099 0.0043483627928776235 -4.244795106772078E-4 0.011416214274004561 0.013884565486669366 -0.001908945928681349 0.02147643428551272 -0.0035973941009434397 -3.8373009201659203E-4 0.0018755845294681312 0.011470569057669706 0.007634791745955141 0.005220879613699984 -0.0029355980077486773 -0.008279111609841018 0.010136006497294655 -0.0019509662102174595 0.00531234142555638 0.008927883051103048 0.01561868857076112 -0.003960039766165321 -0.0015882557320763325 -0.011663968587304504 -0.004550086434832538 -0.015585315388713895 -0.006961706073513696 -0.0028339908645258296 0.01087913671422878 -0.004870637910004084 0.007902889803938686 0.017410903114553872 0.0021675107118298976 0.005970772604488428 4.78356015360184E-4 -0.007803867299010751 0.001924715973549532 -0.008439253522333929 -4.4505528003574424E-4 8.420942174312467E-4 -0.01268737503519509 -4.364190114948643E-4 -0.014280980974132747 0.005123795013168217 0.0023691532316268867 -0.01142297582673222 -0.011483278288110079 -0.008316172824948351 -0.00401627508819792 -0.003375887792740218 -0.008959374092668263 0.005709584351560708 -0.004206154481864718 0.0046508853122677095 -0.004334051253437343 -0.014681452607808747 0.0187521133947888 -0.007708226974169295 -0.0017283322886521072 -0.0041228509811007535 9.7892271638412E-4 -0.002197705008539348 -0.0013042807205222169 0.001579549204609796 0.01270115176307557 -0.0044453925660977054 -0.007669283152603829 0.0010457927704614928 0.009245513636185029 -0.0022326070180411395 0.0035897625738160873 0.003187396608053179 -0.001663556071488023 -0.012393030170751437 -0.008287651986342232 0.0028079702093898695 -0.008262687521031648 -0.11499678243628773
0.13045789090110055
-0.029612202665717298 -0.032984872868683415 -0.02495854619147216 -0.02490741497648478 -0.017693232685541713 0.0049575517036963826 -0.004573627804881536 -0.01910833057976676 -0.008480758875918601 -0.019605499861070137 0.002975049049461234 -0.0134044393958045 -0.05079786745273001 -0.01024994795937855 -0.012991240263208291 -0.004435498963230317 -0.0033687878569723046 -0.01145887490598123 -0.01651681091159363 -0.005387435372085797 -0.0529257730884 -0.02079598365680914 -0.029048747666017217 -0.016261223439409406 -0.008899170431293702 -0.015703871139628022 -0.021799728118570276 -0.030520196556373683 -0.04414964736879043 -0.023793092256007828 -0.012784529411362074 -0.030026403253315938 -0.019893546214079835 -0.027685884534554842 -0.02081303029547624 -0.02765844190211642 -0.01352229789186735 -0.04158812602937335 -0.014637052264348345 -0.006314416433813213 -0.020673991654700026 -0.023563575411920938 -0.001938712853828188 -0.03625976029338676 -0.04063917750024159 0.001856855488289904 -0.004267059208632959 -0.036417392885879564 -0.029530312349414004 -0.016867204774875005 -0.015038732710602387 -0.03350585195377097 -0.022885051985680274 -0.0030428478294721845 -0.026211653208429192 -0.021389536858990692 -0.012487015313410711 -0.058716805178527585 -0.027737069243951612 -0.024692148183464647 -0.013186305921905311 -0.025343488724917453 -0.006358802233525034 -0.0328625842144229 0.0015326704197578935 -0.021849424259439684 -0.011225055633141193 -3.148896637191368E-5 -0.018746762858354245 -0.011454036320003696 -0.016262053521781526 0.010980253658090449 -0.04784669771364904 -0.04028798633383804 -0.0247477720576608 -0.043579785196593064 -0.010825468787830292 -0.04014576052865281 -0.02657406925927969 0.0027561421336124224 -0.03462718920503188 -0.055238722122442276 -0.022506351858961837 -0.01410137501687653 -0.02103991191398702 -0.012454523235961145
0.24973042015346583
-0.03246260027788892 -0.009490852782284908 -0.035766169152414214 -0.02625363735066455 -0.04262050024646204 0.0046731881776566455 -0.02063571418477162 -0.029917762839317203 -0.01961667147791254 -0.026905731302838107 -0.0017849355850165238 -0.03861164055837937 -0.06860359273855783 -0.01639946945174503 -0.002602831227648885 0.004852040425999941 -0.030030983833651586 -0.007337889811267628 -0.03748210160276905 -0.013362949575450221 -0.021996342335985464 -0.032163053035126496 -0.01918599455184421 -0.055816440245597475 -0.006263819500316242 -0.022529673195666643 0.0019771115631288163 -0.019778989769515698 -0.004316737202309839 -0.03730059246763894 -0.009755239447563147 -0.04562074857663431 -0.01325648253065429 -0.02066814425751942 -0.01613567452720111 0.007732415219040808 -0.015437335888255004 -0.04533427406894447 -0.034801561542639504 -0.005638561658067261 -0.03545491518048667 0.00722658764149913 -0.041738845018473726 -0.05789377753099754 -0.003485127256759953 0.026115783814375165 -0.0076930093892644 -0.08353167790391527 -0.0028068758295640085 -0.013955998031803807 0.022686397372933223 -0.01314662662141907 -0.05220046480008028 -0.0790968259721223 -0.05145141041546762 -0.026899067799730347 0.025066673748190334 -0.07515515202498516 -0.06852259946281347 -0.024659568982620166 -0.02428581005128242 -0.017211655744445345 0.016549014388860195 -0.06963761033002064 -0.03635841685950296 -0.06011226449231417 -0.009382543044458694 -0.03792809372849062 -0.02170637597738248 -0.05488099084152752 -0.05636629354162965 -0.021341540658073546 -0.06668945357989982 -0.04185146663015127 -0.012613955006111253 -0.07829815519569167 -0.04742566474731756 -0.023430689787849422 -0.04343462850415103 -0.022379177633593293 -0.05248442949432127 -0.08744652519551002 -0.013360555230622018 -0.03388525173514211 -0.0264721368987228 -0.006140577386043051
0.20306955108620478
0.0032428509604073502 0.010180828718773106 0.021403834809312884 0.003964303346290775 0.018190547668624154 -0.004680339368564429 -0.0025904559219193496 0.0011935734053066184 -0.005169906362027924 -0.013147709818460918 -0.013028648476902506 -0.0017658567269339615 0.007123014663193626 0.02004680603936035 -0.007590195225058069 -0.003888048708578514 0.010167381755870382 -0.01763165305039948 0.005515820879415166 0.0010384651604603056 0.005373257043849749 0.007179894501175689 0.005422847275181354 -0.004439342930983545 0.01095338160998672 0.0014436167209603173 0.01484321198548319 -0.0061699434106326865 -0.0012798949004779049 0.006711271393640924 -0.0029114148849497755 0.008327385068792716 -0.001685524058187743 0.008038004270264663 -0.011960302325135272 0.009763923692617305 0.027220012324375365 0.018627037240055464 0.005228802929409468 -0.010437358286635598 0.0019620076259803834 -0.004760220283289996 0.0035527932519144262 0.00654140389411733 -0.0025600649114752728 -0.0032810817448780554 -0.004877840860952561 7.338795152152854E-4 0.009537533326675934 0.012521548024632146 -0.015770358494764766 0.0028564936609691925 0.007003144844629776 0.012130182872434926 -0.008930700275014372 0.02307538372948387 -0.01972488009183595 -0.014103548451252777 0.006778175407120452 0.0069920235489535475 0.009855170284055857 0.008702359598009288 -0.0032885049747281383 0.0017204081191187362 0.031156561514974385 -0.004024214473535682 -0.01364420930382599 -0.012390391679850513 -0.007418246904684114 0.011629156187377412 -8.620209218834654E-4 -0.007991291993203522 0.0025415126676478724 0.015315657447395577 0.005479047307212512 0.016091558061862393 -0.01183743360705419 0.007277415505521288 0.022358044074917916 -0.012735825259727003 -0.006734739105200479 0.008394279088303782 0.008578962489032222 -0.007928441526696804 0.0037216677105418377 -0.18199767687718615
0.22553659872510554
-0.006309303728807936 0.011100747462982076 -4.3373872931398347E-4 -0.01669908095504219 -0.010176143739939492 -0.0022935138836721546 7.755363660156769E-4 -0.02188335417722862 0.02929933149447106 -0.040825007636688365 0.006570709881697955 8.147872785826016E-4 -0.009573950948915439 0.026148676471410337 -0.01350252072678118 0.0017125040260646358 -0.018682891559096405 0.01328418221481299 -0.002822356599096106 0.0031888300661708606 -0.0078664825923692 -0.017449504269809974 -0.01803900409440035 -0.01947759037006755 0.009433767323256013 -0.005788919386673639 0.0030450323916531054 -0.0288248641461131 -0.002128397691452014 0.02126919071185075 -8.759009299824613E-5 0.036840160806905706 -0.029950994970620953 -0.0019035952538673908 -0.0063577056033459105 -0.002198687413752111 0.004263415426271129 -0.004941405849146289 -0.005043096365568543 -0.006242278540131862 -0.03135202973408627 0.005424582624519234 0.009657855028970501 -0.017595640685995145 -0.021968295485811012 -0.006809432983110597 0.005469378120062231 0.01138153214065719 0.016109592658320706 -0.0036471054230389644 -0.003986922083073307 0.016861002149835012 -0.015080254125554861 0.03542539190465162 -0.013539733795992324 -0.009521072996755064 -0.002899535935284112 -0.02949576614632396 0.005278065431743731 0.01603655895191622 -0.0013176132489664692 -0.00505330374831623 -0.010640286084405579 7.202556290449592E-4 0.004854472854730607 -5.698298420728094E-4 -0.009439632678013158 -0.03326634342054705 0.00644169840526979 -0.006589560321695299 -0.023991674245616684 -0.010020212160002866 0.00257614100042517 -0.018124514444296625 0.014387265936204851 -0.011158519785987956 -0.020969132387768 0.007022048231895235 -0.003723122331396937 -0.01678839468571674 0.0019856315401250097 -0.010942466092097881 -0.03706629176004884 0.03060921219954448 -0.015668063607130505 -0.11658359881411094
0.14431081378578134
-0.035702905853561145 -0.02138656038412664 -0.023889112889830623 0.002562950846892207 -0.02426708158427249 -0.009921837435921862 -0.02834681196085764 -0.005638646140574156 -0.011713739489363236 0.00598561950065072 8.510840446414715E-4 -0.00784738650648063 -0.009634838973896451 0.0014369741922809194 -0.007100664886824413 -0.009559822400883364 -0.02348140038344517 -0.003260703751471143 0.018740590073133834 -0.001978775119162035 -0.014047947276460268 -0.04209648678265872 -0.025186434465998327 -0.001987260086463028 -0.005927530388716993 -0.023094166534861887 -0.02908358435422678 -0.012162070699327126 0.0012219711941384955 0.004761346385698248 -0.03190515207737667 -0.05140116233052704 -0.026925709118052414 -0.02789170627226804 -0.027839542799392877 -0.009706407631462981 -0.020902016317785297 -0.036179913080927995 -0.02910092800643011 -0.009726414876956038 0.021151761123594105 8.437252482625717E-4 4.899392064327132E-4 -0.010815449013228522 -0.02498157670239316 -0.02781748077674099 0.012066516342272205 -0.024613605992569173 -0.01758101409810445 -0.0101938823741816 -0.0030275679843503587 0.008800232315553781 -0.009052277174457465 -9.296995361816852E-4 -0.033648065360508565 -0.03280889021797265 -0.007715733476756072 -0.01497672365978172 -0.030767757930420844 -0.0195275424644936 -0.009382874988271533 -0.005854339222198056 -0.005810526784627169 -0.018589573905866602 -0.01215446771138652 -0.017819737467426173 -0.02697863896981345 -0.019812702035599494 -0.016660824924512718 -0.007524496061046584 -0.015211648443510539 0.015792206088916617 -0.0065521247781818856 -0.01667796860527808 -0.03717518318814004 -0.010766537047241667 0.01504765520053594 -0.003815126400355845 -0.004578095610182112 -0.003050920536237249 -0.017338832425575244 -0.02971155576788016 -0.007242977224543132 -0.015774243636247593 -0.0030577753835114257 -0.03173645802982285
0.19742662394863847
-0.014286785591357378 0.009673116997266673 -2.654819447172564E-6 -0.0016060885186689267 -0.008465511316227171 -4.573325538399614E-5 -0.0034592077113239157 0.0029193705190787107 0.012677196781017388 -0.024618826997387516 0.015412555474461253 -0.0068318444419184195 -7.972779034487945E-4 -0.011615893550875545 -0.005228782210692123 0.006866080008129516 0.0052918768666241085 0.005393552520000015 -0.004807452465522363 0.005674771796529379 -8.277000851297615E-4 -0.019755109101925586 -0.004157782774364015 -0.005844596970258448 -0.006069427000265287 0.007032943191776754 0.019184516982156653 0.0029515753966359083 0.0022777256204472665 0.00725790434960131 -0.010982756215580751 -0.0011743070757886105 5.950985836353754E-4 -0.019560836417291023 0.012628611235286104 0.01305970179577323 -0.005803391615319468 5.860640559248508E-5 -0.008363007774850691 0.007835939812444272 -0.0012669723717845755 -9.195250553233242E-6 0.0021074946955632074 0.01758435795244161 -0.0038279426979477248 -0.003945720210648363 0.00734302644100779 -0.01450862113593145 0.0025729181988063655 -0.007734398491777328 0.003698148109392827 -0.004201687641176618 0.0023756282476301654 0.0021358524885220775 -0.005743537646746527 0.0043273467864631075 0.0012213069198868272 0.0029119914644190593 -0.001855955228245971 0.0046278731417784815 0.006190454541452363 0.002985277491015459 0.0012451640667206743 0.011368065401494305 -0.011859750735626767 0.00801787040547641 0.002139869200246713 -0.011943008501111069 0.018530044477333907 0.002383042189885311 0.009579812514647314 -0.018623950869802893 0.0016411173411548254 -0.001837343026401714 -0.003196261707261321 -9.211911183052543E-4 -0.003802007773533243 0.007244065681106955 0.01269807848573485 -0.02039238007469377 0.0022245502736945658 0.0010341309153026389 -0.007733020376426493 -7.887121973544039E-4 -0.013546432225673252 -0.09862190198054792
0.1212672971746328
