3
128
-0.005155907454849557 0.007754267905043892 0.004803239111639082 -0.0015625493421468854 -0.003543616050955663 0.020185834383192606 -0.003021691999506884 -0.003407271438104398 0.008205084290289573 -0.025792350166200975 0.023018381897688137 4.830278204083849E-4 0.0032476347902170933 0.026268368074654373 0.008709095801488062 0.010339697163859097 0.0015262705369376423 -0.0016424153163475809 0.005269243936616675 0.013516914908586235 -0.010630149891053504 -0.028139514394791558 -0.0025686906424960175 -0.005561296437820529 0.0031179573041385123 3.940009979157675E-4 0.02843399267770633 0.0056881764418289585 -0.0019955409081366584 0.0020841508181463457 -0.005966848244429272 1.1284022993981438E-4 -0.0030607911791969158 -0.03266398844173384 -0.024910806656615634 -3.9423551974309144E-4 -0.009937033402862862 -0.002334325348833739 0.004034512427432717 0.0074094094317662665 -0.01783369258620632 0.007386547793670705 -0.00285595925616823 0.012574525176860456 -0.021660230916962887 -0.008249860668620353 0.012548439681732748 -0.0038192348532928794 -0.0039784968928790075 -0.010569845733641578 -0.011077762196630444 -0.0021029234570645893 0.013622056392962613 -0.006185525444164169 -0.014795232631430472 -0.018497978144709975 -0.013699680125597568 -2.242064797223354E-4 -0.015642708700315505 0.01244767653899207 -0.012714741684718893 0.0159581378332471 -0.004542673735289792 -0.0015230669062419998 -0.0025301129680465884 -0.008623172446112227 -0.017527968520179356 -0.013332381903584389 -0.010373283356936281 0.006897496310520398 -0.0034508806261851262 -0.002460053487637963 -0.0013050671159718418 0.0013502829609329378 0.01104753296153039 -0.007362336945392626 -0.009020361160437149 -0.0017063219558512864 0.002636274021301194 -0.007466399006385585 5.090567883715002E-4 -0.008719070909074119 -0.01842653125260827 0.003775683994173403 -0.012571856596617916 -0.1197447810798577
0.1221008868761918
-0.033106003774735465 0.018088895050403682 -0.003179155459681007 -0.02300906408384261 0.0029544310789103062 0.020837950768167385 -0.0035184638336652283 -0.011496452561002214 0.004941086165369956 -0.013625753830549255 0.013156997654917117 -0.003888692864133521 0.0027647617711196995 0.020448967135822282 0.005455131500598811 0.006987364022615089 0.005175249912360458 0.001494514793345763 0.009713459583751747 5.62364627337913E-4 0.009163864091078517 -0.01092133854565529 -0.012267962205580076 -0.0044713149526304265 -0.01746089203340234 0.0012447004660995553 0.0014220115687336714 -0.005739163391007452 0.005413511775550182 0.003028325136428749 -0.011284912703519915 0.008292457129208225 0.007336237487641462 0.005187196501088325 0.015041878126816375 0.004095656800289539 0.00977670551616016 0.004244831116470734 0.015932222600657207 0.020513801528037223 0.00482995840050969 0.011712866135582941 0.0018229502002159287 -0.010739683419413205 0.004033863577649292 -0.021393360367975036 0.013840469965911432 -0.0015202115709882357 0.009601312833640217 0.013605542316132776 -0.012106921823239174 -0.004825717147775127 0.005492424191810883 0.025695164465624438 -0.0160493677727328 0.010781294847260136 -0.0037238767699751666 -0.008871744252467279 -0.009701092671338018 -5.441874767284601E-4 -6.388432116871272E-4 0.015935021052120465 0.008059400461739866 0.020163674959697172 0.016862206895230488 -0.003969307408656597 -0.011361513223430932 -0.013991664007275745 0.004797832805803789 -0.011782378393232937 -0.003185294341454841 0.017110032799731334 0.021852132887805187 -0.009123470427956686 7.089170177760974E-4 -0.010770686905989271 -0.00312866036793256 -0.009907370001618716 0.010545155629689319 -0.019579612041005282 0.008758343308363701 0.015357105693640117 -9.513101307868609E-4 0.013864592412946356 -0.027687554848868017 -0.22387047898935522
0.2884577416884106
-0.007954353518887108 -0.010299631829529718 0.004829973857270956 0.007512607155406462 -0.016551566249230966 -0.007002617805880648 -0.017116346754094992 0.004808599082717353 6.611507001537991E-4 -0.00981781592116897 0.010222978799336393 9.275104387520635E-4 0.005109163156107644 0.015503353870364986 0.007587375683629929 0.025271726019639697 -3.72041185131456E-4 -0.006783448669409013 4.644277624138441E-4 5.810420844006745E-4 0.011684211675133704 0.011311132855517804 0.004929819332597811 -0.0017552970863994157 -0.002255485394436839 0.011342245417039104 -0.0020673538179415106 -0.0022089990355175404 0.023677437064735078 -0.00724870425568001 -0.002013822627992893 -0.01264377837100643 -0.011439836112702353 -0.00313308928509677 0.00339821203992383 -0.0029977185810114463 0.014036589534361786 -0.011670833258356009 0.013835947197482018 0.009238269527619206 -0.014109028054596318 -0.002366551012728338 -6.470376039063381E-4 -0.015356565676300126 0.0037415310354341207 -0.009968577535215005 0.006286092519020327 -0.006876806821740268 0.009411678035599705 -7.486726105544946E-5 0.0020698958674650013 -4.488990102414457E-4 0.008956257448523524 -0.01851667425483725 -0.021014350439998854 -0.007040004544323581 0.008527200822525382 -7.591853270367105E-4 -0.005557419937437083 -0.010696904779749663 -0.0023688316047670737 0.005345691673166839 0.005719308358639656 0.00601159649239812 0.002132448352893277 -0.020864237127789686 -0.006275341655298262 2.2359321659306132E-4 4.2638527116401696E-4 -0.006587563308195722 0.011363141765505201 0.015064614035629673 0.019739984812805218 -0.0017963139730383302 -0.004540393311832845 0.003956399874246512 -0.0028608704784786046 0.007687534080303371 0.004619970865306624 -0.006100893166087353 -0.02775168166346128 0.01113992815169607 -0.01654898850939313 0.005184416183532781 0.0018032612345856782 -0.13335302452692743
0.14386722459926915
-0.025655324133443107 -0.022696773450582287 -0.0058589369671154445 -0.03632344219170574 -0.0064691232361841055 0.008545969918659233 -0.016146158619365938 -0.01175494950795635 -0.016222044240845456 -0.017473620944480656 6.276028098727242E-4 -0.027009785830042293 -0.013121279733729098 -0.02399827321507894 0.0018878257558479512 -0.0027831993458322683 -0.03254175278995537 -0.018987291053713603 -0.018257484183417737 0.005615106346154621 -0.023954825606315254 -0.037183175836797346 -0.04803671656686005 -0.017961328482899334 -0.025345271064036008 -0.016360228181778798 -0.025054108730315928 -0.02611982632216267 -0.018812337719154144 -0.01216891678053797 -0.016191492287662063 -0.023369980724561243 -0.01778591099330312 -0.03925924141357259 -0.00684976609130571 -0.013788137498185443 -0.007219742580008729 -0.013244719095468403 -0.037641291452542094 -0.020301761546228564 -0.006480324048761614 -0.025099640904594753 -0.012422567474117093 0.0023290949838734734 -0.018828370513305936 -0.003981461771833685 -0.0032750329577892713 -0.03439047570783287 -0.007262606557345315 -0.020607828010224035 -0.007956255449957449 -0.008476843481193055 -3.7116066330263953E-4 0.004794239732737859 -0.037656017084152706 -0.0203530385827459 0.002913800897024195 -0.015419512250030964 -0.02488758084244978 -0.025601210903079437 1.8566873748749636E-4 -0.01356898126225665 -0.012399002574951995 -0.00883756515158149 -0.013799885468680901 -0.01578570381645728 -0.0031868747130328477 -0.02370548368282598 0.005140997144020524 -0.005505294563145759 -0.03186803033764307 -0.021808977471713894 -0.011391298890363569 -0.01296672526791819 -0.028959389234530262 -0.0036641576018158605 -0.010452157939231958 -0.008001198062028914 -0.028527993466001343 -0.017790937359202317 0.0015885217978183978 -0.03407630216881733 -0.011396495525942418 -0.007698642035667977 -0.01870901725049594 -0.014755586992046927
0.19453870423109418
-0.012268316344534931 -0.010407610051298819 -0.0013002746917995366 -0.0166824084571684 2.4355942603834373E-4 -8.903021265078035E-4 -0.007984265709442382 0.005801488400736485 -0.0013898964268805837 -0.00996140335960031 -0.00758313097049061 -0.0010733293132695 0.0057893188218745275 0.005629268545706133 0.0019696085980137473 0.0035681626655322696 -0.003275716576471998 -0.01687334494241198 0.00421435653890844 0.002764773312725505 0.007864778522237877 0.002098532111121067 -0.007613180834700998 -0.0051275994524793925 -0.006646266602278442 0.0028397881591513837 2.261414874799069E-4 -0.015344358121605079 -0.005496154141241081 -0.005375981622563735 -0.003682703375179536 0.009150804364069778 2.3015810750695118E-4 0.004905194324235698 -0.007152147324510812 0.01148807566602864 -0.008670130342056761 0.003124100346996289 0.005713364074984541 0.003929970804014785 -0.005170386603758508 0.0022422088147169153 0.005806760664442764 -0.0036502232463121367 -0.0012462028096878333 -0.003141811213818739 -0.0026192045702035623 -0.00800045610489691 8.335440419025453E-4 6.581768874649646E-4 -1.2875491825263964E-4 -0.0021504690308362185 0.016555211349970893 -6.711919565008144E-4 -0.018178406529347015 -0.0029878303753286053 -0.005548224837077411 -0.0029765021307385678 -0.006222392769681826 -0.0011056596001576228 -0.007430414210071606 -0.00857442177950449 -0.0011592680914802858 -8.757288164494717E-4 0.006114998034044038 0.003093807170174867 -0.005324754154206008 -0.008166174470524309 0.00958832714895967 -0.007436433062844657 0.021182692080220774 0.00871980207525796 0.005603791032840399 0.006000332308690196 -0.01163440575503244 0.006897723113322483 0.003839184552407794 0.006453035439037134 0.008673783974050614 -0.011160455284342294 -0.010803965637112105 -0.004642707706571691 -0.009943148538025796 0.007921814731326983 0.004164772236349111 -0.07805402104631584
0.08471503535783752
-0.0025683477145024944 1.396749460147796E-4 -0.005787690759723658 -0.008511666067237638 0.022721160483164537 -0.015243202032677048 -0.006606057812266821 -0.017187439033048722 0.021551245624098513 -0.02000220658516639 -0.007078842346437256 -0.022111673339190757 -0.022749259574282192 0.014474767266374698 -0.0242277728354112 0.005750128984798576 -0.0035803642777633244 0.02532581829993238 -0.022037687512747695 0.020755455654736056 -0.007018654701464306 -0.0029047004947455705 0.009384821660744499 4.5356284064044047E-4 -0.025696318479241836 0.025405693635453978 9.903466627900273E-4 -0.004977311148435229 -0.0035019376500117524 -0.022245224909364692 0.005080381373924168 -0.014452376562504208 -0.0173625137681742 0.045887005031787186 -0.00509966209834118 0.006866325754387731 0.032157494622072756 -0.020637640225662064 -0.0073981304510027 -0.003270604409208668 0.019170231488595885 -0.008772279098732889 -0.005161616778875784 0.007133627672242273 0.015566592982020552 -0.003585573875766662 -0.007285236728475473 0.024850181430066093 0.012447408408073277 0.012398717988447841 -0.004992219394852237 -0.0034668315004639095 -0.02405038644544047 0.0033238399907302898 -0.014124665984793467 0.022179194373404192 -0.009677618231886129 -0.003218424786064829 0.0029154702548426946 0.006866341241329942 -0.02473195339407281 0.004259242087714865 -0.0018331249941833203 0.025874117078982024 0.008139759275807033 -0.00509887351157662 -0.01982933300089359 -0.027626772773787747 0.006473294589715817 0.0010661196953302315 -0.030796271204729934 -0.0012231575272120276 0.03711293143773964 0.0029732985567250273 0.002877927592709156 -0.015430362082139548 0.0026356769151168464 0.020699305097605963 -0.004945017487178224 -0.016290006975432883 0.0016794912334126368 0.00860790319255804 -0.008256037527317446 0.011614932485136772 0.018700749187806773 -0.23915146746136184
0.31262517856152966
-0.04585702014752926 -0.11911466286923701 -0.024525092591801793 -1.1239741565708186E-4 -0.002373701510547594 4.092220201877446E-4 -0.017933346228677156 -0.03109583317622077 0.01649541568562814 0.02032600713145541 -0.024569156201753848 0.024804091467632794 0.02112780796067087 0.017840736892289998 -0.02115361504748279 -0.08308204382877689 -0.07983281171795013 0.007444518014860495 -0.04627647524966865 -0.054787682366861545 -0.0266121663163191 -0.013045695138231015 -0.05746624367444388 -0.0015719505262514234 -0.03076826904817292 -0.03858352515146564 -0.035242074043608046 -0.023564115930177258 0.02008009943507493 -0.014427463841232014 -0.0381632405540048 0.010994124050521886 -0.04396845804082248 0.020080101215773513 0.00568196613561206 -0.01674930685364328 -0.053434609050078456 -0.05581900232850992 -0.03344538461129152 0.039225944394014556 0.023667796913731085 -0.11673357582684327 -0.04733458926347065 -0.06310070210194745 0.041392407650338525 -0.04002867984379287 -0.006882064406248291 -0.005470415465571587 0.04586704179383481 -0.049801501436812175 0.038267913600289055 0.04278786599843961 -0.02441188809084671 0.062272789802634336 -0.028255491906174757 0.0625229930753403 -0.049204399616912364 0.011137867113543035 0.008810858400582553 0.07715502568977431 0.006780442216688656 0.03834334586167839 0.016234835801058438 0.055271703896784825 0.0021618530438599105 0.025751414164406426 -0.10050436739294014 -0.016167042431861945 -0.006000661677972191 0.0751380291576965 0.04195610813003118 0.10089626938308247 -0.02696972470140871 -0.037541157947578646 0.06351427581792118 -0.029454873643610505 0.11518938592355032 0.01010740304676682 0.0432302283494518 -0.018870796864087127 0.05902951453587735 -0.034634036820859575 0.020270868215012484 -0.006957570306933359 -0.02617371104987615 -0.28730190570156794
-0.024544785628840687
-0.003489425537706286 -0.002236109029785745 0.012328890651562263 -0.001953714723595871 0.02043807580193603 -0.008044786427721076 -0.013037068697339015 -0.0017546777541890108 0.004604233695174534 -0.008701926645057785 -0.011272029295617929 -0.011338885517108521 -0.004217729529764799 -0.0033722822542612734 -0.012093538089832545 -0.0023999742326478004 0.002250272074817974 0.00978638224200505 0.004297435315948008 0.010814275390180457 -0.005929432156109298 -0.0024370527570348887 0.0018314973414443284 -0.00639108083499463 -0.018402541002278505 -0.014821172537226035 0.017917992926190243 0.008315957093684493 -0.006976868855616918 7.188135071791351E-4 7.438166377772983E-4 0.01115439341001331 0.005083194064558107 0.0024555832419887284 -0.009982910185486027 -0.0044707604183396145 -0.012909744411468539 0.010929097992292582 0.024109782806332164 -0.011813059607536265 0.002873670215286605 0.0037780632587974834 0.01492839124376032 0.009273533019510272 -0.002688271305755964 -0.004466068019376479 0.0010724092950087452 -0.0076854739195799035 -0.0050033462928961575 0.02258686503319111 -0.005371509968560707 0.008974105253835908 -0.00553563445579057 0.014848312982881143 -0.00910006962361412 0.018940986243002857 -0.0023434208046957546 -0.002029776036020329 0.0066419592821878376 0.02475425146313062 3.0495934484148007E-5 -8.857933111285944E-4 0.0237524560383647 -0.005649663876572117 -0.004210395964439113 -0.013868722288966158 -0.0013963735727925996 -0.005620665178853936 0.0026103576003586983 0.0027286876206737234 0.015121593069762542 -0.0017846411764257319 -0.009523811543023172 -0.005324684153338143 0.00458704710684664 0.0046226687915636114 -0.006777817760653283 0.011940198315751794 0.004002005248697047 0.010697285238362067 -0.011445386951725036 0.004754458572112773 0.0014475182749115406 -0.001019117294071808 -0.009414812029618067 -0.17651273290806252
0.2392700527549568
-0.05599213066926582 -0.04375414258105054 -0.04369675118250277 -0.034795107553014806 -0.04201583842983905 -0.027369143401143502 -0.036085030246680555 -0.022574521835385372 -0.03651801637674277 -0.0428045757440545 -0.013213459238408247 -0.037115294860145434 -0.05007185843139316 -0.03686918516274963 -0.025256534067264653 -0.04233966074720739 -0.058483573363476093 -0.04872590201966769 -0.049149029520832596 -0.034839503056633275 -0.03807969828889746 -0.072204128116175 -0.0247857204053961 -0.032449160338443105 -0.05451142690544512 -0.05494867364576773 -0.029648771964819787 -0.054818516517901116 -0.018892463669250407 -0.03660468108544531 -0.0704107036978048 -0.055814706603815524 -0.06466087695027173 -0.03152408200449698 -0.0363520799047322 -0.058197288322822595 -0.05679424510730508 -0.03469129896969377 -0.03381527763233314 -0.023249965934433424 -0.0414408041789111 -0.055214836336032934 -0.057641483655475126 -0.04503182339668076 -0.023444527851214442 -0.05272027551500782 -0.017803047070527375 -0.05236195409738137 -0.05206563412625885 -0.03891884392848905 -0.03560651088515013 -0.02725396401600219 -0.051428104655827436 -0.06324639116309143 -0.058256327783889006 -0.03972259963631175 -0.03995585255385619 -0.05361446046818602 -0.06083089526680483 -0.05110809343747599 -0.01261388227127701 -0.030201096053761072 -0.035925761784337804 -0.0593740897475332 -0.048206000109001806 -0.05591889930933357 -0.020555997255267588 -0.03789046701491544 -0.04674066899201442 -0.02022395861428098 -0.04556373355135379 -0.02305443751733896 -0.04790197639971864 -0.0532487635299725 -0.03318358145152307 -0.049741161618510325 -0.029760843814503356 -0.07670855055938262 -0.048943229454209154 -0.0256884310247048 -0.04664741639006448 -0.046753534986398615 -0.03936060535459464 -0.03547194264793861 -0.04637993895038712 0.045817904825225755
0.24725610910282556
-0.017598425190494073 2.837934346404626E-4 -0.00935784957996 0.0016069840887166036 0.007644105621740777 0.013885197264652437 -0.009634980838061621 0.0012231006825243035 0.02244099495914609 -0.00986242246482874 -0.004494244943093384 -0.012412745442528749 0.0038397203784641663 0.006658063979625987 -0.007057138381797024 -0.004381197743998824 0.017603859505318193 -0.005410718174173698 0.008030000367321138 0.009084661979243536 -0.005925078338917568 9.715516257469648E-4 -0.0021373048946236534 0.007304804541604568 -0.0014000911190486407 0.0017356986184649341 0.012859447786610542 0.011291575930021412 -0.01239341632915336 0.007974888633009464 -0.014812408402874124 -0.0014053221459429974 -0.0028081580459738266 -0.0018644372627321998 -0.020978991047063314 0.01687079665744793 0.005024949770783301 0.009488118495648347 0.014913914922678535 -0.0113171347916426 -0.0032975659398183643 -0.009226594066109789 0.00559175444545856 0.00401240801943966 0.00834189582208274 -0.021093157753765846 0.010040559062373115 0.02000003907654612 0.018242992918088105 0.023310001974588258 0.006302198363084622 0.00182016966519985 -0.004834702683743154 0.010726877367784023 -0.016607270629511214 0.0039015574847074256 0.0032245029391736184 -0.0045146120819402405 0.007892229670995402 0.006591053791694081 0.006960089658631614 0.0024284073884403568 -0.0026047159995365664 -0.0017799318853060245 0.005860616801111157 -0.009940025379871782 5.811032020292877E-4 0.0029394372363771145 0.01624625784721411 0.012895111729212915 -0.001837553890375117 0.010217877100881876 0.00600796030818202 0.0023814340265027804 -0.018028593591771773 0.02680502211747177 0.010144384848046206 -0.006959614474443829 -0.011929980341044697 -0.013739739559750084 -0.0039035610044785437 -0.006633418011410254 -0.015452924817782373 0.004043758473187244 0.0025592515106340153 -0.2074221439464109
0.2888323281307323
-0.004932120339094774 -0.0010859001138267162 0.010959696159079414 -0.014061052420037455 0.004985883720606881 0.008030797787663795 -0.01788399400125278 0.018795442063270804 0.0022807582801049834 -0.008613634284268683 -0.02641764793790689 -7.13270796798385E-4 0.02728069202789422 0.007664762969408803 -0.009239829614588092 0.018657958771224215 0.015002488376985217 -0.01782273440666492 -0.015377330122911361 -0.006831513026176487 -0.0016921159136678151 -0.0030834826792780494 -0.018916624613088358 -0.007747974921962693 -0.0035746348564719235 -8.385458338699594E-4 0.008292209929976747 -3.819465272043172E-4 -0.0032048908068496784 0.001548317375714611 -0.004333973949960109 -0.0049119609199824435 0.012111560429678671 0.01686118895385233 -0.010981890321483872 -0.008988538447442098 0.00634452532757574 0.017382723681080004 0.02203963195079178 -0.006559736209528038 -0.014257373854350771 0.009388469268437576 0.008790883167848752 0.008116503174631378 0.0016988939476127107 -0.025726870651231498 -0.007652661140204013 0.016309941058728055 0.022836871344919 0.014615211328999124 -0.012099447782318733 0.015167009630592655 -0.004243625904560782 0.0015761995965775679 0.0035746306541888442 0.009705993128442456 0.017998298883321242 0.004481732161473813 0.004156019957067604 -0.005768256458856488 -0.009087149266859508 -9.326168561329804E-4 0.008042774300389681 -0.00493325890259762 -0.0068477509021550986 0.003751484613938005 0.01605171024635396 -0.0060193352330787965 -0.01204833430124746 0.0021161732463863083 7.449851911938768E-4 0.014919220567585734 -0.0025252617042154017 0.008422602498353523 0.014743864422298933 0.020516893461246896 -0.010479387414968242 0.01306296861109108 6.319346872746355E-4 0.003949211718602179 -0.001713151722330929 0.013638555715920112 0.014613145705324645 -0.008840689875467982 -0.02662163938920448 -0.24073588866226786
0.3123221296766359
0.009929619353926937 0.0018197088883128553 0.00580616479451078 -0.009283954427225917 -0.0011491995934515074 -8.837663797806953E-4 0.0016826400693593197 -0.016511878597537666 0.02167838695651491 -0.016392605748896064 0.01030520863618263 -0.007124573626410474 0.004294238815461561 -0.002827110093646061 0.008051893392596819 9.46250682134552E-4 -5.24084795175849E-4 0.012735870101711472 0.009369583889627045 -9.199624598119039E-4 0.008719379740524712 -0.011521849906067746 0.004978441569339335 5.929270045116244E-4 0.01068734995637309 -0.004605420552138051 -0.0010197036874417076 -0.005343897583055577 -0.009745473388246847 0.005473495491524561 0.00558942622720742 0.0027253593389448072 0.005679153179298779 -0.011732416499521522 -6.219564667511225E-4 0.017482519280233057 -0.007818660252765999 -0.014498129188802852 0.0028702209280354837 -0.004472388946769387 -0.018524582807253304 -7.457682153588514E-4 6.204113156471812E-5 -0.012410483844481278 -0.01865262257548017 0.005872020444044462 0.004372038968508464 -0.006203022301212918 -0.007490830946597871 -0.010210344992287523 0.0011779487751475666 -0.010450351375339081 0.013104472682042501 -0.007813622804861363 -0.0049753549386550916 -0.01016023704711227 -0.0058664042625848215 -0.0034230093598161407 -0.0019239937185454275 0.0074560483868447245 0.006869179335436424 -0.006731188061106543 0.018694543877040542 -0.004426939199182681 0.005934685387794102 0.00687009118327792 -0.01108533832240715 -0.01336261943301837 0.0016314093380840366 0.004582274961977445 0.008894309616334709 -0.0166655391768346 0.006573133064309555 0.015670660043851873 -0.003628405441095609 -0.016083567203975704 -0.010678066914887709 0.006454466545595276 0.0017010917906950937 -0.005814984623272142 0.008305432284883105 -0.013371404023974456 -0.005540449369897476 0.0038350162899092586 -5.684566226823929E-4 -0.11766954686970714
0.1329215165624423
-0.024333276601365264 -0.006905515948132673 -0.008981464447271202 -0.0043943365939527225 -0.011715710325773327 0.005513692976218887 5.786316226389204E-4 -0.023481800168563865 -0.017762445164336508 -0.01212291647160098 0.008838176017968323 -0.025504574995609864 -0.0337504227019094 -0.00508633075925336 0.008028127821435731 -0.00967833782396104 -0.012508946155775037 -0.003196343957100282 -0.004158929776205247 -0.008178416639975762 -0.029724825597914853 -0.03388448520344877 0.006475417400043833 -0.009723795048740451 0.004188042015520169 -0.021051286457946333 -0.016657755220304427 -0.03080707779924758 4.1346303892189645E-4 -0.007266890141057789 0.004957753553436129 -0.018099351858129383 -0.030717921441137323 -0.015936791012600808 -0.01354104507118577 -0.009332017960134196 -0.004042162270406348 -0.027583829457174684 -0.03025286624044572 0.008939394986946384 0.00827587789027332 -0.020629299900806874 -0.011695443188704014 -0.013792004251489172 -0.005056276376618975 -0.025263016755938002 9.664981596500215E-4 -0.006313664682141702 -0.027239854404058992 -0.013121053216579952 -0.010086898614688977 -0.002814434115127824 -0.0022930823936012446 -0.009442479677024012 -0.023041789114506085 -0.016028335153947058 0.004540779624533617 -0.012229987615850464 -0.016039148106201124 -0.022162106862005794 0.009462696385530277 -0.01216457827514662 -0.015258180540660863 0.006830471511195557 -0.014663463940198056 -0.043013721463917 -0.012824668519310207 0.003193180333043401 -0.008681818513995751 -0.015173377949245353 -0.03557910412224976 -8.871851193897349E-4 -0.011939805567343278 -0.016955854268589476 -0.00821969344126935 -0.0016164261931598523 0.008471314004101591 -0.032184520000362385 -0.005447998106249084 0.009835822730902758 -0.028651334429889767 -0.0382692741254695 -2.738762782046794E-4 -0.01085598130738773 -0.008614575944373381 -0.030721880857833363
0.19054073153305198
-7.738768743650908E-4 -0.024203130861255823 -0.04231691817677481 0.003571080874784551 -0.03171552035439177 -0.03191766281347914 3.3737517575259195E-4 -0.05029662980472799 -0.020998684058147466 -0.06406699757285349 -0.025073538844643566 -0.03570226769963873 -0.047500626774577025 -0.022049368465597383 -0.03572195988870202 -0.002474949599517297 -0.05530885318529061 0.0046757026945860505 0.0674060877860939 -0.014581160875730734 -0.028106051706699112 0.005109979546286613 -0.04689174950896939 -0.03384939667052902 -0.05012220626268068 -0.019948772672028974 0.04941569009257231 -0.006558863422448117 0.005447058311499874 -0.006474950605758141 0.0038296383530258857 0.05050799424813613 0.007533030929212845 -0.024124215258020748 -0.02606972533646873 0.009657402275935258 0.029676491249762755 -0.058180083230248765 0.008093206588807203 -0.048736203678997156 -0.022360875112564637 0.02707753583515785 0.029661495303605824 -0.006537177343463865 -0.05371550143811028 -0.036720466585165194 -0.03359774611645469 0.0069317012888762235 0.017701211932138968 -0.007533081021591731 -0.06454727740653472 0.00644539500313958 -0.03420836222351644 0.035104703923309825 -0.01527952472452391 -0.03532687342217976 -0.05988068315656751 -0.05567148255229362 -0.0022702270869783157 -0.01652833842890541 -0.010555520717094676 -0.023126060312375754 -0.0012654415611121155 0.027437427627539934 0.0045870644653455035 0.009804809758274722 -0.012437695004046016 -0.027921070460904803 -0.004816756247909212 0.004306942787076572 -0.014982995877300996 -0.048602828067505544 -0.015326720358770769 -0.08076507551384972 0.03853833158928874 -0.038628551466058654 -0.08038358175750732 0.022841610046439163 -5.389917947413783E-4 -0.019383705248129057 -0.0019248099270796294 -0.003119673852757419 -0.036574859224089325 0.02528900990561089 -0.029508680141918927 -0.13194496383873347
0.09983686411949558
-0.019236198604283772 0.02149524358232641 -0.006729414895463531 0.00920917241156994 -0.011497303400663373 0.013126051235258465 0.003343322758140151 -0.009462862770080007 0.01831076225378541 -0.015829571251417707 0.004490542862796236 -0.014088220617510007 -0.0139085822110776 0.018953383499017276 0.00990728347555592 0.005189624689186035 -0.02788655739947696 -0.03255321449331453 0.009520322825927536 0.006798292819558769 -0.004835200270427504 -0.014500838409213202 -0.014585628847268765 -0.003251013252358275 0.010243339884821045 0.027084697056482643 0.01358219077711931 -0.0037899474174392512 -0.004803433462881034 0.014036031299063854 0.019105453990754143 0.01087330039453945 0.005059850691166606 -0.018075591751945272 -0.002075093223620772 0.008624809089554536 0.0028335245030964543 0.01519795597844149 -0.00719381505277734 0.009528236222120538 0.00712149814098683 0.01829738553428041 0.022859692771307012 0.004655976824610716 -0.02440772471069195 0.012951021552662822 0.02095579196978121 0.013160040048508619 -0.015521014038707329 -0.010870151750169543 -0.022399108594637396 0.018961376615144732 0.005211447996579377 -1.0521108343774199E-4 -0.021353763960030275 0.003865428586889554 0.011566800856248359 0.0013626534912354763 -0.009944364814364191 -0.019411702129960358 -0.01248752811396178 -0.00671356040203851 -0.006503427806042345 -0.0032875795010564248 0.008147712188260636 -0.020661680394362322 -0.02092066045296616 0.016925125847999264 -0.0016486501303830294 -8.38051768287765E-4 -0.010218862065860838 0.03274796691764043 0.005775231846811214 -0.015595382568520976 -0.006972195653430938 0.006586814027479707 -0.0018547584709362114 0.027832564256413922 -0.04250125394565996 0.004845673308918085 0.007403160459421493 -0.015264079399920208 -0.015419885775288321 0.009469893928800334 -0.007200406318564346 -0.26746875132296555
0.307667703192743
-0.012249660603193959 -0.008721683932565706 -0.021783725214788364 -0.014868286183060648 -0.007570401945674587 -0.012610273299657563 -0.02500067726890112 -0.009617069037688435 -0.018808291155873548 -0.010502068485052553 0.0014121982215846895 -0.00360615037497285 -0.02652116696050315 -0.03143250787590183 0.007178048119836024 -0.0182392786002128 0.020261419157146167 -0.004824974232115417 -0.03170702264119272 -0.02804959321303552 0.008585125816084152 -6.393721399772259E-4 -0.022609184918904235 -0.022777850750510267 -0.014486460720505589 -0.02501764401387033 -0.019710821695932527 -0.03414827536877267 -0.024288813142717407 -0.0407610954353682 -0.009519171309789087 0.014131877338234447 -0.02219972162252584 -0.02571275827350405 -0.015213654341429851 -0.0019605499935616724 -0.020992786845585015 0.0030807204227787897 -0.014279083875013067 -0.02423545228454113 -0.03271467177589248 -0.015350612492682277 -0.006722922612222457 -0.028225657731053115 -0.0059728010243166995 -0.02259583849254063 -0.03041158719087158 -0.020333956977363118 -0.00887078359481247 0.0023684366630095485 -0.032479973762578766 -0.04787574733163214 0.0010071475972213595 -0.028053405679347138 -0.016597426197898803 -0.023589631900412758 1.6027544911874892E-4 -0.03573042292630424 -0.022327451917880034 -0.011223557674461775 -0.002701231086874025 -0.021377688588478008 -0.02623076372049759 -0.02746610217555298 -0.020520407890418816 -0.03267911977780459 0.006780114316856128 -0.032342031869539746 0.003577361967597523 -0.04788049413674932 -0.017283534449709263 -0.03604168514185305 -0.0211988634012193 -0.016640241453992594 -0.04343701422438276 0.003064123726542247 -0.020541810097545164 -0.0035889195496782013 -0.04514817398228746 0.01411416431647165 -0.026815990854502873 -0.03394436394106477 -0.010279467622938592 -0.009542315782360748 -0.014090136834715042 -0.014567756323057516
0.16406411106109267
-0.0032622264301470534 3.6064303234639705E-4 0.0017241321347738535 0.005249314668792603 -0.007049614680926844 0.005782757689324473 -0.0012206444046312882 7.479266538977387E-4 -0.0045549773139551865 0.002865479183476866 0.008013676498160208 -0.005538608672659468 9.217628140120716E-4 0.008757012601094601 0.0032385850788330547 0.00719005439101183 -0.0119574442996726 -0.009919050241600917 -2.8216630789191437E-4 0.005046399703808566 -4.096174502031404E-4 -0.006246595274066666 5.524164071346095E-4 0.005353362868080776 0.004614373880644286 0.002015154315251929 0.0013806130192407264 0.0011021484458126607 0.008226541937739376 2.859150693183093E-4 -0.012031341143358094 -0.011395149771477158 0.0013941238016815464 -0.013207235828081835 -0.009228574647101445 0.003150125460048778 0.002144358120232309 -0.01382263503341001 4.1200561071417016E-4 0.011924570671809204 0.0037056254912759042 0.003934105568777466 -0.002880910157184732 -0.002999716097846492 0.0031971189771253473 -0.006179069165536138 -0.0014577122673101628 -0.0014418002972036168 -0.007448694695401445 0.0015322479486284495 -0.005028146097101848 0.009037598014797815 0.0066830093473505 0.00395003958301006 -0.01676758513931808 0.001729196611138664 -8.01577770576273E-4 -0.0047530927200941445 -0.010818344410918623 0.0025196266354696596 -0.002388378851937572 0.012459086940825244 -1.8105004122546714E-4 -0.011680133973017755 -0.005328252849782167 -0.0017470618443410266 -0.0030630637718303236 7.060736817180813E-4 0.0023469214394038164 0.0020115950564842597 0.0012287234132510557 9.433994273124723E-4 0.012666517080275707 0.007622255377708643 -0.010778608389228792 -0.0013275539828567912 -0.001782851984929387 -0.0029720455499685308 0.0018943615962280695 -0.008617936740458427 9.098042742665467E-4 -0.004601569297249189 -0.011740636976020015 -9.647289663586768E-4 0.003936077657915547 -0.07497746285990298
0.09460245722219826
0.00962292752360746 -0.05940208492053916 -0.01779802054078549 -0.03936473366332082 -0.02972083530166555 -0.027241861598029608 -0.04629378188751004 -0.06382977198954273 0.021858698785302288 -0.01333663711438121 -0.03607994433435159 -0.02162515201657696 -0.015075558059188407 -0.026013669115701552 -0.033445333732027 0.03825818461565983 -0.05103696142530527 0.0028787251018268997 -0.011928351900557717 -0.020312969013166163 0.01732883693113331 0.0029429929301248497 -0.01929817500435665 0.07771966871845405 -0.02426956514452287 -0.020993999560635662 -0.04485955092243895 -0.02172200437826477 -0.011464855638376742 0.023822098728194477 -0.07846075774590686 -0.002183968093148008 0.0012001894482392497 -0.07434709394192468 0.0800673401344711 0.04158915907457038 -0.0019918429174508355 -0.06105606855503384 -0.0057383125835912775 -0.01669820669831142 0.025670415089033723 0.012065434023252837 0.002318937463466144 -0.0024803277293748076 -0.036266578131859364 0.05965889924842658 0.014692530304134392 0.05451450610557759 -0.05151680688673618 -0.018489444675257895 -0.04712739078605237 0.027004173950174872 0.019962246828185308 0.040961556200217124 -0.03436349790614288 -0.02475320574960904 0.053516083034210384 -0.015031610723329453 0.05729807484559686 -0.07253254022197403 -0.050586924826755496 -0.056179049709867014 0.02743664345192544 -0.02060023928200473 -0.012775819987378489 -0.05189437318375466 -0.04224266816646083 0.01756129250535874 0.061723644888116644 -0.026962277606995867 -0.06261982426967344 -0.03324850208602525 0.01218773005767329 -0.05254290752298687 -0.05473069370818092 -0.04771577221380545 0.017893403788054166 0.02594441268255169 -0.0540854601065047 -0.04315782615193025 -0.0038458994504484093 -0.02411606145018184 -0.04690230146445631 0.027977360955621984 -0.017440855367739677 -0.26868794355139175
0.28227303875522797
-0.019438666932572297 0.006263743418124313 0.003373748492725451 6.884153701754488E-4 0.014686492041747181 -0.006367907626921101 0.0054325063958244844 -0.00392760815709825 -0.0012687915224195976 0.012048670264853055 -0.019797508700941602 -1.107209610815425E-4 0.008790275477566676 0.0022577122371362913 0.0038067315053769064 0.006630844254744302 -0.01731529252515383 -0.03188205470343281 0.020752552901910686 -0.013015363447197243 0.0035929977061193654 -7.513082814680084E-4 0.006301124502878841 0.0051533288086823585 -0.01699587221923336 0.0011762442183482493 0.019537933209324756 -0.009776858703792659 -0.02414366189202108 0.01803961458592814 0.0011323895520828923 0.01672672821402171 0.007526761774760525 0.03189487495046838 -0.009605812091295352 1.5401073481727267E-4 -0.0036522686671538397 -0.00979941743857646 0.007726879088759011 -0.025449821816531954 0.001787440643031104 0.013670637127126442 0.01774860692027569 -0.0030755820456261664 0.012228070184450952 -0.01660917233540068 -0.017364243845543113 0.0054075835771904175 -0.010842189417287604 -0.0020258566035845616 -0.01864807520728444 0.030089039608947914 -0.0013042503971460616 0.00858220883962424 0.009393435349409382 0.01273227216757085 0.0058524291314892805 -0.00780517435334924 -0.007505329696843591 -0.008407824576572862 0.004878948585896456 7.739944444766801E-4 -0.004127389285758554 -0.012085053465618521 0.015059531922572065 0.0016397709321255886 0.011629457706971227 -0.0011559163268837558 -0.01967705769186535 -0.004634995724837183 -0.00239677482256942 0.012854992079263588 -0.0071070235457088 0.004307739051377234 0.011750195429180736 0.0216687227849529 -0.01487248573070947 6.376891872101555E-4 2.169898519051134E-4 -0.012221629577456233 0.005349565808004355 0.01767018075400519 -0.007209602435609333 0.008425542719923247 -0.020242922819840106 -0.19786537583487937
0.2701231517555219
-0.012710820809531863 0.0047729963085273355 0.011918473628720137 -5.54001959359585E-4 -4.1558553827851226E-4 -0.009038146454695724 0.010628844625702863 -0.003813587551185534 0.012142527727809927 -0.010061823444535828 0.0091422072003074 0.01493750252634616 0.010786333810698809 0.0030323294339307987 0.012068377938163415 0.00545322534266433 -0.010050230026402436 0.0028859787023267007 0.02177827403170594 0.009285805462953075 0.0060983209970256694 -0.014342997211332476 0.006333538004202437 8.770486159154535E-4 -0.0036072624122358934 -0.0013336807538868452 0.012182680845339716 -0.0033802349137382177 -0.008009028693627261 0.0016105667396974904 -0.013305834833258258 0.003396877641525062 -0.020882321072567867 -0.012299146157531823 -0.0048634314928548425 -4.83901413130902E-4 -0.0034256639783217845 -0.013970465347173552 0.005667696026741828 0.0044283713965868965 -0.0022809633233429843 -0.0020917249193731606 -0.004536292105904376 0.0025562418620557782 -0.01321648024630319 -0.002667019483463388 0.011223839295782918 -0.012991635631077346 -0.003334038795873369 0.003764924461908846 -0.009323790429559407 0.007321969052746066 0.0055000525304009 -0.005308398445647812 -0.007144476162517211 -0.010220012424671375 -0.012697437721613684 -0.0037791136015156734 -0.01520472828385502 0.006714931464905466 0.004037615960830855 0.0022298646972425075 0.004062793369425856 0.011894210188441477 -0.010079754683521928 4.809918586561489E-4 -0.007592193965484731 -0.013724329441305664 -8.561112069154087E-4 -0.007672152666107532 0.006716188275304354 1.5524125728831495E-4 0.003050327242716527 -0.002559615357320098 0.004924281246132251 -0.01498404509318707 0.006996997794921928 -0.009978212227051185 0.01383012590319576 -0.01426111455578875 -0.0034171675187812767 0.007552552648818312 -0.01476223383148743 -0.0026563596006811407 -0.004510510942975764 -0.11327970372554456
0.13407641288598254
0.0189798063604379 -0.0062827436287674985 0.05901135227761141 -0.022278070471926863 0.04195740450439309 0.04066870940228601 0.06520736990458435 -0.03236252913698775 0.023255871350826036 -0.004926076032617995 0.04221560421952177 -0.0022262019738161463 0.007381941204517567 -0.03328624145325239 -0.01749933253263925 0.042567375790909995 0.040130520442019306 -0.012151324394376216 0.027259112827573144 0.07239845118958357 -0.013608715671168857 -0.02493542764673188 -0.0521816601274995 -0.020402905379320182 0.002917465675464596 0.015144424954943942 0.008754755357349904 -0.015893970977071917 -0.045825328353696244 0.031040906904355976 0.011626382704427653 9.468170474626059E-5 2.723596913859375E-4 -0.033505091143562905 0.024243207844257108 0.04157590588037213 0.011108249022917505 0.0073112456647987465 -0.03895629646564853 -0.01581456196602378 0.014446379358017812 0.045363187209896134 -0.005641117055506741 0.009646912416782888 -0.033665475677502256 0.005743366800662673 0.014710334339093196 0.0038489567050648816 0.027401802464993078 0.012301125058312446 -0.019961356691416347 0.013896845017043438 0.005649188932041001 0.06930966535046257 0.01631413260543751 -0.004661789692714377 -0.05349569108991611 -0.01452909103793204 0.006525637909866417 0.06523078034412697 0.021839344536448712 -0.021244798784232792 0.0030556517149539176 -0.003848953212990595 0.07660449614034798 0.045003730188137865 -0.00452772029001426 -0.02771670231595723 0.015084664312650393 0.03946118933093623 -0.0071252370849436645 -0.07176671262762843 -0.01901250376760868 0.028607006574717927 -0.021807803715701343 -0.026804749490202992 -0.023297998710822602 0.08283247619835174 0.03825412883510096 -0.005251052777951954 -0.008051141941459172 0.001747574897470905 -0.046220114113263086 0.032905883937759874 7.547439069365901E-4 -0.10941193901965761
0.1600388586632334
-0.07041502411472748 -0.04749069670139414 -0.10631927064164853 0.061565703565160716 -0.048114231200722085 -0.06980834171212964 -0.03583302623571698 0.019294142626897874 0.051301439544155406 -0.041203212001883475 -0.03830665090235484 0.004680049903031154 -0.02185831450422168 0.051141391339192446 -0.031696122771924004 -0.07502567007450538 -0.05372560386405756 0.10336029682452658 -0.10473152462863083 -0.023771916465357673 -0.003287099697084594 -0.01465651294954658 -0.013833835728466694 -0.019213978516674605 0.012351055662451144 -0.014958952331152346 0.06093193871876014 0.02226810955913941 0.04795870935226864 -0.09985343355100212 -0.11549590211014955 0.07183761058027598 -0.044750514834093376 0.01658367758296451 0.05813235801983429 -0.01049096892122237 -0.09611531587228044 0.02605238798483162 -0.033262134844756826 0.05761182012024071 -0.007096203324311949 -0.11232878872453314 -0.022314159942535675 0.005110421947675537 0.11285849433470165 -0.03384254012644868 0.07823037045347167 -0.0834181624500416 0.09866987335306943 0.017145452120814565 0.002073000753260262 -0.0037629510491807364 -0.09249295035623815 0.040414605234726834 0.09210572509211751 0.06602873636309567 -0.02382331259670524 -0.002533350727170589 -0.010397182342103205 0.12643306952004954 -0.0103643533310398 -7.506028661740777E-4 0.03233307911934083 0.011771110210280029 -0.06459530263964876 0.06911817300607391 -0.051555900808361914 -0.05352520001276372 0.10063751481232161 0.0472690290095083 0.0911362247648787 0.04814375283717494 -0.039646486641809614 -0.06002707945350922 0.07036717237591861 -0.024344244594487596 0.10875264828842146 0.05807277152538956 -0.0029318138999460943 -0.049169279065220325 -0.0017760972952636522 -0.023049758782009443 0.10525737569929908 -0.0165025630045556 0.022059305770062737 -0.43664876631227634
0.19363995885467652
-0.037501336502000215 -0.03831515757041517 -0.03317007450787992 -0.030564607462326098 -0.02553207872557842 0.00727486164221352 -0.023196842382818276 -0.006135155121533829 -0.017140106391446846 -0.022476482468990987 0.018620037338187092 -0.008549588084700238 -0.06580295727987176 0.011535363401791445 5.361812099188238E-4 0.013455999650363837 -0.009840323700791175 -0.007119556822192528 -0.020272766525139724 5.13720780832654E-4 -0.032712659700470055 -0.02414434211690587 -0.042542804373069634 -0.033676756702156474 -0.0315331008174186 -0.015552908061821594 -0.030895661649098384 -0.055124395654638364 -0.02617133994201768 -0.04697437324753127 -0.015531165890141198 -0.04767619226362656 0.0024231444299262347 -0.015651431063504008 -0.03386040615294975 -0.021778562208016054 -0.0053442156290070975 -0.026001821411655326 -0.013383615039305987 -0.00392207477514139 -0.016299335696348685 -0.021234863882352246 -0.023738452588201165 -0.011842477104666503 -0.010913764047101648 0.009516262068969033 -0.024097693843990218 -0.04125999961691204 -0.023751677726699005 -0.030866252890537356 0.021055143414618623 -0.016074658154470563 -0.028950757703853018 8.537598041871295E-4 -0.018321291928674495 -0.0012052271358361395 0.013571287291548807 -0.04164009875143391 -0.03183531479780943 -0.034393200394522816 0.01871939698686005 -0.02381568273768924 0.01147942663413074 -0.05015896068783141 -0.005356848945765938 -0.024931961559230064 -0.026713126675682878 -0.010142243250519852 -0.006008039599789559 -0.014525454427982433 -0.029037426869535875 -0.01792742176907818 -0.05733700112257217 -0.035771808710757975 -0.02912163318243472 -0.04054799344793758 -0.024806733336466574 -0.028107262058403457 -0.01932184265863888 -0.01144995406091347 -0.02047891599236559 -0.07083403230128746 0.004930139829668569 8.079182770751664E-4 -0.028678928570887937 -0.03379694478607234
0.2381740659309846
-0.05773037250771216 -0.04603084054930756 -0.04228207438423724 -0.05215272606927066 -0.031863682319462606 -0.03879880687200116 -0.03869256198491843 -0.03143691541662131 -0.030613868526476264 -0.06118866911114016 -0.04540620444767055 -0.04685447632435105 -0.04491161693945615 -0.03454186486579089 -0.035919528651247756 -0.031621506460642046 -0.06436162579417315 -0.029583399815293468 -0.03365895016118016 -0.04094254984098472 -0.04954422115065569 -0.058849202663082814 -0.029878250358614956 -0.03774912314181885 -0.03504309119693838 -0.029899194880954667 -0.028303865843344125 -0.043478961784715095 -0.05289544381567553 -0.058032167037734714 -0.060225340585069814 -0.03212158582420957 -0.04473444931987491 -0.02747579905638651 -0.02575739984005332 -0.04501160590549644 -0.03786934260050399 -0.051122872821573226 -0.03246492916168859 -0.05721799740672734 -0.06297187011895086 -0.05182869893137777 -0.029889891125243574 -0.054656058794792316 -0.04307973181348566 -0.04096357213377324 -0.027028493773696736 -0.037570039260635645 -0.05302955610057249 -0.05039503444311333 -0.052976311298033846 -0.04652564154128059 -0.06460042315417618 -0.05595593672603499 -0.053323145945193114 -0.06868007213397816 -0.04545473743070692 -0.04829148508032675 -0.04666005873977742 -0.025285623372451105 -0.04038023224086798 -0.044573675022783 -0.052999011342344006 -0.03574144637952301 -0.03384603158210999 -0.036584673357551147 -0.016603084962046745 -0.04504467877572224 -0.048237695409322365 -0.016761360701443254 -0.026939408927378818 -0.01363325438310929 -0.054154588722195814 -0.08276194322913444 -0.042800552893702576 -0.05434682387330487 -0.05691113620780472 -0.07156462470889585 -0.04690094131871668 -0.011457704755675273 -0.034692795952344584 -0.07251608259728312 -0.052925069442956725 -0.03971815167165076 -0.03341308036318078 0.04682471314529584
0.2785714290991916
0.015424810448726525 -0.02502195161846157 0.0059458168193252635 -0.013209149151410934 0.02574012614933358 0.02075783160149426 -8.668110826195096E-5 -4.0190447592249506E-4 0.002443970763951349 -0.0032482011447324413 -0.0023286650714246875 0.024632288711137474 0.009459973284767425 -0.0062859352000727425 -0.010751029633062835 0.006858524195770819 0.031021212032674685 0.019359104216531624 -0.021850770416033567 -0.005612009235631257 -0.004519289936054363 0.03519739711564301 -0.010900179803743332 -0.02462826717527162 0.0010260324376405237 0.013922663868234585 -0.020775089331872297 -0.021577344156258702 -0.0015976202855517963 -0.027039152557189673 -0.021294856088391823 0.03214718932096241 0.018319457146946803 0.007258987724128282 -0.015442566914069264 8.815671040012856E-4 0.008643759057224459 -0.03354586166442099 0.02007624045914672 0.005995151598718465 -0.03339218001104994 0.006417206167339229 -0.0028348229380991664 0.013657178252697414 -0.007406413006316935 -0.014446219669847327 0.0070405322743060375 0.0010607954067975763 -0.009374517477935823 0.02730383793829313 0.0015630183932466674 -0.015455955445222193 -0.015389710954069965 0.007058302472373083 -0.015081227888763874 4.599393218524439E-4 0.014572249119696283 0.027655214385073214 -0.011947459898539308 -0.009063484460296855 0.005912790800038202 2.567532985400606E-4 -0.021100263455082556 0.0019407985996807162 -0.008231173875898425 -0.00433863131764391 0.00763871022170886 -0.030913256017990158 -0.014977078081755035 0.025342913773775275 0.015752652070424818 0.011471785049877314 0.005120085517501975 -0.012602921530843214 -0.01231660773634526 0.018295847496014744 0.0028451111107824457 -0.018385715197704145 0.024944900986864842 0.0020481254560205907 -0.024026092517326424 0.004280267828641811 0.0014263179084713987 0.004626108810482562 0.01978979911865645 -0.23452358292738945
0.2878044299086971
-0.0016083588364734474 -0.0025270842652610746 -0.009306867116606242 2.021668226563027E-4 -0.003873146101926023 -0.005101646063950619 0.0070261523534399595 0.00690804457697289 0.0018173086817723039 -0.007412358601949206 0.016461499103061824 0.010976018127562956 0.013465917290311392 -0.006660546404068246 1.694129126625823E-4 0.0019605997753398535 -0.010911891729399093 0.0031468207633193503 -4.683883301490981E-4 -0.0013567840993098069 0.006636894972089591 -0.004217718854438623 -0.009291362100514924 -0.0012424116793189497 -0.0012789780511759544 0.0024528760011632155 -6.234811421658923E-4 0.0034584928451013835 0.008386376724687073 0.01126230776382877 -0.005008775703399497 -0.010444554832551552 -0.015206731027928426 0.002805550044121574 -0.018487715413653943 0.005037597083061668 -0.0032066804367201288 0.0035656817833050916 0.004873775977124733 0.005579068586546061 0.009377224697117477 0.012554576707463664 0.004463557892979726 -0.0015641392566255567 0.001233158200867315 0.006735588083715872 0.004153715064296295 0.002423209285898461 -0.010263612981600391 0.0033844924043677045 -0.008485776767150682 0.0029286668869572046 -0.01113482927572998 0.005168968433164165 0.00987080820602413 -0.006998316272982861 -0.006707210066873307 -0.0050766459604249786 0.0015225533556047566 0.00665212818924641 -0.0041115010132085576 0.003531270181827726 -0.0028136870976547238 -0.008203111981572152 0.004932233456772625 -0.006240434275958647 -0.004135195553794647 -0.006436463083525528 -0.014365384715632963 -0.0067769957774902875 -0.002282087215517146 -0.0012642348288817965 2.666284847188206E-4 0.008770644301851423 -0.010648971864069837 4.869527922049788E-4 -0.0026145808218503326 0.010288631651065831 0.01772575331384228 -0.006550204649481889 -0.0027733732560258225 0.007668335210507347 -0.01114735476413203 0.006257587842022804 0.007928506768815432 -0.10961956037972023
0.11064897685798337
0.006443142404806883 0.004547174062737722 -0.012069002848042167 0.0031224970695046227 0.006232597280885413 0.0022162979270330574 0.013146717815529035 -0.010808167421629088 0.006724594431519871 -0.00825625621800948 -0.005009352782867292 0.0015612371314230591 -0.01689853105259924 0.017278682693564203 -0.015575411061487089 0.001269977332715616 -0.0038303018851607155 0.016582256916021183 -0.017350278062877186 0.005587964409252692 -0.012698528933052722 -0.003758528920735738 0.005850566813883332 -0.014235084075164037 -0.010546413956612802 0.020809234688282024 0.02075068484918512 -0.015741851196208446 -0.01586275289024686 -0.015873964637030162 -0.0027739605155759155 -0.006095919160314371 -0.026586474440759934 0.02112269077713466 -4.586355147512814E-5 -0.009525244901852569 0.03039988505329804 -0.00836875410046668 -0.004004677979440631 -0.01161107275988102 0.013343696248850704 0.004472541985564857 0.002182056982648373 0.0014956022343848969 0.0019989844594840134 -0.005919351370776971 -0.00708168058498479 0.012502268178036067 0.002666524496931627 0.0036420379327957142 -0.01123459827972551 -0.0031946594038101436 -0.010654371161371795 -0.00635008095208003 -0.005365091557172691 0.012417563092897748 -0.005647902059164708 0.012199678404458777 0.006134445479005105 0.0016203149193872988 -0.01546955707338003 0.0012781084706432627 -0.004982218016783504 0.01869537938457251 0.011649530608117034 0.01087036168909168 0.002364696748934252 -9.725599549735683E-4 -0.00664575820246689 2.453704174607633E-4 -0.023944107335743127 -0.0037488418071960194 0.011051845418427313 0.0020934500028317953 0.023852320429420513 0.013131085295681903 0.00853657811415025 0.028634555061554802 -0.005975290669206693 -0.0038303106152291766 -0.004435946028561559 -0.006005658941009691 0.010596635854690494 0.003127274910803031 -0.0029820321242612696 -0.22001563752101483
0.42886327507885985
0.0059728885799600505 0.0048388675969286785 0.008240980089881977 -0.006963541861379813 0.012396631691951559 0.006517791443964022 -0.012103234676016424 0.018212012011144377 -0.01558329638433964 0.0021215960768569894 -0.015146301513522533 0.00120303492013348 0.0032500820024916575 -0.006602261769798289 -0.012687460820328027 0.012585096293100485 0.0038497787333285284 0.016560346463087305 0.009981220056427133 0.01723474145339826 -0.0021016899299012687 0.024196945573083432 0.018817536132760482 -0.020739826858096486 -0.004906627381791023 0.00874416292062004 0.017357837452277036 -0.004951536023766963 0.005445231568565028 -7.259033603867852E-4 -4.46612138831324E-5 0.006785665786472703 -0.0034206765229185684 0.019632095203590324 -0.00677664195795303 0.010305901302964717 -0.0014708765047395302 0.018087461998808244 0.008114489202889007 -0.00335564024007991 -0.016228116826667766 -0.004840930603735027 0.017006500131678256 0.01920671093966809 0.007448983348558658 0.004665352070779943 0.01768102756500943 -8.88594329015778E-4 -0.013410865740959631 0.023195102187685532 -0.013289109777550134 0.007846243718898863 -0.0169950876173606 0.0026204780542967605 0.0074775065744342555 0.04831899967044193 -0.018438003192463564 -0.01891206869218225 4.248492885110041E-4 -0.0038921551406953104 0.013635975103296559 -0.00945705143991428 0.012787362810513014 -5.971307503933806E-4 0.011613110871339238 2.54774464456495E-4 0.01540872927085781 -0.0037169307735360852 0.006042108740578605 -0.007754993744413172 9.219321041255024E-4 -0.017989865109375405 -0.01957263332550707 0.015412858113154121 0.00817709915883325 0.011020473374597179 -0.023442360953804742 0.0014280042429917585 -0.008188775050757364 -0.0021254400200011888 -0.002499651170778751 0.005499006317189414 0.005902871102389821 0.005319755983514251 -0.0031267451806233086 -0.29949404441964234
0.4177000038258542
1.1630733436378034E-4 0.005879017776628155 -0.019720646245932064 -0.0057494276652987 -0.013044306571791025 7.896053627973198E-4 -0.004933836747412768 -0.02956931918655801 -0.005595636694351377 -0.011880008626339606 -0.012042974261796088 -0.0060786203451915315 -0.018165908984132204 -0.016483161263664805 -0.024618343037829588 -0.013492042741186101 -0.007827571434301019 -0.013640284758354111 -0.017510578107490432 -0.02529809815376727 0.0023787047022576805 -0.006261211318934667 -0.020655760186620895 -0.02661099446961031 0.006341472012262724 -0.019116984250437948 0.01304813549547559 -0.017120078724554934 -0.024250394904030637 -0.014493993322181634 -0.014503581997262231 -0.004392771685551162 0.008266586544574604 0.0024313969843839135 -0.007049168431854932 -0.012234911155793582 -0.011340074873116435 -0.014303546513718091 -0.006977916670681552 -0.008422978067616726 -0.008150089137048852 -0.013128022440583859 -0.005318721480560704 -0.0029223258717424824 -0.014954473559354527 -0.02789857751888611 -0.0019364277969654829 0.0054617339130099045 -0.0015740573581593973 -4.634042189622257E-4 -0.018940338030266093 0.003092895306168268 -0.029342321976875925 -0.026054572329183467 -0.027488272092010095 -0.016740995584218252 -0.007012768439907108 -0.011438878990614059 -0.017748855369800726 0.005124966780777193 -0.00341719079569348 -0.01749399343982003 -0.0068339620127261256 -0.018711415111223508 -0.0014190026305302722 -0.022656122484274944 -0.009742365580240131 -2.0007437372166815E-4 -0.04052434410366378 -9.571735282207142E-4 -0.013566511445818689 -0.014967990342795294 -0.009326058260535983 -0.00916188850046257 -0.014673984109464796 -0.011578166337294716 -0.0193886399437562 -0.021343940962953334 -0.00914868441510276 -0.0032398840323391432 -0.0059096700958895685 -0.009322247998483673 -0.018627856863903784 -0.013011347675608924 -0.019555304173700796 -0.024288690700185505
0.19134093305282532
0.0048224768635242955 -0.012223533755799322 0.03581382928222038 -0.01845650450535289 0.038404799844116266 -0.007621711105800181 -0.005880938112269424 0.01450656887925629 -0.0014445279506019608 -0.015646591717420475 -0.025781653418919175 0.025320948754471714 0.007835621346606333 0.0028543583166952503 -0.006205338015758649 -0.012725346202779013 0.003482838654324099 0.006875167971463134 -0.013609139487461643 -0.006977373046524754 -0.028211986649955507 0.028216933063332013 -0.0010083443511833675 -0.013513935372499558 0.009556491317683626 0.012962392245968934 0.0020298809797089272 -0.024295330737480834 -0.0017076091421616595 -0.005695500618384096 -0.034960648720935954 0.021625639463818045 0.0033341458410351037 0.002555057076986049 -6.405598041703908E-4 0.028777970568031195 0.010646802083091118 -0.03901867772409578 0.02517565562164525 -0.010029699153245909 -0.00459263940256633 0.027398224092531627 0.0037105081444321346 0.01431603175348343 0.005127686607434483 -0.020816393247581142 0.010650028588093512 0.014036510869105033 -0.024282408830971682 0.025452040647268626 0.003606030812458771 0.001654621122451746 -0.024400665313239638 0.025951178608251458 0.004102432306238575 0.025664899216961086 -0.0036760977892891975 0.03150497961150555 0.0035437287001529585 -0.039246183322915 0.002785879355089842 0.011456328323938638 -0.008443202588420533 -0.009285174270129135 -0.010093552280408794 -0.006884214379151175 -0.014182747909210989 -0.06524033581341318 -0.004743276041932852 0.015031873206250292 0.002239812502368571 -2.735047877592117E-4 -0.030314142493379194 0.009299958884011516 -0.0031123183126036337 0.016971206536952516 -0.02649897698832037 0.0015898488636587116 0.018267543708986 -0.018619801526241694 -0.041139146911184234 -0.004198077378894521 -0.033587905437244665 0.004470487009796173 0.0061053569521410025 -0.24941035172371367
0.32573399203783016
0.012019936646048827 0.010334791165978716 0.001377397304558599 1.0075282517360267E-4 0.022643165694341254 0.007717025900320504 -0.007400163453825842 0.01176910135886629 -0.005408156372651788 -0.019038242925540388 -0.015451596469215336 0.02928634402236234 0.0050362459756908 -0.033222478709019135 -0.02045113008283594 -0.008225279547118025 0.009962746694008555 -0.005735736388032588 -0.02661874308476953 -0.011350063923214781 -0.00945411686094565 0.017684197361891713 -0.010399025818571654 -0.007604024127112177 -0.007876017171030278 0.01037445475204289 -0.0019176288487340832 -0.014611654723788333 -0.018795455354995532 -0.0026124135187672645 -0.020577140018170553 0.026513856350471415 -0.003592741434871502 0.010777407366698792 0.0023812289075517065 0.025890104833280362 0.02470484344660945 -0.008889563752752903 0.013658737421360218 -0.012491831662849248 -0.013129669067790208 -0.0014551430634213822 0.005530642657354254 0.003270956009113064 0.012618791391742467 0.0015021232440542878 -0.006095286756588324 0.020603417738486694 -0.01735222731213351 0.0032143753200903286 -0.0016116788360877009 0.022862550731237986 -0.013526385658594707 0.029936112075772903 -0.0055196945038938384 0.015027640281075448 0.02060692500775004 0.023807174488047367 0.011120251303835644 -0.01159859909674248 -0.0317835076669914 -0.017772222746189805 0.010073144319534042 0.004709978996075018 0.0033315026089103168 0.0019457297015397796 -0.006976153232727761 -0.019085137076862192 9.059424922467549E-4 -0.010208855320132465 -0.0017531925958659484 0.004495435979953466 -0.004414142993138797 0.017984983608542955 0.00801270071522165 0.016068654053654097 -0.006217483319129943 -0.008400278881324634 0.0029673629010454386 -0.003732537802601173 -0.019704516530961547 0.00438168054121165 -0.010783998138968682 0.004093413705675999 -0.010333711725107567 -0.21782055188280888
0.30085751936792
-0.011064256167586908 -0.0031294056219136283 -0.007536663810426309 -0.01864111004641356 0.004977892671091361 0.014450573291207686 0.019599933542328682 -0.012706603281035315 0.019016848750243984 -0.01622980489466801 8.070172141159339E-4 0.014235591477182353 -0.005611275744123469 0.014103140971713128 1.2006469105389886E-4 0.02475673855523909 -0.025303060466854686 0.023995646635158036 -0.009513738082883631 0.011755934550263419 -0.014058263116948813 -8.472812522563103E-4 -0.0030535098315306723 -0.018375367299951744 -0.024553234637361167 0.043253921823435175 -0.009626565232304292 -0.014507843006670575 0.004278802943803708 -0.005859836305828619 -0.022184541824957507 -0.0031077072417294255 -0.02337924286439356 0.011572672104594386 -0.03203086784269667 0.01261568254800612 0.018217782598753868 -0.01224816194193485 0.008881050612410575 -0.014888084215370362 0.01415432448425407 0.0017511892453910003 -0.003163468375857376 0.008970608705651535 0.010922720545553249 -0.018168379461025765 0.0010015834215992777 0.015377477849777606 0.015967373625393404 0.0069604999209347505 -0.05489553681608849 0.011523930762798328 -0.02590409606696825 0.00736038160683962 -0.025925944277536372 0.031172923458317847 -0.019626396959859207 -0.003933345951428723 0.016522729509389173 -3.649612695954418E-4 -0.0013842325863118613 0.003873094558340822 -0.006594833557063778 0.015425208610372304 0.01625971943715221 -0.003933847913126924 0.0011525142736798 -0.013248384845275858 0.029993134468059946 -0.015824780077099383 -0.009579835952470292 -0.004641960626151884 0.03406736716246178 0.03421465066656137 -0.011490404681868752 0.019033097692527687 -0.01631211495191764 0.02089329694731294 -0.016473722266403534 1.9817111297323767E-4 -0.019264424905308008 0.03177951126896428 -0.007265586983912288 0.006048554706689587 0.027820344177864213 -0.28993082279187327
0.390747573988419
-0.14224888410665348 -0.05677456741132267 -0.08188578401222686 -0.005884880228509128 0.06912137934791342 -0.04266386098244561 -0.164592335784288 0.062022470865304075 0.019829513350896607 -0.03484317851201349 0.012568701915723462 0.09652284041159481 0.02036371370650607 0.05100470093274226 -0.014358626062047975 -0.03733249042014252 -0.032774668432148234 0.07300258563646222 -0.03967614029951454 -0.05018514569345436 0.06875345038130458 0.09271586654923837 0.043304464357928805 -0.05606942356060373 0.026820356056759254 -0.004083713239123968 -0.025818357257906936 0.04871269722021128 0.05423756491730392 -0.060031376016154867 -0.1575914831891488 0.14729727189823832 0.036362463696317605 -0.01947878234217722 -0.0364160815563238 0.003827177960432929 -0.027645665651290726 0.03979200061926444 -0.034893192569659476 -0.10225522529648126 -0.08122699392273885 -0.027989621699660794 0.019784051139184227 -0.054582574799519036 0.026045340209024055 -0.062551863466591 0.07247825059137294 -0.05877077059928262 0.05373005276363678 0.04609722610468516 -0.14627651619289972 -0.0944590244083295 0.038812314960551694 -0.05106177495005996 -0.06625693796338823 -0.0073145227085232405 -7.707961226429134E-4 -0.016616081359888655 -0.0401897078598027 0.07296368427226167 -0.011258076195059186 0.014361222695589287 -0.11499470835984686 -0.0059108780946531495 -0.10229094508246743 0.10797047201623278 -0.09000756801139327 -0.08442797583237209 -0.011067757308278465 0.024116344973002038 0.026443294601429558 -0.03045750077969179 0.02901564826472197 -0.0888892818608075 0.02939369328001455 -0.07137315772371004 -0.033247109870435235 -0.01127043992321657 -0.02594936180812521 -0.033295704675791175 -0.039742650671207844 -0.10630714203173311 0.030222434505518547 0.008097423227429037 0.03407052609277892 -0.40273299544999364
0.23466470411183646
-0.030930400055077387 -0.010543495893128169 -0.021020235536645355 -0.01810461000723058 -0.025611703140026813 -0.01460682823050326 -0.01248589032738875 -0.012295924550755096 -0.020154369945372855 -0.01463388693067727 -0.004442368711296934 -0.02057268069057356 -9.658410724722616E-4 0.004135320793826476 -0.018028358865302848 -0.007682170599487948 -0.027546588780568843 -0.03157183592296024 -0.00736139969538729 -0.007382706854624668 -0.010716684475519768 -0.01720677355886559 -0.026739542605542555 -0.004767786010972018 -0.00587441625218343 -0.021495546059754542 -0.011295215236406595 -0.013552759582827959 -0.027563253198877483 -0.004452852671448583 -0.0187633013040869 -0.003722170350762023 -0.006220989348128069 -0.02260635641366336 -0.01792401326910467 -0.003536652453578362 -0.014369239499861335 -0.02057525582705096 -0.02592981911877771 -0.009977807096633217 0.004539229893337811 0.01874074706709451 -0.004123893729141803 -0.023350178608142612 -0.003722738819994782 -0.0017748090371451906 -0.00734071415955165 0.0051691148905458634 -0.01418986746963319 0.005109920998579988 -0.019922223116461066 -0.0037802500416177272 -0.005562657552561134 -0.020809373959322103 -0.010619743562815007 -0.02028152107487129 0.01168185124257016 -0.004778106450828878 -0.009938645079850568 -0.01332049780016255 -0.009173406561077757 -0.023242053775526503 -0.0038948896659369565 -0.02688486653895831 -0.008969437803657786 -0.019303306855106686 -0.0026740193613743295 -0.018545843792554608 -0.004031701928901867 -0.0055315835570220965 -0.0038233121282607208 0.005243743763240291 -0.010449767944826872 -0.00515901170496772 -0.0024926704780266627 0.008161394521368638 -2.890364795029701E-4 -0.006304729738013504 -0.01093722812573831 0.0034076984149684795 -0.014870243691204835 -0.009748264973642536 -0.003888197039379735 -0.019549511638133756 -0.01684530310539978 -0.028193637430462947
0.2023433551525523
-9.513775563349646E-4 -0.006100710204290441 0.011300714238812409 0.007823469597400646 -0.015180172469415682 -0.01908850666432311 0.0057301851756928965 -0.015805496818370384 0.010110460847624434 -0.07410210862342317 0.027559351416157535 0.004466919931410804 0.014621245254597301 0.0028857131561651882 -0.036922663838662544 0.027569141684959397 -0.009358374484515902 0.008646291787415937 0.010932704090689548 0.027543850365229508 0.014697088372713213 -0.019430664005955715 0.002828294490267075 -0.005895186238573685 -0.01446427814685864 -0.013332300164647579 0.02499315674155347 -0.0013468056891923733 -0.017985779689075495 -0.031844481608330893 -0.015298526295296922 0.011443797499907583 -0.023289008802759137 -0.030172334765818543 -0.011494394093066896 -0.004103401975009574 -0.01715175985803526 -0.008617555847142955 3.136328906609329E-4 -0.009246500396347626 -0.012932938312392802 -0.008806075083696697 0.005013051192198101 0.02894537955110288 -0.027582177645882895 -0.01030179446761111 0.00531453542437694 -0.025697161149941614 -0.016175613025765572 0.008945440655352101 -0.021596162161533868 0.04184765582707581 0.025452907421654576 -0.012517964694111037 0.009189876156882642 0.005775051435211185 -0.003942817360201864 -0.02233839316541555 -0.024383335087115703 0.013725601591276445 -0.020779563056081706 -0.006490061663723134 -0.00252724196369146 0.008457057706456633 0.019218783954124116 0.01464093706640513 -0.012870303782488891 -0.02467678154560421 -0.0016955684263812237 -0.007174555604615027 0.004073691910036642 -0.04133999295588769 0.005255428694440135 -0.017375895343468034 0.02821153908240786 -0.03870530328520835 -0.014700536752401714 0.021659946300132654 -0.01522544184846178 -0.030667907651748812 0.00252927155694047 -0.010761970517395074 -2.5116105674261057E-4 -0.014173366622340594 -0.02043800084469766 -0.15194121424031964
0.14372731418807294
0.001742826329954003 0.0018555614733985204 -0.006174238942160301 -0.01036934125594176 0.0032563444658125582 0.005476058300730075 0.007219856244368522 -0.0082861536871391 0.002457670137207261 -0.010140030826347802 0.012617851473246136 0.018155059414887823 0.010939312949401718 -0.005787773978018806 -0.0036948236951715075 0.004323073301352801 -9.201162715040982E-5 0.005774839379057155 -0.0036037867636938173 -3.26598323345542E-4 0.004547246174633828 -0.005118669778218723 0.006677005197654344 -0.00796134684455432 0.0168012786508206 -0.01188865490670168 -0.005211726234218648 -0.00130780398943462 -0.002943117447223686 0.012278995789118213 -0.007188256871859506 -0.005418246666106636 -7.896189137500341E-4 0.0018042206706546443 0.00396976037366219 0.0013581805405710745 -0.010436869970743562 -0.0041585213842361725 0.007950108567942702 -4.3945294161999964E-4 0.0014539895555824038 -3.371295709887744E-4 0.009253796950860977 -0.011834680535999436 -0.0038496647222826482 0.0018395440851666496 0.004098122307708996 8.88558990544708E-4 0.004630612700257572 0.0022496106992303954 -0.004866489527980045 -0.002052210010616418 -0.008607854472482045 0.017710235671989143 0.007766356341468765 -0.0025801227658657903 -0.0024826610309101713 -0.010154653872760832 -0.00784998992883021 0.0051461007544801795 0.001785558739462949 -0.007136287296812445 3.210847210203057E-4 -0.00715822590237441 0.007457973132012337 -0.004510196613858982 -0.011622837920240757 -0.008739213003020345 5.275080218630051E-4 0.0074578599425285256 -0.004672960364263658 -0.0074750365254030535 -2.262840715595507E-4 5.094566336017819E-4 -0.00329973323336722 0.0011731566845183106 0.007021207158689684 0.001819702343186002 0.0045473039377505655 4.7055978174502045E-4 -0.0011914984704210088 -0.0022744496681898563 -0.013954385832827867 0.010940153145842242 -0.008532819343769784 -0.10687518188426243
0.1317757549237468
-0.03977731026362191 -0.045616090501717214 -0.039564416541702944 -0.030149491066508525 -0.03822460261890098 0.009581230120412619 -0.031061658248832585 -0.01910570837447704 -0.008817936857875951 -0.010032830807539887 -0.004627440507127493 -0.033494640208857084 -0.047368731345474625 0.016540809220495858 0.0033356848747835705 -0.0093066681115237 0.0035537651264942382 0.0029980870266374383 -0.027935518363333967 -0.016827222308281816 -0.03708874557445467 -0.01662959308536804 -0.028491913836914066 -0.030009398189474568 -0.019597432810345587 -0.007619652394815123 -0.021443552146168412 -0.027369154183024873 -0.02114380006707368 -0.02249199685219203 -0.036995057802897816 -0.06207447099197153 -0.02257267674213945 -0.03904800273002119 -0.031291490583242425 -0.014064344902249665 -0.02926540308856912 -0.030944537450790316 -0.023874166117837648 -0.02570008381561697 -0.028077731968963442 -0.02573105087457253 -0.03383509236866252 -0.011248571242814125 -0.0229259419068811 -0.001890230374532956 -0.04295052464154779 -0.07616625821100594 -0.04226377264316483 -0.012175878090675041 -0.0034930610349699067 -0.011674726671674003 -0.030252754667227093 -0.025983804090949553 -0.03468653078700444 -0.011889627071223964 0.017967890409124436 -0.0656499752612783 -0.04943594818267814 -0.045224838165961644 0.0036020061984142924 -0.019247877124165137 0.0101217459704918 -0.06190623383794672 -0.0406312880269177 -0.03847282726721642 -0.008487919531388234 -0.02710501016035793 -0.0014864983651196515 -0.03968947106825177 -0.04546058542441907 0.007955744232317243 -0.044354914241664475 -0.03391968013272881 -0.03885837521247998 -0.03975095424477633 -0.01739268709719017 -0.03584718824346915 -0.03198800459568481 -0.016234009178336516 -0.041222037396692696 -0.05679425677544962 -0.013638626214900609 -0.015224966720481755 -0.013557817818823786 -0.014137669045865253
0.2203414573754517
-0.03579822027932318 -0.07886442268813547 -0.023084619074862606 -0.04535863975275492 -0.013625509344622746 0.014319563233661282 -0.04413676912572966 0.005969398434661557 -0.013078797219793877 0.0043382665509473515 0.0031230910240563283 0.017569040878500277 -0.008637449098033304 0.017899988180961588 -0.0364234842365314 0.010392084394173136 0.036524428566012415 0.0035592471727328946 -0.0069489482082337834 -0.038655377272207025 -0.004565434326270073 -0.029578906589568923 -0.028262881026355248 -0.07903378677408425 -0.020198738838985476 -0.016133668611584377 -0.02782489905150998 0.00900240626358973 -0.0317006813300968 -0.022998829171410877 -0.0020338966637293366 -0.0498098908190161 -0.022282956685646588 0.02666613304874091 -0.05559874828909685 0.008305496657752168 -0.0161891153632558 -0.052582735983442694 0.002486366097798699 -0.02783846352501643 -0.004502475162545679 -0.03759657522403003 0.005917955654039904 -0.022048262342988782 0.003205959082937567 -0.02265569886799279 -0.04800199394852415 -0.05274789385361372 -0.024029224731299818 0.014774286466841969 -0.04229894183329159 0.006240304401122383 -0.023317506297553078 -0.0493323370857407 -0.049540214901297834 0.013785263489758712 -0.010695582836403612 -0.04970840133062571 0.021404635244297462 0.00929350185879806 -0.01590244773719825 -0.08034663215832147 -0.010411472428151053 -0.08101355257740163 -0.028079065136024508 -0.019014118831641107 0.015253601389685132 -0.021694825931704274 -0.06652509062160299 -0.047513058055645624 -0.07038155365547527 -0.014450796982833154 0.0018896993431378431 -0.0922389892152852 -0.010556127860423684 -0.008205145785154865 -0.022502550682039327 -0.03664864000549646 -0.03964017877731757 -0.026461960513142084 -0.022384895143381593 -0.0789674912607442 -0.07247985043081355 -0.05532629394564381 -0.025216754187424303 0.0018199702749421452
-0.02075927809079458
-0.005296232111903408 3.1596932867559605E-4 -0.01329618636612965 -0.009388382877252622 0.0025452550882999548 0.001005663593815941 -0.0033286020693890444 0.0018983346585354944 0.01331948727236851 -0.02629234822554632 -0.00903672198754572 0.001493861342255454 0.004124339917226085 -0.002810478492375792 0.010877119246947887 3.0605699750620754E-4 0.010406593571147156 0.007952043849882951 -0.010560311135294419 0.008632684973229509 0.008275696013880281 -0.0048123657289886315 -0.00616381907515405 -0.005227448682729962 0.008282709933060127 2.4953029496052153E-4 0.0063682497336875876 0.003269985454988948 0.0016633078291081568 -1.0066920015191207E-4 -0.01207874015901631 0.01028795239928348 0.005187358323701565 0.007378329195180472 -0.01961230986100275 0.0062384480642099175 0.002324072272868253 -0.009292747462244514 -0.01259518236248091 -0.01433002315167428 -0.004066337389369129 0.012522894613186283 0.01771357658214522 0.009391472642051948 0.009890490381087896 -0.0015389593686763125 0.00898521106010725 0.015674677579089105 -0.0056448500175139745 -0.003386642844413649 -0.009705518489477942 0.004391286769724318 -0.01632547264164078 0.013708795551338944 -0.015035879581640908 0.010971221868137164 0.007221366952891469 0.008517366772473414 0.011304451308034619 -0.008729635551073573 -0.015228427516993841 -0.014854373659147524 0.006576142829803485 -0.004130431465093122 0.0012487681016750503 -0.005926498024425715 0.00864655917980281 0.010311446344824624 0.01583128523508752 0.007264062777704475 0.008632338872629474 -0.007189583646173157 -0.009557714892698233 -0.01944121656568733 -6.488342192048849E-4 0.014332242532173984 -0.009652059410212337 0.02696521473587937 -0.003961747417878615 -0.022234546254593198 0.001285674353993316 -0.007364861157258144 0.017994391758834105 0.01610748456082561 -0.020497115134817362 -0.18715733260375034
0.2540709232789893
-0.016957801648782547 0.004747901711234549 0.0022729082532524413 0.00409208608329894 0.0028134821980749895 0.00754262627037777 -0.0071686437430878895 -0.004235229680288273 -0.0016567872242835408 -0.0019988247720091963 4.34001540077045E-5 0.013195406607489166 -0.010956562993822454 0.013350878132986023 8.842696184349894E-4 0.008427240983145031 -2.366504128345746E-4 -0.00543321101379177 -9.009748429701836E-4 0.017305107747477285 2.796249092030791E-4 0.0014806571229527027 -4.154094308241464E-4 -0.0020678186803207285 -0.007923687673706962 0.010256921635268201 0.008655746281716031 -0.011519963468963952 0.0019640951013365493 0.006550944782320288 -0.0029012836531297683 0.006159963480808318 0.002841346984189902 -0.01657989263577636 -0.0016393266909404403 0.012269247957683013 0.012062845161358018 -0.005803330383681126 1.0696282240742312E-4 0.006365383773291192 -0.002585686074153779 -0.00627629428814017 0.001107566240735164 -0.0038595273774153912 0.004776658337642232 -0.012375428214612781 -0.014376448739740668 -0.004120220680050933 -0.007843882933104259 0.006958636330225738 -0.010007256832880548 0.004297438318361731 -0.003215397724198054 0.00867084663448518 -0.017659811871439602 0.01546315081274084 -0.0014412829326319794 0.005405586310006791 -0.003695715225369069 0.0095411896806552 -0.004609411025477181 0.010593673647942359 -1.8041792375140525E-4 0.001649707105388482 0.002024422577677399 -0.00504677462382549 -0.0025702506092255186 -0.005791029664981042 0.0026113392187357026 0.004988196886181608 0.008978230557986116 -0.0013516225942299068 0.002389428104829712 -0.015082044625303489 -0.008954265100839515 -0.0017372116868907806 -0.00856063293740845 -0.001714033203265834 0.010184207567913878 -2.002348522726783E-4 -0.008597199837066185 -0.00461586599255786 -0.006742145408435436 0.005665209227020422 -0.005123926526700388 -0.10309319679260422
0.10950924988054436
-0.00726983924776621 -0.012456464868547498 0.0010357725640596526 0.002018335983279678 -0.0021054219545828213 0.004024106303101215 -0.013270587534901438 0.004020746930066902 0.003907208835224022 0.0024644154082684813 0.001983557103757151 -5.969297771645032E-4 0.007190294632618102 0.010222215614030535 0.00828023635351288 3.259957982043885E-4 0.00499406388618803 -0.008734675185678208 8.571165633333201E-4 0.006216437019349693 3.038915783423829E-4 -0.01360481323238535 0.007612338938866858 0.01093447675371422 0.0067964009620271725 0.0035878520493626866 0.004673538431648851 0.004430423238119477 0.005008605048585781 0.005368760167952949 -8.300261752752157E-4 -0.01318059108579343 0.0035467805806538503 -0.010830884378909575 -0.01830440751724524 -0.003137213690903011 0.0019119787623292585 -0.007215931909846037 1.0636935614723625E-4 0.0037080176743946197 -0.011248910788262973 0.010705840656855606 0.010711445779163666 0.0031434906038977297 -0.0042407985973792976 -0.010267778523973084 0.004375500702017195 0.002725209193740891 -0.00389798180241877 0.00387495588417866 -0.004737965964920749 -0.003418735261672423 0.012099821779109522 -0.003128567118730448 -0.025547553734755486 0.0038514535950616192 0.00880844148443115 1.5121144551636265E-4 -0.006774134614859375 0.0021151195152015008 0.001579482922034525 -0.00237392415863854 5.168565155590983E-4 -0.012057070927481105 0.006944460828400141 -0.007337936073320587 -0.006158217004177508 -0.012648800190521054 -0.007716633793251316 -0.017149109349191703 0.01290796261034339 0.009984500009527362 0.0029614955429301108 0.008795163439550483 -0.0013558430971364686 -0.0028369138873781006 -0.007084176343886748 -0.006792976280678641 -0.0012022941873139398 -0.009707688896753074 -0.00995888238882105 0.003022690239448017 -0.013848249396026595 0.003812766875116078 0.0034831372257709387 -0.08287869482865513
0.08113743831908855
-0.009450286595278433 0.012984931000379854 0.002691513547065703 -0.005899804408245654 -0.002264970514260498 -0.0013324390458024943 -0.004479164442144355 0.008073426330417818 -0.005894547288078475 -0.0047267769443837685 0.007941885134589512 0.013659510575706293 -0.01691933269768521 -3.1215688515679764E-4 0.00833014706016402 0.0010847128451429103 0.005427753285728923 -0.006257567937027643 8.624638873261131E-4 0.007021964018100865 0.005034503548812767 0.01099118583144101 -0.0050523257466933025 -0.005499211949721572 -0.0085734950072246 -0.003456420803890768 0.008106074308193163 -3.799990391779016E-5 0.007581841616491353 0.007564420487818625 -0.006046972494869961 0.010499635035498462 -0.015517323306263764 0.004208589189445452 -0.004568771239612783 -0.009794897569885897 -0.017922803722146222 0.00627577269801438 0.002648926320473349 0.018881506734014047 -0.01438620758738346 -0.006392611269919936 -0.004382163871631921 -0.003082404631853049 -4.7746853582599386E-4 -0.008412982608173745 4.791239344671914E-4 -0.013626318732767312 -0.003281053943596553 0.009735971009919579 -0.016496159642068003 0.008427881699815095 -0.00303788113121466 -0.0014142724950156514 0.0036723575480176016 -0.008557212541001244 -0.009079871412544701 0.0012112227379035465 -0.004802437972033937 0.004267306376972005 0.008318861170872011 0.005941367253360864 -0.0022966131692181593 0.01912277834647314 -0.004114639674822108 -0.0053319671558717426 -0.005636489811117819 0.003206393826303281 -0.008386221940164437 0.0023056051925933476 -0.0034527321901962225 0.008034675565605116 0.006003972263000733 0.0011596048546355883 -0.0053033517018358615 -0.002035834771949236 0.013631633182370224 0.005553887654695093 0.006373473491892987 -0.0086838483754107 6.9719415812643E-4 0.010697237749548043 -0.018520971542264775 0.01177097680568752 4.611930571633871E-5 -0.10431270803583052
0.11251785400733903
-0.05696398219949082 -0.040220758103731234 -0.017944154427221443 -0.033349272837152104 -0.024967005323140487 -0.020940615665158927 -0.026739815158701902 -0.013990893946323748 -0.03010253188598282 -0.04877951714128585 -0.03667757446338296 -0.05759281067057109 -0.031409155221074465 -0.005310250964415135 -0.01131865715846217 -0.043961016684392645 -0.02112036029422207 -0.02138795811617643 -0.0218572499547539 -0.041553006457426246 -0.015410612923604473 -0.03830891559980534 -0.06788883659223778 -0.048699694752310174 -0.035156801789836586 -0.028499300867468207 -0.01881217551733882 -0.06618705516055673 -0.005718428023579418 -0.05201826631270667 -0.01814539503731505 -0.06014330772551999 6.172472067095471E-4 -0.06757011523998402 -0.08767343535497017 -0.02487703407339703 -0.03506883972704874 -0.04060708838733755 -0.01170580619950341 0.020610530320853776 -0.020623389107865785 -0.03822481594416898 -0.04571388580799854 -0.04367337640155931 -0.019243011998370644 -0.03586695011627894 -0.02180819353114701 -0.08827873561018938 -0.05493621800827803 -0.06172263440376913 -0.002756960689757202 -0.05444336181378621 -0.0014846874156384281 -0.039670078368911225 -0.06775040798337928 -0.0642552770221417 0.015594986217699641 -0.06684061241832255 -0.04612327335593519 -0.027184527482194173 -0.01778349642363572 -0.058340165435502085 -0.027824870015250767 -0.06349978472935167 -0.0302082965785357 -0.059089624060875645 -0.050816527114802175 -0.02827995806834113 -0.02055001066158434 -0.0464970410779856 -0.0549221234606431 -0.028807169456242662 -0.027731285860624347 -0.0780093704428477 -0.05431618235431763 -0.049468002915257776 -0.036544129965894 -0.051797090720309594 -0.054327397555094234 -0.017356290066128967 -0.015693437733645725 -0.0488327224676518 -0.027262449811889296 -0.057150571442828306 -0.03755892119804044 0.006625477417454293
0.280720429622294
0.010288656404608092 -0.004480025531290197 -0.002238518571216999 0.0038137496728852523 -0.017642532186967423 -5.085152732213067E-4 -0.006488235276231335 -0.005480292955451735 -0.006445248504361734 -0.021552231256049714 0.001105444392473052 0.004521274446214646 2.932933846166421E-4 -0.009560650042918239 -0.00784667363713776 0.00966341517231084 -0.0070245546382483245 -0.016684162364750312 -0.004411609871213067 -0.01167188495858385 2.6879657842220084E-4 -0.014015944931180383 -0.006908653685027968 -0.0038069099065065454 0.009997482985379086 -0.014327956341643668 0.010080212141509488 -0.00877581662524876 0.0028251060545309574 -0.005927328914730654 -0.014206397874829 -0.003347317973491818 0.01649354131000354 -0.006284105518098397 -0.006314428866219737 0.01372717666709115 0.012182488856916918 -0.023829547535062088 -0.006838236048222442 -0.015034979733932873 0.006678578711928836 0.0069475541749415325 -0.0018937719497564573 -0.004499497622582974 -0.00336403424981533 -0.014637707436128808 -0.002011460970094501 0.004919903122624144 -0.004820205139477236 -0.008529509940924945 0.0026946473447324033 0.011520380799524896 0.01634200027437514 -0.0010700518038120872 -0.004153005343030749 0.008603844323268958 -0.0011036760914599748 4.013038122139258E-4 0.014991535608333472 -0.015356749754988555 -0.007909342994514311 -0.0056310032958649175 0.01099495340096207 -4.971254921969234E-4 0.0032114126546041667 -0.01874302170277617 -0.004171514491773212 0.006811374399709834 0.013905061443532745 -0.017061964013618397 -0.0075784399147291 -0.007288586828908327 -0.008324763221252883 0.01550296768899839 -0.004645520410873712 0.003756311717607748 -0.002523499764157227 0.0051064816824319525 -0.0029535796855674154 -0.0019735845538210316 -6.308126879023427E-4 0.0074031409382667055 -0.007845574642190425 0.00382431458622277 -0.021476881664722745 -0.09604374863278632
0.12344007010017598
-0.012259039518925579 -0.00825882601723851 0.00524820503280928 0.0010921517776409065 -0.015610698147443338 -0.0016176276074734608 0.0024650238101259097 -0.0018730597855218692 5.771358414140363E-4 0.007952862915384381 -0.004421885326967131 -0.011538030047532118 0.011055438092686592 -0.010362206109310173 -0.002234714078527817 -0.006279322906270959 -0.0035442938268568955 -0.003213241826300205 -4.1806735019979103E-4 -0.00790650981778833 0.008462750962375481 8.213991600637186E-4 -0.01564660671795687 0.007560540034445079 -0.008141700797753408 -0.007990358744561733 -0.009500440920513125 -5.694343404310068E-4 -0.007477201371732856 -0.0015858655776971593 2.7409188675646124E-4 -0.0036208335462795554 -0.005369652200325553 0.008236030393054487 0.003780072571840334 0.0023120297640907474 4.5439924619463686E-4 0.0021763303133606163 4.13781086167542E-4 -0.005021565556054736 -0.018626126598103206 -0.010692454519241805 -0.008552833816271754 -0.0019761449353981374 0.008236233832658498 0.00324272352704319 -0.0027877515867014077 -4.746060028279827E-4 0.007350408669965284 -0.0021843582273564067 0.005272717392512688 0.0030646376082760613 0.008265622657912855 0.004915128239947434 0.00594396055968841 -0.007406945360222431 0.002363402879689779 0.012470863121120723 0.0064441094248655776 -0.00904270785484815 0.007734331471886171 0.014586732337672591 -0.015270336369346329 6.447624707377086E-4 0.003880649970328169 -8.175547929775206E-4 0.00873599302375713 0.009168465945695488 -0.002362510098348496 -3.745765254125032E-4 -0.009994744372669487 0.0019924969593528683 -0.006783006196124526 0.013693693449867766 0.004677136624006743 -0.002676338962276341 -0.002707322759998115 -0.002943967213448403 0.004258833785250542 -0.006013142108731928 4.425711802862464E-4 0.014711081674724617 -0.0034902606279135725 -0.011546358074210047 -0.009774896991975519 -0.07446653049974584
0.06960984089257634
0.0019041256048843835 -0.012772697466729209 -0.012007556416527454 -0.0085049197020556 0.0015139497999623185 0.02343678848877976 -0.008934199133164601 -0.01566531793440479 0.025114154956897203 -0.03156246472432145 0.003518710089057285 0.008205012530450062 0.008579554610495657 0.0018299514444112272 -0.010129285522742651 0.021118148478492717 -0.012772113925716115 -0.0028666271327879036 0.01098751287364836 0.0035544273217685603 -0.0014429338718305736 0.00934946148758809 -0.0159673462327425 -0.024550002250373768 -0.006773911736369166 0.01021393444696426 -0.019283384666813227 0.003996202825311428 -0.01925133268946799 0.016271011155619252 0.01765774355983475 0.00914067958972962 0.0026894085220072277 -0.006238665749900983 -0.005549561233039586 -0.01005368242976945 0.008801699844430558 -0.03169655806004407 -0.012640600063803886 0.004252937310986192 0.033963022458701156 0.03152729612288337 0.018501332743425292 0.0017887434625421669 -0.007127851711328492 -0.025572858548186327 6.545781680322828E-4 0.00955966487342682 -0.02259333985883901 0.012871148457097187 -0.010009963488191298 0.009752232986901749 -0.003306664342456374 0.014323790958083017 -0.011171609176533266 -0.0016148929937432376 0.02200334585348675 -0.004252131069871199 0.0038830183259337212 -0.009446787887415799 -0.001526806670630674 -0.025922412020738164 0.021885586472744387 0.033062062977236184 0.02019636853208972 -0.01049844591214496 0.03376627658892996 0.0027945876135926236 0.012482514450241086 -0.0014564280201643381 -0.02341404752141296 0.014964001664838295 -0.006199700004046105 -0.024604890439054027 0.014918315664949711 0.008398158372247425 0.022971047771538845 -0.011708016244087363 -0.0016362331994727306 -0.01822279188968964 0.025134200028704035 0.005409865866771408 0.008615889642558446 -0.0047116262338947985 0.0014474663606766213 -0.25990280904837415
0.2682378631259565
0.004544471430994544 -0.001978225123590483 0.00987489091874933 -7.872588933045028E-4 -0.002007923086725358 0.003937409676001951 -0.008166643208940727 -0.0015439160403190595 -0.007483376561174305 -0.0011838693413823843 0.004400067230554633 -4.3644957867657594E-4 0.011395758956348085 0.01393756446687146 -0.0019047512997961895 0.02146073186334127 -0.003581161562790837 -3.892787046930045E-4 0.0018416026003068235 0.01144270713559294 0.007639294690927263 0.005175244375529812 -0.0028926755799335516 -0.00827824869285901 0.010156719350577959 -0.00195869860578836 0.005372724924326159 0.008915649028009164 0.015602606680133413 -0.003981262709506577 -0.0016036813137924855 -0.011600988158613323 -0.0045151523493307385 -0.015596561876976202 -0.006965053113323948 -0.0028957408180617546 0.01087850510796238 -0.004820772365762222 0.007879916826247902 0.01739428001096166 0.002115910183147284 0.00595820416688372 5.25064196654603E-4 -0.007835200957314568 0.0019479556964581341 -0.008439253522333929 -4.7354737458323015E-4 8.589823218368594E-4 -0.012620887642872607 -4.3841673393824054E-4 -0.014284588931656577 0.0051241261547368445 0.0023858697823622536 -0.01136758147870002 -0.011483278288110079 -0.008343808208942639 -0.00401627508819792 -0.00330820532409015 -0.008907604020609276 0.005747507944402608 -0.004203010062011277 0.004653675830253843 -0.004334051253437343 -0.014682414446961056 0.018775337671951015 -0.007709175573576552 -0.0017697847387126199 -0.004122297872360181 9.698238542913829E-4 -0.002197705008539348 -0.001302553115529379 0.0015798355856640703 0.012686049495658349 -0.004386686059227108 -0.007669283152603829 0.0010499453703846364 0.009243465510610612 -0.0022471054364997124 0.003564139859289854 0.0031862165234257424 -0.0016627918653575099 -0.012398893124165089 -0.008287712697054856 0.0028049018329914187 -0.008262687521031648 -0.11501644753207896
0.13045395788194242
-0.029654943231067054 -0.03292399995801739 -0.025015536829388178 -0.024964406228134423 -0.0178171885650498 0.004615325589960836 -0.004903020659974524 -0.01919707369071152 -0.008659958436159444 -0.019688125490852658 0.002570594638247655 -0.013482403877136652 -0.05080370452997927 -0.010290817229870916 -0.013120151572407628 -0.004673775372167408 -0.0036876852450616815 -0.011539824871952337 -0.016598208784139968 -0.005478905543884055 -0.05292897401496408 -0.020823270091311318 -0.02901826070359241 -0.016398477226849263 -0.008953037429865847 -0.015842423304006658 -0.021781578355377886 -0.03055811957137311 -0.04416270940554483 -0.023861994803532478 -0.012915311984279474 -0.030054068762606502 -0.020016582609904486 -0.027751955988792397 -0.020871750271990442 -0.027686139213655057 -0.013650670824791818 -0.0416194117055612 -0.014777919897533277 -0.006484395475066121 -0.020760409593460448 -0.023645878537797493 -0.0021765733467373496 -0.036292267775177085 -0.04064761659108392 0.0014762908955270957 -0.004356353823366832 -0.036440941048769784 -0.02951078790065323 -0.01697464086380408 -0.015130687162016123 -0.03354635550832694 -0.02285101289540171 -0.003296919404845756 -0.0262579123271678 -0.021473295527952244 -0.012670584535405779 -0.058720888757567244 -0.0277982703041208 -0.024784137260438086 -0.013376735683535857 -0.025455275385851784 -0.006559161450615071 -0.03288776391127666 0.0013008574958338964 -0.021884535873689555 -0.011343333604949041 -2.380569894249789E-4 -0.018741017123004057 -0.011613625286982373 -0.0162857506237236 0.010445037420354486 -0.047859947536358714 -0.04029727470737833 -0.024816545748937872 -0.043609513391828 -0.010836241100039206 -0.04015253232810339 -0.0266463721387304 0.0022901945758222243 -0.03458627177687632 -0.055243294977008424 -0.02256250152718055 -0.01431762595508318 -0.02114335206870858 -0.015506651359252365
0.2491199945288074
-0.03266702670235893 -0.00937652130205435 -0.03589986396266779 -0.02661720655528451 -0.04264686223227604 0.004101948584120492 -0.020892854744802142 -0.029936577807160126 -0.020027384109814538 -0.027003260786497098 -0.002143096182192739 -0.03876713922020523 -0.06862797598398698 -0.016957083386570083 -0.0038991209063409613 0.0038421219181063995 -0.030151517213605518 -0.00784878372649915 -0.037611647718512504 -0.013660717572838777 -0.02191863098841954 -0.03210414345290333 -0.019362934351612456 -0.05586639757581252 -0.006756285835724598 -0.022737475986105336 6.812440969425921E-4 -0.019822928460670925 -0.005034085021337836 -0.03759486736130993 -0.01109680452732326 -0.04568302181707592 -0.013680480270958839 -0.020965870629062012 -0.016663081539420782 0.006971071302349311 -0.01566729063142888 -0.04544073881963108 -0.034887092018800595 -0.006521327624490469 -0.03551876283719072 0.0060951587438667024 -0.04174773271514113 -0.05788571530279649 -0.003782770437357439 0.023871260682030115 -0.008344057095134472 -0.08354933561265517 -0.003165907957703296 -0.014104071476326118 0.020125243360064937 -0.013741967907343805 -0.0523009255759653 -0.07916267262991955 -0.051567575523701045 -0.027114953002903237 0.02167810369514837 -0.07517275115435737 -0.06854487608738004 -0.024846547075201342 -0.024454314274528814 -0.017496724933317248 0.015196526363946564 -0.06971546083660526 -0.036428915517342744 -0.0602055433675579 -0.009744737196357411 -0.03785812790254897 -0.021336620863148883 -0.054965796732724094 -0.056326132598148775 -0.021875366696583087 -0.06671665154172478 -0.04188706110830206 -0.013060186696306307 -0.07830114398533473 -0.047234712464047354 -0.023592365862060306 -0.04352048192403993 -0.02248510575687297 -0.052533851087485865 -0.08744657163018661 -0.013788513700275598 -0.033991612774413614 -0.02669716606901246 -0.013906960045732652
0.20151627455426646
-8.603322241073589E-4 0.004381209138692469 0.024560902942836423 -0.002474386145700148 0.034105900673143064 -0.0018701341096293903 -0.018789267520643874 0.011127603937772516 -0.01012584926827618 -0.0166675961871452 -0.024386808511187488 0.009907096606702118 0.01288059051603499 0.013483995715560903 -0.021716075844521766 -0.02772388909748673 0.014565901992274692 -0.015085287138132812 -0.02182688437337005 -0.007498289767963498 -0.023256611098035007 0.025682756169653747 -0.0034231345816953967 -0.012181572897901047 0.011267228763329256 0.002932558092971992 0.008607685338661212 -0.024148279302202733 -0.011249305997257954 -0.007976531891418974 -0.03741953333194638 0.017845539724076383 -0.0016196353839368518 0.012734168643603024 -0.01553553471457013 0.022739316607948524 0.024886756701760927 -3.2001692240187705E-4 0.012734990456242991 -0.0177957152987737 -0.012137807691860063 -0.0014524791415384255 -0.009207558306523133 0.013152247535754565 -0.006214140380545832 -0.0032600640023496183 -0.009910931833774955 0.014240247519216598 -0.01574639124695199 0.023590729285416685 -0.007284766294624027 0.006688616904613933 -0.010984512332798171 0.014544788574731078 -0.012792141905071604 0.017996559462937788 -0.020986525195264862 -4.754367167643197E-4 -5.2393427521819193E-5 -0.022280037390017254 0.006266862909236102 -3.7501914248648776E-4 -0.015161314152466906 -0.0060041559350476675 0.001699917052703218 -0.018042214571797038 -0.02883542621180862 -0.046986364011764176 -0.007658961542052797 0.014498322580292515 2.2304548866629282E-4 -0.011193076792740862 -0.014743980516528594 0.024232898376477647 1.0614109753432292E-4 0.029928386869765525 -0.023562180233009978 -0.008784723607072768 0.021413765091314665 -0.013715438949033319 -0.02792205280333379 0.004610437496995849 -0.002979952908013909 -0.010926074737851134 0.006643925653172924 -0.19199749506343328
0.22525988381703643
-0.007049593483996607 0.011851899129993753 -0.0011604525073393092 -0.016970442969933233 -0.009650784725088866 -0.0021740636087924847 -3.8450824444020136E-4 -0.02093922076794094 0.028988981137586932 -0.0404584803416319 0.005424424533061726 0.0013703613672341886 -0.00982824331698948 0.025311563586244243 -0.013132054290775873 0.0016339794982241028 -0.018873624659815177 0.012901844847570586 -0.0018562840986683573 0.003061902881616089 -0.007822150939445088 -0.01771288619864459 -0.017574956963674032 -0.019434595704277094 0.010629842167807073 -0.007082735153509786 0.0017087775075777232 -0.02918437048553915 -0.002563587199223687 0.021397058873478352 -5.8014263229971895E-6 0.03572489598734347 -0.02995425114400571 -0.0022353696353233404 -0.0063103486493831466 -7.376538770306281E-4 0.0035223962317683026 -0.006864998045729239 -0.005450960446183732 -0.006451335146071845 -0.030800827235590782 0.004779960544442515 0.008457105410145145 -0.01815249978101459 -0.02200524200073001 -0.006469061069685263 0.00669935736234094 0.009865287066450694 0.015347127471437315 -0.004012651159418922 -0.0044344592786984376 0.01592415351582561 -0.015632830897423976 0.03370381537858067 -0.013960141777512819 -0.009517011506214292 -0.003108968489688465 -0.029497231033974128 0.00402152862828715 0.014077010060612153 -0.0016658574157358528 -0.004367193643241376 -0.010686034884924353 3.1148946159987066E-4 0.0035194714234927297 -0.0011246214198162511 -0.009612789402473796 -0.03223883142441597 0.004936820114373992 -0.007155868632494728 -0.023068904902431832 -0.01008047817993823 0.001594321403965795 -0.01751149784315165 0.014265651413671216 -0.011391671033659198 -0.021286276453639865 0.006993078363819379 -0.003510188905300089 -0.016818230307783132 0.0012276944038334757 -0.011008604722939972 -0.03733276050668616 0.030171437555417104 -0.015742231823179673 -0.11916914405195701
0.14445088319353416
-0.03570862897768723 -0.021470161987411193 -0.023944519205867175 0.0024046157931005134 -0.024326191948381298 -0.010273376890469144 -0.02837675000194409 -0.0057637877396118555 -0.011896444143539167 0.004583969548815624 6.959728283234269E-4 -0.007939909578438497 -0.009731672259831004 0.0010903239201069017 -0.007743886984035549 -0.009610491289211803 -0.02353351727370405 -0.003377111546136422 0.016833393227348507 -0.002328727244541952 -0.014136216260106655 -0.04209810390806397 -0.02532580581242858 -0.002447142769591777 -0.006352659820892123 -0.023146087254595684 -0.029257814136973072 -0.012246925509463918 4.38501959700369E-4 0.002783985892331958 -0.031980951763462884 -0.05141355103857952 -0.02695789042833379 -0.027899288324806277 -0.028092498195590353 -0.009987732812830885 -0.020952934138945806 -0.036199445309131564 -0.02916249200565385 -0.010519328967519267 0.019002579107880814 5.611433418449371E-4 3.19399071325656E-4 -0.010910642046058615 -0.02502789845800391 -0.027841594561539534 0.010997821298585507 -0.024635529422645932 -0.01760972483795448 -0.010397310707654383 -0.003520597562042112 0.006953755347987032 -0.009237049131536543 -0.0012095032073088205 -0.03366918823816551 -0.032814602613228855 -0.007998700398020277 -0.015523783670185476 -0.030775919267745408 -0.019611153679986903 -0.009623844847408351 -0.005982489138547512 -0.006865771174466421 -0.018622702296802865 -0.01220730213562892 -0.017845534855716768 -0.02700063347280608 -0.019861738108854783 -0.01678340381539615 -0.007718349674322346 -0.01528422706512086 0.014627093025988688 -0.006580012651861825 -0.01670731088067558 -0.03723418749038302 -0.0108382023480807 0.01465561978004395 -0.003875850025448623 -0.004770905466372195 -0.0033066497924201183 -0.017328057113109422 -0.0297366819143713 -0.007390078181959392 -0.015818022649611494 -0.003555708249722397 -0.03556837769543783
0.19666024001551502
-0.017328148759248145 3.35799684027909E-4 0.004979409918499482 -0.00924072322781857 7.560627606199985E-5 0.006122513188151359 -0.005153154001184797 0.010043975707397967 -0.009344650508543113 -0.01815870154387048 0.004616744591793074 -0.002815058884283171 0.010103862495803995 0.012658844102124233 0.0028910834410398813 -0.0030440686281492236 0.00995735337749324 -0.008439399469605233 -0.007610588571622404 0.01023116452062729 0.01624557445313266 -0.006781003996147368 0.012594383015288377 -4.8477823434438667E-4 0.007822729181495451 0.009771999384044095 0.012213701258539334 -0.002184496969328634 -0.0061139087341085495 -0.0022393738421600147 -0.010763748193094766 0.027028830371122015 0.005034065087810227 0.0026345577491161043 0.003561756341834942 0.010520611873110397 0.0012106329135800206 0.011164604194191706 -0.012945989285680902 0.00323331658868235 6.924960996850046E-4 0.0023800006962337423 0.02009900984953225 0.01329178957793245 -0.004046153921706202 -0.008889469669668816 0.01305956390404864 -0.01558120298160739 -0.004422194666342611 0.0062543837839950135 -0.007413544132895094 -0.008754785270322233 6.575351526097817E-4 -8.405070199381769E-4 -0.004562949030610821 0.014218943541681215 0.0046657004259961915 -0.003133015046055399 -0.0027399709033286445 0.001311393697262423 0.01492618517233016 0.004143228693159984 4.2647822863574574E-4 0.002562642896331747 0.005466775333632995 0.003135695954731617 0.006773452727285036 -0.0038311532116253014 0.035713227489432474 0.009055744877261164 0.011653248591245521 -0.009955619400055828 0.0035654637978994245 0.004169926000562959 -0.0055167258936507264 0.009672874803183532 -0.003200235454423407 -1.5682631626513723E-4 0.020699261074767685 -0.011394158819393402 0.01014199031774042 -5.477251665470757E-4 -0.0037801619857957642 -0.011641825831524795 -0.010643102110532165 -0.192013001448812
0.23642664099372757
