3
128
-0.004607228719656643 0.007443602884468856 0.005521853312536924 -0.001977937943459565 -0.0032844720232704664 0.02000707964340439 -0.0019630321752312717 -0.0038149268115105217 0.0077345770445959 -0.025683362514671553 0.02366849995152891 2.2625454154772952E-4 0.0032555616656092007 0.02590493139449586 0.008074336600166503 0.011754273821138984 0.0016029659788953754 -0.0024697959931590666 0.005043624491995892 0.013822167628241027 -0.010308596641018354 -0.028660586933876516 -0.0030080420476765197 -0.0055159854976075335 0.0037155413149067697 4.297170462524822E-4 0.028694749505711357 0.006599501150311908 -0.001799930521178964 0.0013894558318190977 -0.006056947879732984 5.495088931890601E-4 -0.0030519871412561534 -0.03265184847048159 -0.02490475926547693 -6.343910178395692E-4 -0.010088630818522317 -0.0017071267149901417 0.004385821855215266 0.007273192600372807 -0.017827829113868942 0.0070517822943977175 -0.002368550627647284 0.013050114998783748 -0.021660171881120686 -0.008247763241686109 0.012944221120845579 -0.003449764738683481 -0.0035165483362106604 -0.010545378087374041 -0.011020671795770575 -0.0021492572695063963 0.013719404171277207 -0.005999295241402379 -0.014389406770801664 -0.01849796738413901 -0.013692766420387272 4.45688993558225E-4 -0.015612921377136393 0.012696332511944387 -0.012856910884519774 0.01648662340723968 -0.00429430515704046 -0.0011351197513864517 -0.0022548276140195176 -0.008125001140581387 -0.01747142946785693 -0.012853618027984058 -0.010313494934309319 0.007520863400012003 -0.004091291966237921 -0.002432924764289703 -0.0010665641627808484 0.0015218040657562193 0.012145020449939039 -0.007333510294036343 -0.008966856500086452 -0.0015396243043857847 0.0024518309762784005 -0.007346518238931265 7.332174035767416E-4 -0.008661486546002668 -0.01828914047809565 0.003781968861957221 -0.012501427059180342 -0.11918879121649202
0.12227820052820444
-0.025153294319287468 0.021245692688619467 -7.184226299450347E-4 -0.028239446242032184 0.012465988446750162 0.019788273018399107 0.0015668928409041441 -0.006632512711514722 0.019805860359566323 -0.019068541552355395 0.020987542302379338 0.004999413547457968 0.00141017383889111 0.006848611711072374 0.015498335872625899 0.010756501661624259 0.012549570911468504 0.021227315600898182 0.013066447010601978 0.009995952582742827 -0.0042222749500925765 -0.021107552868019137 -0.0271848685309512 -0.006402696857852258 0.009341587154361982 0.0010987741931100681 0.008459499750799631 -0.009455716916372786 0.0044192648730823104 0.0049387588771775065 -0.0023146344250796133 0.009825713752195712 0.00926725562689558 -0.013676855042685317 0.014173922300398998 0.02053416117145922 0.0129363062974331 -0.01893093386658765 0.003477011128556899 0.0173374649105786 -0.00755451816630794 0.031323555243716376 -4.0867359118614374E-4 -0.01953466501170399 -0.00815759341205625 -0.00792959107268716 0.030637697166897702 0.010833010047971662 0.005732775276972934 0.013756208819183102 -0.00883847068736326 -0.015774862514729232 0.00824420813299468 0.005341368389024706 -0.012776622828809524 0.004179831787738231 -0.018465519458122855 -0.004163202586798688 -0.013522332598948989 0.009193999940418923 -0.001436671772208363 0.0098666066670124 0.0059113851580906585 0.010112165887881996 0.010439510620204456 -0.006300834908584543 -0.010784086680043799 -0.017929417712586507 0.010473524339869011 -0.009314223631621012 -0.0025608201893207996 0.009207318409930892 0.028457738153644142 -0.018553930276537275 0.007990139000023372 -0.010144915020382091 -0.008585761704729546 -0.025498028375160273 0.01676434539780188 -0.015071724512265293 0.002975478936780113 0.016222177184737768 -0.014080649985249475 0.007206783431854084 -0.02771748957311576 -0.09659291911478475
0.13183579555510658
-0.007470758891171438 -0.009786537468945089 0.005263660822229109 0.008049617025174918 -0.016550973216511757 -0.007052235331824285 -0.016627976580149556 0.005322749422560538 0.001189399316971506 -0.009307944646091701 0.010654691848613366 9.429986924267783E-4 0.00505889407875911 0.01604754159406899 0.007540044889373701 0.02580302167703782 -3.9308485445697916E-4 -0.006364251900181896 4.482265169487013E-4 0.0010283362541476067 0.012216597793025452 0.01125424405703375 0.005474276557896142 -0.0017679962510321848 -0.0018328296233968962 0.011782335273966731 -0.0020593438026385467 -0.0016490061800363846 0.024178883674388776 -0.00726820026310543 -0.001561855188988653 -0.01263250165197301 -0.011438406977685233 -0.0025810628232097667 0.003386758331563323 -0.002451627933872321 0.014470424476878171 -0.011670833258356009 0.014333311266218021 0.009740245356205423 -0.013609162622306499 -0.001995980833324324 -1.6283939146369153E-4 -0.014960689200246362 0.004239476133751744 -0.009963421622143257 0.006819280266093037 -0.006377390212422058 0.009423991683653328 3.744805839584645E-4 0.0020629184223442667 -5.109109026306916E-4 0.009463497124845675 -0.018541247022124795 -0.02102955195874851 -0.006589077326556533 0.008457530726893423 -2.2134470734201387E-4 -0.005126052460062446 -0.010696886661708817 -0.0019307403298854712 0.005787812065185081 0.006185883024072202 0.006462815200987894 0.0020918892974777256 -0.0209114293408362 -0.005824086765522683 7.23063008822469E-4 9.332293968657473E-4 -0.006587563308195722 0.01181728018234836 0.015509900351869806 0.020228684256270148 -0.001838562626902966 -0.004603316262561531 0.0044031983663266145 -0.0023886821122937 0.0076797973257205655 0.004620893508008028 -0.006131440788726502 -0.027365707188857634 0.011093755470611632 -0.01654898850939313 0.005205558552935639 0.0018032612345856782 -0.1328705372946409
0.14425959850899364
-0.025636010866199863 -0.02267482795285658 -0.005663758583178672 -0.03631953938675251 -0.006260563452799427 0.009152071853571362 -0.01611418928289906 -0.01165708635724621 -0.016120299726690417 -0.017452222863779232 9.646332380923764E-4 -0.026982671907567132 -0.013057047878160453 -0.023994420954975913 0.002302523445313266 -0.0025957639462380437 -0.032529756474916106 -0.018920626343396283 -0.018234788421216595 0.006005134365725703 -0.02393135313189624 -0.037178974415763094 -0.04803235081702632 -0.01792609585274644 -0.025275611709162687 -0.016245946247565195 -0.025023049110198196 -0.026104188888953106 -0.018774330400872726 -0.012065152997493661 -0.01614530338598111 -0.023336774553701978 -0.017659617720658383 -0.039249645749569066 -0.006692332490011104 -0.01367146733874544 -0.007119642037486705 -0.01314702217295789 -0.037624884483497045 -0.020270062851842283 -0.006242887162344879 -0.025075277801529672 -0.012341362086367316 0.002741088980467467 -0.018749157214522385 -0.0037327588446168245 -0.003032137849239123 -0.03438563178492528 -0.007120055140148859 -0.020558920337285017 -0.0078104149619870385 -0.008296414383637244 -1.3409054758087993E-4 0.005145778116340103 -0.037652010882861964 -0.020295874816124368 0.003255038880204137 -0.015355429784563553 -0.024858997271974707 -0.025587883391752296 4.7072802590994727E-4 -0.013461136741524101 -0.012151885086581597 -0.008709317290196037 -0.01373095066039511 -0.01572171165304816 -0.003006241279861263 -0.023689312276398766 0.0056281530548019185 -0.005259091925895589 -0.03183676938945788 -0.02176904287893002 -0.011218989726273481 -0.012884570437253075 -0.028943027914070916 -0.0034214844529785113 -0.010358715572564748 -0.007923817173351345 -0.028483021806766495 -0.01775770058415509 0.0018650759351265143 -0.03404083519468446 -0.011305707187419547 -0.0075861992763554655 -0.01866036805072591 -0.011492742884627063
0.19519127305257802
-0.012268316344534931 -0.010407596732773566 -0.0013002746917995366 -0.01668240719301343 2.4359335308782727E-4 -8.902983340429006E-4 -0.007984260652822511 0.0058015175652028385 -0.0013898869008202328 -0.00996140335960031 -0.00758313097049061 -0.0010733137904031134 0.005789358128618595 0.005629268545706133 0.001969613654633618 0.003568199443966401 -0.003275708344498677 -0.01687334494241198 0.004214359067218376 0.0027647885424492416 0.007864822268490362 0.0020985717418339363 -0.0076131776593475475 -0.0051275994524793925 -0.006646262809813539 0.0028398223793435176 2.2617003483480728E-4 -0.015344354946251628 -0.00549614143982728 -0.005375981622563735 -0.0036827021110245684 0.009150851285675714 2.3016539840001697E-4 0.004905203850296049 -0.007152147324510812 0.011488076930183609 -0.008670130342056761 0.003124140917895323 0.005713373601044892 0.003929988562048456 -0.005170386603758508 0.0022422253085956196 0.005806799354075379 -0.0036502232463121367 -0.001246188227007612 -0.003141811213818739 -0.0026192045702035623 -0.00800045292954346 8.335567433163465E-4 6.58191470145186E-4 -1.287422168388385E-4 -0.0021504690308362185 0.0165552278438496 -6.711500915147501E-4 -0.018178406529347015 -0.0029878053264018674 -0.005548224837077411 -0.0029765021307385678 -0.006222380068268025 -0.0011056500740972718 -0.007430397393118189 -0.008574409078090688 -0.0011592680914802858 -8.757161150356706E-4 0.006115023082970775 0.003093807170174867 -0.005324739571525787 -0.008166174470524309 0.009588359488779473 -0.007436394373212042 0.021182733298163323 0.00871980207525796 0.00560380879087407 0.006000379230296131 -0.01163440575503244 0.006897742751728485 0.0038392168922275977 0.006453082360643069 0.008673796675464415 -0.011160455284342294 -0.010803965637112105 -0.00464269500515789 -0.009943148538025796 0.007921827432740784 0.004164784937762912 -0.07805396239430842
0.084715047088239
0.007531513067037572 -0.0011497557947995412 0.003173532185209639 -0.005373499657416733 0.0070427715860285475 -0.010914385568769802 -0.001319867374674957 -0.007586826566131989 0.005057469019438601 -0.009796232911823287 -0.010928221526244258 0.00197358577096395 0.010751391247902588 0.007604353761466146 -0.005701347423593858 0.006474476230096217 -0.007507200526107197 0.0015564115538471573 0.006158067963793613 -0.007719574245625518 0.005824527751371168 -0.01271294404327395 -0.01148836785249593 -0.006679097815576053 0.002892600399600395 -7.119699379984591E-4 -0.0026852662457008095 -0.0017212632785083264 -0.01253171726786355 -0.005699079416902142 0.0019943422286822837 0.003456615087109388 -0.006593039736666726 -8.328170095138385E-4 0.0053727596918719785 0.007388905148145106 -0.0010002988654695456 -0.009687929596076367 -0.004079269655860094 -0.0053843205461244015 0.012047818355918205 -0.008603572583872728 0.0023905725538473617 -0.005487766145451503 -0.007903281748512769 0.00806926511116111 -0.0036363865851740777 2.347847091897128E-4 -0.0023658203888499434 0.0023925670408689753 -0.0028933957131469868 -0.008821341457869603 4.2277480107199346E-4 0.00494710744865839 -0.013969583351798457 0.0013688583860522073 -0.005592632995006908 -0.0035606972410908142 -0.003334965496746197 2.575851777019456E-4 -4.98538864122558E-4 -0.008455420239885492 0.013149695875714209 -0.009725687251396938 -0.0047297434462587095 -0.009259544409694226 0.0012294013148884373 -0.00988475800996535 0.001078307029331379 0.003333639621597558 0.013670129906470674 0.014876236930203438 0.005566737246249089 9.678808056848107E-4 -0.010642541213632534 0.0020899627281014133 0.0027322157208566674 0.002683766740722384 0.006633753800416563 0.0022699259543659646 -0.002878540372753953 -2.8591893518964005E-4 -0.01136602225734709 -0.003840706370547007 0.0037946970831401867 -0.044615462997536944
0.05260123882864522
-0.012976805303697015 0.00800013655342217 0.008313946687342054 -0.002547120864153072 0.0038291264578231322 0.003911623481038709 0.004735861325646526 -0.0030655932307504796 0.012654320910972844 -0.006275151993352221 0.002314950951039502 0.010961925142691502 -0.010760053374388179 -3.271234935744223E-4 0.005257088813009097 -0.003725858527494953 0.0023895987632199683 -0.01499847525221814 0.004626744097687754 0.002781838551773487 -0.0013149153707741684 -0.01728865503768027 -0.013612764232642129 -0.011325448091636112 0.011887520768310064 -3.114391675130008E-4 0.0027960721924510028 -0.007388136072365655 0.0016227208879263902 0.0036155870872695973 0.0023172074593750154 -0.004627855453691293 3.7402378923480714E-4 -0.011022611674154878 -0.0015457568815910102 0.009935208678561961 0.002659036774743615 -0.004396441601958873 0.010258171463355852 0.007537158437561674 -0.007788672519934067 -0.005900981128449488 -0.007211319882903685 0.003943180294262125 -0.005500012883457416 -5.338628719682269E-4 -0.010239300574511794 -0.00899543457010865 -0.005469288692123995 -0.002131583300924711 0.0037016542565340782 -0.0010579817656549923 -0.00429122873813435 0.0047901335539477004 -0.012514477323206541 0.00485439932556906 -0.004294150095881861 -0.001459086414517624 -0.00862844600820954 0.0014549704387671915 0.0027898192070701542 -0.00102937434959284 5.449794956668607E-4 -0.01327514863323383 -0.0035002508893078694 0.004564462478706739 0.0032605188912894333 -0.013672613415347855 0.009750515214240344 0.009091370379803882 0.003246047471468139 -0.0037538563186829185 0.0032455296085308646 -0.005580976704433749 0.007549630119793965 0.00565203292553678 -0.01391896780887837 8.845411628238827E-4 0.005662754209721082 -0.011560327792092024 0.004681395277473705 -0.008721760627591266 -0.014848316912819858 -0.0033595369334207875 0.0014771647617467785 -0.06642043673278535
0.09021084033060042
0.0018657837055245196 -0.0011484256653893118 0.010943559098589867 -0.002707035426739096 0.02044806384803617 -0.002501182589082442 -0.0089722050692479 -0.00411272655335268 0.0050898854264025935 -0.010081008321270292 -0.009614841863549847 -0.008215483863780045 4.4506836117454965E-4 0.0015762868499225552 -0.010534999334483697 6.375420174089137E-5 0.0042635400933249915 0.007193911833159887 0.003909920558477837 0.009385654392600296 -0.005557265926214597 -0.005320039564215142 0.004567711483912121 -0.006712129995811098 -0.01809422860626264 -0.010598722525765186 0.01996007189105148 0.006338222866474095 -0.007738169605144455 0.0011863380074696465 0.0031057874237819983 0.007319714892811415 0.004591105983777254 0.007390995041201404 -0.01104678506323068 -0.00416513834775823 -0.009621634550913898 0.01105020538231114 0.021348889802907372 -0.009647539043409193 0.001547685877446853 0.00781906407553267 0.010393475402615229 0.00695071413637747 -2.9422984494248687E-4 -0.0027486763514979304 0.0026737982336490916 -0.004620660669634926 -0.008399154522880498 0.02183955090944912 -0.0030904076992550066 0.009754875562981118 -0.005262781737887964 0.011283109835327864 -0.012774606118985834 0.02133290289522757 -0.0013181272051616963 0.0018686060278428384 0.005769388118255411 0.020659686613678306 0.001234151276274347 0.0019748283441139904 0.017993304701478037 -0.0029549166619052803 -0.0042411659576053525 -0.01814986967128647 6.84895893648201E-4 -0.005642320806738306 0.0017708786878876104 -0.002291462741473326 0.015005324482354053 -0.0061992843247257005 -0.01185289554962418 -0.009115744824164588 9.471716223222623E-4 0.004043183116146206 -0.007817706346042346 0.007546488049150388 -0.0027761262819754667 0.005889602486187282 -0.009376690106080296 0.0026895983168739165 -2.2329669650746872E-4 0.0013452075238618748 -0.010209319474772736 -0.1702430170888379
0.23118609475290156
-0.05597196738774324 -0.043745843771865564 -0.04368024789138606 -0.03476503520601994 -0.04199063666808016 -0.02727894671633122 -0.036043870997921154 -0.02244799042577097 -0.03649723130747853 -0.042779023403094085 -0.012978051528905174 -0.03706880375312995 -0.050038749107989666 -0.03682277755291843 -0.025206880402495854 -0.04232030963296224 -0.05848294478087711 -0.048717140048345785 -0.04913799903539342 -0.03481658675218799 -0.03804402145970919 -0.07220407407683 -0.024652669681500743 -0.03243215120037142 -0.05449415569363076 -0.05493827737456968 -0.029571028287868627 -0.054812873606177634 -0.018743919218142106 -0.03656556477755653 -0.07040813750409025 -0.05580907152895857 -0.06465921946209498 -0.0314719819295818 -0.03630125398809055 -0.05818519246200652 -0.05678601872492203 -0.034607276499435985 -0.033765165238079035 -0.02308680387659184 -0.041428767808988604 -0.055205236181066535 -0.05763745398806514 -0.04502235985176574 -0.023331818857562144 -0.052694660233143543 -0.017672867759408177 -0.052347292529657544 -0.052061566211326675 -0.0388940605836586 -0.03556623234368539 -0.027131386511206407 -0.051426276831433505 -0.06324486408106711 -0.058249645940949335 -0.03970213265454439 -0.039920283513379895 -0.05361249046951826 -0.06083018662840377 -0.05106949974866659 -0.01237112124178309 -0.030097373253968863 -0.035882913938370016 -0.05936601289995486 -0.04819451798846665 -0.05591886968854552 -0.02044601501800846 -0.037817470107590456 -0.046712730921996216 -0.02004018362824887 -0.04554853316104581 -0.02285012662634153 -0.04787848331360152 -0.05324495864401851 -0.03314940184045465 -0.049732932310920304 -0.029704986360043366 -0.07670855055938262 -0.04892760088773128 -0.025568633378855433 -0.04663147359469489 -0.04672560800838537 -0.039312597583860805 -0.0354459421242221 -0.046339988220576035 0.0471020454878712
0.24751293723535475
-0.004273486584567631 -0.005518833376102856 0.007979076682088236 0.0025531030842101156 0.006240901806344236 0.009067399902838768 0.0010909706330384011 0.0036438547104099177 0.0032841106787311327 1.7761962094294198E-4 0.008235468558469506 -0.004993368321873599 -0.0035857163801913815 0.001746431144139324 0.007808788400050284 0.010599053143843665 1.022791960725184E-4 -0.01018736307956808 0.009691885266482497 0.003865958675091478 -0.0011381131831670185 -0.006402981000153039 -0.004159726247891113 0.006731748802945276 0.00550840656120726 0.0013061670320509455 -0.0036881744879490017 0.0043005429729568315 0.0033982822773250577 0.007349677418901014 -0.02065818022462872 -0.00438770632066968 -0.008349563794964874 -0.011511606960912924 -0.015801183700740067 0.008361372714732173 -0.0028920428714300575 -0.013136429669757315 0.0037094352151025244 0.01077071811522828 0.00367178578497945 6.37218948192408E-4 4.0957326806278897E-4 -0.005372638092155054 -0.0025481065045889154 -0.012584880545248214 5.557239232814641E-4 0.002641690690597872 0.006797025623124264 1.9264204608649492E-4 0.003979519390210684 -0.004997249295504944 0.002274804620066215 0.0036079406698328897 -0.021076625965383625 0.004879415610642073 -0.0018883112887574055 -0.002725609737616825 -0.007267958765396741 -0.0023222773140038335 -0.010002546181754526 0.0066247376860936 9.111468597048283E-4 -0.01700099312055175 0.0027189670537960953 -0.0031578851216248504 -0.005769786035516466 -0.00221291015167073 -0.00412492957068286 -0.008525244557857052 0.005772030990952188 0.0069536277697931645 0.007841410111452948 -0.0010570106566239568 -0.006736006660786078 0.002637072331298477 0.005917627312092512 -0.00813332825929084 0.00512996079408137 -0.0036900535381457172 0.005494888485387864 -0.008797449885362803 -0.012364129337407338 0.002653455492134665 0.004476069617139992 -0.0762896240789291
0.09574902414094247
-0.004502376583320002 -4.8758095877262026E-4 0.011643698201475896 -0.013614891035902757 0.005880102115616824 0.008233490018392695 -0.017537050367155096 0.01977854266411297 0.0030526501789465183 -0.008409309222758996 -0.02641764793790689 3.380127974298357E-4 0.028329415290803378 0.008967414152956989 -0.009276917864369738 0.01915501786035303 0.0161571226310635 -0.016838497033645893 -0.0153772997834454 -0.006121842429550424 -0.0012318771281013827 -0.001822028092681051 -0.018046809755117302 -0.007747974921962693 -0.0036794184483490877 5.238193452074622E-4 0.00927712606970413 5.897515430902529E-4 -0.0025931110957295002 0.0014876171327781137 -0.003492978033915979 -0.003530537224136631 0.013039757218689432 0.017484493106918058 -0.010970238941265899 -0.008815021353365706 0.007058636950652386 0.018463445513582814 0.023134332682820558 -0.0052185497593221965 -0.014064999710536489 0.010249392266946851 0.00944054657049813 0.008719877305232921 0.0020828104331041407 -0.025727090560254018 -0.007717247799496526 0.01651702699520325 0.023990287190179455 0.015613932314520889 -0.01171108508743557 0.01566188429069356 -0.00346762369900737 0.0023441590307371443 0.00460661422097821 0.011071103460012667 0.018618116842947192 0.004252911554303086 0.004308069655319542 -0.0046966624094590325 -0.007989172272369274 -3.8296424076277415E-4 0.008349285636499178 -0.0052565170921144095 -0.005808495028060934 0.00506740116519514 0.016477315201009275 -0.006030027701774441 -0.011826683947909885 0.0029923895541065313 0.0019172462026747724 0.014716446186173278 -0.002076415269000857 0.009339931240270775 0.01568355823216995 0.021084538474239446 -0.010132226126944845 0.013588774250995942 0.0010731800411378496 0.004899727137812775 -0.0018645825622060782 0.014309667764005088 0.015772433765260982 -0.008833345237440905 -0.025754808575684043 -0.23966595866442295
0.31301174558445277
0.010008909469201415 0.0018223036731942618 0.0058858456224461595 -0.009232653934183552 -0.001125353892233797 -8.419862723843664E-4 0.0017750000361189955 -0.01651181371490853 0.021738025469743853 -0.01635331506546634 0.01039014929108227 -0.007084702165967129 0.004330176103537019 -0.002815087440323104 0.008144309262673318 0.0010081930396438677 -4.989957608055826E-4 0.012793885149172566 0.009448579936043158 -8.67498092816424E-4 0.008748348511599715 -0.011521849906067746 0.004995181668075556 6.378221079273889E-4 0.010774969842557916 -0.0045623734118242455 -0.0010196522393290399 -0.005327327255527713 -0.009745473388246847 0.005531677389923915 0.00567144907869128 0.0027537313533780717 0.005679169565351933 -0.011732416499521522 -5.617804684656045E-4 0.01757247290168636 -0.007790120813217481 -0.01449109462130741 0.002879487635183585 -0.004472388946769387 -0.0184740926956494 -7.16727662024632E-4 8.778287062766651E-5 -0.012410483844481278 -0.018647756169326905 0.005898582438445623 0.004421221825420198 -0.006174602235619087 -0.007433899751985132 -0.010195745773827732 0.0011779487751475666 -0.010457347483454888 0.013133065007295918 -0.00781305997494468 -0.004977649022548167 -0.01016023704711227 -0.005862765718826909 -0.0034149787512317187 -0.0019263155307245525 0.007556236682285313 0.0068994106232473824 -0.006731188061106543 0.018724137392187073 -0.00438506208008364 0.005958893041198627 0.006970176468337794 -0.01108533832240715 -0.013368900389484628 0.0016821253654389072 0.004682982949772426 0.008900549423950629 -0.0166655391768346 0.0066258099212793105 0.01574541436028638 -0.003628405441095609 -0.016083567203975704 -0.010678920000756995 0.006519542125551518 0.0017999213840167074 -0.005813570743623908 0.00837330520535705 -0.01336646880089383 -0.0055301325360780015 0.0039003705614711185 -5.364393171041972E-4 -0.11755402703211155
0.13294462052996145
-0.02428412402360512 -0.006765705499534571 -0.00883036894359967 -0.004177858061069496 -0.011620557178994993 0.006264796639165726 8.01148950197619E-4 -0.02346346944339534 -0.01779544954080844 -0.012012540874834507 0.009975325497746275 -0.025476591606168143 -0.03374151790325146 -0.005002027365853761 0.009005027263929932 -0.00955041825378425 -0.012472350664055607 -0.0030922421567404837 -0.003680971266739305 -0.007963455414392749 -0.029712656645512234 -0.033869039841716304 0.0065974412172844134 -0.009833935796165798 0.005017613623161409 -0.0210040072762281 -0.01663718072533513 -0.030797377002071535 8.032570013067231E-4 -0.007037368100750745 0.005283428741659707 -0.018068012362156036 -0.030702193912219483 -0.015858109623295976 -0.013570922589773667 -0.00905623433805351 -0.0038590115051666115 -0.02757812384728856 -0.030237584922375476 0.009293196557345049 0.008561327145482897 -0.020595541106869494 -0.011657335327334888 -0.013752001674966654 -0.004931407766126071 -0.02523120750827595 0.001286260183234819 -0.006092479059501371 -0.02721597413208415 -0.013022645304060757 -0.0099212199464743 -0.0026764675719801413 -0.002112032526531675 -0.009399104813987286 -0.02301941038489922 -0.015979208747194405 0.004824439349661993 -0.012198678269927902 -0.016003453368244776 -0.022142987446935658 0.010257774546184819 -0.012094320154627651 -0.015117622353557628 0.007131913446695432 -0.014603167744781143 -0.04300014803516176 -0.012721696946589282 0.0034697454564138184 -0.008714515610166939 -0.01512928343600084 -0.03555115406481314 -6.798762809730563E-4 -0.011753956544036324 -0.016931214273016564 -0.008063239877527382 -0.0016366961037183588 0.009042104727379562 -0.0321766451369536 -0.0053318135707599345 0.010258754080656518 -0.028636276977324134 -0.03824807070733122 2.2411250868814498E-6 -0.01075603883164814 -0.008500453987891355 -0.02747939716573244
0.19117809408328904
-1.7187958292208934E-4 -0.024178245621229583 -0.04223173363996056 0.0041546435492243895 -0.03177807277305119 -0.03190367543986168 0.0013497396516299325 -0.050221115253261644 -0.02057652147243982 -0.06391716948980265 -0.0249896143438742 -0.034966313377409845 -0.047403179777264465 -0.021346423648252823 -0.03535679668321968 -0.002160482757050933 -0.05490972454386479 0.004976927135237241 0.0696238408124399 -0.014575403888332018 -0.026564637396200998 0.006119331079134807 -0.04672245541727758 -0.03384095415555109 -0.049835075882289026 -0.01946565930708042 0.05199508940410094 -0.006339759650004705 0.00607635876808029 -0.0047656497474271135 0.0048002728505384335 0.05483691239552784 0.008756785720576712 -0.0238403698262731 -0.02606159840794039 0.010128855789904963 0.03392684865374072 -0.057611695318154695 0.009714862336246266 -0.04878404419547223 -0.0223528645211005 0.02821399692868988 0.034096704322348785 -0.005752441817883658 -0.05370353049685872 -0.03670974404469364 -0.03383976373599098 0.008302182015457118 0.02068156593823417 -0.006163063540221175 -0.06423683612496667 0.00765748862725536 -0.034185250405540345 0.039256968146501724 -0.014407597051150793 -0.03527735172599116 -0.05967047198714718 -0.055640501329180025 1.3279749309646344E-4 -0.015355572609686589 -0.010688417638698254 -0.02294267604888954 -9.163372678136566E-4 0.028117274649731648 0.0063791775384194225 0.010383756107166138 -0.012346601751510726 -0.027864250229948696 -0.004098567131871595 0.004827268637504432 -0.014574874047614114 -0.04859605930234371 -0.014830128890227544 -0.08029762306962467 0.03985731292791646 -0.038457441051300244 -0.08038051917219538 0.023932986798174738 -1.9206015327878937E-4 -0.019278814259709683 -0.001870008066920934 -0.0026323341915755302 -0.036546352235448804 0.02600970775038426 -0.028984699192743036 -0.12652396894137005
0.1011690488229939
-0.012307069509940033 0.0034184437094713443 -0.011762160605927644 -0.004699007310780778 -0.01437547454953146 9.972893271718416E-4 0.008876480148208118 -0.010940712092506206 0.013276592655553445 -0.03428236445084557 0.019357448964783155 -0.014265212472583593 -0.017912411514122647 0.02055372310771328 0.02104565872761032 0.012624949122008759 -0.028606409393941448 -0.038703605550323227 0.02059083358155564 0.0056484376995387196 -0.02503573492460029 -0.011587134873064493 -0.025582091641968244 -8.880901659779674E-4 0.01088330831851393 0.003168512639185944 0.005565694469592448 -0.010087154895315094 -0.005805727058346555 0.027686475619863243 0.013899408542360027 0.0013606569168384164 8.844778088837081E-4 -0.03073795179994375 0.006837434335136237 0.0037591074886236583 0.0011672875984997174 0.013031004207782875 0.00397844509833129 0.0031556204676678 0.005922540206103721 0.0203444365722579 0.019492387552536215 0.013832483589227977 -0.012991853532794487 0.013779806612053098 0.018341656419611337 0.007196695952319343 -0.007294308600258799 0.0011368007236405256 -0.02174487506023165 0.02551297406185025 2.6704088814507215E-4 0.003177168145250309 -0.023984748537422163 0.0028821848843321673 0.01752464586055874 -0.00854109358118321 -0.003599723428655668 -0.015726485480258894 -0.011304097225223828 -0.001136985117692622 3.83337123897668E-4 -0.02530967678889493 -5.467483521235834E-4 -0.007013621907106222 -0.01988511366095439 0.02516507573783441 0.0026261152875384566 0.007310562481932858 0.0030284986687114357 0.04277187064285782 0.007505289206098482 -0.0215375455666416 -0.0024687575262968124 0.0012875844587836858 -0.005010578591505081 0.029817470182879027 -0.03654177681504898 0.014553600226763748 0.0019640266694983307 -0.008482686621549374 -0.01693581426389246 0.024918444399234126 0.0023237691873732604 -0.17037914711512528
0.19791577057451665
-0.01207430233618157 -0.008537502502330497 -0.02172929625356296 -0.014760581924250199 -0.007359171564213775 -0.012460572398432353 -0.024940617068876535 -0.009229362517050725 -0.018781368666675555 -0.010230736108261666 0.0016469308856775244 -0.003210846843545497 -0.02644007569155078 -0.03142184242752638 0.0076246171768087284 -0.018159109912080668 0.02146396658495958 -0.004643103660229863 -0.03168436940874808 -0.028000951279900415 0.009405973292082691 -3.441241372740971E-4 -0.02253200877048045 -0.02270984580238643 -0.014375852296316544 -0.02488271188878852 -0.01957582439789443 -0.03413547517753387 -0.02424635331862555 -0.04075098952482988 -0.009328369641216045 0.01546281617774761 -0.02211471867891646 -0.025641009660834355 -0.01504347967713721 -0.0016723130616671843 -0.02092831378670161 0.0037505481184553443 -0.014169118812790716 -0.024201982049663402 -0.03270210592384947 -0.015289806594304328 -0.006636652116703116 -0.028183595138774067 -0.005849806675822017 -0.022447477422046464 -0.030388682479859968 -0.020205477300479363 -0.008729640613291503 0.0028509684872634914 -0.03246323792690666 -0.04786640172159783 0.0012853312316768591 -0.0280350489606295 -0.016540254898745076 -0.02344564560191959 4.924723005538463E-4 -0.03571624135470964 -0.02227792709502341 -0.011105660700768375 -0.0025450065971268517 -0.021215593908805182 -0.026189279712924 -0.02739714883814361 -0.020421681606858654 -0.03256144655104795 0.007131041747361692 -0.03231991667962469 0.004002266569151118 -0.04787963721776988 -0.017122239668355764 -0.03601889848568197 -0.021076327858793657 -0.016613942849102087 -0.04343064426840496 0.0034119232143728626 -0.020458090100910625 -0.0031568870376323297 -0.04513392022741953 0.01482005891074922 -0.026751718258418315 -0.033903803357669536 -0.010173970917974926 -0.009278747593622556 -0.013947689427957585 -0.010456689954192116
0.16488632433486594
-0.0032622500819397236 3.6065526879677654E-4 0.0017263736899874444 0.005249320787017792 -0.007049614680926844 0.0057857741402392885 -0.0012189384969469841 7.479266538977387E-4 -0.004554971195729997 0.002868724162940896 0.00801518532762327 -0.005538218083981442 9.217689322372613E-4 0.008759061241295774 0.0032416567516289504 0.00719177124173962 -0.0119574442996726 -0.009919050241600917 -2.799247267922864E-4 0.005047242962101967 -4.0831436764724176E-4 -0.006246586096728881 5.536830832364913E-4 0.0053540263841328735 0.004617543045547161 0.002016860222936233 0.0013806130192407264 0.001102497645962718 0.008229310352290648 2.8769439406064405E-4 -0.012030503864133608 -0.011395149771477158 0.001394132979019331 -0.013206604354416954 -0.00922806276017166 0.0031531599482911817 0.0021446407857968583 -0.01382263503341001 4.125782222797356E-4 0.011927382583828165 0.0037083633544394076 0.003936289928198997 -0.0028806008804492327 -0.0029997130387338974 0.003197960942011853 -0.00617752031204745 -0.0014560736286466554 -0.0014411255486961724 -0.007447942233406175 0.0015330140989537997 -0.005025051453353235 0.009040969927340676 0.00668493672716202 0.003951342114657895 -0.01676757902109289 0.0017312687343295394 -8.008553924248632E-4 -0.004752734448509588 -0.010818341351806027 0.0025202935000462135 -0.0023881514082541035 0.012462158613621141 -1.8015306299902856E-4 -0.0116800581584566 -0.005327757915314226 -0.0017470618443410266 -0.003061363576860953 7.079194963914075E-4 0.002348159622139041 0.002011607292934639 0.0012308191282434777 9.442264857821832E-4 0.012666887588310643 0.007623358883783398 -0.010778532574667637 -0.001326026505785388 -0.0017820577555901311 -0.002972067436055501 0.0018953632547728091 -0.008617936740458427 9.104896764056125E-4 -0.004601298868135018 -0.011740636976020015 -9.647508524456468E-4 0.003936077657915547 -0.07497340501881433
0.09460326879041597
-0.0059878143801922745 -0.010752941807064573 -0.012430623076250069 -0.011964331789884715 -0.005646807069808026 -0.005570249853224241 0.006397384421661958 -0.016490260537859867 2.3996527832273568E-5 -0.02731740042761803 0.015018371974539587 -0.0022004226306127656 -0.0036769370909251245 -0.0010348013742609754 -0.002407585135186095 -0.0012284726608195711 0.0029918044159179683 -0.015868626028178352 0.0026340208105777364 0.013542668681453127 -0.0019293200705228215 -0.021638374134624116 -0.004510087342593209 -8.9227970407976E-4 0.007979181778594953 0.007011159155358696 0.014815461328196082 -0.01574199469172759 0.011226942480806534 0.008565098269673898 -0.016466552630238877 0.007722629556209715 1.0461334940531155E-4 -0.015021043984759681 -0.0043433016147395335 -5.4048297938349334E-5 0.007733803155150389 3.73600789055144E-4 -0.004676076697937277 -0.010003500160755588 0.007520991143600526 0.007630618819139076 -0.009710310257653872 -0.01596664180506401 -0.012951128142484005 7.711067049729838E-4 0.023941860529407676 0.0060062217956013296 0.013572095604535846 -0.009930408024774497 0.008318979616413659 0.008944224335892892 0.001017106992615759 0.01368556269762426 -0.012906952669028358 -0.002380095959604404 0.001826206854060119 -0.013938100902024218 0.00118503825615494 -0.007601585418190527 -0.0181579025483982 -0.0012148523187874623 0.012304559546487567 0.006121273247298663 -0.007879292141048967 -0.017863708790716713 -4.8181182968612087E-4 -0.014633182492689975 -0.0034945661683126726 -7.265431607236008E-4 0.012022371817796002 -0.0032125452391335496 0.009624853527897178 -0.015847371034591592 0.005752148796800824 -0.008564830805171468 -0.0036300983178722684 0.0011597661243142644 0.011478193259276343 -0.0067561906494597885 0.01166720865035962 -0.012457532362381545 -0.021933733278330432 0.023444511432588078 -0.016991308275196182 -0.10368404726174066
0.13021597774028834
-0.006316248678301077 5.681072634769607E-4 0.013239506774646108 0.01676378942473059 0.01680692548016338 -0.010048960706493405 0.011181739881745385 -0.004898128696939798 -0.005119506290528702 0.014614857279985483 -0.015257244445410515 0.010136484820151434 0.006723158038377995 0.006668979292262801 0.002253285481281036 0.01260317704405441 -0.019354320196281073 -0.025670981766847137 0.02240152883090916 -0.013118973954025753 0.00874609000935088 6.205619256486496E-4 -7.066132274949451E-4 0.014432040042172689 -0.01698479084471408 0.0027506367909176893 0.0203826827343308 -0.013929892706539692 -0.021955865431869417 0.021798923551087444 -0.0019230950689116985 0.02105584334095786 0.007425903540051614 0.030780815979774074 -0.00753839696870302 -0.0017882724554524818 0.006488649376866759 -0.010422174334067287 0.011568265498783202 -0.018584470638715128 0.0015362265385965251 0.013591636499281993 0.017881329810493635 0.005131277732570191 0.011084103753842486 -0.006700692390533923 -0.013569609592289839 0.01907393935895313 -0.004300229949960999 0.0012202037569725606 -0.009902252739673052 0.028049178801771803 -0.004006490265974826 0.012524674587067597 0.012681520502158138 0.014667183793866919 0.01335904581022233 -0.003851400595749084 0.005528356493545424 4.4073231989614825E-4 0.0016072873358450189 0.011999565715170643 -0.0020402092991458048 -0.00622683872946859 0.006098018840684399 0.005812633871905569 0.01782974180201003 0.004745326411206185 -0.01989865017966868 -0.006962053249242723 0.0031356760658077286 0.01639622261004765 0.006222627606515629 0.0016259700696459537 0.013668296922136409 0.020164603397209983 -0.01620700603779663 0.0011424952165589876 0.0029357115288597964 -0.017560551738679354 0.0094620674597434 0.016818218435424366 -0.004035753077397979 0.010369098591629815 -0.02040635306701323 -0.17601736242124338
0.24611989205215565
-0.012408766243763747 0.004885859128784595 0.012245380294587192 -1.869380702055928E-4 -2.135080310832668E-5 -0.008674101856557054 0.011028699241058149 -0.003418640026787515 0.012542286203216955 -0.009973270305712975 0.009538443252456586 0.01531874990959621 0.011184517562029261 0.003268565575624801 0.012367716643113515 0.005781330896273524 -0.009901861969373137 0.0031833636253637307 0.02217152682873029 0.009589800709846077 0.006469724274611084 -0.014255150738204927 0.006427595778915842 9.007741712159684E-4 -0.0032365864469161318 -0.0011165492780021765 0.012573683797608001 -0.003057702625925114 -0.007942756011699846 0.0017788889578285946 -0.01299984754945055 0.003770035069037738 -0.020880628926356264 -0.012296435733485904 -0.0048435876582081545 -1.5263452713426873E-4 -0.0031403403648285586 -0.013718440106451919 0.005753620926600948 0.004801673484574237 -0.002188731665251767 -0.0017910976921441644 -0.0045143269077206226 0.002556021839058526 -0.013216741101162041 -0.0026466067363761113 0.011487720791743886 -0.012848949678112788 -0.0031737253737151193 0.004075772261283457 -0.009323790429559407 0.007506463155807551 0.005821948093786236 -0.0053083972614708045 -0.007056523939171127 -0.010220012424671375 -0.012692091193813279 -0.003486287882221757 -0.01519655634107477 0.006822901197238376 0.004053777643185645 0.0025592435486660728 0.004383275529312295 0.012268497525176612 -0.010080228968996458 4.824060918496922E-4 -0.007548266726922577 -0.013507741385354884 -8.040200295697654E-4 -0.007649747053007891 0.00671647714461648 3.797666715629135E-4 0.0033564888091628846 -0.002559966897232246 0.00494557107824991 -0.01498404509318707 0.007333907879110423 -0.009978212227051185 0.01385241002897126 -0.01426111455578875 -0.003131506467396911 0.007859271318226573 -0.01476223383148743 -0.0026507791674490635 -0.004509674423811663 -0.11278008307529816
0.13417633701603177
-0.009102425383796681 -0.007279006770924594 0.005008601843464356 -0.030663653938321257 0.0029704189578232064 0.021141533655703693 0.016367818597977955 -0.03593450231824223 0.016784525329243252 -0.044005865134236974 -0.0033258786946374617 -0.01362761476483048 -0.012353928287285912 -0.0046735897028710345 0.008155055520823677 0.035085284967063854 -0.007292520305030148 0.007904595808164433 0.019034301477147242 0.014849502671113618 -0.023853066209011682 -0.028662718134858663 -0.03804444454076214 -0.011578319636296875 -0.03231933447549517 0.00854435706636766 -0.001145702537757091 -0.041056115486150166 -0.014266533698818954 0.010080263491575384 -0.013049424248542892 0.01734445839746202 -0.009820446760743482 -0.03619252549091207 -0.004477588660893374 0.029755796393041656 0.0030482441214289223 0.002014652524350383 -0.039198365291929285 -0.018918353950022393 -0.019906079884612217 0.028111564300346458 -0.018614797303851773 -0.013759057847686159 -0.019800998506097497 -0.005390287215879319 0.023507027774547534 -0.00966898823963015 0.011424123771523168 0.013443636186777035 -0.0012751534031938683 0.008560030007080676 -0.0021974743898057207 0.0350797983039242 -0.0010777880414174588 0.019232625446265653 -0.022634416925392288 -0.02549314357318928 -0.0029879030679814934 0.0242047800655883 0.006556250333640265 -0.01415853890814463 -0.008320518329690512 0.007454784325572586 0.02678895062188817 0.023977737370005234 0.0023273000154918067 -0.032546372236752004 -0.003467438885076815 0.006052682583855936 -0.012327404204250337 -0.05533501370629617 -0.0018745736517213972 -0.008887476175356663 -0.014803444655922156 -0.03250354270376276 -0.012624312262759833 0.024577813391161208 0.0021676498927314294 -0.012123465215352333 0.0054981424278256535 -0.023776903610164803 -0.04401199539785745 0.00929659275226546 -0.029720390764771985 -0.11912771077386923
0.13303146740474062
0.002151420378710653 -0.006116245736170885 0.0028100594193874884 0.0017407360491577925 0.0064000301991099535 -0.0025288662051500027 -0.0024516179325204343 -9.675671882322101E-4 0.005324947164026938 -0.022805892623381077 0.002041160940002877 0.007370570796247424 -6.905677288973186E-4 0.006875743278218279 0.021007333380830082 0.009164200578334183 -0.0041735197423430756 0.0037471468505219335 -0.008113347789539373 0.00522902319567569 0.0017271337151758756 -5.082759266307343E-4 -0.008423364693176196 -0.015482867206294864 0.0019699527034317513 0.017714704344485226 0.002382406368080889 -0.015385489592571723 -0.004189164610617813 0.006701063275532503 0.009008981190925726 -0.008883250141723139 -0.005558550557507512 0.0013959639169677184 0.0073081995717055445 0.011046320287961962 -0.010862340109670791 0.004236250454966882 -0.011724476329011703 -0.007682216111657415 -0.018720774019368114 0.01146828131199513 0.00962981741380932 0.01425224042688381 0.004852957373911161 0.00806891427022538 0.004946574436455565 0.0021171237083579516 -0.0041518447736419665 -0.00552679596028348 -0.00944578228918687 0.01342197930924908 -0.011487065034743216 0.016952313308135368 0.00849487172056254 0.014699740325962588 0.010617564517184623 0.018549735030116303 0.012474376795463985 0.004469958015239564 -0.003597498849564188 -0.0096960990955728 0.02325049804672327 0.0029916241393958417 0.00728582127480999 -0.001590284182234317 -0.008536512879978102 0.015168133447548995 0.017050995034171422 0.018672125983966063 -0.012059163356586973 0.02596463984304429 -0.005699319221099404 -0.00724041816500192 -0.0061579726356316925 -6.643336999885185E-5 0.003303156871262624 0.010347928962141062 0.00582708053144547 -0.010876936628811857 0.011763895397571592 -3.2965417461122703E-4 -0.006737926233576375 0.012552271535243029 0.01257861936263576 -0.20688715411540476
0.2562788512862716
-0.03739716830337085 -0.038297983562903835 -0.032965795303355354 -0.030517183499075312 -0.025449851618868487 0.008019339704625657 -0.02305461069071848 -0.005954780931944146 -0.017046575954130894 -0.02243293794361763 0.0198441093624857 -0.008388320430017963 -0.06580124669896058 0.012270775439329267 0.0011960329623958415 0.014528214164249606 -0.009512680007399592 -0.006725745074747627 -0.020181020811763546 9.483423646790872E-4 -0.03270737729710132 -0.024086794585440004 -0.04247212962040517 -0.033624575910612554 -0.031474076852331376 -0.015451906876839965 -0.030780110228019623 -0.05511096042248746 -0.02612629295444702 -0.04695287097188166 -0.015419301810219787 -0.047667343807659725 0.0028650629649747553 -0.015605234833805758 -0.03381998140685386 -0.02150633775132297 -0.005025792359657815 -0.02585002433146776 -0.013053628955446116 -0.003472842158396477 -0.016212417232313935 -0.021134778255301127 -0.023647980609774903 -0.011721354592929905 -0.010594582459252214 0.010461976539243979 -0.02400909059349921 -0.04121224910122377 -0.023665778299973114 -0.030809797727570518 0.02221768809021916 -0.015864427842865562 -0.028888922292260342 0.0011330139445203825 -0.01805909686465983 -5.337468986512498E-4 0.014683034686518827 -0.04161861446830213 -0.03182004576982544 -0.03437667620001349 0.019550142743758894 -0.023769129999647663 0.012096249053179403 -0.05011205865770451 -0.005048136064300382 -0.02488372085273878 -0.026639664516087628 -0.010075069056917635 -0.005757675253292993 -0.014307772387099972 -0.0290127316278092 -0.01775535297312517 -0.05729812257428588 -0.03573400256018219 -0.02903345044414823 -0.04052711975554162 -0.024742546312928316 -0.028086529338399127 -0.019261633443736506 -0.011293868142563031 -0.020213618276194733 -0.07083342575483903 0.005295068880665796 0.0011196455929736802 -0.02857344085952084 -0.028679145115604765
0.239197625865078
-0.05771645377212931 -0.046007406858419135 -0.04222113343683982 -0.052121898085533545 -0.0316261998961787 -0.03871278573637932 -0.03862622178731358 -0.03130337587975437 -0.030496887427715336 -0.061167330840572826 -0.0453921164369851 -0.0468079775000257 -0.04484963032649558 -0.03441822326849309 -0.03580218281262826 -0.03140514654071035 -0.0643556891204899 -0.029356362147826772 -0.033532131628847016 -0.04083177387046547 -0.04950776107639263 -0.058844401076234974 -0.029699327578876812 -0.03764641977299129 -0.03494393328774898 -0.029728843508198044 -0.02798060662096865 -0.04343209628302329 -0.052862790947575955 -0.058029135370856105 -0.060219862309477394 -0.032003810082515204 -0.044706207356559606 -0.02727905869236506 -0.025524251688049688 -0.04498072246517555 -0.037759778082540094 -0.05106544983283965 -0.032349216697744314 -0.05718628457435915 -0.06296426769921093 -0.05179986210315849 -0.029707808128929203 -0.054641338548052754 -0.04300245288217352 -0.04088084140050595 -0.02674111133166246 -0.037457284032527356 -0.053000351852780105 -0.05035163194541379 -0.05295380786248187 -0.04648723280630963 -0.06458385422587179 -0.05593705917894011 -0.05329764507457062 -0.06867274021204103 -0.04541768963126466 -0.048258382039225486 -0.04661973535963689 -0.025071028653670197 -0.04027171759931605 -0.04451679028297923 -0.05298652647719429 -0.03564187510459763 -0.03360922113740452 -0.03645326609948934 -0.01617332289764478 -0.04494753092416418 -0.04818937730857413 -0.01635092008816793 -0.026720131843731544 -0.01318442481115361 -0.054135062871424874 -0.08276091210634774 -0.04275246406305141 -0.05433801692845225 -0.05688834508129393 -0.07155572330726709 -0.04686250049222693 -0.01097821002451873 -0.03454486139393941 -0.07250530755647952 -0.052891107278847486 -0.039652344430585684 -0.033305917334895525 0.04961758950704079
0.2791300043715397
0.013694005234893874 -0.02200908119413622 -0.0029792568800911913 -0.01610609891889627 0.029808870438611874 0.02102222276017119 0.0022458437518375336 0.01018017472646944 -4.6387391232174447E-4 -0.0025900697536520895 -0.004729413437601848 0.021526436280742967 0.014838846011269426 -0.0072543385912686885 -0.008403075632126071 0.012760596465296434 0.034817357093851024 0.019045915972752323 -0.022292022977375325 -0.009853430154550452 -0.011975673026120216 0.04123087518891873 -0.00781761275574625 -0.021233409446716485 0.0038234115675023295 0.012223759409714869 -0.016192293731016893 -0.019254784347855162 0.00569466888626795 -0.02591442899879779 -0.02738285083239022 0.041428506684728354 0.024510338362688823 0.0029202663624200037 -0.009729133807684727 0.005624679015855863 0.017918925205900996 -0.029688084192236605 0.018921603084555507 0.016829139395167392 -0.026363593985136935 0.009248208488731703 0.0041668026397385155 0.006510041700134805 -0.007673743205534755 -0.0068339351434410995 0.008415004041057054 0.010546231582735361 -0.01448656727522814 0.03329338047505443 0.00807200447236719 -0.009414860839199873 -0.016305680541287323 0.004639336530309827 1.5192227484837618E-4 0.0020454593032641195 0.012529227248950852 0.026593258768974923 -0.01915414561871909 -0.020304867336079935 0.012564981021818581 0.006888645724067984 -0.012022298371021659 0.00428070619211189 -0.010708989980525777 0.004900322722841189 0.0049091956699521926 -0.025212417704391706 -0.012442150785900535 0.009420901143065112 0.023537451855974903 0.021213786429834833 0.01350057862054136 -0.012716927686979285 -0.006707130253543869 0.026875427287983613 0.011547816055062436 -0.01653063866547168 0.014665520259255523 -0.0027258487451120327 -0.02413164570936999 0.006938957838444731 0.004357981059792938 2.9230085748339706E-4 0.010484934060005587 -0.2093495521415943
0.25283118843494296
-0.0016071077344710762 -0.0025257406124520876 -0.009306406608378576 2.026494611439438E-4 -0.003871802449117036 -0.0051019833697341565 0.00702782048944312 0.006909712712976051 0.0018176788849987658 -0.0074120540032095944 0.016462721012939014 0.010976388330789417 0.013467260943120379 -0.0066608837098517835 1.691681576856601E-4 0.001962290041602991 -0.010911730576446186 0.003147190966545812 -4.668198068177526E-4 -0.0013558473865379233 0.00663771491636077 -0.004217394371244448 -0.009291037617320749 -0.0012414111250453625 -0.0012777636859842246 0.0024537512975862604 -6.22819712076191E-4 0.0034580431040566665 0.008387674657463774 0.011263839550349472 -0.005008888138660676 -0.010444574717006114 -0.015206731027928426 0.0028068479768982744 -0.018487247057268 0.005039265219064829 -0.0032071301777648457 0.0035663626704442934 0.004874155812470774 0.005580366519322761 0.009379342574165355 0.012554239401680127 0.00446406041592193 -0.0015641392566255567 0.0012344561336440152 0.00673770596076375 0.0041537877306483464 0.002422840121330198 -0.010262402625199217 0.003385790337144405 -0.008486226508195398 0.002929515078689188 -0.01113482927572998 0.005170431583099531 0.00987080820602413 -0.006998316272982861 -0.006707210066873307 -0.005076758395686158 0.0015228309735855587 0.006654246066294289 -0.004111091041072969 0.003530820440783009 -0.0028136870976547238 -0.008203111981572152 0.004932511109192472 -0.006239136343181947 -0.004135195553794647 -0.006436463083525528 -0.01436549715089414 -0.006775082886510204 -0.002282087215517146 -0.0012642348288817965 2.666284847188206E-4 0.008772312437854585 -0.010648971864069837 4.8684035694379954E-4 -0.002614112465464391 0.010289479842797815 0.01772742144984544 -0.006550204649481889 -0.0027733732560258225 0.007669149394054364 -0.011146944791996441 0.006257587842022804 0.007929789308748393 -0.10961747520971628
0.11064939389198415
0.006218212046729813 0.004612138853437564 -0.003424853882028646 0.0017289812072970637 6.306967467093721E-4 -7.173978519752006E-4 0.010518995097444535 -0.004986904769624373 -0.0070322991327101915 -0.006171521847134736 -9.839818688549043E-4 0.005066772715597289 6.213762896606297E-5 -0.0021438959907226214 -0.001095974456386447 -0.004945396102295437 0.00132787469776351 0.0025168775954601693 -0.013233261908754932 0.0021873263721137594 -0.006783901120394928 0.01671208753891907 0.004919405818147358 -0.016954116264129175 -0.0019003545803010626 0.0027415709714214633 0.012367257637375935 -0.019154779747976306 -0.0067903778060869405 -0.0031727430730263484 7.12800837759014E-4 0.004017093351965068 0.001177540449708687 0.007123348335007975 -0.004719186357886201 -0.0016068817522988197 0.010574720187900278 -0.004750347733347116 -0.004793057990588663 0.006362380207551323 0.004076016918612146 0.004473159716860442 0.015430250904428962 0.010529298242731881 0.008548631593068571 -0.008720864991759279 -0.004709193005605494 -8.192685935049143E-4 0.0036151306792903885 -0.00855465962545043 0.0029547288301915997 0.009228931339478582 0.00293131660512682 -0.004624408648093222 0.009121583425681881 -0.0057690044236124735 0.0010650992122239772 0.006626021815781482 0.0032409021040946113 0.003999777118286009 0.005114112323671933 -0.0073046171862494 6.338549804970344E-4 0.005376482936159158 0.0016904946111584488 8.415924851956663E-4 0.008151985105239241 -0.0034286837320288265 -0.019287671972960486 0.005350129125827952 -0.01390366748564738 -0.00375210846341225 0.0019059863586586806 -3.743652056498108E-4 0.0190543010070976 0.016130587759080776 0.0013902153942621912 0.01543115251131604 -0.0016199696021138256 -0.0052458058928644925 -0.0013470149055585811 -0.008193197582617114 6.323518856449145E-4 0.004886450958682161 -0.010018767431976489 -0.1579101685422739
0.3502705016986815
0.006142820580985059 0.005495703093187654 0.00878170370531244 -0.006310697198993845 0.012839413155215144 0.006684073801708555 -0.011938913380823238 0.01932369791876436 -0.015374914593568371 0.0017445110343535174 -0.01449793722552106 0.0019299883702800554 0.003866594906612479 -0.006372100184236288 -0.011897810562155796 0.013152209633443936 0.003893636605086009 0.01671065419626553 0.009587252217667845 0.017388718264722575 -0.00199954107655971 0.024815868373744505 0.01973514149792579 -0.020743791091230063 -0.004284959735391532 0.008702155190947705 0.017915519028688886 -0.003782304157880612 0.0061877305137299655 -0.0011846522282667879 -2.940849331931678E-4 0.00751087320096251 -0.002604961248474646 0.020332965120027812 -0.006630421919008487 0.010060179863884681 -0.0016278854491021757 0.018974589731250206 0.008310060732969178 -0.0025420714982719757 -0.01677029180748955 -0.004845304277526356 0.017845007112286267 0.019945486068530624 0.007441774404673102 0.0047270116113258855 0.017414251274114625 -2.919155770356276E-4 -0.012750707162139012 0.02383805386492853 -0.012871935590359722 0.007132584173283753 -0.01689828690491433 0.003779707576891545 0.008186090371760662 0.04918185107484056 -0.01844196742559714 -0.018994014784348565 0.001662714503552172 -0.003020235782731763 0.014086977088913414 -0.008984962536867461 0.012283450390692391 -3.69784509644143E-4 0.013005649590693886 7.931544338327034E-4 0.016049283298549138 -0.0036358346347804284 0.006525386918779483 -0.006615914270774667 0.0015633533774072942 -0.018331840478573745 -0.019579282357361685 0.015533185648456202 0.008804238430845024 0.011394317477973294 -0.023442360953804742 0.0024293138958079207 -0.007012309083466346 -0.001514498852245342 -0.002511792210544768 0.0062922854864184774 0.007193092042293351 0.0059668530765336365 -0.002015629694468493 -0.2988152967488058
0.41800708421268196
3.071807968506152E-4 0.0062951373493416885 -0.019699374439652757 -0.005590508428094506 -0.012964712551463187 0.0011509482099982887 -0.004676682223215255 -0.02955943263270015 -0.0054614082796120055 -0.011794275493878579 -0.011984886039648545 -0.005807459794180463 -0.018098526262177853 -0.01642578898246004 -0.02460000209590227 -0.013447021235793718 -0.007590791765402867 -0.013574688068440997 -0.01747757966819959 -0.025277891564926255 0.0030935647658579665 -0.006108068155385643 -0.02063372300537657 -0.026560822717577693 0.0067507502980037925 -0.019079397169041775 0.014348374709888779 -0.017087603364369385 -0.024237320826780262 -0.01435863155082692 -0.014470659423887557 -0.0041457336139014474 0.008982319759492137 0.0028364059796951065 -0.00682437511149659 -0.01216350695162953 -0.011213861869143239 -0.014253723162607038 -0.006753353832946524 -0.008275317720020792 -0.008074222281533431 -0.013089566113187926 -0.005205906874110163 -0.0027261518150213764 -0.01491369799763483 -0.02788378633883524 -0.0017510983486282213 0.005874852244779645 -0.0014632691622175206 -2.6144571960453494E-4 -0.01894036850653621 0.003430507121021489 -0.029333138379887023 -0.026037816142477025 -0.0274737491433149 -0.016710405811378514 -0.006819616781661861 -0.011314937849802711 -0.017702014016362014 0.005543645952011202 -0.0032201786813258956 -0.017445449772871144 -0.006725233924447379 -0.018665841696037307 -0.0012324081848243777 -0.022634313355349312 -0.00963188298416181 1.1035180875718739E-4 -0.040514415605663795 -7.898723988061374E-4 -0.013559744474403588 -0.014911493334736525 -0.009211448223332001 -0.009115799493014014 -0.01463443340250176 -0.011489697038358209 -0.019358672864869936 -0.021333763399708165 -0.009013076473101952 -0.003066023937344119 -0.005700772122626707 -0.009273848924187086 -0.01859689755304317 -0.012856059164107208 -0.0195283743874709 -0.02082364828881034
0.19203394153510026
0.00778511251218386 0.0023233858394087663 0.033320492255634576 -0.014095617987908796 0.04320357985277377 -0.0032294972959863353 -0.004909530521216318 0.026459812647706644 0.006458816820731935 -0.015732732492127897 -0.029766813899570612 0.0359532347789728 0.022224716940737983 0.009936282991043465 -0.003883368002319578 -0.013445319608165559 0.017124260385150688 0.009175670785354896 -0.01598488187607901 -0.010080663457262494 -0.021908476575931764 0.040286477716539495 0.003925917444619273 -0.019475442034444332 0.015991515267186222 0.014982964034035252 0.007881470237787125 -0.02283341438418628 0.005423800164478406 -0.008422604880705184 -0.043817270343585506 0.029534805316665743 9.4864926911272E-4 0.00913873486789543 -0.004168724025082939 0.02876679636806328 0.01721849052390995 -0.03063347422428121 0.03494821620555914 -0.007391681369350878 -0.011264638896753356 0.02282239239505945 0.00723136538510658 0.015068098049717024 0.009948929569877444 -0.017362416916078212 0.011776689520008593 0.025362375860798803 -0.03334649224766377 0.03820234340200182 0.010550774946806382 0.004597817494875171 -0.027352514928826177 0.027663351041745336 0.011778467653920863 0.03145205665534999 -0.005727545165919103 0.03067316888646387 0.00603859548318553 -0.04136931997326315 0.00421181088198115 0.014244887380651388 -0.00626762095865967 -0.010380104885711595 -0.019238471338361433 -0.004815169642870578 -0.010988045011935874 -0.0648299409289773 -0.005104209283886171 0.011660920169650084 0.0042526573843569655 -0.004625188400045153 -0.028647960163246434 0.005963261422929204 -7.371396609754331E-4 0.02168666452599537 -0.03127951568299179 0.0010309648094544792 0.01513138578189743 -0.014957219229389944 -0.04078210515874747 -0.003546018997749203 -0.02893835775782572 -0.002462118360134082 0.002743042036292065 -0.22055388161017025
0.30501951319498694
0.013365302421657874 0.011768211900210108 2.637412647927935E-4 0.00328091371323429 0.025542395507065618 0.008431871944122846 -0.006896876397135238 0.014375746292781762 -0.004392079419491709 -0.01701802028809374 -0.014251515773830084 0.0331190428276025 0.007881992876640279 -0.03280628261125585 -0.018615037811696617 -0.006629795590987411 0.010918676822460772 -0.005300123047123161 -0.025119710784451358 -0.010141295082501977 -0.0075826453941148075 0.02147824877182377 -0.01050870485003257 -0.0035496063757392412 -0.007636489592724488 0.011316948215196937 0.0030254217055503273 -0.016360881104712306 -0.018136087589391163 -0.0021490439152442565 -0.01814951911101008 0.028842910500350965 -0.0021841805827131785 0.012515735947238024 0.007444302504188482 0.02700884941320792 0.02751916376228317 -0.00781696653720157 0.014094063815839717 -0.011691079032684648 -0.01255889003055305 0.0023833692551502067 0.005160756659632435 0.005853769446121266 0.014522135279121004 0.00681526748299329 -0.004057200387654413 0.02183257584183351 -0.01702003016487373 0.004494486707385454 -6.206376831979242E-4 0.024116122912052045 -0.012751010877012912 0.03176406999058671 -0.005353041438628504 0.017586408153418612 0.021954079939186463 0.024415667529609185 0.01157486236705852 -0.009882876005072283 -0.031934401096123916 -0.01842271225864714 0.010741925303382287 0.0066891098438926905 0.003981942053573853 0.003258363427554101 -0.004941139785122251 -0.020338231837341694 0.001063595981977249 -0.010209747392489017 -0.0012512998385072395 0.005055940369244912 -0.005212870316990039 0.022317055067422292 0.010261039223859191 0.01817553563704395 -0.005264629252541534 -0.007096033519350375 0.002038723928595624 -0.003568721476476259 -0.02086444307809454 0.006402572470003006 -0.01065376340579155 0.005030791071006524 -0.007357125503615464 -0.21369141565910954
0.30154701559677644
-0.0032594366362316313 0.011143603656899714 0.008637763238240975 -0.006748689269814427 0.008346340180496535 0.00721297961407876 -0.01121547195578568 0.003863541137149812 -0.004566794607221197 0.0021209612211266628 -0.016043191345399242 0.01593018388107419 0.004741849612207832 0.0011777979181126642 0.005424060994332827 -0.004729326742391073 -0.0029930676702220396 0.0018405097946025584 0.01787606482080848 0.003881066239379195 0.004080167085618283 0.0019152599480626185 0.0024807850348845064 -0.001876035134720291 -0.007332043578690566 0.004134420570573943 -0.006036907756354081 -0.006639621320552776 -0.0026841668394550974 0.007342456193531331 -0.01366145691169176 0.01800813725318256 0.0068832993817154915 0.013247407162619754 -0.014706181236270823 0.003840573887100747 -3.650284133055224E-4 -0.011305664858772263 0.007333780189044612 0.003066058821738309 0.0028269907437843073 0.01329039906215531 0.016817148976639978 0.011955965226330257 0.005286521909435037 -0.006591104779012926 -0.0172205311799098 -0.008793709969712588 0.02142420813494945 0.007334787533675044 -0.01819065016131767 0.0029322518526292774 -0.00920274856137195 0.023559819225218655 0.001909415926554128 0.027371941583915413 -0.005391219890549464 0.004635516970167695 0.0018075835087481328 0.0033685441649837105 0.005197050663480166 0.008154265434046732 0.00316621654787178 -0.005664518570281666 0.0072518111270219844 0.007905026146377411 0.0032369393968700497 -0.006541202269805957 0.014571488785754535 -0.0066293905889263476 0.006107962976470131 0.010822972371847213 0.011543477038258636 0.012288362792509283 0.00208238764441522 0.02014905671562725 -0.011442563669569772 0.013034152245728209 -1.398457815591515E-4 -0.0013030973985854706 -0.0166604273535268 0.01300367452748071 -0.009598566618568413 0.013321028900728287 0.022671284465201322 -0.17949512170683185
0.24972754040155887
-0.011016642359745029 -0.009919866589403662 0.005270462255685635 0.0019169619639485503 -0.0026083430726464804 0.004089494707776313 -0.004513189725754281 -1.621672711298569E-4 -0.0022012720364732383 -0.015930188404312637 0.005963986161629216 0.012441590955394667 0.0019253396731676703 -0.0037623381231842736 0.009045387059761103 0.011028503964493374 0.0010208580832274854 -0.0019095405735682937 -0.002382817446620155 0.01852327310599589 0.01399683256765384 0.009110584390635187 0.009707089605967067 -0.0014168787094079064 0.008820533673733642 0.006041516261105008 -0.010289005639678408 -0.010560422737846353 0.010317469196245623 -0.0038349720370075965 -0.017777120022969065 -0.011266051078000114 -0.0026737987231222646 -0.02317519160759048 0.01067443344540949 0.011827880945636408 0.004287410455005844 -0.011746289711020758 -0.009461770065613734 -0.01610197441125482 -0.013784123525976704 0.00839977979624256 -0.006245187393570579 7.534272199538431E-4 -0.009197550574135637 -0.004896170284022173 -0.005068790746894908 -0.005963557925833347 -0.00856659084931586 -9.127602263864774E-4 0.0013126092543320723 -0.004350965836166607 0.021840106099319453 0.0013012702605671082 -0.01632275624342178 0.01639215627276955 -0.002641493505581073 -0.008978509356264918 0.012305960131420646 -2.622020519161656E-5 -1.3919318577293227E-4 -0.005299584636132116 0.0010304436845573754 0.017807015557912555 0.008858042897613338 -0.004758394087987847 0.003917329797834949 -0.010362606962010275 6.316708558575884E-5 -0.009034549592099714 0.019240867412694207 0.016050301675368157 0.01744351731893505 -1.1914296890166228E-6 -0.0060619956690895985 0.010472552377021185 0.007841167057609316 0.008839896770853546 0.012903584174982823 -0.016939387350953038 -0.021270467889909547 0.005763966161236427 -0.011179378278820826 -0.005713876018174949 -0.010039292754845355 -0.11729788397362262
0.15109796280137874
-0.030894369769463737 -0.010878138677769005 -0.02094838025810093 -0.018015909377059523 -0.02555252662103039 -0.014515415512677496 -0.01231225223786184 -0.012522365577177267 -0.020133805587655706 -0.014523582710888425 -0.004150408164801625 -0.020509216488187185 -6.760370852254095E-4 0.004652682697463708 -0.017899075810651977 -0.007481849204063627 -0.027516631648431277 -0.031563588803112705 -0.007508078140383564 -0.007197339000899413 -0.010600306482456396 -0.017122793774596818 -0.026693512705559135 -0.0047889777358668595 -0.005637936796459994 -0.02147567786924681 -0.011326452688168225 -0.013439351645292327 -0.027528831155152225 -0.00416753388046551 -0.01853280517509819 -0.003476056887039481 -0.0060101575180769905 -0.022536057168777875 -0.017824917546974517 -0.003263032339203585 -0.014233631888948562 -0.020548308775501012 -0.025862728527674596 -0.009829882131759969 0.005290924314027847 0.019873374682411037 -0.003836288663739725 -0.0235300149366782 -0.0033769490757779683 -0.0017149465594429667 -0.007111501260237059 0.005883443151790598 -0.014171175750770287 0.005443437903461654 -0.019783125541097984 -0.002974122731029276 -0.005203921872385836 -0.02074626459016964 -0.010491146836030939 -0.020240674251097972 0.012318850884763604 -0.004594618897484526 -0.00981349315015124 -0.01319290238508048 -0.009000437714967974 -0.023195319023853814 -0.0036905542256791147 -0.026789270996498412 -0.00875624710520394 -0.01916964669516153 -0.002324893920214165 -0.018356115394262098 -0.0038125112240315335 -0.005238818442739829 -0.003683078253337581 0.0058392229224032335 -0.010351253882221712 -0.005317325141658655 -0.0024369189849121685 0.009226188107407217 3.286216116832204E-5 -0.00609909959561378 -0.010776168755695712 0.004126592956693369 -0.015006569987530244 -0.010006680856131907 -0.003464034802817628 -0.01947029363047191 -0.016970419356772685 -0.024297538851477143
0.20307519922463543
0.002182342034478443 -0.0031722986924435886 0.015113349261606325 0.012288132564346287 -0.01460458563974096 -0.017915024063202944 0.00981899113607692 -0.012633394172891894 0.01148534143717879 -0.07424958809856202 0.03296446812565005 0.00808762942862758 0.01768560312635605 0.0037952690051002726 -0.03700061221465528 0.032037973771438806 -0.009135850618693141 0.009082375981271455 0.010921863992333011 0.03186512539702447 0.018944367054203822 -0.01860763966737069 0.0016241320905095783 -0.004499642441593032 -0.013364171268740389 -0.011732104481516964 0.027547663176346375 -0.0016078282033303844 -0.018100284297700144 -0.03069899020907535 -0.011976671190496231 0.013974557951166616 -0.020564165467957213 -0.029766781501634528 -0.00992334416699334 -0.0027178383465028527 -0.017436106692428337 -0.006837691786232295 2.538021047365335E-4 -0.009163784404717481 -0.01121276677417551 -0.005577467714920392 0.0063610312837237264 0.031949008360700866 -0.026896969537372948 -0.008189701858458631 0.0065305815840604195 -0.02640543729326279 -0.01548681656333389 0.0109380940506823 -0.021467258679976082 0.04434678926546884 0.028154899483895393 -0.01093926943522889 0.012118656717020414 0.007166878483235209 -0.0032739651840849814 -0.02128135518644771 -0.025457276395914347 0.016438558714715074 -0.020331953858330715 -0.005264988190369956 -0.001856685931896099 0.009742559074361074 0.020655755047785093 0.019310502726059678 -0.012683304297276344 -0.025233360973060313 -0.001093703577154116 -0.005336359174719763 0.003982455085786896 -0.041337601408413596 0.007557803194658651 -0.01656085538433439 0.03249874242163648 -0.03868590592402234 -0.013611983975720936 0.023888596461142952 -0.013984696288709885 -0.030446117570005562 0.005120727260730931 -0.010839712458640623 0.0018406075329211757 -0.012168530869111087 -0.0202244043683505 -0.14530462854273643
0.14467914215499444
0.0017463710916169458 0.001857853114790121 -0.006170646829557865 -0.010366157810796887 0.0032584957534619054 0.005481654646954619 0.007225100003395279 -0.00828319504318221 0.0024604253114558082 -0.010136367503513925 0.012624722842893125 0.018162680166700307 0.010946182083202693 -0.00578777162820455 -0.003689017453877075 0.004327228392048591 -9.00249719851985E-5 0.005778135460766776 -0.003599877024327013 -3.235360501273325E-4 0.004552290761469933 -0.005115780534610908 0.006677009132026055 -0.007961348128961746 0.016808084302910697 -0.01188833352671139 -0.005211368297808876 -0.0013030674981575694 -0.0029408236930888124 0.012286752936194158 -0.00718825278741278 -0.005416668535346477 -7.888981807805011E-4 0.001804021280875429 0.003972853212163327 0.0013638859114199165 -0.010436869970743562 -0.004157944506750969 0.007957706185442925 -4.363946027735012E-4 0.0014571616682538882 -3.370671217992939E-4 0.009259456610145357 -0.011834680535999436 -0.0038499527131043054 0.001839440310347913 0.00410227655682957 8.886843449952464E-4 0.004633176961225575 0.0022521729246868256 -0.004864958955128101 -0.0020505031477862194 -0.008607854472482045 0.017717823337742026 0.007770935530864894 -0.0025801227658657903 -0.0024829676016940153 -0.010154591345610578 -0.007849097812144303 0.0051478294209865065 0.0017883660942198533 -0.007135905359113922 3.2120200002027445E-4 -0.007158280871337986 0.007459084466588075 -0.004508428123187333 -0.011622837920240757 -0.008738580492376974 5.300947499024469E-4 0.007459459902494481 -0.0046729583970778026 -0.0074750365254030535 -2.2523663046297414E-4 5.096002971597239E-4 -0.003299541717544746 0.0011731561563324924 0.007022327104902965 0.0018194832763349128 0.004549272830826656 4.70684836045529E-4 -0.0011919072314661343 -0.002273307442902933 -0.013954385832827867 0.010939966905250531 -0.008530785001796954 -0.10686576601327581
0.13177763809794413
-0.03973727791064179 -0.045571483974091984 -0.03951037038997354 -0.030049095371729413 -0.038208026137185096 0.011333222981216827 -0.030981119071251104 -0.0189918370011161 -0.008232779333694415 -0.009833460270135317 -0.004043756854198747 -0.033346537332227255 -0.04726936306855965 0.01799775418548694 0.004230744676667515 -0.0089792774129042 0.0044787673266869 0.0035684417574735052 -0.02787387978293359 -0.01662062497653529 -0.03705866774231428 -0.01652849030053789 -0.028377135000268127 -0.029896761755065865 -0.019036968255581554 -0.007374408962183103 -0.021153155374755754 -0.027195825863209486 -0.021062006274720192 -0.02226808655836053 -0.036889396155983634 -0.06207170433866292 -0.02247858585299168 -0.03903745868769814 -0.0311877684961488 -0.013913038491977432 -0.029088134083929774 -0.030863240143025092 -0.023557417951991455 -0.025339367071519025 -0.027916564141130095 -0.025658887395870616 -0.03381431324939814 -0.011096852961497376 -0.022828680098672366 -0.0010357846501792313 -0.04293213725188205 -0.07616298696450914 -0.042227028046391064 -0.01198788525698877 -0.002931551637383729 -0.011262321916672207 -0.03008459820523641 -0.025897686232637177 -0.034577544601841266 -0.0115081277661458 0.020118838959806564 -0.06558799322170897 -0.04942610500586209 -0.04519401259811957 0.003882712318663121 -0.018769552736818063 0.011656487015543338 -0.06189462287499528 -0.04052506805036225 -0.03843592266797497 -0.008160666794567284 -0.027053869670674257 -7.423095796327919E-4 -0.03962093220717546 -0.04542788926939309 0.009143434062087686 -0.044316448019835294 -0.033878090878471864 -0.038800570452887664 -0.03972520159232785 -0.017135130177668895 -0.03582140825696187 -0.03180572655787888 -0.016022727129029236 -0.04105453520869349 -0.056775269605592024 -0.013475382152962845 -0.014935748295664993 -0.013274532259131005 -0.007569299918295293
0.22165513120096567
-0.035703147709421894 -0.07885059987753629 -0.02300615703716654 -0.04530713527808916 -0.013391210075602938 0.014742670648898809 -0.044131096540495476 0.006434526991621484 -0.012874129262881107 0.004797342317631372 0.0033818051053546632 0.018012546275101175 -0.008311892495554756 0.01826746946396301 -0.036407115075738815 0.01077391358833198 0.03849349302767774 0.004091974588710464 -0.0067916919801226175 -0.0386410970890982 -0.00441772743416645 -0.02940330129415484 -0.0280397222100582 -0.07903322466998679 -0.02014294612464956 -0.016075038473250054 -0.02774483017297385 0.01029432487285026 -0.03165619977105077 -0.022674071280767014 -0.0019414637250136087 -0.04975901938091894 -0.022158101363552642 0.02768629096165663 -0.05554887845019786 0.008561331002047883 -0.01615433706506466 -0.052580066412970076 0.003060942391371697 -0.027773893982289587 -0.004043890658556354 -0.03757339189238554 0.006079549014835378 -0.021862413528732468 0.003573781239191463 -0.022607986268663886 -0.047996051076923806 -0.052724400311962114 -0.02393225971212589 0.015124548738991498 -0.042272862004892414 0.006453622582949957 -0.023268042624502064 -0.049328848356978185 -0.04953447818013281 0.014309723733922357 -0.010667359074914775 -0.04964709789169978 0.021811469455553793 0.009470982605879186 -0.015763605221427723 -0.08034663215832147 -0.01020925926175338 -0.08099042147081344 -0.028056063391897618 -0.019008709729989026 0.01597295186974823 -0.0213667245817583 -0.06650428442999082 -0.04749787386241219 -0.07037314558223402 -0.01441830508309181 0.002090657077972679 -0.09223771517231283 -0.010408114297251048 -0.008033176536600375 -0.022330755549522442 -0.03653215034772444 -0.03960194138070858 -0.026387908501299132 -0.022291484671643713 -0.07896091505916104 -0.07247985043081355 -0.05532184555319856 -0.025084699840842675 0.005004807937896226
-0.020122310558203797
-0.004608595211098103 0.0018672046556564318 -0.012801829155559406 -0.008769387709657902 0.004271172641800701 0.0020292608720517418 -0.0017824262797212801 0.0031801597434277075 0.014768126574594061 -0.025594828463387658 -0.00897133091125456 0.0020778275905086563 0.005572278596752133 -0.0016591046413801055 0.012018066296498424 0.001360894265497523 0.01193169418405357 0.009611743746289892 -0.010565361150100275 0.008773469707283644 0.008487960125563524 -0.0032583832912289265 -0.004807138589026446 -0.004582272394834657 0.009672730705933353 0.0019982002449147845 0.007323055343215886 0.004692764474131329 0.0023268279572853053 6.117160880076061E-4 -0.011269304346559953 0.011804658009999861 0.00553895445459155 0.009025498252410738 -0.01961230986100275 0.007759171652781241 0.0034540181153862714 -0.008645788525235716 -0.011520223337570051 -0.014328177523090738 -0.003962178595621227 0.014285284472157647 0.019273656500419224 0.010869645381173037 0.011399677346717096 -0.0015389593686763125 0.010775020703489725 0.01744974914905887 -0.0047394985573704996 -0.002744462739749599 -0.009672784215913187 0.0059035558897080065 -0.015224302869813175 0.01524231196468778 -0.01421287310948682 0.012360819200346667 0.007227150308798024 0.01021719665598129 0.013008042826927416 -0.007422760166993855 -0.01506786341368714 -0.014854909882277166 0.006612170199941747 -0.0033490273781302963 0.0020094919755909656 -0.0053126898517706815 0.00947996292162946 0.011260488469221296 0.017531195578131042 0.008386829044389291 0.00933256804783294 -0.006294544121855837 -0.008879314499885469 -0.018840275105257227 6.651847062431242E-5 0.014484173196202278 -0.009604470510068193 0.02860165966839022 -0.0029295730704719182 -0.022234604001812854 0.001987405047412558 -0.007282416310661977 0.01889733493720467 0.016686866691720193 -0.020497115134817362 -0.18504302349297455
0.25489378510114435
-0.016573781383530443 0.005049430990986348 0.00227642485254264 0.004479623284325905 0.0028198797089796874 0.00784134707404894 -0.0071692280738766875 -0.004230441559972674 -0.0016567872242835408 -0.001701987812686163 4.8245524909568236E-4 0.013489508267332537 -0.010956562993822454 0.013356353666385542 8.89233180532057E-4 0.008814976990306433 1.657797988611577E-4 -0.00543321101379177 -9.009748429701836E-4 0.017758879004780518 5.798097975877295E-4 0.001479922900105895 -4.1198491284186596E-4 -0.0020647523130556955 -0.00792464435303697 0.010557156029641638 0.008955330318161548 -0.011519963468963952 0.001963995530027003 0.006846228965080554 -0.002554621709925136 0.006460217900907601 0.002847332859372516 -0.016579073343348242 -0.0016393266909404403 0.012564074081931826 0.012356946821201389 -0.005401583683275741 1.0677343822969461E-4 0.006370168779839276 -0.002585686074153779 -0.005982444054187534 0.001402072861058668 -0.003858253415591795 0.004781545692782718 -0.012375428214612781 -0.014376385883267985 -0.0037737575429807333 -0.0074553428735080005 0.006963992317078721 -0.010008332294486272 0.004592204669337275 -0.0027156964381266934 0.009016392839772795 -0.017659811871439602 0.01576358126653395 -0.0014411572196866126 0.005405586310006791 -0.003695715225369069 0.009890360192779885 -0.00461028734446381 0.010598730920866701 -1.8041792375140525E-4 0.0016493486181865745 0.0023703670682031983 -0.005047073337754129 -0.0025647060529544858 -0.005791029664981042 0.0026113392187357026 0.0049923981518409715 0.00897783191335223 -0.0013516225942299068 0.0023883924412602675 -0.015081975093588856 -0.008954563814768154 -0.0017353007596107657 -0.00856063293740845 -0.0017139074903204674 0.010190340302443944 -2.0063313751086416E-4 -0.008597199837066185 -0.004215157533912694 -0.006742444122364076 0.005665209227020422 -0.005119326975802839 -0.10284290379963744
0.10989317365768635
-0.00726983924776621 -0.012456464868547498 0.0010361868185074675 0.0020185194812122357 -0.0021052384566502638 0.004021426200484669 -0.013270587534901438 0.0040208160878165014 0.003906756089276822 0.002464692039266878 0.0019829275508113685 -5.969297771645032E-4 0.00719047813055066 0.010218480775792741 0.008276570673024687 3.2608754717066747E-4 0.004994454857369385 -0.008736750445426593 8.573699110652568E-4 0.006213513805179079 3.038915783423829E-4 -0.01360462973445279 0.007608604100629066 0.010934568502680498 0.006792735281538981 0.0035878520493626866 0.004673538431648851 0.004427605512053513 0.005008996019767137 0.005365094487464757 -8.338760457457472E-4 -0.01318059108579343 0.0035467805806538503 -0.01083042424997862 -0.01830440751724524 -0.0031408793713912047 0.001912024636812398 -0.007215931909846037 1.0327499908287517E-4 0.0037082251476434173 -0.011248910788262973 0.010702174976367412 0.010709843003385048 0.0031435364783808694 -0.0042407294396296985 -0.010269841428682657 0.004372613126151851 0.0027253926916734486 -0.0038978434869195713 0.003870830074759512 -0.004737758491671951 -0.003422861071091571 0.01209597260068877 -0.0031291843166374195 -0.025547553734755486 0.003849644038083983 0.008808579799930348 1.4816296293514107E-4 -0.006773951116926817 0.0021151195152015008 0.0015754488615816558 -0.0023778424948088907 5.168565155590983E-4 -0.012057070927481105 0.0069418266002667355 -0.007337936073320587 -0.006158217004177508 -0.012649831642875841 -0.007716633793251316 -0.017149109349191703 0.0129040202988568 0.009984500009527362 0.0029604640905753236 0.008791037630131334 -0.0013558430971364686 -0.0028369138873781006 -0.007084176343886748 -0.006796070637743002 -0.0012064199967330878 -0.009707688896753074 -0.00995888238882105 0.003019595882383656 -0.013848249396026595 0.0038129051906152767 0.0034831372257709387 -0.08288327692926536
0.08113652189896652
-0.00967628487121203 0.012406299218051116 0.002825309638610808 -0.0062105998169017075 -0.0021617897333167306 -0.0013208156427728685 -0.004901202132614545 0.007850214707297427 -0.005689508296532824 -0.004762348192159624 0.0077420836719903205 0.013639662796770622 -0.01704875864848032 -6.477841911098307E-5 0.008514090572897428 0.0014299929467011024 0.005256055044395327 -0.006142626086554048 0.0011285134525956012 0.00683148740418777 0.005467225924998113 0.010535136708305528 -0.004961482188249153 -0.005735778571153021 -0.008550534900197592 -0.0033369731312691523 0.00786109995132775 1.3589651384397409E-4 0.00781852158650698 0.007542992168844853 -0.005786208407273217 0.010635782973147963 -0.01596781415448192 0.0041675368409456485 -0.004680189248532869 -0.009757531651088029 -0.017801359893169638 0.005753640010098748 0.0025713757367353037 0.018873302840094936 -0.014759942872222627 -0.006183906534568956 -0.004512780412878588 -0.0033708169668236407 -4.258659174935598E-4 -0.008695480076517456 6.192208991894935E-4 -0.01357384131635783 -0.0038371378301511163 0.009785461038006186 -0.016736792181258297 0.007861022034798357 -0.0030202919803260647 -0.001935255266805745 0.003278568440359296 -0.008517512854375398 -0.009157747845428197 8.20611242593707E-4 -0.004861820629445839 0.0034580545473208873 0.007945962056543871 0.005533153450465691 -0.003008193857768789 0.01933030492637068 -0.004076176934058165 -0.005585925363223988 -0.0056689347190456325 0.0029137688378917284 -0.008816362423191459 0.0017272463261188617 -0.003591553640614306 0.0074409998308326425 0.006090886515438261 0.001105248265402407 -0.005399287313343992 -0.0016029613518236284 0.013429908622957575 0.004976219272768479 0.005961881940574078 -0.008683242600065994 9.159094802576728E-4 0.010373288862153194 -0.018501466815706722 0.01143084314780851 6.426470106126603E-6 -0.10452495430984389
0.11249214110768414
-0.05690441806027505 -0.040140163210784466 -0.017393273285400218 -0.0332291452109486 -0.024869139984561757 -0.021078405340942942 -0.026373315160347018 -0.013545986321361976 -0.029905334651571656 -0.048703467524912177 -0.036508453596422394 -0.05754905851660424 -0.03130621335336089 -0.004382520883801057 -0.010780792542418946 -0.04391170097291421 -0.02071516308118629 -0.021354783502964107 -0.021538188037807854 -0.041391009207950705 -0.015148587805065757 -0.038070937593384195 -0.06787173443577971 -0.048677936292097886 -0.03505439748673464 -0.02828390531493368 -0.018580460449633393 -0.06616256148562967 -0.00525028110637622 -0.05181418639836169 -0.01774181591233017 -0.060118992167395316 0.0016574318270836438 -0.06754323456439561 -0.08765292729532988 -0.024620656018845898 -0.03491770498720382 -0.040494369516645486 -0.01143450202512691 0.021694462444404698 -0.020303123313890375 -0.038041693807737385 -0.045441319123157096 -0.04353758635225441 -0.018912452009671312 -0.035654526088583126 -0.021806721396284368 -0.08826031582346335 -0.05490181488421362 -0.06170019961980602 -0.002157789108049152 -0.05436571081396571 -9.793809652557822E-4 -0.03970363477826003 -0.06771930716540625 -0.0641438460142909 0.017275387916550627 -0.06680584571608968 -0.0460869426896912 -0.026934954760168373 -0.017366769497691555 -0.05828642514744431 -0.027645068943299326 -0.06348939703143698 -0.029794176642460868 -0.0589951083880377 -0.050736198132744485 -0.028126783125645236 -0.020528652908166776 -0.04645038062291956 -0.05491260693786289 -0.028630018464765972 -0.02741634076855047 -0.07799421169017222 -0.05424690946915261 -0.0494215712332596 -0.03681343070915854 -0.05174756853518963 -0.0542802599807726 -0.016799714063468058 -0.015243031469368881 -0.04877663210608619 -0.0269184412713905 -0.057131285017214845 -0.03724498779521311 0.013059708809391864
0.28192997054980634
0.011176140718069008 -0.004363348573839264 -0.0029404520553196795 0.004110987060507873 -0.017642352131511628 -4.7690647339225723E-4 -0.005943829852771096 -0.004902774029982185 -0.006445248504361734 -0.021552355411057256 4.5271785758105163E-4 0.00476988767739822 7.62130237719797E-4 -0.009560650042918239 -0.007487631704412038 0.008991388565781697 -0.006570491453997666 -0.016684162364750312 -0.005170559306158645 -0.011328204420990721 5.380246468304209E-4 -0.01354300225821656 -0.006908589389499048 -0.0037485107335107014 0.009794885762648498 -0.014536913664880791 0.01090794822586445 -0.00877581662524876 0.0028248889086661417 -0.006186753154007338 -0.01382579147085402 -0.0038497597783385745 0.01749606379132923 -0.005846861021581277 -0.006283123723112823 0.01458342659833938 0.011688323554107892 -0.02382977193322937 -0.006824095134962836 -0.015034979733932873 0.006422329564905755 0.00726874837669053 -0.0015569420667004051 -0.004027283965240021 -0.003361507435489144 -0.014629669908652025 -0.001015399156076564 0.004840432237711951 -0.00481562657187776 -0.008529559767059216 0.002707497759434318 0.010822907362051914 0.017204422398187185 -5.873315554910587E-4 -0.004152903966308798 0.008544109959378965 -0.0010844918568015212 0.0013810300025167588 0.014865749201054206 -0.015356749754988555 -0.007909609966513397 -0.005626531473097254 0.010764097614448515 4.901311462713961E-4 0.003221148981304889 -0.018741297780902954 -0.00394617761357895 0.0071013145946394254 0.014091734742305472 -0.016624793845730068 -0.007557675319804684 -0.007299742134266096 -0.007914227155420802 0.015623325416116303 -0.004617665114605225 0.003776327925670958 -0.0021668853473426194 0.004710806118474712 -0.0037730835414363693 -0.0019094590432985291 -5.614593713585244E-4 0.007185490155735591 -0.007845451216392116 0.003123025326055969 -0.02148416615153953 -0.0957708135668909
0.12340971520057176
-0.012259031159441268 -0.00825882601723851 0.00524820503280928 0.0010921601371252179 -0.015610698147443338 -0.0016176276074734608 0.0024650238101259097 -0.0018730597855218692 5.771489925778662E-4 0.00795628242152171 -0.004421885326967131 -0.011538030047532118 0.011055451511043484 -0.010362206109310173 -0.0022346973595591944 -0.006279322906270959 -0.00354183580475617 -0.0032132274512616486 -4.135221797427846E-4 -0.00790650981778833 0.00846277779908927 8.213991600637186E-4 -0.015646593299599974 0.0075651189273908005 -0.008141700797753408 -0.007989240224761388 -0.009500440920513125 -5.694199653924508E-4 -0.007477201371732856 -0.0015844875696772055 2.741058648587157E-4 -0.0036207932912088727 -0.005369642616966515 0.008236128329472561 0.003780135570343629 0.00231204648305937 4.5553030522144886E-4 0.0021763391028470505 4.1380025288561656E-4 -0.005021538719340948 -0.01862601192711103 -0.010691276156099242 -0.008552788554520492 -0.0019761257686800628 0.008236278267471335 0.0032428241521356314 -0.002787749138951956 -4.7235641509108054E-4 0.007354753806955321 -0.002184341508387784 0.00527275764758337 0.0030646382202134245 0.008270214925933212 0.004915200468155723 0.0059440190938980795 -0.007406928641253808 0.002363443746697825 0.012473145982218036 0.006448705924820095 -0.00904270785484815 0.007734344011112638 0.014591330302426746 -0.015270336369346329 6.492926711161181E-4 0.0038852638011886713 -8.174962587678515E-4 0.008736009742725752 0.009172996146073897 -0.002362507650599044 -3.7021109273930653E-4 -0.00999472677457044 0.00199249940710232 -0.006779663175949957 0.013698307280728269 0.004677154566850092 -0.002676326423049874 -0.002707320312248663 -0.002943964765698951 0.004259149205466434 -0.006013101853661246 4.425711802862464E-4 0.01471565194990271 -0.0034902606279135725 -0.011546357462272684 -0.009774873636605542 -0.07446076321117022
0.06961099435029146
8.275136925729336E-4 -0.007434685256881011 -0.01139530087501852 -0.007624701886190903 -0.001822591665911871 0.029925292707557737 -0.003557250188095098 -0.008292627112629366 0.021354471318108647 -0.02306728423795875 0.00608356361302035 0.011603015799661439 0.02160751511583985 -0.0013533383294414827 -0.011517832412664988 0.02646912927198546 -0.003404993699230747 -0.0034035860507783903 0.010766808696214662 0.009647083217071686 2.3863315109318042E-4 0.025101985317285084 -0.018652366776458196 -0.02730540485205631 -0.003922693170593848 0.018003463794899064 -0.01516611389119554 0.0036821523575750505 -0.019993603000772516 0.012658395160889607 0.0297857615369075 0.011787045146119567 0.018639651103399865 -0.00824039310615973 -0.0033317770498402038 -0.0122251343353649 0.011152573649981233 -0.024391325880053057 -0.006485436350619082 -0.002118164561747784 0.03102599907195557 0.031837613164197226 0.023713840750634433 0.01860220389088552 -0.009829768129797948 -0.020817952596588522 -0.0024882249453270617 0.007376406109668501 -0.018457078374664513 0.023478705482362517 -0.005096294635123269 0.011402966093182466 0.002266926154165129 0.014415909774235177 -0.0024528512498436126 8.046045894847565E-4 0.025762634222799115 0.008753309851624277 -0.004508296541289587 -0.0016780141573650978 0.009776875900105448 -0.02526839994185122 0.028574261858612983 0.03324199210190745 0.024152645633774745 9.444739103389145E-4 0.032840076492811246 0.01835923207226615 0.017265597355098167 0.0031772312706535985 -0.01863705177318861 0.018695296867035527 -0.006853259745852319 -0.014595909171687758 0.01512328574090665 0.008723563024351896 0.03127832175138712 -0.009485330254309714 0.007099713599050599 -0.017578408988523423 0.022263608255361923 0.011449541564130406 0.013234940604922548 -4.4094852932016916E-4 -0.0015144782701999656 -0.23399272805418286
0.23976577275583977
0.004614789925320561 -0.0019564665762339464 0.009958408046455204 -7.669747871026824E-4 -0.0019345655273630036 0.004025682873508042 -0.00814957865964836 -0.0014545416266183307 -0.00742541975971011 -0.001165317507576099 0.004414277423091559 -4.08000853123724E-4 0.011465650246665012 0.013950480116883301 -0.0018759886135743815 0.021542348915726654 -0.003580915443389956 -3.178154618026569E-4 0.0018755845294681312 0.011520005030330157 0.007700706376169076 0.005253836928806952 -0.002886162035088226 -0.008279111609841018 0.01020192112750859 -0.0019015302375570082 0.005378256055770315 0.008993797681316983 0.015684603200975054 -0.003960039766165321 -0.0015388197594158812 -0.011598053957090569 -0.004500650462172087 -0.015585315388713895 -0.006961706073513696 -0.0028339908645258296 0.010945051344442715 -0.004821201937343633 0.007968804434152621 0.017476817744767805 0.0021675107118298976 0.006020208577148879 5.442706455741191E-4 -0.007787388641457268 0.0019576732886565 -0.008439253522333929 -4.4505528003574424E-4 8.91530190091698E-4 -0.012621460404981156 -4.1994035394138054E-4 -0.014280980974132747 0.005123795013168217 0.0023856318891803704 -0.011373539854071768 -0.011483278288110079 -0.008316172824948351 -0.00401627508819792 -0.0033099731625262827 -0.008893459462454328 0.005759020324221159 -0.004206154481864718 0.0046508853122677095 -0.004334051253437343 -0.014681452607808747 0.018818028025002733 -0.007708226974169295 -0.0017283322886521072 -0.0041228509811007535 9.7892271638412E-4 -0.002197705008539348 -0.0013042807205222169 0.001579549204609796 0.01270115176307557 -0.0043959565934372545 -0.007669283152603829 0.0010457927704614928 0.009245513636185029 -0.0022326070180411395 0.0035897625738160873 0.003187396608053179 -0.001663556071488023 -0.012393030170751437 -0.008287651986342232 0.0028079702093898695 -0.008262687521031648 -0.11491438914852031
0.13047436955865405
-0.02962031385533493 -0.03290133478720566 -0.02495854619147216 -0.024918224134993727 -0.01769747447670163 0.0050025349988786424 -0.00459853396708267 -0.019115506621339016 -0.008486850598852387 -0.019612266079762256 0.0030362047188809593 -0.013404484196833943 -0.05080134889523384 -0.01025369558778793 -0.01299603236746263 -0.0044356306315635 -0.0033918412719457372 -0.011494514261637105 -0.016533205685319366 -0.005387709615944317 -0.0529257730884 -0.02076195458038641 -0.029048785797786154 -0.01627072250794267 -0.008920346830330507 -0.015713980800770237 -0.021759188698687294 -0.030528307745991315 -0.04414964736879043 -0.023793571513661353 -0.012785714934237679 -0.030026403253315938 -0.01990920152271181 -0.027710133719673388 -0.020816515537955525 -0.02765868196201172 -0.013528069382710832 -0.04159570145900793 -0.014649234831714583 -0.006341592034414017 -0.020686432510103513 -0.02356603300598806 -0.0019471801911639102 -0.036270543934993044 -0.04063918047248898 0.001900630815015449 -0.00426928695729956 -0.03641741195176403 -0.029493022709436812 -0.016876098118772043 -0.015050569531378503 -0.0335085320795121 -0.02288829154358279 -0.0030687487885069577 -0.0262216196923825 -0.021400325476850193 -0.012496026652103214 -0.058716805178527585 -0.027744105294024723 -0.024701845157869523 -0.013187904715444664 -0.02534461409251965 -0.006378914895753017 -0.03286580897645057 0.0015103110030117543 -0.02185241796886671 -0.01123385565353533 -9.918939521163278E-6 -0.018663970209886763 -0.011459973006289474 -0.01627046302012235 0.01091158417425613 -0.04784669771364904 -0.04028798633383804 -0.0247477720576608 -0.04357992231852233 -0.010797259164151318 -0.04014638601309433 -0.026575435146164023 0.002732860184788801 -0.03463057972259122 -0.055238722122442276 -0.022509056989110272 -0.014129415320680912 -0.021046437631834437 -0.012509032940657782
0.24971951821252644
-0.03246260027788892 -0.009010243756469631 -0.035766169152414214 -0.026253598916121255 -0.04262042337737545 0.0049655871125555955 -0.020692107312533133 -0.029844907257985255 -0.019616911389673752 -0.026909023610926956 -0.0012379810116766358 -0.038638651983467984 -0.06860359273855783 -0.016417262311813473 -0.0028004467624041106 0.004757541638975688 -0.030051226099966168 -0.007339896620098037 -0.037481870129158615 -0.013404439124852804 -0.0218409051898104 -0.0319988005693492 -0.019218789778227677 -0.055837249087245175 -0.006338556988118819 -0.022576017346053266 0.0021480079523771315 -0.019625370162822856 -0.004394078618405547 -0.03730059246763894 -0.009878617455053959 -0.04562074857663431 -0.013338110041440934 -0.020703838345807836 -0.016199749907030797 0.0076684644880673425 -0.015282103241822772 -0.04534511296009237 -0.03480705967716062 -0.005646395080855515 -0.03548259749674993 0.007205215164547535 -0.041738845018473726 -0.057923627429288874 -0.003556254243890064 0.02647769080330873 -0.007824195585220536 -0.08353522143323716 -0.0026602596658979838 -0.013956131357455761 0.022493516645944213 -0.013246019858918734 -0.05220046480008028 -0.0790968259721223 -0.051454818460361686 -0.026899177073139914 0.024818375661598512 -0.07515515202498516 -0.06852259946281347 -0.024663604811273908 -0.024330148448511217 -0.01721447418452149 0.01664001887378282 -0.06969247420248578 -0.03637403517134457 -0.06016712836477932 -0.009364221502443098 -0.03767904667948122 -0.021192354806733874 -0.05488099084152752 -0.05636629354162965 -0.02134471097062078 -0.06669024020787966 -0.041864972342695574 -0.01261604063154096 -0.07829815519569167 -0.047149860503794765 -0.023434766137060543 -0.04347087006569347 -0.02244546101612219 -0.052485259399827594 -0.08744652519551002 -0.013372741233845792 -0.033895832552769053 -0.026521446137411617 -0.0053738923501860025
0.20322288809337619
-8.266147156316464E-4 0.006793106709495668 0.024891939132902684 -0.00248964686686664 0.03641586682577926 -0.0020295766563542465 -0.018453886050570207 0.013440281040060537 -0.008898664134555 -0.01616845246891688 -0.024355308647009757 0.011677473809346394 0.014759467289702491 0.015626934533147622 -0.020710793932529392 -0.027384998575541546 0.01751619313460201 -0.014989439944077598 -0.02179282961882918 -0.008272381936473975 -0.023922891530016647 0.028283811021414588 -0.0021123724413087143 -0.012181572897901047 0.013204724747189665 0.004747513067747899 0.010148860096240404 -0.02337103534531853 -0.00966795802986333 -0.007998204335737545 -0.03743229200018044 0.01951080108912031 -6.547079545168803E-5 0.015244144517776238 -0.01553553471457013 0.022381185705061982 0.02792947847784217 0.0018428288898180167 0.014806454077568804 -0.01761691509276139 -0.011676414625993664 7.161752517308807E-4 -0.008909308157005975 0.015027683767754638 -0.005213324667353765 -0.002748928895593679 -0.010098135870151292 0.01605348757334529 -0.014492574515588615 0.024595015458793074 -0.006387959228128166 0.0070276643992532115 -0.01093578526927475 0.01658746697792472 -0.010263641612157622 0.020225642770331637 -0.021449742142038895 -4.495783097574992E-4 3.13881240520785E-4 -0.018866217283588713 0.008059046729319607 6.818450698443882E-4 -0.014638420154419919 -0.005818437154486073 0.003852941580364768 -0.015795841023834092 -0.028231476722161968 -0.046969336634493736 -0.007547525901079492 0.016757995215420138 9.1298503449804E-4 -0.010789818491929807 -0.014716083307021044 0.025072770297996642 0.0019554494194831545 0.03221731030107566 -0.023658499129599334 -0.007547727113498306 0.02348981700848177 -0.01323128302246427 -0.02792205280333379 0.005921733438117946 -0.0017841048675549403 -0.011736677976108898 0.00828674825141578 -0.18836582435624522
0.22515961704237233
-0.0063934117186443965 0.011936402370386727 -4.268533859850507E-4 -0.016697762719371734 -0.009235681972666793 -0.0022908050409791874 7.864932197308684E-4 -0.02086329526617468 0.030271539077077563 -0.040825007636688365 0.006578479853857064 0.0018544514380176875 -0.009570427809407606 0.02709798437675211 -0.013497583294463395 0.0027821012424078004 -0.018702584892262456 0.014298552130660357 -0.0018497920816020119 0.004377307162961488 -0.006811023845068333 -0.01744103467108589 -0.016939120010883765 -0.01947759037006755 0.010755348355602636 -0.0057974388897448215 0.002939548163949748 -0.028818361823553167 -0.0021266062438972137 0.02124989361636533 0.001508940119348129 0.037866295675017654 -0.029949167414264715 -0.0019000918573714217 -0.00638224535242822 -0.001137229227062396 0.005307161242477316 -0.005034186874522714 -0.00504108166437955 -0.006286173366534998 -0.03143207521651214 0.00653599384143356 0.010724827602810105 -0.017595365788369222 -0.021974220992577505 -0.006816451390127503 0.006576254709802298 0.01247814370724726 0.017488747081728727 -0.0037318256335404747 -0.0040543053843094925 0.016777286431199336 -0.015102161020478849 0.036444093785784414 -0.013557050974704813 -0.009513626873229358 -0.0029659079291042456 -0.029494666474870354 0.005259113701015012 0.016017995310041458 -0.0013435310917224305 -0.005111810704563856 -0.010638014206596125 6.91885184426224E-4 0.004775906601468667 -6.60471294918237E-4 -0.0095185468244577 -0.032212839566262315 0.006330165653444679 -0.006584970534323127 -0.023046877273567756 -0.010020212160002866 0.0025755911242234114 -0.017066334051792708 0.014323445169750036 -0.011171776783302481 -0.020969132387768 0.007974847075437885 -0.003709632282017318 -0.01678839468571674 0.0019870801437968963 -0.01094301596829964 -0.03706629176004884 0.03169883584357625 -0.01566453036454675 -0.11555862096282822
0.14525590699688884
-0.035702905853561145 -0.02138656038412664 -0.023892912947688808 0.0025570656040614704 -0.02426706698940962 -0.0099223226416877 -0.028346827182232477 -0.005645763810704359 -0.01171374652422899 0.0059639623995544466 8.485215466936995E-4 -0.007857682080329852 -0.009635518775766249 0.0014271070272303351 -0.007114770537828299 -0.009559891536033595 -0.023481428215284313 -0.0032628375083519484 0.018727215192437384 -0.0019868057195540066 -0.014050507569202071 -0.04209648678265872 -0.025190997338268205 -0.0020125930861741724 -0.005930877037558793 -0.023095488961326006 -0.02908358435422678 -0.012172028036599622 0.0012122995923252748 0.00473123835970801 -0.03190514842866095 -0.05140119323324941 -0.02692693478057106 -0.02789171974373999 -0.027851540945764194 -0.009707882549454296 -0.02090202305352127 -0.03618653802645593 -0.02910092800643011 -0.009731486658458738 0.021109229328957334 8.433767241442015E-4 4.883091229256297E-4 -0.01081546423460336 -0.024982227469095588 -0.02782207984230715 0.012103543248567947 -0.024614528399251392 -0.017539027510590194 -0.010197225487468303 -0.003033080629831356 0.00881733101676447 -0.009035587066335582 -9.361904223986536E-4 -0.03364917546940117 -0.03280889021797265 -0.007722944419472558 -0.014979078856243085 -0.030743828233598974 -0.019527561203301316 -0.009392860976357543 -0.005854446138290374 -0.005829241041619511 -0.018591435298233604 -0.012165204615382487 -0.017819737467426173 -0.02697862583372617 -0.019798436520145585 -0.016663625286062873 -0.0075282811591229825 -0.015220530474452801 0.015864915223075638 -0.006504204103492678 -0.01667796860527808 -0.03717518318814004 -0.010769042512196382 0.01510577913739603 -0.0038170292366984165 -0.004578275933548448 -0.003050920536237249 -0.017295460046157035 -0.029714864907561256 -0.007252495890754577 -0.015774250671113346 -0.0030400681821555688 -0.03171131992787904
0.19743165156902706
-0.014148204159256038 0.009781852727821862 -8.395687735650194E-5 -0.0014973527881137364 -0.008516151633654847 9.282993761617119E-5 -0.0033225000287555695 0.0030027678518188897 0.012575824950656171 -0.024618826997387516 0.015453450820050013 -0.0067965450679136315 -7.972779034487945E-4 -0.011615820594470859 -0.005186889965788204 0.006886431448180906 0.005377184427099624 0.005393625476404701 -0.004908806056782406 0.005639461853043723 -9.109545364098424E-4 -0.019652075579726053 -0.004259136365624058 -0.005844596970258448 -0.006052267412282284 0.007146572363754908 0.019275153572731886 0.0029516118748382516 0.0022017104270022334 0.007156550758341267 -0.010817267970107068 -0.0012971848620199685 5.950985836353754E-4 -0.019560836417291023 0.012712008568026283 0.013233592837628538 -0.0059037690098941355 9.581600733260852E-5 -0.008363007774850691 0.007734586221184228 -0.0012669723717845755 1.1933904945808904E-4 0.0020061411043031632 0.0176930936829968 -0.003827924458846553 -0.003945720210648363 0.007458267229508874 -0.014609974727191494 0.0027327303847055396 -0.007734398491777328 0.003622132915947794 -0.004201687641176618 0.0024618152155241415 0.0020562186615518644 -0.005743537646746527 0.0042259749561018925 0.0011764029730982294 0.0029119914644190593 -0.001957308819506015 0.004780914850448745 0.006274651193620466 0.002909262297570426 0.0011691488732756413 0.011479590767203292 -0.011888707766966959 0.008156433598476577 0.0020638722459028515 -0.012044362092371114 0.01861344181007409 0.0025143661250504306 0.00947845892338727 -0.018725304461062936 0.0016383277060010282 -0.0017839160375666102 -0.0030115107832610977 -9.464930379179221E-4 -0.003802007773533243 0.0073528014116621436 0.012890068667570122 -0.02039238007469377 0.0021231966824345216 9.327773240425949E-4 -0.007733020376426493 -8.647273907994368E-4 -0.013493005236838149 -0.09851765531462267
0.12128814650781784
